################################################################################
# Neural network connection values (weights and biases).
################################################################################
# Col  Name       Description
################################################################################
# 1    connection Neural network connection value.
# 2    t          Connection type (a = weight, b = bias).
# 3    index      Index enumerating weights.
# 4    l_s        Starting point layer (end point layer for biases).
# 5    n_s        Starting point neuron in starting layer (end point neuron for biases).
# 6    l_e        End point layer.
# 7    n_e        End point neuron in end layer.
################################################################################
#                      1 2         3     4     5     6     7
#             connection t     index   l_s   n_s   l_e   n_e
############################################################
 -1.8976204690230953E+00 a         1     0     1     1     1
 -6.7388855338020752E+00 a         2     0     1     1     2
  6.8961370954133088E+00 a         3     0     1     1     3
  9.0526043189553196E+00 a         4     0     1     1     4
  4.7723851771367851E+00 a         5     0     1     1     5
 -1.5858998982310624E+01 a         6     0     1     1     6
  1.2363739640508490E+01 a         7     0     1     1     7
  5.1935033137853237E+00 a         8     0     1     1     8
  5.7093189369608996E+00 a         9     0     1     1     9
 -1.6484002138376766E+01 a        10     0     1     1    10
  3.8249585997086022E+01 a        11     0     1     1    11
 -4.2301884330753332E+01 a        12     0     1     1    12
 -1.6066509588437167E+01 a        13     0     1     1    13
 -4.2834743483829527E+00 a        14     0     1     1    14
 -5.9343108076374406E+01 a        15     0     1     1    15
 -2.0055927617341553E+01 a        16     0     1     1    16
  3.9661436416572831E+00 a        17     0     1     1    17
  5.0130766837250293E+00 a        18     0     1     1    18
 -2.2212136014093094E+01 a        19     0     1     1    19
 -2.4437019585691937E+00 a        20     0     1     1    20
  1.1167163169340317E+00 a        21     0     1     1    21
  9.0622972472223022E+00 a        22     0     1     1    22
  1.4379559167347832E+01 a        23     0     1     1    23
  4.3213610278102372E+01 a        24     0     1     1    24
 -6.2566431429647587E+01 a        25     0     1     1    25
  5.0143701052856372E+01 a        26     0     2     1     1
 -5.8160056410605918E+01 a        27     0     2     1     2
 -2.0839743325886609E+01 a        28     0     2     1     3
  6.9488085387278353E+00 a        29     0     2     1     4
 -3.3899974585332274E+01 a        30     0     2     1     5
 -5.8895668790694124E+01 a        31     0     2     1     6
 -2.6371906996971322E+01 a        32     0     2     1     7
 -7.8109976155858533E+01 a        33     0     2     1     8
 -4.5659365398213865E+01 a        34     0     2     1     9
  3.7030234202685264E+01 a        35     0     2     1    10
 -4.4792738742743026E+01 a        36     0     2     1    11
 -1.7249067472805798E+01 a        37     0     2     1    12
 -2.5488758491686920E+00 a        38     0     2     1    13
  1.2492873562693633E+01 a        39     0     2     1    14
 -1.2995033921913860E+01 a        40     0     2     1    15
  2.0697590420330489E+01 a        41     0     2     1    16
 -2.5698073332686025E+01 a        42     0     2     1    17
 -5.4388458561308841E+00 a        43     0     2     1    18
  3.9985015645085986E+00 a        44     0     2     1    19
  2.5293189460482878E+01 a        45     0     2     1    20
  1.4141802178332401E+01 a        46     0     2     1    21
 -5.7157396577164207E+01 a        47     0     2     1    22
  7.7334929542618114E-01 a        48     0     2     1    23
 -2.4721104843982779E+01 a        49     0     2     1    24
 -5.0381725157927399E+01 a        50     0     2     1    25
  1.3672467169153901E+01 a        51     0     3     1     1
  2.9939623531003836E+01 a        52     0     3     1     2
  2.3727473974745546E+01 a        53     0     3     1     3
  2.8038775448477198E+00 a        54     0     3     1     4
 -1.5480863615378821E+01 a        55     0     3     1     5
  4.1802779190358962E+01 a        56     0     3     1     6
  1.0418712747175292E+01 a        57     0     3     1     7
  6.1729551966652167E+01 a        58     0     3     1     8
  5.8838886881463274E+01 a        59     0     3     1     9
 -8.0946127084944290E+00 a        60     0     3     1    10
  4.3480497606291124E+01 a        61     0     3     1    11
  3.2856969420418340E+00 a        62     0     3     1    12
  4.6394801109169004E+00 a        63     0     3     1    13
 -7.1161615724850577E+01 a        64     0     3     1    14
  4.5252740678152328E+01 a        65     0     3     1    15
 -1.3129702452847642E+01 a        66     0     3     1    16
 -1.1986658529546782E+01 a        67     0     3     1    17
  4.7902215822093064E+00 a        68     0     3     1    18
 -3.5142220272089169E+01 a        69     0     3     1    19
  3.9471987979822686E+01 a        70     0     3     1    20
 -2.5122782953255850E+01 a        71     0     3     1    21
  7.5680287432158408E+01 a        72     0     3     1    22
  6.5881899563663268E+01 a        73     0     3     1    23
  4.2866869303343243E+01 a        74     0     3     1    24
  3.8008615068760960E+01 a        75     0     3     1    25
 -3.9274247935656010E+00 a        76     0     4     1     1
  5.9431765922939501E+00 a        77     0     4     1     2
 -1.3585509420150691E+01 a        78     0     4     1     3
 -1.8728644794479600E+01 a        79     0     4     1     4
 -9.6052446353062990E+00 a        80     0     4     1     5
  2.3627508481749068E+01 a        81     0     4     1     6
 -2.9437986804249501E+01 a        82     0     4     1     7
 -1.4112394828642849E+01 a        83     0     4     1     8
  8.8501603828382003E-01 a        84     0     4     1     9
  1.6276677687231050E+01 a        85     0     4     1    10
 -6.9639121624035795E+01 a        86     0     4     1    11
  7.8805601207441640E+01 a        87     0     4     1    12
  2.8189669043154126E+01 a        88     0     4     1    13
  7.4133725164346675E-01 a        89     0     4     1    14
  9.6630686455773045E+01 a        90     0     4     1    15
  2.9048079797220861E+01 a        91     0     4     1    16
 -9.0822231528436070E+00 a        92     0     4     1    17
 -1.0055572597835438E+01 a        93     0     4     1    18
  3.9174290145620198E+01 a        94     0     4     1    19
 -3.1284891584489536E+00 a        95     0     4     1    20
  2.4709015857517178E+00 a        96     0     4     1    21
 -9.3974764372796677E+00 a        97     0     4     1    22
 -2.1435750817254494E+01 a        98     0     4     1    23
 -8.1172890968362168E+01 a        99     0     4     1    24
  1.1764048224283393E+02 a       100     0     4     1    25
 -1.0015342259656798E+02 a       101     0     5     1     1
  1.0085503214724191E+02 a       102     0     5     1     2
  4.5150557463309021E+01 a       103     0     5     1     3
 -1.7576546805818108E+01 a       104     0     5     1     4
  6.4524832870920207E+01 a       105     0     5     1     5
  1.0770679246108710E+02 a       106     0     5     1     6
  6.3370512258529708E+01 a       107     0     5     1     7
  1.3905109108028077E+02 a       108     0     5     1     8
  7.0404149363590790E+01 a       109     0     5     1     9
 -6.2135854780511991E+01 a       110     0     5     1    10
  6.5888428759561066E+01 a       111     0     5     1    11
  2.2349306926278736E+01 a       112     0     5     1    12
  1.2783021294261285E+01 a       113     0     5     1    13
 -1.1566548467730392E+01 a       114     0     5     1    14
  2.7886422069044574E+01 a       115     0     5     1    15
 -6.0766273440601424E+01 a       116     0     5     1    16
  3.5574076089876058E+01 a       117     0     5     1    17
  2.6056676514333724E+01 a       118     0     5     1    18
 -1.7752000294857442E+01 a       119     0     5     1    19
 -5.4496011071264988E+01 a       120     0     5     1    20
 -3.6167849390515791E+01 a       121     0     5     1    21
  1.0243289362431311E+02 a       122     0     5     1    22
  3.5799033549628306E-01 a       123     0     5     1    23
  1.2155397004413585E+01 a       124     0     5     1    24
  6.4777085318268661E+01 a       125     0     5     1    25
 -1.7162545810542866E+01 a       126     0     6     1     1
 -5.1610865928612768E+01 a       127     0     6     1     2
 -5.8651011545387689E+01 a       128     0     6     1     3
 -4.8544761579143723E+00 a       129     0     6     1     4
  3.9293693083157812E+01 a       130     0     6     1     5
 -6.1995251089454463E+01 a       131     0     6     1     6
 -2.4691727429035225E+01 a       132     0     6     1     7
 -1.0328789783820635E+02 a       133     0     6     1     8
 -9.4773877749810993E+01 a       134     0     6     1     9
  3.5197504929864913E+00 a       135     0     6     1    10
 -5.5129421414670681E+01 a       136     0     6     1    11
 -1.4294921522309496E+01 a       137     0     6     1    12
 -1.2307648755576437E+01 a       138     0     6     1    13
  1.1762259035408267E+02 a       139     0     6     1    14
 -7.9994999481133036E+01 a       140     0     6     1    15
  1.2723546143925569E+01 a       141     0     6     1    16
  1.8491643840058703E+01 a       142     0     6     1    17
 -1.2533020013423958E+01 a       143     0     6     1    18
  5.3382196348985687E+01 a       144     0     6     1    19
 -6.4926304509145467E+01 a       145     0     6     1    20
  3.8687448771630322E+01 a       146     0     6     1    21
 -1.2485460573199107E+02 a       147     0     6     1    22
 -1.1075510341257889E+02 a       148     0     6     1    23
 -5.9547383028297915E+01 a       149     0     6     1    24
 -5.6845430412305035E+01 a       150     0     6     1    25
  5.5774796713388014E+01 a       151     0     7     1     1
  4.2464607856822639E+01 a       152     0     7     1     2
  1.1620126783683213E+01 a       153     0     7     1     3
  6.2868021377892909E+00 a       154     0     7     1     4
  5.3272663343398818E+01 a       155     0     7     1     5
  6.9730907628820546E+01 a       156     0     7     1     6
  2.1773647146468587E+01 a       157     0     7     1     7
  4.0224276338733702E+01 a       158     0     7     1     8
 -3.5060506621792641E+01 a       159     0     7     1     9
 -2.1833445359929446E+01 a       160     0     7     1    10
  4.1700935219749748E+00 a       161     0     7     1    11
 -3.2762860550365858E+01 a       162     0     7     1    12
 -3.4645801276137340E+00 a       163     0     7     1    13
  1.8919403383425802E+01 a       164     0     7     1    14
  6.0071147992614540E+00 a       165     0     7     1    15
  5.3591143385024353E+01 a       166     0     7     1    16
  2.4343042756536053E+00 a       167     0     7     1    17
  3.1289465731152887E+01 a       168     0     7     1    18
  7.0681145314612204E+00 a       169     0     7     1    19
  2.7592076341967825E+01 a       170     0     7     1    20
 -6.2294174551932102E-01 a       171     0     7     1    21
 -1.6231715413623185E+01 a       172     0     7     1    22
 -4.0669420175941768E+00 a       173     0     7     1    23
 -5.0293163494243198E-01 a       174     0     7     1    24
  3.0956856446531549E+00 a       175     0     7     1    25
  7.1441576850586742E+01 a       176     0     8     1     1
 -6.7886507943572852E+01 a       177     0     8     1     2
 -4.1535541582926456E+01 a       178     0     8     1     3
  1.9215486419658028E+01 a       179     0     8     1     4
 -7.1193392951222194E+01 a       180     0     8     1     5
 -8.1820277140066509E+01 a       181     0     8     1     6
 -5.0205211300773534E+01 a       182     0     8     1     7
 -8.4414689641938779E+01 a       183     0     8     1     8
 -3.6499255120743918E+01 a       184     0     8     1     9
  2.6414823611969734E+01 a       185     0     8     1    10
 -4.2206333687742820E+01 a       186     0     8     1    11
 -8.7428993186170505E+00 a       187     0     8     1    12
 -1.3057188665593320E+00 a       188     0     8     1    13
  1.5782472095310676E+00 a       189     0     8     1    14
 -3.7904890234578623E+01 a       190     0     8     1    15
  6.7691579352276449E+01 a       191     0     8     1    16
 -1.6199750277644181E+01 a       192     0     8     1    17
 -4.8746753598516925E+01 a       193     0     8     1    18
  4.1884598481510665E+01 a       194     0     8     1    19
  3.5586947289938415E+01 a       195     0     8     1    20
  3.7670097928172439E+01 a       196     0     8     1    21
 -6.1192053517856415E+01 a       197     0     8     1    22
 -1.1574846211263761E+01 a       198     0     8     1    23
  2.2597744473817531E+01 a       199     0     8     1    24
 -1.7367210984166391E+01 a       200     0     8     1    25
  4.6951541766681046E+00 a       201     0     9     1     1
  2.5277647765237340E+01 a       202     0     9     1     2
  3.0436848455996639E+01 a       203     0     9     1     3
  1.0407666291232502E+00 a       204     0     9     1     4
 -3.8115397441829813E+01 a       205     0     9     1     5
  1.4107946493193740E+01 a       206     0     9     1     6
  4.3555179207977652E+01 a       207     0     9     1     7
  1.1783129743241141E+00 a       208     0     9     1     8
  1.0630648077083430E+01 a       209     0     9     1     9
  4.2305509255146191E+01 a       210     0     9     1    10
 -4.1947966225019373E+00 a       211     0     9     1    11
  1.6006962939037241E+01 a       212     0     9     1    12
 -6.9163023742334477E+00 a       213     0     9     1    13
 -2.5148757753470491E+01 a       214     0     9     1    14
  9.4083209497207207E+01 a       215     0     9     1    15
  2.2278544128479673E+01 a       216     0     9     1    16
  3.3684152199982890E+01 a       217     0     9     1    17
  3.0148777063929344E+01 a       218     0     9     1    18
  2.0793571222948927E+01 a       219     0     9     1    19
  1.0743548504723343E+01 a       220     0     9     1    20
 -1.1200550361814354E+01 a       221     0     9     1    21
  4.6019260898051655E+01 a       222     0     9     1    22
 -1.7641175649335853E+01 a       223     0     9     1    23
 -2.3010966526070618E+01 a       224     0     9     1    24
 -3.6518307282309820E+01 a       225     0     9     1    25
 -3.1391541658710452E+01 a       226     0    10     1     1
 -2.5834470004654683E+01 a       227     0    10     1     2
 -3.7987833553031156E+00 a       228     0    10     1     3
  2.7908523387025719E-01 a       229     0    10     1     4
 -3.0264420059674599E+01 a       230     0    10     1     5
 -4.5288989002082360E+01 a       231     0    10     1     6
 -6.5330494578856948E+00 a       232     0    10     1     7
 -2.0738122121064688E+01 a       233     0    10     1     8
  1.9626245934430433E+01 a       234     0    10     1     9
  1.1532785548043828E+01 a       235     0    10     1    10
  1.1170637676003668E+01 a       236     0    10     1    11
  3.1446713401833586E+00 a       237     0    10     1    12
 -3.1659848970812816E+00 a       238     0    10     1    13
 -1.0647053067726317E+01 a       239     0    10     1    14
 -2.2963526163284037E+01 a       240     0    10     1    15
 -3.6219460241751662E+01 a       241     0    10     1    16
  5.5672404591442082E-01 a       242     0    10     1    17
 -1.6877559900625091E+01 a       243     0    10     1    18
 -1.1728744609319294E+01 a       244     0    10     1    19
 -1.5031529117178197E+01 a       245     0    10     1    20
  1.8514390343132039E-01 a       246     0    10     1    21
  1.0292650339831910E+01 a       247     0    10     1    22
  6.3489169139322925E+00 a       248     0    10     1    23
  1.6216034123692133E+01 a       249     0    10     1    24
 -2.4492972559616515E+01 a       250     0    10     1    25
 -1.9980625152443505E+01 a       251     0    11     1     1
  1.2205897653103063E+01 a       252     0    11     1     2
  1.5061134539715868E+01 a       253     0    11     1     3
 -9.5789340324350469E+00 a       254     0    11     1     4
  2.0729497296645292E+01 a       255     0    11     1     5
  2.2851432067672217E+01 a       256     0    11     1     6
  2.3777093990560925E+00 a       257     0    11     1     7
  3.9967205673554865E+01 a       258     0    11     1     8
 -4.5009627833410457E+00 a       259     0    11     1     9
  2.5245102736222577E+01 a       260     0    11     1    10
  1.9089488029905567E+01 a       261     0    11     1    11
 -4.4281699871471175E-01 a       262     0    11     1    12
 -8.7614812109532831E+00 a       263     0    11     1    13
 -5.9238860299886200E+00 a       264     0    11     1    14
  4.1669899124675254E+01 a       265     0    11     1    15
 -8.8579983695872553E+00 a       266     0    11     1    16
 -1.8195007659611722E+01 a       267     0    11     1    17
  3.3801378664169413E+01 a       268     0    11     1    18
 -2.8245164419049296E+01 a       269     0    11     1    19
 -2.1595073196815657E+00 a       270     0    11     1    20
 -3.4548472160833498E+01 a       271     0    11     1    21
 -7.7385408107640012E+00 a       272     0    11     1    22
  9.3241387905842377E+00 a       273     0    11     1    23
 -1.8424241128020576E+01 a       274     0    11     1    24
  4.3094239537879178E+00 a       275     0    11     1    25
  2.4657339979495081E+00 a       276     0    12     1     1
 -5.1251265764429721E-01 a       277     0    12     1     2
 -3.1954667299860868E+00 a       278     0    12     1     3
  9.1163371212967081E-01 a       279     0    12     1     4
  2.5115466764307939E+01 a       280     0    12     1     5
  7.0023984075731427E+00 a       281     0    12     1     6
 -3.2014318376354765E+01 a       282     0    12     1     7
  4.0789543844923088E+01 a       283     0    12     1     8
  2.4635886684999171E+01 a       284     0    12     1     9
 -4.0460169312377040E+01 a       285     0    12     1    10
  2.2749378074342378E+01 a       286     0    12     1    11
 -7.7200725203767595E+00 a       287     0    12     1    12
  1.1118967168815221E+01 a       288     0    12     1    13
 -1.8597305251213044E+01 a       289     0    12     1    14
 -6.5468537239772999E+01 a       290     0    12     1    15
 -2.0609462290727048E+01 a       291     0    12     1    16
 -4.2481575582913194E+01 a       292     0    12     1    17
 -1.9339546718889327E+01 a       293     0    12     1    18
 -3.1486510730703092E+01 a       294     0    12     1    19
  1.5215840915814903E+01 a       295     0    12     1    20
 -1.5133297163926029E+00 a       296     0    12     1    21
  7.0039098003661615E-01 a       297     0    12     1    22
  5.7552721511627659E+01 a       298     0    12     1    23
  4.5077143933446749E+01 a       299     0    12     1    24
  5.1109281640651133E+01 a       300     0    12     1    25
  5.5903316281472852E+00 a       301     0    13     1     1
 -2.2222578164567821E+00 a       302     0    13     1     2
 -2.3162019865676799E+00 a       303     0    13     1     3
  4.0409354538561679E+00 a       304     0    13     1     4
  4.6197682636251223E+00 a       305     0    13     1     5
  6.4926588630315685E+00 a       306     0    13     1     6
  7.4444515862849547E+00 a       307     0    13     1     7
 -3.7350410155507312E+00 a       308     0    13     1     8
  6.1089061571259009E+00 a       309     0    13     1     9
 -7.0710653383772213E+00 a       310     0    13     1    10
 -4.0584990678318782E+00 a       311     0    13     1    11
  5.7154430974689552E+00 a       312     0    13     1    12
  2.5458467971209577E+00 a       313     0    13     1    13
  2.7212309291572279E+00 a       314     0    13     1    14
 -6.2362085232642270E+00 a       315     0    13     1    15
 -7.9940086852094270E+00 a       316     0    13     1    16
  1.0779067552834107E+01 a       317     0    13     1    17
 -4.5807263683210220E+00 a       318     0    13     1    18
  6.9326601360292246E+00 a       319     0    13     1    19
  1.9751804418551767E-02 a       320     0    13     1    20
  1.1903378451870257E+01 a       321     0    13     1    21
  9.3757287877132587E+00 a       322     0    13     1    22
  7.9419802816949392E-01 a       323     0    13     1    23
  7.9537416067816276E+00 a       324     0    13     1    24
  8.3968593049904605E+00 a       325     0    13     1    25
 -1.0673173324562242E+00 a       326     0    14     1     1
 -2.3422990977982048E+00 a       327     0    14     1     2
 -1.5279227695138823E-02 a       328     0    14     1     3
 -2.8869656906814917E-01 a       329     0    14     1     4
 -6.9599850979612974E+00 a       330     0    14     1     5
 -1.8669964732609210E+00 a       331     0    14     1     6
  5.1757924037089609E+00 a       332     0    14     1     7
 -8.3192639809755065E+00 a       333     0    14     1     8
 -3.9821928751362163E+00 a       334     0    14     1     9
  6.2945256847447375E+00 a       335     0    14     1    10
 -4.8716594664231918E+00 a       336     0    14     1    11
  1.4573253946133391E+00 a       337     0    14     1    12
 -1.2516186058082113E+00 a       338     0    14     1    13
  3.5908333154712895E+00 a       339     0    14     1    14
  1.1743191354905321E+01 a       340     0    14     1    15
  3.7328537981305403E+00 a       341     0    14     1    16
  7.6466647800321459E+00 a       342     0    14     1    17
  1.3170452579735414E+00 a       343     0    14     1    18
  2.4865101939817307E+00 a       344     0    14     1    19
 -4.7126871107950352E+00 a       345     0    14     1    20
  1.6060164225375384E+00 a       346     0    14     1    21
 -1.2127552161596240E+00 a       347     0    14     1    22
 -9.5376037988876714E+00 a       348     0    14     1    23
 -9.3914717493143343E+00 a       349     0    14     1    24
 -8.1231013370619785E+00 a       350     0    14     1    25
 -2.9538018695278602E+01 a       351     0    15     1     1
 -2.4565597421767436E+01 a       352     0    15     1     2
 -1.8976664706811932E+00 a       353     0    15     1     3
  6.2573916709490218E+00 a       354     0    15     1     4
 -2.3483415823725185E+01 a       355     0    15     1     5
 -4.6414256148927585E+01 a       356     0    15     1     6
  1.0538603687195458E+00 a       357     0    15     1     7
 -1.2898717145181966E+01 a       358     0    15     1     8
  1.5853923837120714E+01 a       359     0    15     1     9
  1.1356301264040448E+01 a       360     0    15     1    10
  2.7360692626123178E+01 a       361     0    15     1    11
 -1.5960888386176286E+01 a       362     0    15     1    12
 -1.1524981327675702E+01 a       363     0    15     1    13
 -4.6388889325262728E+00 a       364     0    15     1    14
 -3.2086132132487606E+01 a       365     0    15     1    15
 -3.7023508487091696E+01 a       366     0    15     1    16
  7.5574357548555735E+00 a       367     0    15     1    17
 -1.3021287991954377E+01 a       368     0    15     1    18
 -1.4776272355482959E+01 a       369     0    15     1    19
 -8.8271019341460200E+00 a       370     0    15     1    20
 -4.1284111408397788E+00 a       371     0    15     1    21
  1.2303526281435566E+01 a       372     0    15     1    22
  3.7765758754996948E+00 a       373     0    15     1    23
  3.8593171110967141E+01 a       374     0    15     1    24
 -5.4553329219132699E+01 a       375     0    15     1    25
 -5.7523783140079754E+00 a       376     0    16     1     1
  2.9261636592975764E+00 a       377     0    16     1     2
  2.6845705353131999E+00 a       378     0    16     1     3
 -1.0107636751410662E+00 a       379     0    16     1     4
  3.4375851593908462E+00 a       380     0    16     1     5
  6.9165973795339637E+00 a       381     0    16     1     6
 -6.5861086090797250E-01 a       382     0    16     1     7
  1.0771851147631464E+01 a       383     0    16     1     8
  6.5593561110732947E+00 a       384     0    16     1     9
 -2.1444981022513945E+00 a       385     0    16     1    10
 -9.0191410380930725E-01 a       386     0    16     1    11
  3.4836293843976605E+00 a       387     0    16     1    12
  1.8629150522178912E+00 a       388     0    16     1    13
 -1.9149684371489208E+00 a       389     0    16     1    14
  9.3038298457982975E+00 a       390     0    16     1    15
 -4.4706624959098944E+00 a       391     0    16     1    16
  9.9832255079381849E+00 a       392     0    16     1    17
 -1.0903237284096265E+00 a       393     0    16     1    18
  2.7144087554462133E+00 a       394     0    16     1    19
  1.4734179541438770E+00 a       395     0    16     1    20
  2.5579396634765772E-01 a       396     0    16     1    21
  2.5182553177991256E+00 a       397     0    16     1    22
 -2.3187139980927940E+00 a       398     0    16     1    23
  1.1907188589607682E+00 a       399     0    16     1    24
  1.6670291585162640E+00 a       400     0    16     1    25
  8.5244847879624999E+00 a       401     0    17     1     1
  4.7614233232008294E+00 a       402     0    17     1     2
  1.1420870920341333E+00 a       403     0    17     1     3
 -2.8264769221035926E+00 a       404     0    17     1     4
  3.9750937589358704E+00 a       405     0    17     1     5
  1.0541470941422299E+01 a       406     0    17     1     6
  4.6483933755223106E-01 a       407     0    17     1     7
 -1.4843024717700792E-01 a       408     0    17     1     8
 -4.5089370616752227E+00 a       409     0    17     1     9
 -7.4137117700708610E-01 a       410     0    17     1    10
 -8.2916304418006082E+00 a       411     0    17     1    11
  6.5601107056678210E+00 a       412     0    17     1    12
  4.6321579035802740E+00 a       413     0    17     1    13
 -1.3279020235204320E+00 a       414     0    17     1    14
  7.9267673684629649E+00 a       415     0    17     1    15
  6.4030225837338799E+00 a       416     0    17     1    16
 -4.8228084188806744E+00 a       417     0    17     1    17
  3.2402025127067922E+00 a       418     0    17     1    18
  5.0896570075920167E-01 a       419     0    17     1    19
 -1.1605959195761066E+00 a       420     0    17     1    20
  1.5309096781043861E+00 a       421     0    17     1    21
 -5.7372730337608386E+00 a       422     0    17     1    22
  2.8613749154639185E+00 a       423     0    17     1    23
 -1.2919552614699278E+01 a       424     0    17     1    24
  1.7533783884305901E+01 a       425     0    17     1    25
 -4.8183523220724709E+00 a       426     0    18     1     1
 -1.7749093485738032E+00 a       427     0    18     1     2
  9.0942159539086731E+00 a       428     0    18     1     3
 -8.8277909300479809E-02 a       429     0    18     1     4
 -8.7117630139498754E+00 a       430     0    18     1     5
  6.2804319304259675E+00 a       431     0    18     1     6
 -6.0608629908365312E+00 a       432     0    18     1     7
  1.8514411143916590E+01 a       433     0    18     1     8
  1.6845273955917225E+01 a       434     0    18     1     9
 -1.0494851646336716E+01 a       435     0    18     1    10
  6.9334403004717071E+00 a       436     0    18     1    11
  1.1994175790733168E+00 a       437     0    18     1    12
  7.8648151672687510E+00 a       438     0    18     1    13
 -1.7277952263847734E+01 a       439     0    18     1    14
 -2.5588632296681406E+00 a       440     0    18     1    15
 -8.6040301290903383E+00 a       441     0    18     1    16
 -4.6814326528894972E+00 a       442     0    18     1    17
 -6.0908346776861579E+00 a       443     0    18     1    18
 -2.1941252155124882E+01 a       444     0    18     1    19
  4.3463363757676383E+00 a       445     0    18     1    20
 -3.1268636423849974E+00 a       446     0    18     1    21
  9.8295824115493815E+00 a       447     0    18     1    22
  3.1567380904864763E+01 a       448     0    18     1    23
  1.3242020758197077E+01 a       449     0    18     1    24
  2.9164154154210411E+01 a       450     0    18     1    25
  1.9843461530987343E+00 a       451     0    19     1     1
 -2.6785168942954471E+00 a       452     0    19     1     2
 -1.6632372165304354E+00 a       453     0    19     1     3
  1.1909444931379882E+00 a       454     0    19     1     4
  1.7450420962022584E+00 a       455     0    19     1     5
 -1.3797629507398976E+00 a       456     0    19     1     6
  3.0794055426319500E+00 a       457     0    19     1     7
 -3.0680030573313917E+00 a       458     0    19     1     8
 -1.5494136682510151E+00 a       459     0    19     1     9
 -9.4181463743818794E-01 a       460     0    19     1    10
 -4.0783630589877934E-01 a       461     0    19     1    11
 -1.4130296992630180E+00 a       462     0    19     1    12
 -5.2981460839379024E-01 a       463     0    19     1    13
  9.4328181079799800E-01 a       464     0    19     1    14
 -5.5886012496408712E+00 a       465     0    19     1    15
  1.5976603579138853E+00 a       466     0    19     1    16
 -1.9739035024739400E+00 a       467     0    19     1    17
 -7.8523489655165113E-01 a       468     0    19     1    18
 -8.6348878200629364E-01 a       469     0    19     1    19
 -1.5418633424484165E+00 a       470     0    19     1    20
  2.5156557374158148E+00 a       471     0    19     1    21
  1.6156332431599376E+00 a       472     0    19     1    22
  2.0507846104195654E-01 a       473     0    19     1    23
  5.2448573817531701E+00 a       474     0    19     1    24
  2.9917799496481412E+00 a       475     0    19     1    25
  4.7139753277573391E+00 a       476     0    20     1     1
  3.8667602766025433E+00 a       477     0    20     1     2
 -2.5541057191732461E+00 a       478     0    20     1     3
 -5.4066361146037634E-02 a       479     0    20     1     4
  7.5845649264689285E+00 a       480     0    20     1     5
 -1.9989271667779340E+00 a       481     0    20     1     6
  1.6076640764786179E+00 a       482     0    20     1     7
 -1.9006021004559173E+00 a       483     0    20     1     8
 -4.5369502403858339E+00 a       484     0    20     1     9
  5.9897049784287903E-01 a       485     0    20     1    10
 -3.1086140094764708E-01 a       486     0    20     1    11
 -9.2598643939255010E-01 a       487     0    20     1    12
 -2.7204311569618742E+00 a       488     0    20     1    13
  4.3330817993578403E+00 a       489     0    20     1    14
 -6.4044909315219964E+00 a       490     0    20     1    15
  5.5004971031078727E+00 a       491     0    20     1    16
 -4.8565629827678016E+00 a       492     0    20     1    17
  2.2603486900124228E+00 a       493     0    20     1    18
  8.2522119479874707E+00 a       494     0    20     1    19
  1.2621683483354429E-01 a       495     0    20     1    20
  1.9095389994093901E+00 a       496     0    20     1    21
 -3.8991944236472857E+00 a       497     0    20     1    22
 -8.2984583759042092E+00 a       498     0    20     1    23
 -1.8466582155766176E+00 a       499     0    20     1    24
 -1.2070097583672176E+01 a       500     0    20     1    25
 -3.5035181863516285E-02 a       501     0    21     1     1
 -3.2297682292717439E-01 a       502     0    21     1     2
  4.6461657034240939E-01 a       503     0    21     1     3
  2.1807403281950261E-01 a       504     0    21     1     4
 -1.0441248461823769E+00 a       505     0    21     1     5
 -2.3051366001718572E+00 a       506     0    21     1     6
  1.1599841488127447E+00 a       507     0    21     1     7
 -1.7909600101827572E+00 a       508     0    21     1     8
  2.8039402406335934E-01 a       509     0    21     1     9
  4.5897079166903074E+00 a       510     0    21     1    10
  1.5954959331243244E+00 a       511     0    21     1    11
 -1.4752146715279293E+00 a       512     0    21     1    12
 -3.2224852197557996E-02 a       513     0    21     1    13
  7.5378537854382990E-02 a       514     0    21     1    14
 -1.4709422894978745E+00 a       515     0    21     1    15
 -2.9422883864442704E+00 a       516     0    21     1    16
 -1.2125287776372338E+00 a       517     0    21     1    17
 -5.0313562285560531E-01 a       518     0    21     1    18
 -1.9361327709094363E+00 a       519     0    21     1    19
 -1.4411719461823957E-01 a       520     0    21     1    20
 -8.3547829683229180E-01 a       521     0    21     1    21
 -1.0596060654548438E+00 a       522     0    21     1    22
  1.1043918852355332E+00 a       523     0    21     1    23
  8.0847445152314623E-01 a       524     0    21     1    24
 -2.3349566527808188E+00 a       525     0    21     1    25
 -1.3314315467375617E+00 a       526     0    22     1     1
 -1.1176500022411862E+00 a       527     0    22     1     2
  1.1014667501928119E+00 a       528     0    22     1     3
  4.0848795654564007E-01 a       529     0    22     1     4
 -1.8245422945337841E-01 a       530     0    22     1     5
 -6.4564242753838696E-01 a       531     0    22     1     6
 -2.7044728064336088E+00 a       532     0    22     1     7
  1.9040182696693584E+00 a       533     0    22     1     8
  2.1267548944424646E+00 a       534     0    22     1     9
  4.4941904432580362E+00 a       535     0    22     1    10
  7.0097654175322266E-02 a       536     0    22     1    11
  4.4323115338952350E+00 a       537     0    22     1    12
 -6.9529873218331539E-01 a       538     0    22     1    13
 -6.7224430162347648E-01 a       539     0    22     1    14
  5.0865397201887479E+00 a       540     0    22     1    15
 -3.4449701739426359E+00 a       541     0    22     1    16
  2.7856771928696986E+00 a       542     0    22     1    17
 -1.6877723140029799E+00 a       543     0    22     1    18
  2.8930222817394480E-02 a       544     0    22     1    19
  2.6955150662143335E+00 a       545     0    22     1    20
  5.2312210765784217E-01 a       546     0    22     1    21
 -1.0356847301362722E+00 a       547     0    22     1    22
  1.1000611712468473E+00 a       548     0    22     1    23
  3.4955228669735936E+00 a       549     0    22     1    24
 -1.2468825465631084E+00 a       550     0    22     1    25
  6.0241069434885421E-03 a       551     0    23     1     1
 -9.5863157776719909E-01 a       552     0    23     1     2
 -2.7966452336243230E-01 a       553     0    23     1     3
  7.3710089270307269E-02 a       554     0    23     1     4
 -1.0551605327516055E-02 a       555     0    23     1     5
  2.0685975676791582E-01 a       556     0    23     1     6
 -8.3141645919162332E-01 a       557     0    23     1     7
  1.2067969035083002E+00 a       558     0    23     1     8
 -1.0264693972674707E-01 a       559     0    23     1     9
 -2.4909155418317561E+00 a       560     0    23     1    10
 -6.1282266896124471E-01 a       561     0    23     1    11
  4.3794944506862005E-01 a       562     0    23     1    12
 -4.9771676080852445E-01 a       563     0    23     1    13
 -2.8929933906518396E-01 a       564     0    23     1    14
  1.2164230971628294E+00 a       565     0    23     1    15
  1.1814021476239618E+00 a       566     0    23     1    16
  1.6351904653062523E+00 a       567     0    23     1    17
 -1.0513622871340116E-01 a       568     0    23     1    18
  1.0644906637713578E+00 a       569     0    23     1    19
 -5.1538494227562237E-01 a       570     0    23     1    20
  4.5045172096453101E-01 a       571     0    23     1    21
  2.7968291830201603E-01 a       572     0    23     1    22
 -3.0838057329106400E-01 a       573     0    23     1    23
  1.2092110838372350E+00 a       574     0    23     1    24
  1.3060572631480866E-01 a       575     0    23     1    25
 -6.8439332806249586E-01 a       576     0    24     1     1
  2.4435928957947577E+00 a       577     0    24     1     2
  9.7819911182776320E-01 a       578     0    24     1     3
 -3.6192305408683861E-01 a       579     0    24     1     4
  2.5103399204959871E+00 a       580     0    24     1     5
  2.8471818125344955E-01 a       581     0    24     1     6
  2.7274806075610047E-01 a       582     0    24     1     7
  2.5161064857409832E+00 a       583     0    24     1     8
 -8.6340116911225906E-01 a       584     0    24     1     9
 -2.5704583804461212E+00 a       585     0    24     1    10
  1.1129099093505943E+00 a       586     0    24     1    11
  1.6699526456845228E+00 a       587     0    24     1    12
  5.6845767439363692E-01 a       588     0    24     1    13
 -1.1232416135083370E+00 a       589     0    24     1    14
 -4.9918702892420743E+00 a       590     0    24     1    15
  1.7200820448946164E+00 a       591     0    24     1    16
 -2.9412937622200737E+00 a       592     0    24     1    17
  6.3873395238838115E-01 a       593     0    24     1    18
  6.4869337943056193E-01 a       594     0    24     1    19
  8.4097294829341931E-02 a       595     0    24     1    20
  5.5291265331031625E-01 a       596     0    24     1    21
 -1.1906888317174253E+00 a       597     0    24     1    22
  2.2110357669830645E+00 a       598     0    24     1    23
  3.7748171442764429E+00 a       599     0    24     1    24
  1.9463213814927012E+00 a       600     0    24     1    25
  1.1063786490219942E+00 a       601     0    25     1     1
  1.0639991710107721E+00 a       602     0    25     1     2
 -9.3427383808868469E-01 a       603     0    25     1     3
 -1.6266785060664982E-01 a       604     0    25     1     4
  7.0245983743426643E-01 a       605     0    25     1     5
  5.2835620285481144E-01 a       606     0    25     1     6
  1.4240599206743716E+00 a       607     0    25     1     7
 -9.1841303648174322E-01 a       608     0    25     1     8
 -8.9949512646018315E-01 a       609     0    25     1     9
 -3.0021276632921290E+00 a       610     0    25     1    10
  3.8556492171703483E-01 a       611     0    25     1    11
 -2.8705474113001270E+00 a       612     0    25     1    12
  3.5783408910513131E-01 a       613     0    25     1    13
  9.1619843135110224E-01 a       614     0    25     1    14
 -2.8409687264371106E+00 a       615     0    25     1    15
  2.5491503276045182E+00 a       616     0    25     1    16
 -7.3469890370758884E-01 a       617     0    25     1    17
  5.6472312693103199E-01 a       618     0    25     1    18
  1.1418293461545650E+00 a       619     0    25     1    19
 -1.1352681789473771E+00 a       620     0    25     1    20
 -2.7388215092347318E-01 a       621     0    25     1    21
  5.8372476346647706E-01 a       622     0    25     1    22
 -1.2418060655613408E+00 a       623     0    25     1    23
 -2.3194950392997780E+00 a       624     0    25     1    24
  5.0394977766748938E-01 a       625     0    25     1    25
  7.2814437320255956E-02 a       626     0    26     1     1
 -2.0556708093548952E+00 a       627     0    26     1     2
 -3.6785844310760918E-01 a       628     0    26     1     3
  1.2105263177897965E-01 a       629     0    26     1     4
 -3.0397446255431442E+00 a       630     0    26     1     5
 -9.8779575905688199E-02 a       631     0    26     1     6
  1.9165190889266609E-01 a       632     0    26     1     7
 -1.0954116867769608E+00 a       633     0    26     1     8
  1.2557113233496764E+00 a       634     0    26     1     9
  1.5695973029234631E+00 a       635     0    26     1    10
 -7.1020809660108952E-01 a       636     0    26     1    11
 -1.2672047290868766E+00 a       637     0    26     1    12
 -7.0832608102475825E-02 a       638     0    26     1    13
 -2.6596764374479578E-02 a       639     0    26     1    14
  3.0505079026161743E+00 a       640     0    26     1    15
 -8.2580868550068831E-01 a       641     0    26     1    16
  2.1385454903875014E+00 a       642     0    26     1    17
 -6.8122645142365523E-01 a       643     0    26     1    18
 -1.4660658083196545E+00 a       644     0    26     1    19
 -6.8037538312515811E-01 a       645     0    26     1    20
 -2.9076122047004760E-01 a       646     0    26     1    21
  1.3890232610169768E+00 a       647     0    26     1    22
 -1.1804774439404762E+00 a       648     0    26     1    23
 -2.7405359692483375E+00 a       649     0    26     1    24
 -1.8002382678781688E+00 a       650     0    26     1    25
 -9.9477396473594248E-01 a       651     0    27     1     1
  1.1257129512530542E+01 a       652     0    27     1     2
  1.1577282664259607E+00 a       653     0    27     1     3
 -2.2440082003836809E-01 a       654     0    27     1     4
 -1.5919957657230350E+01 a       655     0    27     1     5
 -1.2367678571074094E+01 a       656     0    27     1     6
  6.1367258522885964E+00 a       657     0    27     1     7
 -1.1989439418233635E+01 a       658     0    27     1     8
  8.3279687962319793E-01 a       659     0    27     1     9
 -2.3474368974343676E+01 a       660     0    27     1    10
 -2.2099985417127317E+00 a       661     0    27     1    11
 -7.3734591517006365E+00 a       662     0    27     1    12
  8.2169350207052414E+00 a       663     0    27     1    13
  5.9837097669869550E+00 a       664     0    27     1    14
 -3.2694188898766953E+01 a       665     0    27     1    15
  2.1269365600729007E+00 a       666     0    27     1    16
  8.9369122906370162E+00 a       667     0    27     1    17
 -1.8426028941904434E+01 a       668     0    27     1    18
  7.3451959503859410E+00 a       669     0    27     1    19
 -3.6275329481744385E+00 a       670     0    27     1    20
  2.9255395673935219E-01 a       671     0    27     1    21
  1.1147865420432556E+01 a       672     0    27     1    22
 -2.3861558746350591E+00 a       673     0    27     1    23
 -9.3490663869241200E+00 a       674     0    27     1    24
 -1.4719838940074650E+01 a       675     0    27     1    25
  1.7433513625342503E+00 a       676     0    28     1     1
  5.1292371442429099E+00 a       677     0    28     1     2
  5.8327189573838494E+00 a       678     0    28     1     3
 -1.1217883664938308E+00 a       679     0    28     1     4
  2.6188661450417499E+01 a       680     0    28     1     5
  8.8748409853583787E+00 a       681     0    28     1     6
  5.7387311632240889E+00 a       682     0    28     1     7
 -2.0385117388499570E+01 a       683     0    28     1     8
  5.3801554320085843E-01 a       684     0    28     1     9
 -2.6847370234539225E+00 a       685     0    28     1    10
  3.2568970644534381E+00 a       686     0    28     1    11
  2.3250438201097254E+00 a       687     0    28     1    12
 -9.9651367123756334E+00 a       688     0    28     1    13
  2.6260390438641656E+00 a       689     0    28     1    14
 -3.2517675249782596E+00 a       690     0    28     1    15
 -1.6376121524465983E+01 a       691     0    28     1    16
 -1.5763191524920512E+00 a       692     0    28     1    17
  1.2747208425135808E+01 a       693     0    28     1    18
 -2.0320874199231238E+01 a       694     0    28     1    19
 -4.2839782234026802E-01 a       695     0    28     1    20
  6.6372147050078469E+00 a       696     0    28     1    21
  7.5998443788363534E+00 a       697     0    28     1    22
  7.4546036247728509E+00 a       698     0    28     1    23
  3.0519213022122198E+00 a       699     0    28     1    24
 -8.5402492184835932E+00 a       700     0    28     1    25
 -6.4979412857137646E+00 a       701     0    29     1     1
 -4.0535137891781075E+00 a       702     0    29     1     2
  1.7189897237617688E+00 a       703     0    29     1     3
 -5.8510572859592558E-01 a       704     0    29     1     4
  1.1169509938679582E+01 a       705     0    29     1     5
  3.4464709342911499E+00 a       706     0    29     1     6
 -4.1715890782860896E+00 a       707     0    29     1     7
  7.8074063415596511E+00 a       708     0    29     1     8
  5.8779333694078617E-01 a       709     0    29     1     9
  8.7238600872729126E+00 a       710     0    29     1    10
  6.7453266577033555E-01 a       711     0    29     1    11
 -2.0705848472899779E+00 a       712     0    29     1    12
 -2.7131161328074342E+00 a       713     0    29     1    13
 -8.4210906555185883E+00 a       714     0    29     1    14
  1.6366549540306234E+01 a       715     0    29     1    15
  4.3021291441214133E+00 a       716     0    29     1    16
 -6.7001428158079781E+00 a       717     0    29     1    17
  8.4860733706260092E+00 a       718     0    29     1    18
 -5.0522175159362348E+00 a       719     0    29     1    19
 -1.4221775014702067E+00 a       720     0    29     1    20
 -1.9816756907005759E+00 a       721     0    29     1    21
 -5.0881465175787008E+00 a       722     0    29     1    22
 -2.8622014249788812E+00 a       723     0    29     1    23
  1.1333931251246092E+01 a       724     0    29     1    24
  4.9600408184163483E+00 a       725     0    29     1    25
  1.2071439351719397E+00 a       726     0    30     1     1
  1.7681231079736511E-02 a       727     0    30     1     2
 -4.7245573501938951E+00 a       728     0    30     1     3
  2.9000759214510702E-01 a       729     0    30     1     4
 -1.2095870217449644E+01 a       730     0    30     1     5
 -4.2130826433152935E+00 a       731     0    30     1     6
 -2.4858414558314887E+00 a       732     0    30     1     7
  2.7139581062498710E+00 a       733     0    30     1     8
  3.0683481692657050E-01 a       734     0    30     1     9
 -2.8274601277456872E+00 a       735     0    30     1    10
 -1.4508361803719128E+00 a       736     0    30     1    11
  2.8521407126203733E+00 a       737     0    30     1    12
  3.6354865586043545E+00 a       738     0    30     1    13
  3.4892003772070557E+00 a       739     0    30     1    14
 -3.1939446959741482E+00 a       740     0    30     1    15
  7.7968346076214645E-01 a       741     0    30     1    16
  2.3219212279421493E+00 a       742     0    30     1    17
 -6.5030711578965716E+00 a       743     0    30     1    18
  7.7353163009701005E+00 a       744     0    30     1    19
  1.2615259084030177E+00 a       745     0    30     1    20
  1.2560640301140915E+00 a       746     0    30     1    21
 -6.6827446256216627E-01 a       747     0    30     1    22
 -3.2052121618338365E+00 a       748     0    30     1    23
 -7.2244085765150547E+00 a       749     0    30     1    24
 -2.8354143806059140E-01 a       750     0    30     1    25
 -2.1131020873509017E+00 b       751     1     1
 -4.6418518156007449E-01 b       752     1     2
  1.8340220032845274E+00 b       753     1     3
  6.7562654598004601E-01 b       754     1     4
  9.7820541748532608E-01 b       755     1     5
 -6.3475017058617034E-01 b       756     1     6
 -9.2998924664758531E-01 b       757     1     7
 -1.0516547972955881E+00 b       758     1     8
  2.3472612978094098E-01 b       759     1     9
 -1.2018627046941159E+00 b       760     1    10
 -1.3296030601827320E+00 b       761     1    11
 -1.5632396998408078E+00 b       762     1    12
  1.3823050428927111E+00 b       763     1    13
  2.4183734562470940E-02 b       764     1    14
 -1.2856732495936114E+00 b       765     1    15
  2.3292396833028828E-01 b       766     1    16
 -2.1259898380706264E+00 b       767     1    17
  9.0431253897637864E-01 b       768     1    18
 -9.5471632321326994E-01 b       769     1    19
 -6.8144622583377479E-01 b       770     1    20
  5.6075014174479829E+00 b       771     1    21
 -2.0949996571531000E+00 b       772     1    22
  1.6478511280292036E+00 b       773     1    23
 -1.4238077762534200E+00 b       774     1    24
 -4.1764296970198300E+00 b       775     1    25
  2.4028833078634144E+00 a       776     1     1     2     1
  5.7291880051044042E-01 a       777     1     1     2     2
 -3.3895990147174820E-01 a       778     1     1     2     3
 -1.1529344828295813E+00 a       779     1     1     2     4
  2.0444357594407774E+00 a       780     1     1     2     5
  5.2834177896588425E-02 a       781     1     1     2     6
  7.3619138513729906E-02 a       782     1     1     2     7
  1.0741657852038631E+00 a       783     1     1     2     8
 -2.9802265556730267E+00 a       784     1     1     2     9
  2.5928768834051890E+00 a       785     1     1     2    10
  8.3587575245546619E-01 a       786     1     1     2    11
 -8.0555138611474342E-01 a       787     1     1     2    12
 -9.8675987767637519E-01 a       788     1     1     2    13
  2.8506285043116693E+00 a       789     1     1     2    14
 -8.8188953551723104E-01 a       790     1     1     2    15
  6.1867667636186474E-01 a       791     1     1     2    16
  3.2025011898231043E-01 a       792     1     1     2    17
  1.7009993915144408E+00 a       793     1     1     2    18
 -4.0723554989632144E-01 a       794     1     1     2    19
 -6.7446333874774733E-01 a       795     1     1     2    20
 -1.3432423224488417E+00 a       796     1     1     2    21
 -5.3095928472544685E-01 a       797     1     1     2    22
  6.7959764168823689E-01 a       798     1     1     2    23
  9.1740263397959210E-01 a       799     1     1     2    24
  2.1894231082181097E+00 a       800     1     1     2    25
  4.0885339979213073E+00 a       801     1     2     2     1
 -7.1358756896686071E-01 a       802     1     2     2     2
  1.2685968076178946E+00 a       803     1     2     2     3
 -1.5632629373673403E+00 a       804     1     2     2     4
 -9.3360463930177962E-01 a       805     1     2     2     5
  1.3419588970652938E+00 a       806     1     2     2     6
  3.7604734148754884E+00 a       807     1     2     2     7
  6.0562712943327179E-01 a       808     1     2     2     8
 -4.7129622914463170E+00 a       809     1     2     2     9
  4.1760954709947984E-01 a       810     1     2     2    10
 -2.7827816123239417E+00 a       811     1     2     2    11
  1.0848710409296265E-01 a       812     1     2     2    12
 -1.6574460739051791E-01 a       813     1     2     2    13
  3.2924659153584184E+00 a       814     1     2     2    14
 -7.6032750486600298E-01 a       815     1     2     2    15
  7.5170060866983246E-01 a       816     1     2     2    16
 -6.1162163438026038E-02 a       817     1     2     2    17
 -2.2793852491997055E-01 a       818     1     2     2    18
  2.2289411715003996E-01 a       819     1     2     2    19
  7.2271273381459111E-01 a       820     1     2     2    20
 -7.7137499619207950E-01 a       821     1     2     2    21
 -3.6480964912341424E-01 a       822     1     2     2    22
 -2.8483087752290288E+00 a       823     1     2     2    23
 -3.3088600205154188E+00 a       824     1     2     2    24
 -1.8105677404653822E-01 a       825     1     2     2    25
 -7.7786986801611646E-01 a       826     1     3     2     1
  1.3329849773629401E+00 a       827     1     3     2     2
 -2.7419562752036808E+00 a       828     1     3     2     3
 -1.2809286183636901E+00 a       829     1     3     2     4
  1.7197109524970813E+00 a       830     1     3     2     5
 -6.6867185245464711E-01 a       831     1     3     2     6
  6.3000925775162020E-01 a       832     1     3     2     7
 -4.7021209826881494E-01 a       833     1     3     2     8
 -6.5208925093770764E-01 a       834     1     3     2     9
  1.3937131369514895E+00 a       835     1     3     2    10
  1.6498702476652423E+00 a       836     1     3     2    11
 -4.1469021242775028E-01 a       837     1     3     2    12
  3.9222898644626097E-01 a       838     1     3     2    13
 -2.5336518177421898E+00 a       839     1     3     2    14
 -2.2924541706171158E+00 a       840     1     3     2    15
  1.3258785535267148E+00 a       841     1     3     2    16
 -5.4588724518595289E-01 a       842     1     3     2    17
  6.3146626019260843E-01 a       843     1     3     2    18
  8.0466569112291053E-01 a       844     1     3     2    19
 -1.9203076690126335E+00 a       845     1     3     2    20
  1.6387272184373261E-02 a       846     1     3     2    21
  3.8928489244930899E-02 a       847     1     3     2    22
  2.9432372650462888E+00 a       848     1     3     2    23
 -2.5180380206545128E-01 a       849     1     3     2    24
 -2.1287283914725119E-01 a       850     1     3     2    25
 -1.9171011941476879E+00 a       851     1     4     2     1
 -3.8746155190396427E+00 a       852     1     4     2     2
  1.1807783162552505E+00 a       853     1     4     2     3
 -3.5177550844606840E+00 a       854     1     4     2     4
 -3.4139364890760722E+00 a       855     1     4     2     5
 -2.7728425393415979E+00 a       856     1     4     2     6
  4.1587295973060492E+00 a       857     1     4     2     7
 -5.4811135440219774E+00 a       858     1     4     2     8
  7.7498279748474619E-01 a       859     1     4     2     9
  1.4523313851431106E+00 a       860     1     4     2    10
  8.3361466436681386E-01 a       861     1     4     2    11
 -9.3898280054053207E-02 a       862     1     4     2    12
  6.3135476947428248E-01 a       863     1     4     2    13
  2.4820595564183185E+00 a       864     1     4     2    14
 -4.2899918589621473E+00 a       865     1     4     2    15
  1.4906923231841775E+00 a       866     1     4     2    16
 -2.2343942463427626E+00 a       867     1     4     2    17
  7.4063995323718124E-01 a       868     1     4     2    18
  1.8190316596871150E+00 a       869     1     4     2    19
  4.2449993492431265E-01 a       870     1     4     2    20
 -5.5247613026835163E+00 a       871     1     4     2    21
 -3.8180677516514887E+00 a       872     1     4     2    22
  1.2368813216734318E+00 a       873     1     4     2    23
  8.0362322253220175E-01 a       874     1     4     2    24
  2.2331369032126411E+00 a       875     1     4     2    25
  4.7921070067185639E-01 a       876     1     5     2     1
  1.7453715516598083E+00 a       877     1     5     2     2
 -1.6606862844884336E+00 a       878     1     5     2     3
  1.3659906362089904E+00 a       879     1     5     2     4
  4.9076858108135724E-01 a       880     1     5     2     5
  2.6719934723037009E-01 a       881     1     5     2     6
 -2.5059383957273124E-01 a       882     1     5     2     7
 -4.8533291203939932E-01 a       883     1     5     2     8
 -3.3760641206606107E-01 a       884     1     5     2     9
  6.2362091665729458E-01 a       885     1     5     2    10
 -1.1330594313927445E+00 a       886     1     5     2    11
  4.4537830436612047E-01 a       887     1     5     2    12
 -2.1993591322292552E-01 a       888     1     5     2    13
  4.3699224566919337E-01 a       889     1     5     2    14
  5.4846423800122102E-01 a       890     1     5     2    15
 -1.6931533977275731E-01 a       891     1     5     2    16
  3.9370361872785808E-02 a       892     1     5     2    17
  1.2203059076285308E+00 a       893     1     5     2    18
 -9.4751309329891203E-02 a       894     1     5     2    19
  6.3975755256426015E-01 a       895     1     5     2    20
 -4.0819691515566719E-01 a       896     1     5     2    21
 -1.8774423840269824E-01 a       897     1     5     2    22
 -1.8149487736618886E+00 a       898     1     5     2    23
 -1.9906245797406796E+00 a       899     1     5     2    24
  5.9163499590845781E-01 a       900     1     5     2    25
 -1.1459421275276012E+00 a       901     1     6     2     1
 -2.6493652152123470E-01 a       902     1     6     2     2
  1.5628551163609339E+00 a       903     1     6     2     3
  1.2713212201218624E+00 a       904     1     6     2     4
  8.1722256509716229E-01 a       905     1     6     2     5
 -1.0717567447009597E+00 a       906     1     6     2     6
 -2.0302811532560319E+00 a       907     1     6     2     7
  1.5501543283778452E+00 a       908     1     6     2     8
  1.0681631150319246E+00 a       909     1     6     2     9
  2.7774084995864454E+00 a       910     1     6     2    10
  4.9947352942425155E-01 a       911     1     6     2    11
  1.3858925060315549E-01 a       912     1     6     2    12
 -2.0838412654852675E-01 a       913     1     6     2    13
 -1.0785678057632861E+00 a       914     1     6     2    14
  2.2512422886567207E+00 a       915     1     6     2    15
 -3.7365725966761432E-01 a       916     1     6     2    16
  5.8761233234218524E-01 a       917     1     6     2    17
  1.6046756923771005E-01 a       918     1     6     2    18
  1.2870598953621708E+00 a       919     1     6     2    19
 -1.9277452305463127E+00 a       920     1     6     2    20
  2.2408705943717080E+00 a       921     1     6     2    21
  6.0099212560421622E-01 a       922     1     6     2    22
  2.7521341794673511E+00 a       923     1     6     2    23
  1.9482799634534251E+00 a       924     1     6     2    24
 -3.3541039800593986E-01 a       925     1     6     2    25
  5.2577767956793160E+00 a       926     1     7     2     1
  9.4253077163537302E-01 a       927     1     7     2     2
  1.0638036991364042E+00 a       928     1     7     2     3
 -2.5104684742324945E+00 a       929     1     7     2     4
 -1.7257608560539990E+00 a       930     1     7     2     5
 -1.2765050389352213E+00 a       931     1     7     2     6
 -3.8959891200211338E-01 a       932     1     7     2     7
 -2.5168463263487326E+00 a       933     1     7     2     8
  1.5781067325884826E+00 a       934     1     7     2     9
 -9.3776086159761807E-01 a       935     1     7     2    10
  2.0762145708025712E+00 a       936     1     7     2    11
 -7.3286503781628731E-01 a       937     1     7     2    12
 -1.0082063486486771E-01 a       938     1     7     2    13
  3.2174494483671183E+00 a       939     1     7     2    14
 -1.9376112461374333E+00 a       940     1     7     2    15
  2.4657577343885892E-01 a       941     1     7     2    16
  1.3678638084377106E+00 a       942     1     7     2    17
  1.0930107772409599E+00 a       943     1     7     2    18
  1.2346022507084724E+00 a       944     1     7     2    19
 -7.8654523963291839E-02 a       945     1     7     2    20
 -1.1492340651025919E+00 a       946     1     7     2    21
 -2.0102108483165377E+00 a       947     1     7     2    22
 -3.3901894679765632E-01 a       948     1     7     2    23
 -1.5906801516052012E+00 a       949     1     7     2    24
 -1.1840166691319711E+00 a       950     1     7     2    25
 -4.3378147752684781E-01 a       951     1     8     2     1
 -1.8820916761169129E+00 a       952     1     8     2     2
 -3.4145109180388450E-01 a       953     1     8     2     3
  1.6404602995715631E+00 a       954     1     8     2     4
 -3.2986049164787183E+00 a       955     1     8     2     5
 -3.3814441177721194E-01 a       956     1     8     2     6
  2.5578178356416786E-01 a       957     1     8     2     7
  7.1461827661851796E-01 a       958     1     8     2     8
 -8.0200357407464240E-01 a       959     1     8     2     9
 -2.2888092637070820E+00 a       960     1     8     2    10
  5.6217145742944297E-01 a       961     1     8     2    11
  1.5965488687999052E+00 a       962     1     8     2    12
 -2.6932722233089521E+00 a       963     1     8     2    13
 -1.1997083743407453E+00 a       964     1     8     2    14
 -4.6644047720806631E-01 a       965     1     8     2    15
 -1.3246759012981197E+00 a       966     1     8     2    16
 -8.6163364670015419E-01 a       967     1     8     2    17
 -1.2825955555758328E+00 a       968     1     8     2    18
  1.5900691447733331E-02 a       969     1     8     2    19
  7.4960446521346702E-01 a       970     1     8     2    20
  1.9582946215170822E+00 a       971     1     8     2    21
 -5.2201749019453259E-01 a       972     1     8     2    22
  2.1483132980308874E+00 a       973     1     8     2    23
 -9.0443201129880590E-01 a       974     1     8     2    24
 -1.5918742253136566E+00 a       975     1     8     2    25
 -1.3958267417609541E-01 a       976     1     9     2     1
  1.1374625364845559E+00 a       977     1     9     2     2
 -4.9819264601847418E-01 a       978     1     9     2     3
  1.5403189012383773E+00 a       979     1     9     2     4
 -1.8895825419691864E-01 a       980     1     9     2     5
 -4.5269073065356519E-01 a       981     1     9     2     6
 -2.3913317157515726E-01 a       982     1     9     2     7
  1.4685364777486589E+00 a       983     1     9     2     8
  9.4779802725943707E-01 a       984     1     9     2     9
 -4.7785889364027634E-01 a       985     1     9     2    10
  9.3811782136893918E-01 a       986     1     9     2    11
 -1.7974408411349285E+00 a       987     1     9     2    12
 -3.1843272552016719E+00 a       988     1     9     2    13
  2.1727228877501998E+00 a       989     1     9     2    14
  2.1774281965754461E+00 a       990     1     9     2    15
 -6.2000025141474047E-01 a       991     1     9     2    16
  1.5459279994227983E+00 a       992     1     9     2    17
  6.8789052183889732E-01 a       993     1     9     2    18
  4.3072450960940029E-01 a       994     1     9     2    19
  1.8558754353883862E+00 a       995     1     9     2    20
  1.6155198156515544E+00 a       996     1     9     2    21
  4.0939697376584872E-01 a       997     1     9     2    22
  2.6706932513837454E+00 a       998     1     9     2    23
  2.6216883940776379E+00 a       999     1     9     2    24
 -6.7677143082177005E-01 a      1000     1     9     2    25
  1.6887103116099942E+00 a      1001     1    10     2     1
 -8.5571285100876326E-01 a      1002     1    10     2     2
 -9.6869851681642277E-03 a      1003     1    10     2     3
  3.8061693042767436E-02 a      1004     1    10     2     4
  1.5644841738548430E+00 a      1005     1    10     2     5
  1.6007973432804983E+00 a      1006     1    10     2     6
 -1.7934334967348524E+00 a      1007     1    10     2     7
 -8.0206134711278732E-01 a      1008     1    10     2     8
 -7.0455973832673757E-01 a      1009     1    10     2     9
 -3.0118986089218680E-01 a      1010     1    10     2    10
 -1.9159969739808017E-01 a      1011     1    10     2    11
  4.1485105117885196E-01 a      1012     1    10     2    12
  2.6995337657515873E-02 a      1013     1    10     2    13
  3.6088885653663716E-01 a      1014     1    10     2    14
 -1.6745021676549945E+00 a      1015     1    10     2    15
  8.0109684940321280E-01 a      1016     1    10     2    16
 -8.0501517052696731E-02 a      1017     1    10     2    17
 -2.0644533754933550E-01 a      1018     1    10     2    18
 -2.1291485354332362E+00 a      1019     1    10     2    19
 -1.1598654024441333E+00 a      1020     1    10     2    20
 -3.1913250066950988E-01 a      1021     1    10     2    21
  2.0968541126086411E+00 a      1022     1    10     2    22
  8.3176591472021211E-01 a      1023     1    10     2    23
 -1.7113770747244145E-01 a      1024     1    10     2    24
  3.0783333176643168E-01 a      1025     1    10     2    25
 -1.5401639176670852E+00 a      1026     1    11     2     1
  5.5321197100776220E-01 a      1027     1    11     2     2
 -3.7205916803147210E-01 a      1028     1    11     2     3
  1.0877546808440923E+00 a      1029     1    11     2     4
  2.4798538266094243E+00 a      1030     1    11     2     5
 -1.6099529160925856E+00 a      1031     1    11     2     6
  1.1297270036025067E+00 a      1032     1    11     2     7
  2.6448824107210750E-01 a      1033     1    11     2     8
 -1.7525733327626778E+00 a      1034     1    11     2     9
  1.9508825944007386E+00 a      1035     1    11     2    10
  3.2052257767724218E-01 a      1036     1    11     2    11
  2.5952749020261501E+00 a      1037     1    11     2    12
 -2.2738118341061653E+00 a      1038     1    11     2    13
 -4.6868223159296720E+00 a      1039     1    11     2    14
 -3.8738226554678832E+00 a      1040     1    11     2    15
  1.3628239509900706E+00 a      1041     1    11     2    16
 -2.8490854874966836E+00 a      1042     1    11     2    17
  2.1542995822106987E+00 a      1043     1    11     2    18
  1.9524612177189755E+00 a      1044     1    11     2    19
  1.0200083095345420E+00 a      1045     1    11     2    20
 -1.2348788422226276E-03 a      1046     1    11     2    21
 -1.4669711635075700E+00 a      1047     1    11     2    22
  4.8153087105092194E+00 a      1048     1    11     2    23
  2.2600087877765120E+00 a      1049     1    11     2    24
 -2.7769636309141341E+00 a      1050     1    11     2    25
 -6.7739878610118098E-02 a      1051     1    12     2     1
  1.4480536097123196E+00 a      1052     1    12     2     2
 -9.6294325938876657E-01 a      1053     1    12     2     3
  1.5866017406043369E+00 a      1054     1    12     2     4
  1.0135805486194815E+00 a      1055     1    12     2     5
  1.2352003988204523E+00 a      1056     1    12     2     6
  7.7348920791070341E-01 a      1057     1    12     2     7
 -2.6570590415948120E-01 a      1058     1    12     2     8
 -1.3395138576055010E+00 a      1059     1    12     2     9
  4.0957889968817213E-01 a      1060     1    12     2    10
  5.8453468958524468E-01 a      1061     1    12     2    11
 -9.7112751355147975E-01 a      1062     1    12     2    12
  8.3649070245869106E-01 a      1063     1    12     2    13
  2.1901517908768136E+00 a      1064     1    12     2    14
 -2.3680416185898209E-01 a      1065     1    12     2    15
 -7.8286490841462247E-02 a      1066     1    12     2    16
  1.3203147971008025E+00 a      1067     1    12     2    17
  9.6375621800312872E-01 a      1068     1    12     2    18
  5.0185076135583449E-02 a      1069     1    12     2    19
  9.0379951713625417E-01 a      1070     1    12     2    20
 -1.2932840696059662E+00 a      1071     1    12     2    21
 -3.2614155337019892E+00 a      1072     1    12     2    22
  1.3206162752511565E+00 a      1073     1    12     2    23
  2.0463020581640441E+00 a      1074     1    12     2    24
  1.1443092462491575E-01 a      1075     1    12     2    25
  1.3318196233924942E+00 a      1076     1    13     2     1
  7.4705770826938567E-01 a      1077     1    13     2     2
 -2.8369279066271509E+00 a      1078     1    13     2     3
  1.6680490249238826E+00 a      1079     1    13     2     4
  7.6929083283201039E-01 a      1080     1    13     2     5
 -4.2523687636305130E-01 a      1081     1    13     2     6
 -2.5271684403258425E+00 a      1082     1    13     2     7
  3.3754724364543951E+00 a      1083     1    13     2     8
  1.4277295788939945E-02 a      1084     1    13     2     9
 -1.0283520782205906E+00 a      1085     1    13     2    10
  8.8893200863707755E-01 a      1086     1    13     2    11
 -1.8759371310109376E-02 a      1087     1    13     2    12
  1.1639112191936645E+00 a      1088     1    13     2    13
  2.3473873419833922E+00 a      1089     1    13     2    14
  3.9051499687453499E+00 a      1090     1    13     2    15
 -9.0363505903105990E-01 a      1091     1    13     2    16
  2.6326658275424504E+00 a      1092     1    13     2    17
  6.1786716408220799E-01 a      1093     1    13     2    18
  2.2446307301944285E-01 a      1094     1    13     2    19
  2.8796116209710876E-01 a      1095     1    13     2    20
  2.1132895738675783E+00 a      1096     1    13     2    21
 -1.4003631787878885E+00 a      1097     1    13     2    22
  1.0118648466014937E+00 a      1098     1    13     2    23
  2.3245645024919672E+00 a      1099     1    13     2    24
 -2.0739180229693459E+00 a      1100     1    13     2    25
 -1.0581841563020222E+00 a      1101     1    14     2     1
 -3.5056213499254185E-01 a      1102     1    14     2     2
 -2.0291851337251918E+00 a      1103     1    14     2     3
  2.7241019865914060E+00 a      1104     1    14     2     4
 -1.6179790771634290E+00 a      1105     1    14     2     5
 -2.0166201455776913E+00 a      1106     1    14     2     6
  1.0838165675736435E+00 a      1107     1    14     2     7
  4.4585939752765869E-01 a      1108     1    14     2     8
  2.2455420889876692E+00 a      1109     1    14     2     9
  2.0184394489474955E+00 a      1110     1    14     2    10
  7.7760806656138159E-01 a      1111     1    14     2    11
 -7.7520660107385098E-01 a      1112     1    14     2    12
 -1.9346965896916484E+00 a      1113     1    14     2    13
 -9.8114791084419173E-01 a      1114     1    14     2    14
  1.2519896572133267E+00 a      1115     1    14     2    15
  1.7727449138679447E+00 a      1116     1    14     2    16
  1.9136790542817059E+00 a      1117     1    14     2    17
  1.5948798869684096E-02 a      1118     1    14     2    18
  1.6924976982386768E+00 a      1119     1    14     2    19
 -4.0721826301106800E-01 a      1120     1    14     2    20
 -1.8444629075328798E+00 a      1121     1    14     2    21
 -3.8611940046618685E+00 a      1122     1    14     2    22
  8.5905229967874908E-01 a      1123     1    14     2    23
  2.8231763672876804E+00 a      1124     1    14     2    24
 -2.0001397010607320E+00 a      1125     1    14     2    25
  1.1584662462565272E-01 a      1126     1    15     2     1
 -1.0593000387470226E+00 a      1127     1    15     2     2
  9.0349783579809984E-01 a      1128     1    15     2     3
  1.1771473683888498E-01 a      1129     1    15     2     4
 -1.9201240760110847E+00 a      1130     1    15     2     5
 -3.9118960402002195E-01 a      1131     1    15     2     6
  2.8388874621867362E+00 a      1132     1    15     2     7
  8.7481908869328928E-01 a      1133     1    15     2     8
 -2.4864833134086933E-01 a      1134     1    15     2     9
 -2.8444039460302845E-01 a      1135     1    15     2    10
 -5.2468644371784545E-01 a      1136     1    15     2    11
  9.5997669338775671E-01 a      1137     1    15     2    12
 -8.1872719255798909E-01 a      1138     1    15     2    13
 -1.2892436011624049E+00 a      1139     1    15     2    14
  1.4220510361500738E-01 a      1140     1    15     2    15
  6.2725290104121001E-01 a      1141     1    15     2    16
  9.0404327746479451E-01 a      1142     1    15     2    17
 -6.2012768055413003E-01 a      1143     1    15     2    18
 -1.0605915753623685E+00 a      1144     1    15     2    19
 -1.0424883385077039E+00 a      1145     1    15     2    20
  1.5319274930137963E-01 a      1146     1    15     2    21
 -2.2419523814636333E-01 a      1147     1    15     2    22
 -2.7074365728759142E+00 a      1148     1    15     2    23
 -2.4809905277585045E-01 a      1149     1    15     2    24
 -2.1773628821819684E+00 a      1150     1    15     2    25
  1.8509215460468256E+00 a      1151     1    16     2     1
  6.8528385546582615E-01 a      1152     1    16     2     2
  2.7853244619600848E-01 a      1153     1    16     2     3
 -4.3787252416344080E-01 a      1154     1    16     2     4
  7.9587981685309561E-01 a      1155     1    16     2     5
  7.8832873353835675E-01 a      1156     1    16     2     6
 -2.5361800583364053E-01 a      1157     1    16     2     7
 -4.5696980331680331E-01 a      1158     1    16     2     8
  7.1085709578097941E-02 a      1159     1    16     2     9
  6.1041902652291413E-01 a      1160     1    16     2    10
 -5.1172682736736308E-01 a      1161     1    16     2    11
  2.6228693004866788E-01 a      1162     1    16     2    12
  1.4524833272759148E+00 a      1163     1    16     2    13
  7.0129585807157702E-01 a      1164     1    16     2    14
 -6.1713498328564753E-01 a      1165     1    16     2    15
 -3.5402817282524329E-01 a      1166     1    16     2    16
  1.6311894539921974E+00 a      1167     1    16     2    17
  4.4718663773862416E-01 a      1168     1    16     2    18
 -1.1895196651527098E+00 a      1169     1    16     2    19
  3.1146990489867532E-01 a      1170     1    16     2    20
  2.9519429469480154E+00 a      1171     1    16     2    21
  1.1168302629056006E+00 a      1172     1    16     2    22
 -1.4255729950327138E+00 a      1173     1    16     2    23
  7.9119985297899376E-01 a      1174     1    16     2    24
 -1.7718411481557910E+00 a      1175     1    16     2    25
  4.7344446460586093E-01 a      1176     1    17     2     1
  1.7232816241299107E+00 a      1177     1    17     2     2
 -1.4107501734207488E+00 a      1178     1    17     2     3
 -2.4723368289979901E+00 a      1179     1    17     2     4
  1.4142627483695713E-01 a      1180     1    17     2     5
 -1.6098206473757946E+00 a      1181     1    17     2     6
 -1.7656471270870695E+00 a      1182     1    17     2     7
 -1.1603112185885851E+00 a      1183     1    17     2     8
 -4.6166118876265538E-01 a      1184     1    17     2     9
 -2.3668016032790626E-01 a      1185     1    17     2    10
  2.3224695975987513E+00 a      1186     1    17     2    11
 -2.9830575055562747E-01 a      1187     1    17     2    12
  2.0081067746209160E+00 a      1188     1    17     2    13
 -1.0288831415499573E+00 a      1189     1    17     2    14
 -1.5709804615571765E+00 a      1190     1    17     2    15
  1.2826984240790200E+00 a      1191     1    17     2    16
 -6.7032100683589828E+00 a      1192     1    17     2    17
  1.1769151462147718E+00 a      1193     1    17     2    18
  1.0184460191194313E+00 a      1194     1    17     2    19
  1.0024164598363400E-01 a      1195     1    17     2    20
 -1.3981143803482332E+00 a      1196     1    17     2    21
  1.5580953097210484E+00 a      1197     1    17     2    22
 -1.7753215844804391E+00 a      1198     1    17     2    23
 -1.0391378367168504E+00 a      1199     1    17     2    24
  3.2742112928568496E+00 a      1200     1    17     2    25
 -3.5020053635129106E-01 a      1201     1    18     2     1
 -2.2649079486381052E-01 a      1202     1    18     2     2
 -1.2489376414243707E+00 a      1203     1    18     2     3
 -1.2141052994440840E+00 a      1204     1    18     2     4
  5.9517752844684069E-01 a      1205     1    18     2     5
  6.4911859169924679E-01 a      1206     1    18     2     6
 -1.7176042574714148E+00 a      1207     1    18     2     7
  5.9959665917934757E-01 a      1208     1    18     2     8
  1.7533084117787843E+00 a      1209     1    18     2     9
 -9.6382771058320305E-01 a      1210     1    18     2    10
  1.4500203614876421E+00 a      1211     1    18     2    11
 -6.4919755916917621E-01 a      1212     1    18     2    12
  1.5527554971941344E+00 a      1213     1    18     2    13
  1.6248510010553976E+00 a      1214     1    18     2    14
  1.2317416988777474E+00 a      1215     1    18     2    15
 -1.1365916515564292E+00 a      1216     1    18     2    16
  2.2449075195846904E+00 a      1217     1    18     2    17
 -9.6717657183261063E-01 a      1218     1    18     2    18
 -9.8907738658721600E-01 a      1219     1    18     2    19
 -1.6802961380186088E+00 a      1220     1    18     2    20
 -2.2412785805416497E+00 a      1221     1    18     2    21
 -1.3610711963376059E+00 a      1222     1    18     2    22
 -9.1493049365275725E-01 a      1223     1    18     2    23
 -2.4660356300113184E+00 a      1224     1    18     2    24
 -1.8811691959124374E-01 a      1225     1    18     2    25
  5.7491594306502913E-02 a      1226     1    19     2     1
 -2.2122254526843924E-01 a      1227     1    19     2     2
  4.6873091829181268E-01 a      1228     1    19     2     3
 -2.2671848607412062E+00 a      1229     1    19     2     4
 -1.0507750339349890E-01 a      1230     1    19     2     5
  1.5100642136662172E+00 a      1231     1    19     2     6
 -2.0473152603569403E-01 a      1232     1    19     2     7
 -7.1589973291643710E-02 a      1233     1    19     2     8
 -7.8385567471120396E-02 a      1234     1    19     2     9
  3.9364039507709375E-01 a      1235     1    19     2    10
 -4.1210852212426696E-01 a      1236     1    19     2    11
  8.2113357335607962E-01 a      1237     1    19     2    12
  2.2342232400441242E+00 a      1238     1    19     2    13
  1.2963645170670587E-01 a      1239     1    19     2    14
  6.8963962350136265E-01 a      1240     1    19     2    15
 -1.0092592475458182E+00 a      1241     1    19     2    16
  2.0368659294001197E+00 a      1242     1    19     2    17
 -7.0755590483159236E-01 a      1243     1    19     2    18
  5.4570003246563435E-02 a      1244     1    19     2    19
 -3.2523144819658834E+00 a      1245     1    19     2    20
  4.8069687833287961E-01 a      1246     1    19     2    21
 -3.1262374492086076E-01 a      1247     1    19     2    22
 -1.5428440654971171E-01 a      1248     1    19     2    23
 -1.5491275656768544E+00 a      1249     1    19     2    24
  8.2731216427020482E-01 a      1250     1    19     2    25
  8.5119752347287514E-01 a      1251     1    20     2     1
  1.1712815847884168E+00 a      1252     1    20     2     2
  2.2990044143742744E-01 a      1253     1    20     2     3
 -6.4455680726221842E-01 a      1254     1    20     2     4
 -4.5529471798017984E-01 a      1255     1    20     2     5
  7.6857085624180987E-01 a      1256     1    20     2     6
 -2.4313754484337489E+00 a      1257     1    20     2     7
  1.0166447136167374E+00 a      1258     1    20     2     8
  2.1527080233343905E+00 a      1259     1    20     2     9
 -6.3002875748044995E-01 a      1260     1    20     2    10
  4.2243106394217239E-01 a      1261     1    20     2    11
 -9.2411338074125077E-02 a      1262     1    20     2    12
 -1.2017596057794588E+00 a      1263     1    20     2    13
  9.4341306679484246E-02 a      1264     1    20     2    14
  4.8520043636912696E-01 a      1265     1    20     2    15
 -2.6407234350153779E-02 a      1266     1    20     2    16
  1.0514147560033476E+00 a      1267     1    20     2    17
 -6.2375226840602738E-01 a      1268     1    20     2    18
 -9.2953634460983026E-01 a      1269     1    20     2    19
 -1.3423993464580891E-01 a      1270     1    20     2    20
  2.3871425233379564E+00 a      1271     1    20     2    21
  1.6079315245946066E+00 a      1272     1    20     2    22
 -6.1008103453380513E-01 a      1273     1    20     2    23
 -3.1877010064096606E-01 a      1274     1    20     2    24
 -1.5056295330354041E+00 a      1275     1    20     2    25
 -5.6201330362716045E-02 a      1276     1    21     2     1
 -4.9466815171053574E-01 a      1277     1    21     2     2
  8.7581851732074567E-01 a      1278     1    21     2     3
  1.2629812514762335E+00 a      1279     1    21     2     4
 -3.7319964441723164E-01 a      1280     1    21     2     5
 -1.7432975006997961E-01 a      1281     1    21     2     6
 -1.2667086077247919E-01 a      1282     1    21     2     7
 -5.1235056860879979E-01 a      1283     1    21     2     8
 -9.2719033580630120E-02 a      1284     1    21     2     9
 -2.6410634411057016E-01 a      1285     1    21     2    10
  1.6273751336514330E-01 a      1286     1    21     2    11
  8.6113689263738713E-01 a      1287     1    21     2    12
 -8.2504246751898902E-01 a      1288     1    21     2    13
  2.6568558446455599E+00 a      1289     1    21     2    14
 -1.2480973474249912E+00 a      1290     1    21     2    15
  1.0919839172370169E+00 a      1291     1    21     2    16
 -1.9465793486046887E+00 a      1292     1    21     2    17
 -1.7558415567186511E-01 a      1293     1    21     2    18
  1.0860944808246702E-01 a      1294     1    21     2    19
  2.4110744626356381E-01 a      1295     1    21     2    20
 -1.8669046584784890E-01 a      1296     1    21     2    21
  5.1526900778682916E-01 a      1297     1    21     2    22
 -6.6332494925615038E-01 a      1298     1    21     2    23
 -1.1246290436126023E+00 a      1299     1    21     2    24
  7.9316835899157767E-01 a      1300     1    21     2    25
 -1.7622072787390819E-01 a      1301     1    22     2     1
 -1.5275623969771044E+00 a      1302     1    22     2     2
  1.7156547839222198E+00 a      1303     1    22     2     3
  3.0618016268415866E+00 a      1304     1    22     2     4
  5.3655918781921352E-01 a      1305     1    22     2     5
  3.0622035762750188E-01 a      1306     1    22     2     6
  3.5131202808945394E-01 a      1307     1    22     2     7
 -1.3939687640958551E+00 a      1308     1    22     2     8
  1.5682279240123620E+00 a      1309     1    22     2     9
  2.2488665568909081E+00 a      1310     1    22     2    10
 -1.5305920886086930E+00 a      1311     1    22     2    11
  9.2987988394549348E-01 a      1312     1    22     2    12
  2.1681766896470380E+00 a      1313     1    22     2    13
 -8.4721132103984953E-01 a      1314     1    22     2    14
 -4.6672205986942228E-01 a      1315     1    22     2    15
 -3.1100613511704350E-01 a      1316     1    22     2    16
 -1.0093202539588535E+00 a      1317     1    22     2    17
 -2.5663218403568222E-01 a      1318     1    22     2    18
 -3.3621552642418523E-01 a      1319     1    22     2    19
 -5.9794449953100681E-01 a      1320     1    22     2    20
  3.8566614577658647E+00 a      1321     1    22     2    21
  5.2246107049612500E-01 a      1322     1    22     2    22
  1.5592336988239057E+00 a      1323     1    22     2    23
 -1.8773806723533093E+00 a      1324     1    22     2    24
 -1.3762100106498651E+00 a      1325     1    22     2    25
  8.3833403835559450E-01 a      1326     1    23     2     1
 -1.9847944068747575E-01 a      1327     1    23     2     2
  1.2732134932199801E+00 a      1328     1    23     2     3
  2.6001618203779429E+00 a      1329     1    23     2     4
 -2.8042726853753135E+00 a      1330     1    23     2     5
 -2.7038851816502291E-01 a      1331     1    23     2     6
  1.5585251278804971E-01 a      1332     1    23     2     7
 -1.1231069757087131E+00 a      1333     1    23     2     8
 -3.3781058220863863E-01 a      1334     1    23     2     9
 -6.0083971050467200E-01 a      1335     1    23     2    10
 -7.3200485775133428E-01 a      1336     1    23     2    11
  5.6727062084233593E-01 a      1337     1    23     2    12
  8.7720018845904346E-01 a      1338     1    23     2    13
  9.0781187652080386E-01 a      1339     1    23     2    14
  3.8527134827076542E-01 a      1340     1    23     2    15
 -1.0173333023316038E+00 a      1341     1    23     2    16
 -1.9052447621663871E+00 a      1342     1    23     2    17
  2.3345978860332926E-02 a      1343     1    23     2    18
  4.8528456978538370E-01 a      1344     1    23     2    19
  2.8904239092899724E+00 a      1345     1    23     2    20
  1.9189603912095896E+00 a      1346     1    23     2    21
  2.1838102008020845E+00 a      1347     1    23     2    22
 -1.2769190836605191E+00 a      1348     1    23     2    23
  2.6038234420108575E+00 a      1349     1    23     2    24
  1.7192379644460032E-01 a      1350     1    23     2    25
  8.4950624475889558E-01 a      1351     1    24     2     1
  6.6343791495570337E-01 a      1352     1    24     2     2
 -4.8624990546632957E-01 a      1353     1    24     2     3
 -7.6437593728863573E-01 a      1354     1    24     2     4
 -5.2157099727855472E-01 a      1355     1    24     2     5
  3.2726377565243053E-01 a      1356     1    24     2     6
 -4.1303321126855214E-01 a      1357     1    24     2     7
  2.0619026281259090E+00 a      1358     1    24     2     8
  1.2583705825302487E+00 a      1359     1    24     2     9
  1.0462793286226324E+00 a      1360     1    24     2    10
  9.7734310805264635E-01 a      1361     1    24     2    11
  6.8407549808409318E-01 a      1362     1    24     2    12
  9.9884082369287541E-01 a      1363     1    24     2    13
 -3.1004164644556509E-01 a      1364     1    24     2    14
  1.6790602054857851E+00 a      1365     1    24     2    15
 -4.2465117774511474E-01 a      1366     1    24     2    16
  1.6526001884055459E+00 a      1367     1    24     2    17
  1.3930595913069608E+00 a      1368     1    24     2    18
 -3.6219319232445885E-01 a      1369     1    24     2    19
 -1.5302106531074913E+00 a      1370     1    24     2    20
 -4.2197267289018625E-01 a      1371     1    24     2    21
 -9.2201296317121140E-01 a      1372     1    24     2    22
  1.7075296863717755E+00 a      1373     1    24     2    23
  1.0311780404619859E+00 a      1374     1    24     2    24
 -1.0089868968827547E+00 a      1375     1    24     2    25
  1.4239944069478003E+00 a      1376     1    25     2     1
 -1.7593928458828856E+00 a      1377     1    25     2     2
 -1.4862926926245579E+00 a      1378     1    25     2     3
 -1.1860056662006215E+00 a      1379     1    25     2     4
  6.1821901664518182E-02 a      1380     1    25     2     5
  6.7989704883368429E-01 a      1381     1    25     2     6
  4.8716192275358172E-01 a      1382     1    25     2     7
  2.6076878409779963E-01 a      1383     1    25     2     8
 -1.9125452242301375E-01 a      1384     1    25     2     9
  9.8376272504919218E-02 a      1385     1    25     2    10
 -1.2958136174093424E-01 a      1386     1    25     2    11
  1.5980731155245675E-01 a      1387     1    25     2    12
 -1.3826224379106091E+00 a      1388     1    25     2    13
  1.1420462356464165E+00 a      1389     1    25     2    14
 -1.9117554804880481E+00 a      1390     1    25     2    15
 -4.0871195727306225E-01 a      1391     1    25     2    16
  1.5348908778687449E+00 a      1392     1    25     2    17
 -9.2263758016717567E-01 a      1393     1    25     2    18
 -1.0772260821419921E+00 a      1394     1    25     2    19
  2.6689134847136714E-01 a      1395     1    25     2    20
  7.0137403257925046E-01 a      1396     1    25     2    21
 -1.2742042608814599E+00 a      1397     1    25     2    22
  5.4970296593025958E-01 a      1398     1    25     2    23
 -2.2542535725202265E-01 a      1399     1    25     2    24
 -1.3929992904513153E+00 a      1400     1    25     2    25
 -4.1608833811349633E-01 b      1401     2     1
  1.2392839043845965E+00 b      1402     2     2
  3.0123040534651953E+00 b      1403     2     3
 -1.2185016954341371E+01 b      1404     2     4
  5.1429848506452007E+00 b      1405     2     5
  5.4671914234388792E+00 b      1406     2     6
  7.6242704665591692E+00 b      1407     2     7
  3.3868520980962464E+00 b      1408     2     8
 -4.1729564821218830E+00 b      1409     2     9
 -4.6823271635260273E+00 b      1410     2    10
 -7.2535551011100825E+00 b      1411     2    11
 -3.8866700435810408E-01 b      1412     2    12
 -2.3073360191272148E+00 b      1413     2    13
 -5.1194559554762300E+00 b      1414     2    14
  4.1304551680423103E+00 b      1415     2    15
  3.1953213551929616E+00 b      1416     2    16
  1.1706000730872170E+00 b      1417     2    17
 -4.7032715138567740E+00 b      1418     2    18
 -4.7519414129997744E+00 b      1419     2    19
 -1.0759377213723504E+00 b      1420     2    20
 -8.2100674363854664E-01 b      1421     2    21
 -4.3374167245771877E+00 b      1422     2    22
 -2.6021492925837784E+00 b      1423     2    23
 -5.7654014577153765E+00 b      1424     2    24
  5.8756758442919219E+00 b      1425     2    25
 -7.0678657664664379E-01 a      1426     2     1     3     1
 -2.6314716100350899E-01 a      1427     2     2     3     1
  2.4406939072824682E-01 a      1428     2     3     3     1
  9.0672620037758070E-02 a      1429     2     4     3     1
  1.2100966396028699E-01 a      1430     2     5     3     1
 -3.0858794929171640E-01 a      1431     2     6     3     1
 -2.3688862489108711E-01 a      1432     2     7     3     1
  2.0810102375067929E-01 a      1433     2     8     3     1
  1.5648198987863202E-01 a      1434     2     9     3     1
 -1.7518956556937995E-01 a      1435     2    10     3     1
  2.5838845284532486E-01 a      1436     2    11     3     1
  1.1583748134614344E+00 a      1437     2    12     3     1
 -1.8284783685042375E-01 a      1438     2    13     3     1
  9.7132424578282084E-01 a      1439     2    14     3     1
 -1.8582921766040891E-01 a      1440     2    15     3     1
  7.9747366809407350E-01 a      1441     2    16     3     1
  1.0948060285850846E-01 a      1442     2    17     3     1
  2.5369620267877652E-01 a      1443     2    18     3     1
  3.3021879665453807E-01 a      1444     2    19     3     1
 -1.0387130027612816E-01 a      1445     2    20     3     1
  1.4133545134065831E-01 a      1446     2    21     3     1
 -1.5969193425592934E-01 a      1447     2    22     3     1
 -1.2701589309090014E-01 a      1448     2    23     3     1
 -1.8939413982271860E-01 a      1449     2    24     3     1
 -1.3934046256957722E-01 a      1450     2    25     3     1
 -1.8725628224834847E+00 b      1451     3     1
