################################################################################
# Neural network connection values (weights and biases).
################################################################################
# Col  Name       Description
################################################################################
# 1    connection Neural network connection value.
# 2    t          Connection type (a = weight, b = bias).
# 3    index      Index enumerating weights.
# 4    l_s        Starting point layer (end point layer for biases).
# 5    n_s        Starting point neuron in starting layer (end point neuron for biases).
# 6    l_e        End point layer.
# 7    n_e        End point neuron in end layer.
################################################################################
#                      1 2         3     4     5     6     7
#             connection t     index   l_s   n_s   l_e   n_e
############################################################
 -7.6478041077631485E+00 a         1     0     1     1     1
 -3.5777663617674849E+00 a         2     0     1     1     2
 -1.3612679081230871E+01 a         3     0     1     1     3
  5.7538078786469073E+00 a         4     0     1     1     4
 -3.7592729539606353E+01 a         5     0     1     1     5
  2.3854971290233568E+01 a         6     0     1     1     6
 -1.2019687263895158E+01 a         7     0     1     1     7
 -1.8196278132551559E+01 a         8     0     1     1     8
 -1.2108474845273598E+01 a         9     0     1     1     9
  1.8058438472233927E+01 a        10     0     1     1    10
  5.3969625315913108E+00 a        11     0     1     1    11
  1.2617459128941118E+01 a        12     0     1     1    12
  3.3519128869330781E+00 a        13     0     1     1    13
  1.7188554197411644E+01 a        14     0     1     1    14
  4.3646380097697985E+00 a        15     0     1     1    15
 -3.9916133889487262E+00 a        16     0     1     1    16
  4.9201631350020385E+00 a        17     0     1     1    17
  1.1301630803720252E+01 a        18     0     1     1    18
 -8.2764645365832372E+00 a        19     0     1     1    19
 -7.7819160480292721E-02 a        20     0     1     1    20
 -3.5940716980222277E+01 a        21     0     1     1    21
 -1.2870174974105661E+01 a        22     0     1     1    22
 -1.1720307108147056E+01 a        23     0     1     1    23
  3.5251027690691252E+00 a        24     0     1     1    24
  8.9929415741850836E+00 a        25     0     1     1    25
  3.4064939393894065E+01 a        26     0     2     1     1
 -2.0474150583563489E+01 a        27     0     2     1     2
 -1.3539870441206959E+01 a        28     0     2     1     3
  1.9216141722519872E+01 a        29     0     2     1     4
  1.9053377029640810E+01 a        30     0     2     1     5
  2.6199748017786899E+01 a        31     0     2     1     6
  1.9713415962310638E+01 a        32     0     2     1     7
 -2.1106711902573306E+01 a        33     0     2     1     8
  9.7694733985423188E+00 a        34     0     2     1     9
 -1.9564095503577765E+00 a        35     0     2     1    10
  3.5638640808039398E+01 a        36     0     2     1    11
  1.0159743174729993E+01 a        37     0     2     1    12
 -1.5208014872012416E+01 a        38     0     2     1    13
 -8.4856620591561018E+00 a        39     0     2     1    14
  6.8748107792210984E+00 a        40     0     2     1    15
  4.0516177885136877E+01 a        41     0     2     1    16
  3.1931019085673803E+01 a        42     0     2     1    17
 -3.2692960438049639E+01 a        43     0     2     1    18
  1.3275382744698877E+01 a        44     0     2     1    19
 -4.7647109322369850E+01 a        45     0     2     1    20
 -2.4723687496771010E+01 a        46     0     2     1    21
 -1.4527350671102035E+01 a        47     0     2     1    22
  8.5618840645246053E+00 a        48     0     2     1    23
 -4.2017991224621891E+00 a        49     0     2     1    24
  7.1003643566919559E+00 a        50     0     2     1    25
  4.1969939675939116E+00 a        51     0     3     1     1
  2.3254695708728077E+00 a        52     0     3     1     2
  2.4189011557670248E+01 a        53     0     3     1     3
 -1.6277864006719440E+01 a        54     0     3     1     4
  8.8273851645620560E+00 a        55     0     3     1     5
  6.6078379274914774E+00 a        56     0     3     1     6
  2.7226694428594795E+00 a        57     0     3     1     7
  1.5450342015115401E+01 a        58     0     3     1     8
 -1.0249968830234653E+00 a        59     0     3     1     9
  5.5565099506556876E+00 a        60     0     3     1    10
 -2.0053705288029096E+01 a        61     0     3     1    11
 -1.1118291458059000E+01 a        62     0     3     1    12
  2.4368126517872337E+01 a        63     0     3     1    13
  2.4654521708985868E+01 a        64     0     3     1    14
  1.1029621736890614E+00 a        65     0     3     1    15
 -5.6768892468242615E+00 a        66     0     3     1    16
 -1.6801592577186813E+01 a        67     0     3     1    17
 -4.1107830752912157E+01 a        68     0     3     1    18
 -2.0881555236144507E+01 a        69     0     3     1    19
 -1.1027754198005628E+01 a        70     0     3     1    20
 -8.5306624551896064E+00 a        71     0     3     1    21
  5.9070671366556802E+00 a        72     0     3     1    22
 -6.1067470276861897E+00 a        73     0     3     1    23
  6.6216929865791103E+00 a        74     0     3     1    24
 -2.7134653716183678E+01 a        75     0     3     1    25
  1.2453501270748806E+01 a        76     0     4     1     1
  9.2266376269441874E+00 a        77     0     4     1     2
  3.5561047325523027E+01 a        78     0     4     1     3
 -1.1354976099686306E+01 a        79     0     4     1     4
  7.2353196685309342E+01 a        80     0     4     1     5
 -3.5020109960185891E+01 a        81     0     4     1     6
  3.4541955750488071E+01 a        82     0     4     1     7
  3.3352910986333882E+01 a        83     0     4     1     8
  1.8983484047765092E+01 a        84     0     4     1     9
 -4.0220874404503789E+01 a        85     0     4     1    10
 -9.1961748201256732E+00 a        86     0     4     1    11
 -2.2922986794663618E+01 a        87     0     4     1    12
  3.7983917376123517E+00 a        88     0     4     1    13
 -3.1453460638776484E+01 a        89     0     4     1    14
 -9.4327094683145667E+00 a        90     0     4     1    15
  7.1595100196368975E+00 a        91     0     4     1    16
 -8.6439800437135208E+00 a        92     0     4     1    17
 -2.1199098665711240E+01 a        93     0     4     1    18
  1.5331239894577465E+01 a        94     0     4     1    19
 -6.8845064969635654E+00 a        95     0     4     1    20
  6.8725347569582794E+01 a        96     0     4     1    21
  2.7940114356122500E+01 a        97     0     4     1    22
  1.9807157300257881E+01 a        98     0     4     1    23
 -1.0821761121251781E+01 a        99     0     4     1    24
 -1.9925790761795554E+01 a       100     0     4     1    25
 -8.0198835082266058E+01 a       101     0     5     1     1
  4.3035056974845553E+01 a       102     0     5     1     2
  5.6911102519270976E+01 a       103     0     5     1     3
 -4.1384931727564961E+01 a       104     0     5     1     4
 -2.6085103563152742E+01 a       105     0     5     1     5
 -6.0268376598754166E+01 a       106     0     5     1     6
 -3.1200952992718040E+01 a       107     0     5     1     7
  5.0813431871513167E+01 a       108     0     5     1     8
 -2.1564251985932788E+01 a       109     0     5     1     9
  7.8298722099468077E-01 a       110     0     5     1    10
 -8.1173843564661212E+01 a       111     0     5     1    11
 -1.5186284006455708E+01 a       112     0     5     1    12
  2.7384028648358971E+01 a       113     0     5     1    13
  2.1975983580054162E+01 a       114     0     5     1    14
 -1.3889021982182495E+01 a       115     0     5     1    15
 -8.4450443962309436E+01 a       116     0     5     1    16
 -7.1806287619927417E+01 a       117     0     5     1    17
  6.9635996007952656E+01 a       118     0     5     1    18
 -3.3725986638351181E+01 a       119     0     5     1    19
  9.4914767940398008E+01 a       120     0     5     1    20
  5.6756067796253788E+01 a       121     0     5     1    21
  3.9669463886770288E+01 a       122     0     5     1    22
 -1.3970361972175452E+01 a       123     0     5     1    23
  1.1855295780172661E+01 a       124     0     5     1    24
 -5.1653785596237372E+00 a       125     0     5     1    25
 -2.7641279076382425E+01 a       126     0     6     1     1
 -2.3399605646043313E+00 a       127     0     6     1     2
 -4.0966769098401620E+01 a       128     0     6     1     3
  3.6693332119554064E+01 a       129     0     6     1     4
 -3.2835746913773271E+01 a       130     0     6     1     5
 -1.8607580562767247E+01 a       131     0     6     1     6
 -8.5912545749442941E+00 a       132     0     6     1     7
 -4.0548833364647209E+01 a       133     0     6     1     8
  1.0587050762437386E+01 a       134     0     6     1     9
 -8.3401070747249761E+00 a       135     0     6     1    10
  4.7691531808768715E+01 a       136     0     6     1    11
  2.5430242657802712E+01 a       137     0     6     1    12
 -6.0796728704674628E+01 a       138     0     6     1    13
 -5.4313743010488302E+01 a       139     0     6     1    14
  1.0408816228986186E+01 a       140     0     6     1    15
  1.0788692755754131E+01 a       141     0     6     1    16
  3.0766641382307668E+01 a       142     0     6     1    17
  5.6245537158178536E+01 a       143     0     6     1    18
  5.3643205629851707E+01 a       144     0     6     1    19
  3.8377698570244370E+00 a       145     0     6     1    20
  7.1918283304140651E+00 a       146     0     6     1    21
 -1.3936724637979415E+01 a       147     0     6     1    22
  1.0748969074279715E+01 a       148     0     6     1    23
 -2.1998796703601972E+01 a       149     0     6     1    24
  5.6795848432981970E+01 a       150     0     6     1    25
 -2.7942071976779048E+00 a       151     0     7     1     1
 -1.1154977108417127E+01 a       152     0     7     1     2
 -3.7338255342224677E+01 a       153     0     7     1     3
  8.7328640252636145E+00 a       154     0     7     1     4
 -5.1167288313363983E+01 a       155     0     7     1     5
  5.3071817628599360E+00 a       156     0     7     1     6
 -4.7664785847552828E+01 a       157     0     7     1     7
 -2.5627188724489187E+01 a       158     0     7     1     8
 -9.0060132312852623E+00 a       159     0     7     1     9
  3.9228506480809081E+01 a       160     0     7     1    10
  3.8685989599665227E+00 a       161     0     7     1    11
  2.3518909503902609E+01 a       162     0     7     1    12
 -1.4964307908715368E+01 a       163     0     7     1    13
  2.5580271713699954E+01 a       164     0     7     1    14
  9.7879793406837123E+00 a       165     0     7     1    15
 -8.3751225955124582E+00 a       166     0     7     1    16
  4.7373985872811604E+00 a       167     0     7     1    17
  2.3272290130004759E+01 a       168     0     7     1    18
 -7.4445562918239911E+00 a       169     0     7     1    19
  1.5300949995323785E+01 a       170     0     7     1    20
 -4.9064855395835224E+01 a       171     0     7     1    21
 -2.3410360969054501E+01 a       172     0     7     1    22
 -1.5293500766526728E+01 a       173     0     7     1    23
  1.4691621054409513E+01 a       174     0     7     1    24
  2.1397958016298599E+01 a       175     0     7     1    25
  8.0946503994797638E+01 a       176     0     8     1     1
 -3.0185026141880471E+01 a       177     0     8     1     2
 -7.0736920649710726E+01 a       178     0     8     1     3
  4.9788648790048903E+01 a       179     0     8     1     4
  3.3880673210817037E+01 a       180     0     8     1     5
  4.9111931671223807E+01 a       181     0     8     1     6
  3.2668488807374203E+01 a       182     0     8     1     7
 -7.5209505830185506E+01 a       183     0     8     1     8
  3.5156914167728928E+01 a       184     0     8     1     9
  2.4021810298222103E+01 a       185     0     8     1    10
  8.0416093977669618E+01 a       186     0     8     1    11
  1.2782577505770291E+01 a       187     0     8     1    12
 -3.0057546092158867E+00 a       188     0     8     1    13
 -2.2840980754832412E+01 a       189     0     8     1    14
  1.3319334468271366E+01 a       190     0     8     1    15
  6.8421912064604257E+01 a       191     0     8     1    16
  8.4864207186423485E+01 a       192     0     8     1    17
 -4.2586065247357212E+01 a       193     0     8     1    18
  5.1207761592146717E+01 a       194     0     8     1    19
 -5.1932156757776568E+01 a       195     0     8     1    20
 -3.2858204765268233E+01 a       196     0     8     1    21
 -6.1288805457033043E+01 a       197     0     8     1    22
 -8.1691125016201447E+00 a       198     0     8     1    23
 -1.5054327432749702E+01 a       199     0     8     1    24
 -9.6053741666540322E+00 a       200     0     8     1    25
  1.0200185763514941E+02 a       201     0     9     1     1
 -2.9673565487993749E+00 a       202     0     9     1     2
  5.6432273014870120E+01 a       203     0     9     1     3
 -5.5114705138021975E+01 a       204     0     9     1     4
  6.4103120769420855E+01 a       205     0     9     1     5
  3.1974532539266093E+01 a       206     0     9     1     6
  8.3874520574675913E+00 a       207     0     9     1     7
  7.0834250668388947E+01 a       208     0     9     1     8
 -3.3284240553022727E+01 a       209     0     9     1     9
  1.1322370924993079E+00 a       210     0     9     1    10
 -7.0903476898569167E+01 a       211     0     9     1    11
 -9.8978194874613283E+00 a       212     0     9     1    12
  9.8555053753895962E+01 a       213     0     9     1    13
  7.9829408297663818E+01 a       214     0     9     1    14
 -5.2175270006307279E+01 a       215     0     9     1    15
  7.5923636683786562E+00 a       216     0     9     1    16
 -2.4048854814548054E+01 a       217     0     9     1    17
 -9.2037386257683433E+00 a       218     0     9     1    18
 -1.0150277612356923E+02 a       219     0     9     1    19
  6.4586547534453601E+01 a       220     0     9     1    20
  7.1704696640928818E+00 a       221     0     9     1    21
  1.5912131685191779E+01 a       222     0     9     1    22
 -6.3916071975192876E+00 a       223     0     9     1    23
  4.5263656545673896E+01 a       224     0     9     1    24
 -6.4213120166233935E+01 a       225     0     9     1    25
 -5.6333177818168174E+00 a       226     0    10     1     1
  8.7202351762856871E+00 a       227     0    10     1     2
  2.5113346831742163E+01 a       228     0    10     1     3
 -1.5620890811161463E+00 a       229     0    10     1     4
  1.0427092390262706E+01 a       230     0    10     1     5
  1.7810969797634124E+00 a       231     0    10     1     6
  1.1782837436531080E+01 a       232     0    10     1     7
  7.1356155251759414E+00 a       233     0    10     1     8
  7.8880762219073042E-01 a       234     0    10     1     9
 -1.6837274015714080E+01 a       235     0    10     1    10
 -2.5819457389801550E+00 a       236     0    10     1    11
 -2.2062951736107383E+01 a       237     0    10     1    12
  1.7583430953551371E+01 a       238     0    10     1    13
 -1.4510090606744741E+01 a       239     0    10     1    14
 -9.2066060458429479E+00 a       240     0    10     1    15
  6.3839656820302648E-01 a       241     0    10     1    16
  1.2290847304029953E+01 a       242     0    10     1    17
 -2.1897633784913598E+01 a       243     0    10     1    18
  6.7975228903088984E+00 a       244     0    10     1    19
 -9.5934983874340514E+00 a       245     0    10     1    20
  1.2439797254906935E+01 a       246     0    10     1    21
 -1.6771926095973635E+00 a       247     0    10     1    22
  3.2371637879758768E+00 a       248     0    10     1    23
 -7.6726191962050692E+00 a       249     0    10     1    24
 -3.9049030141477967E+00 a       250     0    10     1    25
 -2.8641994274717412E+01 a       251     0    11     1     1
  2.5792560251159394E+01 a       252     0    11     1     2
  1.3757525375276131E+01 a       253     0    11     1     3
 -5.1810616108387364E+01 a       254     0    11     1     4
 -3.9142539371978380E+01 a       255     0    11     1     5
 -7.6697684803977695E-01 a       256     0    11     1     6
 -1.3392966449719175E+01 a       257     0    11     1     7
  7.0091897764120446E+01 a       258     0    11     1     8
 -2.2864346236149530E+01 a       259     0    11     1     9
 -4.3901843954152092E+01 a       260     0    11     1    10
 -2.6696320340469992E+01 a       261     0    11     1    11
 -1.8790955147583652E+01 a       262     0    11     1    12
 -9.1799921149159989E+00 a       263     0    11     1    13
  2.3317336811389722E+00 a       264     0    11     1    14
 -3.3346021233081635E+00 a       265     0    11     1    15
 -2.3105056603108260E+01 a       266     0    11     1    16
 -6.4943985105779063E+01 a       267     0    11     1    17
 -9.3383813234988686E+00 a       268     0    11     1    18
 -5.6323789534846391E+01 a       269     0    11     1    19
 -7.6475178575115761E+00 a       270     0    11     1    20
 -2.0117365211836752E+01 a       271     0    11     1    21
  4.7846041629704743E+01 a       272     0    11     1    22
  4.7506882651750367E+01 a       273     0    11     1    23
  9.7048715852149670E+00 a       274     0    11     1    24
  9.4361517945053706E+00 a       275     0    11     1    25
 -2.0051884425057389E+02 a       276     0    12     1     1
  1.3819166997022073E+01 a       277     0    12     1     2
 -5.9390106560439897E+01 a       278     0    12     1     3
  8.0057973415867011E+01 a       279     0    12     1     4
 -6.9296948110637544E+01 a       280     0    12     1     5
 -3.9479956926125936E+01 a       281     0    12     1     6
  7.2448024949711423E+00 a       282     0    12     1     7
 -9.3043419565593851E+01 a       283     0    12     1     8
  5.5674631640031208E+01 a       284     0    12     1     9
 -9.4219333622461434E+00 a       285     0    12     1    10
  6.5834632989612416E+01 a       286     0    12     1    11
 -1.6771187049732443E+01 a       287     0    12     1    12
 -1.1433191419727036E+02 a       288     0    12     1    13
 -8.8529350135597298E+01 a       289     0    12     1    14
  9.9731642765548102E+01 a       290     0    12     1    15
 -3.9362446748600320E+01 a       291     0    12     1    16
  1.0334828748457305E+01 a       292     0    12     1    17
 -3.8799147513666385E+00 a       293     0    12     1    18
  1.4749580178198266E+02 a       294     0    12     1    19
 -1.7506116639234011E+02 a       295     0    12     1    20
 -1.1849079897066179E+01 a       296     0    12     1    21
 -2.0137682342736142E+01 a       297     0    12     1    22
 -2.1789961995887666E+01 a       298     0    12     1    23
 -5.0786450582209866E+01 a       299     0    12     1    24
  5.2823961507391658E+01 a       300     0    12     1    25
 -8.0110392769967511E+00 a       301     0    13     1     1
 -7.8409734829944675E+00 a       302     0    13     1     2
  6.0530046973108176E+00 a       303     0    13     1     3
  1.4125234206698336E+01 a       304     0    13     1     4
  5.6381640894580229E+00 a       305     0    13     1     5
 -3.0159966130740536E+00 a       306     0    13     1     6
 -7.4380957117984128E+00 a       307     0    13     1     7
 -1.3905010495480655E+01 a       308     0    13     1     8
  1.2358021063876743E+00 a       309     0    13     1     9
  1.0446790782588504E+01 a       310     0    13     1    10
  2.9514173790214810E+00 a       311     0    13     1    11
  4.5934620411313025E+00 a       312     0    13     1    12
  1.0219924818150336E+01 a       313     0    13     1    13
  2.1086239184750473E+00 a       314     0    13     1    14
 -4.6263027074219956E+00 a       315     0    13     1    15
  1.6635410290527066E+00 a       316     0    13     1    16
  1.7495994898720522E+01 a       317     0    13     1    17
  5.0960017430791256E+00 a       318     0    13     1    18
  2.0470714391973338E+01 a       319     0    13     1    19
  5.3226778427676891E+00 a       320     0    13     1    20
  1.1601793717892768E+01 a       321     0    13     1    21
 -1.1083142924534574E+01 a       322     0    13     1    22
 -2.7787614936044502E+01 a       323     0    13     1    23
 -3.9041324608108017E+00 a       324     0    13     1    24
 -2.4065705858685318E+00 a       325     0    13     1    25
  7.6114844589166154E+01 a       326     0    14     1     1
 -7.1105409577056093E+00 a       327     0    14     1     2
  2.2230767735686896E+01 a       328     0    14     1     3
 -2.9899917099629519E+01 a       329     0    14     1     4
  1.9360233206550127E+01 a       330     0    14     1     5
  1.7880018507986961E+01 a       331     0    14     1     6
 -1.0202394605004004E+01 a       332     0    14     1     7
  3.5658571612867263E+01 a       333     0    14     1     8
 -2.2132146469376174E+01 a       334     0    14     1     9
  4.9085864077708816E+00 a       335     0    14     1    10
 -1.8547292400743398E+01 a       336     0    14     1    11
  8.3062608068756223E+00 a       337     0    14     1    12
  4.2230052704837945E+01 a       338     0    14     1    13
  2.9538688009112082E+01 a       339     0    14     1    14
 -4.4318964039131153E+01 a       340     0    14     1    15
  1.6976353229147744E+01 a       341     0    14     1    16
  2.8067945915534159E-02 a       342     0    14     1    17
 -6.4813609536798005E+00 a       343     0    14     1    18
 -5.2393854972108862E+01 a       344     0    14     1    19
  7.4155183896535206E+01 a       345     0    14     1    20
  3.8252021423639451E+00 a       346     0    14     1    21
  1.6144326840505592E+00 a       347     0    14     1    22
  7.1341975501178583E+00 a       348     0    14     1    23
  1.6927737331639257E+01 a       349     0    14     1    24
 -1.6373534983313302E+01 a       350     0    14     1    25
  6.3948155379403691E+00 a       351     0    15     1     1
  5.9107051292291879E-01 a       352     0    15     1     2
  1.2233442587074284E+00 a       353     0    15     1     3
 -3.5264069385025678E+00 a       354     0    15     1     4
  1.1609278588210486E+01 a       355     0    15     1     5
  4.0383377813618093E+00 a       356     0    15     1     6
  1.7270416424899324E+01 a       357     0    15     1     7
  8.1727265924232917E+00 a       358     0    15     1     8
  8.1609991248950520E-01 a       359     0    15     1     9
 -1.1572348316663206E+01 a       360     0    15     1    10
  2.1045745966027529E+00 a       361     0    15     1    11
  1.6633031350171350E+00 a       362     0    15     1    12
 -6.4872554308351216E+00 a       363     0    15     1    13
  2.7175745513746352E+00 a       364     0    15     1    14
  3.8789038452664997E+00 a       365     0    15     1    15
  1.3249355949232986E+00 a       366     0    15     1    16
 -1.8107395909472832E+01 a       367     0    15     1    17
  1.7478640325294619E+00 a       368     0    15     1    18
 -8.0084924666563282E+00 a       369     0    15     1    19
 -2.9291945122729208E+00 a       370     0    15     1    20
  8.1074994740845003E+00 a       371     0    15     1    21
  1.4245170034394773E+01 a       372     0    15     1    22
  3.2900423576452469E+00 a       373     0    15     1    23
 -3.3048624326643128E+00 a       374     0    15     1    24
 -1.0864111489491288E+01 a       375     0    15     1    25
 -2.6387613088688218E+00 a       376     0    16     1     1
 -1.6359483605906833E+00 a       377     0    16     1     2
 -1.8647398773488633E+00 a       378     0    16     1     3
  1.2897298384473572E+00 a       379     0    16     1     4
 -3.3863128413201276E+00 a       380     0    16     1     5
 -3.6628601504725178E+00 a       381     0    16     1     6
 -1.1882402044543094E+01 a       382     0    16     1     7
 -2.8323264661125308E-01 a       383     0    16     1     8
  2.6845834365071192E-01 a       384     0    16     1     9
  7.3660372229697346E+00 a       385     0    16     1    10
 -1.4619908031832345E+00 a       386     0    16     1    11
  4.6739432611423757E+00 a       387     0    16     1    12
 -1.0598195768703529E+00 a       388     0    16     1    13
  3.6263933088355724E+00 a       389     0    16     1    14
 -3.8045073731375090E-01 a       390     0    16     1    15
  3.7075465964895876E-01 a       391     0    16     1    16
  5.9634004069337685E+00 a       392     0    16     1    17
  3.5010887871367387E+00 a       393     0    16     1    18
  4.0507106636646144E+00 a       394     0    16     1    19
  4.4104515435139042E+00 a       395     0    16     1    20
 -5.7019460024330817E+00 a       396     0    16     1    21
 -6.3492079402000536E+00 a       397     0    16     1    22
 -6.4012411015618165E+00 a       398     0    16     1    23
  4.6020227153810112E+00 a       399     0    16     1    24
  4.2744143168952045E+00 a       400     0    16     1    25
  4.2871963172520161E+01 a       401     0    17     1     1
 -7.8260856385997153E+00 a       402     0    17     1     2
  8.4154977873461441E+00 a       403     0    17     1     3
 -2.1068292334000663E+01 a       404     0    17     1     4
  3.1053407024890434E+00 a       405     0    17     1     5
  7.6162858210705240E+00 a       406     0    17     1     6
 -1.9903687595567197E+00 a       407     0    17     1     7
  1.1490844218798046E+01 a       408     0    17     1     8
 -1.3458921537739174E+01 a       409     0    17     1     9
  1.2001266614944536E+01 a       410     0    17     1    10
  6.2771773119087841E+00 a       411     0    17     1    11
 -8.4493524958784683E-01 a       412     0    17     1    12
  1.1192897576374576E+00 a       413     0    17     1    13
  7.6393433436973099E+00 a       414     0    17     1    14
 -1.3472583725125739E+01 a       415     0    17     1    15
  5.0838239796066693E+00 a       416     0    17     1    16
 -7.9042510770072838E-01 a       417     0    17     1    17
 -1.6022896609283649E+01 a       418     0    17     1    18
 -2.0994741120718629E+01 a       419     0    17     1    19
  3.6879634596827323E+01 a       420     0    17     1    20
 -3.4004750709321012E+00 a       421     0    17     1    21
  1.5443014175647136E+00 a       422     0    17     1    22
  1.1080518078507307E+01 a       423     0    17     1    23
  1.4047428039103196E+00 a       424     0    17     1    24
 -3.4097560556542970E+00 a       425     0    17     1    25
 -5.1679538430282754E+00 a       426     0    18     1     1
 -1.4287208293148839E+00 a       427     0    18     1     2
  1.7816598459104107E+01 a       428     0    18     1     3
  8.0622267255684099E-01 a       429     0    18     1     4
 -2.8445026955356432E+00 a       430     0    18     1     5
 -5.4587580454449798E+00 a       431     0    18     1     6
 -1.3716148088365276E+00 a       432     0    18     1     7
 -5.0935936401732818E+00 a       433     0    18     1     8
  1.4650874191824965E+00 a       434     0    18     1     9
 -6.5926692255227790E+00 a       435     0    18     1    10
 -9.5673938154111546E+00 a       436     0    18     1    11
  1.1223608247096207E+01 a       437     0    18     1    12
 -1.1048991558234485E+01 a       438     0    18     1    13
  8.5503643762054278E+00 a       439     0    18     1    14
 -1.3008715819802392E+00 a       440     0    18     1    15
 -1.0975878395434151E+01 a       441     0    18     1    16
  7.8169880744300313E-02 a       442     0    18     1    17
  4.7913454916389453E+00 a       443     0    18     1    18
  1.9958096298982451E+01 a       444     0    18     1    19
  3.1716718157545838E+00 a       445     0    18     1    20
  6.9273350744219275E+00 a       446     0    18     1    21
 -9.4247491444878451E-01 a       447     0    18     1    22
 -5.3640369052778381E+00 a       448     0    18     1    23
  5.5771151979233169E-01 a       449     0    18     1    24
 -1.0179926930549135E+00 a       450     0    18     1    25
 -4.0700013928914229E+00 a       451     0    19     1     1
  2.5132337424377336E+00 a       452     0    19     1     2
 -1.0257138420946765E+00 a       453     0    19     1     3
  4.5987307524007370E+00 a       454     0    19     1     4
  1.9179444037401883E-01 a       455     0    19     1     5
  8.9638596068493837E-01 a       456     0    19     1     6
 -6.7068282359076434E+00 a       457     0    19     1     7
  5.1368589185601339E+00 a       458     0    19     1     8
  3.2023663404047154E-01 a       459     0    19     1     9
 -7.0999381102881935E+00 a       460     0    19     1    10
 -5.8477157669360835E+00 a       461     0    19     1    11
  4.8727595830749948E+00 a       462     0    19     1    12
  8.8745297636465708E+00 a       463     0    19     1    13
  1.3224314883397752E+00 a       464     0    19     1    14
 -3.0889819896235471E+00 a       465     0    19     1    15
  4.9538403570257490E+00 a       466     0    19     1    16
  1.7746306873893090E+00 a       467     0    19     1    17
  5.9644684054959818E+00 a       468     0    19     1    18
 -1.6397938398241074E+00 a       469     0    19     1    19
 -2.2720007034501242E+00 a       470     0    19     1    20
  3.1619511469010995E+00 a       471     0    19     1    21
 -2.0948716803209175E-01 a       472     0    19     1    22
 -4.5642583072065737E+00 a       473     0    19     1    23
  1.2466339663389012E+00 a       474     0    19     1    24
 -2.1276044192968269E+00 a       475     0    19     1    25
  1.4931301725598776E+00 a       476     0    20     1     1
 -9.3415830460620022E+00 a       477     0    20     1     2
 -8.5717726129097898E+00 a       478     0    20     1     3
  4.2606329291826759E+00 a       479     0    20     1     4
  1.3350263737607180E+00 a       480     0    20     1     5
  2.1831725540020508E+00 a       481     0    20     1     6
 -6.2579592487562552E+00 a       482     0    20     1     7
  3.1224855229375716E+00 a       483     0    20     1     8
 -6.2918275417594294E-01 a       484     0    20     1     9
  1.0930279717578017E+01 a       485     0    20     1    10
  7.8355169692944902E+00 a       486     0    20     1    11
 -2.0456128278474108E+00 a       487     0    20     1    12
  1.0796447531213907E+01 a       488     0    20     1    13
 -1.8508095333190273E+00 a       489     0    20     1    14
 -1.3254125171681570E+00 a       490     0    20     1    15
  9.0303674865007562E+00 a       491     0    20     1    16
  2.4143809359195458E+00 a       492     0    20     1    17
 -2.6080791018734355E+00 a       493     0    20     1    18
 -6.2867507463439498E+00 a       494     0    20     1    19
  3.8231764255783682E+00 a       495     0    20     1    20
  1.1367230204403143E+00 a       496     0    20     1    21
 -1.7482804516978225E+00 a       497     0    20     1    22
 -1.5286252978535181E+01 a       498     0    20     1    23
  8.7816571006053244E-03 a       499     0    20     1    24
 -4.4083495064707706E-01 a       500     0    20     1    25
 -1.1622922584129978E+00 a       501     0    21     1     1
  6.5830662029787557E-01 a       502     0    21     1     2
  5.1080559878151333E-01 a       503     0    21     1     3
 -1.8076092837559746E-02 a       504     0    21     1     4
  7.0551087508749988E-01 a       505     0    21     1     5
  2.2985169417147233E+00 a       506     0    21     1     6
  3.1970964069594214E+00 a       507     0    21     1     7
  1.5642586054049041E+00 a       508     0    21     1     8
 -1.8896115043041140E-01 a       509     0    21     1     9
 -1.8570729789350269E+00 a       510     0    21     1    10
  4.1620379664512902E-01 a       511     0    21     1    11
 -6.5508781580037456E-01 a       512     0    21     1    12
  3.2849905718500966E-01 a       513     0    21     1    13
 -4.3937214616320303E-01 a       514     0    21     1    14
 -1.6294567327895873E-01 a       515     0    21     1    15
  4.0384745339683986E-01 a       516     0    21     1    16
 -2.8408107499616175E-01 a       517     0    21     1    17
 -3.9473170112457689E-01 a       518     0    21     1    18
 -1.0707625158260869E-01 a       519     0    21     1    19
 -6.3341722537103506E-01 a       520     0    21     1    20
  6.9109940335553777E-01 a       521     0    21     1    21
  1.5344660688534619E+00 a       522     0    21     1    22
  6.7711022574419166E-01 a       523     0    21     1    23
 -5.4721893466315263E-01 a       524     0    21     1    24
 -1.7311911169364580E+00 a       525     0    21     1    25
  7.8425258200836578E-01 a       526     0    22     1     1
 -2.8153928651846034E-02 a       527     0    22     1     2
 -2.1605051242808390E-01 a       528     0    22     1     3
 -7.4103497020476972E-02 a       529     0    22     1     4
 -1.5400485306672942E-01 a       530     0    22     1     5
 -4.7802087152063666E-01 a       531     0    22     1     6
 -4.8801942824087097E-01 a       532     0    22     1     7
 -4.6106620456821157E-01 a       533     0    22     1     8
  1.8820802307239257E-01 a       534     0    22     1     9
  7.5327686890478407E-01 a       535     0    22     1    10
 -4.8965986285622244E-02 a       536     0    22     1    11
  9.7381755802600867E-01 a       537     0    22     1    12
 -1.8911973307645971E-01 a       538     0    22     1    13
  2.2979709758054565E-01 a       539     0    22     1    14
  5.9182538608627572E-02 a       540     0    22     1    15
 -2.3991878333210206E-01 a       541     0    22     1    16
  1.2701949720643305E-01 a       542     0    22     1    17
  1.8855687449224082E-01 a       543     0    22     1    18
 -1.6491637581515373E-01 a       544     0    22     1    19
  3.4205390443796241E-01 a       545     0    22     1    20
 -2.1372152818170839E-01 a       546     0    22     1    21
 -3.3843717379925992E-01 a       547     0    22     1    22
 -3.9810910628865970E-01 a       548     0    22     1    23
  9.0947879379989438E-02 a       549     0    22     1    24
  4.7137869946164890E-01 a       550     0    22     1    25
  2.8789187193326338E-01 a       551     0    23     1     1
 -9.6270173931961900E-01 a       552     0    23     1     2
 -3.7147215101063091E+00 a       553     0    23     1     3
 -1.3996719271313203E+00 a       554     0    23     1     4
 -2.0608147263753898E+00 a       555     0    23     1     5
  1.1947931609687414E+00 a       556     0    23     1     6
  3.3709693562109166E-01 a       557     0    23     1     7
 -8.5147526107089067E-01 a       558     0    23     1     8
 -1.2656077876841239E+00 a       559     0    23     1     9
  2.0476071889294785E+00 a       560     0    23     1    10
  2.3988347253093414E+00 a       561     0    23     1    11
 -2.3008104005450458E+00 a       562     0    23     1    12
 -1.8414074690498659E+00 a       563     0    23     1    13
  5.0988927056912148E-01 a       564     0    23     1    14
  6.7671784279120462E-01 a       565     0    23     1    15
 -1.3565646305102802E-01 a       566     0    23     1    16
  1.5191674542286737E-01 a       567     0    23     1    17
 -1.0840849402249546E-01 a       568     0    23     1    18
  8.9683085947690044E-01 a       569     0    23     1    19
 -5.5954968282525896E-01 a       570     0    23     1    20
 -8.7792317837989575E-01 a       571     0    23     1    21
  9.9136034990251409E-01 a       572     0    23     1    22
 -9.4590592944735663E-01 a       573     0    23     1    23
 -1.2227762704760794E+00 a       574     0    23     1    24
  5.8006222609375391E-01 a       575     0    23     1    25
  6.9999499978216062E-01 a       576     0    24     1     1
 -4.1694787935001232E-01 a       577     0    24     1     2
  2.0111041491123161E-01 a       578     0    24     1     3
 -5.8439146927846686E-01 a       579     0    24     1     4
 -7.8571397288157285E-01 a       580     0    24     1     5
  3.0222279288531834E-01 a       581     0    24     1     6
  8.2625456752099080E-01 a       582     0    24     1     7
 -2.3314075648692184E-01 a       583     0    24     1     8
  2.1769180497904599E-03 a       584     0    24     1     9
 -5.5448715682676886E-01 a       585     0    24     1    10
  3.0187696574981077E-01 a       586     0    24     1    11
 -1.3416649664422656E-01 a       587     0    24     1    12
 -2.3225372694862281E+00 a       588     0    24     1    13
  7.2836854268697918E-02 a       589     0    24     1    14
 -2.3463286722748222E-01 a       590     0    24     1    15
  4.9920330688184647E-02 a       591     0    24     1    16
 -1.0230735778829692E-01 a       592     0    24     1    17
 -7.7215916142678764E-01 a       593     0    24     1    18
 -3.4304785059699089E-01 a       594     0    24     1    19
 -6.9325032629126893E-01 a       595     0    24     1    20
 -6.1020577023468991E-01 a       596     0    24     1    21
  3.0226395346162138E-01 a       597     0    24     1    22
 -2.7231462869121281E-01 a       598     0    24     1    23
 -3.5101216046934730E-01 a       599     0    24     1    24
 -2.3421274167502840E-02 a       600     0    24     1    25
 -5.6877982318101339E-01 a       601     0    25     1     1
  7.3103937033771893E-01 a       602     0    25     1     2
  2.7982774541215414E+00 a       603     0    25     1     3
  8.0129622350012564E-01 a       604     0    25     1     4
  1.0380247563286100E+00 a       605     0    25     1     5
 -7.5022326042855347E-01 a       606     0    25     1     6
 -2.1773134045427420E-01 a       607     0    25     1     7
  8.0870085676833614E-01 a       608     0    25     1     8
  9.5147955167799247E-01 a       609     0    25     1     9
 -1.0713025270855454E+00 a       610     0    25     1    10
 -1.4315939813157537E+00 a       611     0    25     1    11
  1.2686126442576078E+00 a       612     0    25     1    12
  1.4085895321934738E+00 a       613     0    25     1    13
 -4.8064224009799839E-01 a       614     0    25     1    14
 -1.4933283841871695E-01 a       615     0    25     1    15
 -2.3411762273837863E-01 a       616     0    25     1    16
  6.9894861087366075E-02 a       617     0    25     1    17
  1.7614596939953031E-01 a       618     0    25     1    18
 -4.6368391424624106E-01 a       619     0    25     1    19
 -6.9271050364963047E-02 a       620     0    25     1    20
  5.5725447424048768E-01 a       621     0    25     1    21
 -4.1145179623424050E-01 a       622     0    25     1    22
  4.4950394175003616E-01 a       623     0    25     1    23
  6.7833962581775076E-01 a       624     0    25     1    24
 -5.2126262387698441E-01 a       625     0    25     1    25
 -2.5601247492648305E-01 a       626     0    26     1     1
  3.0415105639899864E-01 a       627     0    26     1     2
 -3.6728498363620221E-01 a       628     0    26     1     3
  4.6345113418784178E-01 a       629     0    26     1     4
  3.2227258874320514E-01 a       630     0    26     1     5
 -1.3825985645363226E-01 a       631     0    26     1     6
 -6.7957707062035022E-01 a       632     0    26     1     7
  1.4408472132783759E-01 a       633     0    26     1     8
 -9.7893680927425234E-04 a       634     0    26     1     9
  4.9415354770611736E-01 a       635     0    26     1    10
 -8.2121903612296418E-02 a       636     0    26     1    11
  8.9120533749911787E-02 a       637     0    26     1    12
  1.6636519236054950E+00 a       638     0    26     1    13
 -1.5945361762416402E-01 a       639     0    26     1    14
  2.3740224259238260E-01 a       640     0    26     1    15
  4.3933939962840438E-02 a       641     0    26     1    16
  1.8126481227336375E-01 a       642     0    26     1    17
  5.0104412710561597E-01 a       643     0    26     1    18
  1.1956435472396065E-01 a       644     0    26     1    19
  4.3603920134388541E-01 a       645     0    26     1    20
  3.3229674298668577E-01 a       646     0    26     1    21
 -2.3628301939116636E-01 a       647     0    26     1    22
  4.4740384153412516E-01 a       648     0    26     1    23
  2.3843230224462861E-01 a       649     0    26     1    24
  9.5289901542891270E-02 a       650     0    26     1    25
 -1.5470862898069409E+00 a       651     0    27     1     1
  4.3390114285286083E+00 a       652     0    27     1     2
 -6.9923666345636546E+00 a       653     0    27     1     3
 -1.2454492999098292E+00 a       654     0    27     1     4
  1.1874881444906116E+00 a       655     0    27     1     5
 -1.5320509829615203E+00 a       656     0    27     1     6
  2.4398314405974029E+00 a       657     0    27     1     7
 -4.2424664301401336E+00 a       658     0    27     1     8
  3.6377823582057472E-01 a       659     0    27     1     9
 -1.2455006340517842E+00 a       660     0    27     1    10
  7.0943682267755284E+00 a       661     0    27     1    11
  4.9029786552374066E+00 a       662     0    27     1    12
 -5.5804328425344965E+00 a       663     0    27     1    13
  3.8941841363884286E+00 a       664     0    27     1    14
 -1.8857937397244613E+00 a       665     0    27     1    15
  2.0192406360701312E+00 a       666     0    27     1    16
  3.7236475482257725E+00 a       667     0    27     1    17
  2.1856954176388115E+00 a       668     0    27     1    18
  2.8136585306536839E+00 a       669     0    27     1    19
  2.2319868593414582E-01 a       670     0    27     1    20
  7.5343530004878643E+00 a       671     0    27     1    21
  6.9511172439559150E+00 a       672     0    27     1    22
 -3.1710965638482347E+00 a       673     0    27     1    23
 -6.8748799473123468E-01 a       674     0    27     1    24
  2.7447564101481916E+00 a       675     0    27     1    25
 -1.4335466000026431E+00 a       676     0    28     1     1
  4.8375145310530687E-01 a       677     0    28     1     2
 -3.0297889181890687E+00 a       678     0    28     1     3
 -1.4206397784743405E+00 a       679     0    28     1     4
 -9.1430318690839851E-01 a       680     0    28     1     5
 -5.5787785077092733E-01 a       681     0    28     1     6
  2.6724548588665979E+00 a       682     0    28     1     7
 -3.5816543401060086E+00 a       683     0    28     1     8
 -2.2378267674770296E+00 a       684     0    28     1     9
  6.0856623065917070E-01 a       685     0    28     1    10
  1.7679864590787806E+00 a       686     0    28     1    11
 -1.2355302294360838E-01 a       687     0    28     1    12
  1.6361759068961366E+00 a       688     0    28     1    13
 -1.2229766986109207E+00 a       689     0    28     1    14
  4.9608618579292835E-01 a       690     0    28     1    15
  1.5800897166987882E-01 a       691     0    28     1    16
  2.9627760175207718E+00 a       692     0    28     1    17
 -4.2256562139961285E-01 a       693     0    28     1    18
  1.1182521366203158E+00 a       694     0    28     1    19
 -7.8564973170770247E-01 a       695     0    28     1    20
  3.0416203411234042E+00 a       696     0    28     1    21
  8.7085550855050847E-02 a       697     0    28     1    22
  2.0849872571001473E+00 a       698     0    28     1    23
 -1.0650386044491791E+00 a       699     0    28     1    24
 -2.5525123258026743E-02 a       700     0    28     1    25
 -2.3194060073448708E+00 a       701     0    29     1     1
  5.5355398246876031E-01 a       702     0    29     1     2
 -3.8455124863988206E+00 a       703     0    29     1     3
  3.2101806398129656E-01 a       704     0    29     1     4
 -1.3576435596734275E+00 a       705     0    29     1     5
  3.0986159313940631E-01 a       706     0    29     1     6
  3.5506547979851542E+00 a       707     0    29     1     7
 -3.0409130618712332E+00 a       708     0    29     1     8
 -2.4287038953794653E+00 a       709     0    29     1     9
 -1.2734971592304530E-02 a       710     0    29     1    10
  2.4343470336699258E-02 a       711     0    29     1    11
  3.8910947728536799E-01 a       712     0    29     1    12
  1.5874701609199264E+00 a       713     0    29     1    13
 -9.4277157358408725E-01 a       714     0    29     1    14
  5.8831960049273234E-02 a       715     0    29     1    15
 -1.1447464612030105E-02 a       716     0    29     1    16
  4.6427718630072006E+00 a       717     0    29     1    17
 -3.4767487265144509E-01 a       718     0    29     1    18
  8.2420409331912725E-01 a       719     0    29     1    19
  3.4286210489538543E-01 a       720     0    29     1    20
  1.2209057846769704E+00 a       721     0    29     1    21
 -4.7361159363795147E-01 a       722     0    29     1    22
  1.4928282491841602E+00 a       723     0    29     1    23
  8.1090451682892428E-01 a       724     0    29     1    24
  2.4724835334149720E-01 a       725     0    29     1    25
 -7.2626022231199738E-01 a       726     0    30     1     1
 -1.9508402156497834E-01 a       727     0    30     1     2
 -8.1288818413719199E-01 a       728     0    30     1     3
 -4.2307364761575444E-01 a       729     0    30     1     4
 -1.6574667218866140E-01 a       730     0    30     1     5
  3.0234608014198716E-01 a       731     0    30     1     6
 -5.6880347281985622E-01 a       732     0    30     1     7
  6.9230985404449497E-01 a       733     0    30     1     8
 -2.3141300421962407E-01 a       734     0    30     1     9
  4.9976979627151480E-01 a       735     0    30     1    10
 -2.8490592276498961E-01 a       736     0    30     1    11
  3.0540769908501497E-01 a       737     0    30     1    12
  1.8557066038288941E-01 a       738     0    30     1    13
 -5.7999022850978788E-01 a       739     0    30     1    14
 -3.6015141104001024E-02 a       740     0    30     1    15
 -1.5820222381465318E-01 a       741     0    30     1    16
  1.0923425192023724E+00 a       742     0    30     1    17
  5.4978497197323506E-01 a       743     0    30     1    18
  6.8062894167143728E-01 a       744     0    30     1    19
  8.4275021298782771E-01 a       745     0    30     1    20
  1.9678723201225717E-01 a       746     0    30     1    21
  4.7158649233384431E-01 a       747     0    30     1    22
  3.6367245918256783E-02 a       748     0    30     1    23
 -6.3343625335252240E-01 a       749     0    30     1    24
 -6.1164875159337828E-01 a       750     0    30     1    25
  3.7167869210793431E-01 a       751     0    31     1     1
  2.5427259467474400E-01 a       752     0    31     1     2
 -1.0983383255148127E+00 a       753     0    31     1     3
  8.3513021066380466E-01 a       754     0    31     1     4
 -5.4626355852034369E-01 a       755     0    31     1     5
  3.6122592516556734E-01 a       756     0    31     1     6
  3.2190091639215807E-01 a       757     0    31     1     7
  5.9312517116203733E-01 a       758     0    31     1     8
  3.0182356205962799E-02 a       759     0    31     1     9
  8.0683702135263968E-01 a       760     0    31     1    10
 -6.0204092280326381E-02 a       761     0    31     1    11
  1.0031169175920034E+00 a       762     0    31     1    12
  3.8054938780531337E-02 a       763     0    31     1    13
  7.2811808866304714E-02 a       764     0    31     1    14
 -4.0856023469327646E-01 a       765     0    31     1    15
 -4.5743281915233754E-02 a       766     0    31     1    16
 -3.8101486282473457E-01 a       767     0    31     1    17
  1.3817937169545826E+00 a       768     0    31     1    18
  3.4652349271934696E-01 a       769     0    31     1    19
 -2.3301246681292381E-01 a       770     0    31     1    20
  4.3080374945377475E-02 a       771     0    31     1    21
 -1.5657275598391346E-01 a       772     0    31     1    22
  6.8921682469985612E-01 a       773     0    31     1    23
  1.1713449344271130E+00 a       774     0    31     1    24
  2.2189620623066450E-01 a       775     0    31     1    25
  8.4060786544188808E+00 a       776     0    32     1     1
  1.2375925986715131E+00 a       777     0    32     1     2
  1.3176827814793379E+01 a       778     0    32     1     3
  3.4553384630735846E+00 a       779     0    32     1     4
  7.1032781229291162E+00 a       780     0    32     1     5
 -5.3056967074858923E+00 a       781     0    32     1     6
  4.7158128561909862E+00 a       782     0    32     1     7
 -6.7047459320990566E+00 a       783     0    32     1     8
 -6.2991096028628597E+00 a       784     0    32     1     9
 -5.0461328053151282E-02 a       785     0    32     1    10
 -1.2304636513062479E+00 a       786     0    32     1    11
 -3.4814518185012462E+00 a       787     0    32     1    12
 -1.8143069398564737E+00 a       788     0    32     1    13
 -2.5418635115453445E+00 a       789     0    32     1    14
  2.7536444560211204E+00 a       790     0    32     1    15
  2.3957822470072385E-01 a       791     0    32     1    16
  4.0243734305503009E+00 a       792     0    32     1    17
  2.2471516442673858E+00 a       793     0    32     1    18
 -4.2296755578119862E+00 a       794     0    32     1    19
  6.2917329199151073E+00 a       795     0    32     1    20
  2.1297125404726556E+00 a       796     0    32     1    21
 -3.6350342273649709E+00 a       797     0    32     1    22
  4.3774782807311707E+00 a       798     0    32     1    23
  1.2948000650234850E+00 a       799     0    32     1    24
  4.4626117394101622E-01 a       800     0    32     1    25
  1.0130461024206123E+00 a       801     0    33     1     1
  2.2866568776355809E+00 a       802     0    33     1     2
  1.0831214236698561E+00 a       803     0    33     1     3
 -8.5803139954448548E-01 a       804     0    33     1     4
  4.8434397728085787E-01 a       805     0    33     1     5
 -3.5912872581047708E+00 a       806     0    33     1     6
  1.7378836658380263E+00 a       807     0    33     1     7
 -3.4333645641459425E+00 a       808     0    33     1     8
 -7.3425131520978559E-01 a       809     0    33     1     9
 -1.3827900965380837E+00 a       810     0    33     1    10
 -5.1623478411648827E-01 a       811     0    33     1    11
  9.4451956985921415E-01 a       812     0    33     1    12
 -1.7623195818053379E+00 a       813     0    33     1    13
  2.5132500592684281E-01 a       814     0    33     1    14
 -1.0305743388985110E-01 a       815     0    33     1    15
  8.0881176453691583E-01 a       816     0    33     1    16
  4.6427742597718602E-01 a       817     0    33     1    17
  4.5724403413440262E+00 a       818     0    33     1    18
 -5.6275172495149572E+00 a       819     0    33     1    19
  2.6065420214708679E+00 a       820     0    33     1    20
  1.1040437680165578E+00 a       821     0    33     1    21
 -1.7371166075083586E-01 a       822     0    33     1    22
  3.5991668769910854E+00 a       823     0    33     1    23
 -4.1457115433683317E-01 a       824     0    33     1    24
  1.7961807772457612E+00 a       825     0    33     1    25
  1.1245430432543599E+00 a       826     0    34     1     1
  1.9461985179659276E+00 a       827     0    34     1     2
  4.8898675864146320E-02 a       828     0    34     1     3
 -4.0362423368901251E-01 a       829     0    34     1     4
  1.7235378051806383E+00 a       830     0    34     1     5
 -2.6312346677902543E+00 a       831     0    34     1     6
  2.4044555050009024E+00 a       832     0    34     1     7
 -3.1587327475689846E+00 a       833     0    34     1     8
 -2.1449789776555206E+00 a       834     0    34     1     9
 -1.3136165699411051E+00 a       835     0    34     1    10
 -2.7383981137748215E-01 a       836     0    34     1    11
  8.9170253218123130E-01 a       837     0    34     1    12
 -1.2171151547030190E+00 a       838     0    34     1    13
 -1.1920376711388257E-01 a       839     0    34     1    14
  7.4324707789784272E-01 a       840     0    34     1    15
  1.1137124358030255E+00 a       841     0    34     1    16
 -2.7899960312580990E-01 a       842     0    34     1    17
  4.7688090731613650E+00 a       843     0    34     1    18
 -6.2799448652317968E+00 a       844     0    34     1    19
  8.0540301348827392E-01 a       845     0    34     1    20
  6.5536721658157271E-01 a       846     0    34     1    21
 -3.5760690058815037E-01 a       847     0    34     1    22
  3.5282021355326028E+00 a       848     0    34     1    23
 -2.2903973883703257E-01 a       849     0    34     1    24
  3.2673753791195809E-01 a       850     0    34     1    25
  9.7373669454414191E+00 a       851     0    35     1     1
  5.0913258647885247E+00 a       852     0    35     1     2
 -1.1824246282042243E+00 a       853     0    35     1     3
 -9.7690911159752380E-01 a       854     0    35     1     4
  7.8406391599642768E+00 a       855     0    35     1     5
 -7.5231071846484667E+00 a       856     0    35     1     6
  5.8426241648087993E+00 a       857     0    35     1     7
  1.4741073403313569E+00 a       858     0    35     1     8
 -1.9532160597221648E+00 a       859     0    35     1     9
 -2.0580899351345079E+00 a       860     0    35     1    10
  4.3356925891891129E-01 a       861     0    35     1    11
 -6.5724190904497517E+00 a       862     0    35     1    12
  1.2145634293208040E+01 a       863     0    35     1    13
  7.6594640177790154E+00 a       864     0    35     1    14
 -1.6547241642524715E+00 a       865     0    35     1    15
  9.7487371073356890E+00 a       866     0    35     1    16
 -3.6793427479393817E+00 a       867     0    35     1    17
  7.2651989487876989E+00 a       868     0    35     1    18
 -1.7207569643779703E+00 a       869     0    35     1    19
 -2.9532198569971646E+00 a       870     0    35     1    20
  2.3375106655336850E+00 a       871     0    35     1    21
  1.2663786313988441E+01 a       872     0    35     1    22
  2.4836408907973535E+00 a       873     0    35     1    23
  7.8560300208858036E-01 a       874     0    35     1    24
  5.0478966266960201E-01 a       875     0    35     1    25
 -1.5292656850505054E-01 a       876     0    36     1     1
 -5.2138965094217369E+00 a       877     0    36     1     2
  6.3309721715439844E+00 a       878     0    36     1     3
  9.3280461183713281E-01 a       879     0    36     1     4
 -2.2537350173927009E+00 a       880     0    36     1     5
  1.7381544759234711E+00 a       881     0    36     1     6
  3.0277716083629624E-01 a       882     0    36     1     7
  8.9881153016188509E-01 a       883     0    36     1     8
 -5.0002598836013834E-01 a       884     0    36     1     9
  4.3826084041259511E-01 a       885     0    36     1    10
 -2.1146151740297006E+00 a       886     0    36     1    11
 -3.9048258123337041E+00 a       887     0    36     1    12
  2.2171230670304407E+00 a       888     0    36     1    13
 -1.4088335756765038E+00 a       889     0    36     1    14
  1.3288318671196659E+00 a       890     0    36     1    15
  1.0402598785747974E+00 a       891     0    36     1    16
 -2.2610942121892643E+00 a       892     0    36     1    17
 -1.4175947016410979E+00 a       893     0    36     1    18
  1.9460353182104755E+00 a       894     0    36     1    19
 -1.0396867128627552E+00 a       895     0    36     1    20
 -2.5342481854310068E+00 a       896     0    36     1    21
 -2.9226060678583066E-01 a       897     0    36     1    22
  8.8507193075009161E-01 a       898     0    36     1    23
  1.4305522195610088E+00 a       899     0    36     1    24
  4.8702842455931350E-01 a       900     0    36     1    25
 -3.2491342189929701E-01 a       901     0    37     1     1
 -2.0217731202787459E-01 a       902     0    37     1     2
 -7.9290654310393283E-01 a       903     0    37     1     3
  9.6048590703755854E-01 a       904     0    37     1     4
  2.0473241194443642E-01 a       905     0    37     1     5
  1.4713931322011957E+00 a       906     0    37     1     6
  6.2366324971658793E-01 a       907     0    37     1     7
  7.0107600679274118E-01 a       908     0    37     1     8
  3.3009193178462964E-01 a       909     0    37     1     9
  3.0386417970516222E-01 a       910     0    37     1    10
  7.0234974596202815E-02 a       911     0    37     1    11
  3.7266155064803541E-01 a       912     0    37     1    12
  2.4701288142982925E-01 a       913     0    37     1    13
 -2.6946648285832303E-01 a       914     0    37     1    14
 -9.5590348742761888E-01 a       915     0    37     1    15
  7.2147252177254428E-01 a       916     0    37     1    16
 -2.4219424684934245E+00 a       917     0    37     1    17
  1.7503442133334443E-01 a       918     0    37     1    18
 -1.5068448690810948E-01 a       919     0    37     1    19
  5.3334769900810458E-02 a       920     0    37     1    20
 -1.4476039198342570E+00 a       921     0    37     1    21
 -9.2128438517552325E-01 a       922     0    37     1    22
 -3.5940410624323871E-01 a       923     0    37     1    23
 -6.4305274762108622E-01 a       924     0    37     1    24
  4.0736459956917637E-01 a       925     0    37     1    25
  1.2112756681625236E+00 a       926     0    38     1     1
  6.6640442483397688E-01 a       927     0    38     1     2
  1.0993832046516813E-01 a       928     0    38     1     3
 -5.6793467205748804E-01 a       929     0    38     1     4
  6.8184615784491795E-02 a       930     0    38     1     5
  6.8659710324967538E-02 a       931     0    38     1     6
 -1.6427485851248408E-01 a       932     0    38     1     7
  6.6880390725228972E-02 a       933     0    38     1     8
  8.2632869136005449E-01 a       934     0    38     1     9
 -2.8119138170307201E-01 a       935     0    38     1    10
  1.1332348703194785E-01 a       936     0    38     1    11
  1.1204576346393380E+00 a       937     0    38     1    12
  4.5729138259797297E-01 a       938     0    38     1    13
  7.8779330478551679E-01 a       939     0    38     1    14
  8.1546955524418629E-01 a       940     0    38     1    15
  8.2762460566064344E-01 a       941     0    38     1    16
 -1.3535137403251132E+00 a       942     0    38     1    17
 -8.4110941888826796E-01 a       943     0    38     1    18
 -2.0088812587463387E-01 a       944     0    38     1    19
  1.5181920149508374E-01 a       945     0    38     1    20
 -1.6027329470518894E+00 a       946     0    38     1    21
  2.6545941922747431E-02 a       947     0    38     1    22
 -1.5513665887501971E+00 a       948     0    38     1    23
  6.9700978694619009E-01 a       949     0    38     1    24
  3.4969675765165048E-01 a       950     0    38     1    25
  5.1980344206481059E-02 a       951     0    39     1     1
 -6.7099180513225010E-01 a       952     0    39     1     2
  3.6899616754843279E-01 a       953     0    39     1     3
 -4.2652407434718231E-01 a       954     0    39     1     4
 -4.7350996742399487E-01 a       955     0    39     1     5
  5.6314805711623639E-01 a       956     0    39     1     6
  4.7000991060740921E-01 a       957     0    39     1     7
 -2.2589331500514467E-01 a       958     0    39     1     8
 -6.7441220755263509E-01 a       959     0    39     1     9
  2.3853337308346853E-01 a       960     0    39     1    10
  4.0233901929288091E-01 a       961     0    39     1    11
 -9.1720695281989562E-01 a       962     0    39     1    12
 -4.8366281698509689E-01 a       963     0    39     1    13
  8.2720252215509971E-01 a       964     0    39     1    14
  2.0046238364318980E-01 a       965     0    39     1    15
  6.2336771701105909E-01 a       966     0    39     1    16
 -7.1364344371533428E-01 a       967     0    39     1    17
 -6.4738487133626454E-01 a       968     0    39     1    18
  2.6941713165200404E-01 a       969     0    39     1    19
 -7.4085580209949209E-01 a       970     0    39     1    20
 -1.0208978960595068E+00 a       971     0    39     1    21
  4.8375232044908262E-02 a       972     0    39     1    22
 -8.9466014019893869E-01 a       973     0    39     1    23
 -1.0321357406017488E+00 a       974     0    39     1    24
  5.5128513105300847E-01 a       975     0    39     1    25
 -7.6869058264377746E-02 a       976     0    40     1     1
  3.1133702181342499E-01 a       977     0    40     1     2
  4.4274291438671542E-01 a       978     0    40     1     3
  2.9767324600725176E-01 a       979     0    40     1     4
  4.6320584744431453E-01 a       980     0    40     1     5
 -4.4359136396949861E-01 a       981     0    40     1     6
  8.6987661145588535E-02 a       982     0    40     1     7
 -3.1071272599743893E-01 a       983     0    40     1     8
  4.7913517356360297E-01 a       984     0    40     1     9
  3.8204969562749880E-01 a       985     0    40     1    10
 -3.8530188105434227E-01 a       986     0    40     1    11
  2.7468003822730003E-01 a       987     0    40     1    12
  5.4028796557183201E-01 a       988     0    40     1    13
 -8.8253627423704051E-01 a       989     0    40     1    14
  5.8052801114658555E-02 a       990     0    40     1    15
 -1.6373470879609317E-01 a       991     0    40     1    16
  7.6293500187468322E-01 a       992     0    40     1    17
 -5.2410725575262794E-02 a       993     0    40     1    18
 -7.5942637745782882E-01 a       994     0    40     1    19
  4.9828944939124464E-01 a       995     0    40     1    20
  9.2590553754766147E-01 a       996     0    40     1    21
 -7.3019909693298768E-01 a       997     0    40     1    22
  7.8375814057970494E-01 a       998     0    40     1    23
  6.8098333893617080E-01 a       999     0    40     1    24
 -3.4763313263903783E-01 a      1000     0    40     1    25
 -3.3310416691803550E+00 a      1001     0    41     1     1
 -3.0948192032293793E+00 a      1002     0    41     1     2
 -1.7897191134142854E+00 a      1003     0    41     1     3
 -2.5393395234808508E-01 a      1004     0    41     1     4
 -2.3550454554536491E+00 a      1005     0    41     1     5
  2.1191502361936347E+00 a      1006     0    41     1     6
 -5.1643039562723789E+00 a      1007     0    41     1     7
  5.5155022823002700E+00 a      1008     0    41     1     8
  3.3334043695332333E-01 a      1009     0    41     1     9
  6.9674525587129044E-01 a      1010     0    41     1    10
 -2.7621760155964237E-01 a      1011     0    41     1    11
 -5.4073444234623536E-01 a      1012     0    41     1    12
 -2.4148829478545992E+00 a      1013     0    41     1    13
  8.8707924170574293E-01 a      1014     0    41     1    14
 -9.4134276105441206E-01 a      1015     0    41     1    15
  1.2150047392874417E+00 a      1016     0    41     1    16
 -2.5363000929626915E+00 a      1017     0    41     1    17
  1.6623650612916412E+00 a      1018     0    41     1    18
 -1.4673297135651239E-01 a      1019     0    41     1    19
 -4.9989473990238871E+00 a      1020     0    41     1    20
  1.7056029533122902E-01 a      1021     0    41     1    21
  4.3427594501325597E+00 a      1022     0    41     1    22
  3.5734724307074761E-01 a      1023     0    41     1    23
  4.0534301110686916E-01 a      1024     0    41     1    24
 -6.1942328937410907E-01 a      1025     0    41     1    25
  1.0370740652101905E-01 a      1026     0    42     1     1
 -1.2402542351816210E+00 a      1027     0    42     1     2
 -2.0148812071776554E+00 a      1028     0    42     1     3
  2.0145651927172278E-01 a      1029     0    42     1     4
  2.4291728215466515E-01 a      1030     0    42     1     5
  6.5118545811746598E-01 a      1031     0    42     1     6
 -5.6970664959287587E-01 a      1032     0    42     1     7
  1.2661731423464564E+00 a      1033     0    42     1     8
 -7.1271267068060584E-01 a      1034     0    42     1     9
  6.5925589201116563E-01 a      1035     0    42     1    10
 -3.0355359162746071E-01 a      1036     0    42     1    11
 -3.6317850998595058E-01 a      1037     0    42     1    12
  3.2660348695429042E-01 a      1038     0    42     1    13
 -5.1099862559693765E-01 a      1039     0    42     1    14
  7.0664226048187684E-01 a      1040     0    42     1    15
  5.8703387035536347E-01 a      1041     0    42     1    16
 -4.5603408811626206E-01 a      1042     0    42     1    17
 -1.0181169508701386E+00 a      1043     0    42     1    18
  2.8574703433698267E-01 a      1044     0    42     1    19
  2.1769283780991794E-01 a      1045     0    42     1    20
 -3.7355154314717887E-01 a      1046     0    42     1    21
 -1.0721762176999938E-01 a      1047     0    42     1    22
 -5.2444736339480358E-01 a      1048     0    42     1    23
 -1.0242505396603618E+00 a      1049     0    42     1    24
  6.9835492881016581E-01 a      1050     0    42     1    25
 -4.0153531229484687E-02 a      1051     0    43     1     1
 -2.2577471894363730E+00 a      1052     0    43     1     2
 -1.8143484625128297E+00 a      1053     0    43     1     3
  4.9606860485525267E-01 a      1054     0    43     1     4
 -1.1351150923071025E+00 a      1055     0    43     1     5
  1.3094426610383272E+00 a      1056     0    43     1     6
 -1.5839672677246170E+00 a      1057     0    43     1     7
  5.5324330762133389E-01 a      1058     0    43     1     8
 -7.8926146323987201E-01 a      1059     0    43     1     9
  4.2970510106189330E-01 a      1060     0    43     1    10
 -1.8025891814472286E-01 a      1061     0    43     1    11
 -2.5421387562515368E-01 a      1062     0    43     1    12
  1.0634691396567642E+00 a      1063     0    43     1    13
 -3.7759432217708372E-01 a      1064     0    43     1    14
 -8.5479445069173710E-01 a      1065     0    43     1    15
 -3.9252074087972305E-01 a      1066     0    43     1    16
  3.6235806094599060E-01 a      1067     0    43     1    17
 -1.7189341284291273E+00 a      1068     0    43     1    18
  1.1751764385417811E+00 a      1069     0    43     1    19
 -5.6058721535738154E-01 a      1070     0    43     1    20
  4.8437288456013017E-01 a      1071     0    43     1    21
  7.8759594094979257E-01 a      1072     0    43     1    22
 -1.8964870113673176E+00 a      1073     0    43     1    23
  4.9150444762418583E-01 a      1074     0    43     1    24
 -5.0131469321202569E-02 a      1075     0    43     1    25
 -5.0112529251342579E+00 a      1076     0    44     1     1
 -1.5150130779166577E+00 a      1077     0    44     1     2
 -5.0380993332492068E+00 a      1078     0    44     1     3
  1.8412803932965034E+00 a      1079     0    44     1     4
 -3.4739266230337096E+00 a      1080     0    44     1     5
 -4.0332370577242829E+00 a      1081     0    44     1     6
 -3.4365097490222665E+00 a      1082     0    44     1     7
 -1.4899770253805404E+00 a      1083     0    44     1     8
  3.2143779765357441E+00 a      1084     0    44     1     9
  2.2945048975883406E-01 a      1085     0    44     1    10
  2.6157256263190731E-01 a      1086     0    44     1    11
 -7.6424393123775947E-01 a      1087     0    44     1    12
 -2.0007286520407512E+00 a      1088     0    44     1    13
 -3.1330733730880271E+00 a      1089     0    44     1    14
  6.3477717696149580E-03 a      1090     0    44     1    15
 -3.5517739343383536E+00 a      1091     0    44     1    16
 -7.3012431395410549E-01 a      1092     0    44     1    17
 -2.0749320733105141E+00 a      1093     0    44     1    18
  2.4604023821381582E+00 a      1094     0    44     1    19
  3.2705569405543446E+00 a      1095     0    44     1    20
 -1.3253594426788262E+00 a      1096     0    44     1    21
 -2.1639093840793504E+00 a      1097     0    44     1    22
  4.4242993031269995E-01 a      1098     0    44     1    23
 -2.3456112000677849E+00 a      1099     0    44     1    24
 -4.7747892759816286E-02 a      1100     0    44     1    25
  1.5939973665828437E+00 a      1101     0    45     1     1
 -2.7506553079122384E+00 a      1102     0    45     1     2
  1.6735504770633658E+00 a      1103     0    45     1     3
  1.5226194214565378E+00 a      1104     0    45     1     4
 -2.4738808699837205E+00 a      1105     0    45     1     5
  1.4493946598036018E+00 a      1106     0    45     1     6
 -4.8631828778728146E+00 a      1107     0    45     1     7
  1.7642570606755161E+00 a      1108     0    45     1     8
 -1.1176660525359086E+00 a      1109     0    45     1     9
  1.9194997359162463E-01 a      1110     0    45     1    10
 -7.8356305100784640E+00 a      1111     0    45     1    11
 -3.5840893013587671E-01 a      1112     0    45     1    12
  2.7574792058257724E+00 a      1113     0    45     1    13
  1.3848028569727869E-02 a      1114     0    45     1    14
  1.2792479442566049E+00 a      1115     0    45     1    15
  2.3860913356970964E-01 a      1116     0    45     1    16
 -3.9699805708803382E+00 a      1117     0    45     1    17
  1.8407250051192392E+00 a      1118     0    45     1    18
 -1.2542283813762518E+00 a      1119     0    45     1    19
  9.3897831903042475E-02 a      1120     0    45     1    20
 -3.8308987576942468E+00 a      1121     0    45     1    21
 -9.0669283990533902E+00 a      1122     0    45     1    22
 -8.7142859719474988E+00 a      1123     0    45     1    23
  6.5116511746379269E-01 a      1124     0    45     1    24
 -2.3719396423332650E+00 a      1125     0    45     1    25
  2.0469338410123261E+00 a      1126     0    46     1     1
 -3.7402372203747319E-03 a      1127     0    46     1     2
  1.4231591815289131E+00 a      1128     0    46     1     3
  1.3214609890880080E+00 a      1129     0    46     1     4
  1.0247058359938706E+00 a      1130     0    46     1     5
 -5.0108392493215825E-01 a      1131     0    46     1     6
 -1.8706816391624876E+00 a      1132     0    46     1     7
  2.9418628732825551E+00 a      1133     0    46     1     8
  4.0636944632285915E-01 a      1134     0    46     1     9
  6.2700436674498206E-01 a      1135     0    46     1    10
  6.7727544746471569E-01 a      1136     0    46     1    11
  3.8148465968736517E-01 a      1137     0    46     1    12
 -2.2710232506081645E+00 a      1138     0    46     1    13
 -1.9056507821176488E-01 a      1139     0    46     1    14
 -4.5808452510491832E-01 a      1140     0    46     1    15
 -1.9248960398077519E-01 a      1141     0    46     1    16
 -3.9450136392671706E+00 a      1142     0    46     1    17
 -4.8040881520811468E-01 a      1143     0    46     1    18
 -6.9460655437270896E-02 a      1144     0    46     1    19
  7.5107254467189921E-01 a      1145     0    46     1    20
 -3.7994202114696409E+00 a      1146     0    46     1    21
 -2.5859593771556173E+00 a      1147     0    46     1    22
 -8.0991065975802579E-01 a      1148     0    46     1    23
  4.0991813977459865E-02 a      1149     0    46     1    24
 -1.1709569555318864E+00 a      1150     0    46     1    25
  1.9414339984406570E+00 a      1151     0    47     1     1
 -4.7803312175106027E-01 a      1152     0    47     1     2
  2.1540827252338719E+00 a      1153     0    47     1     3
  7.5374896285147186E-01 a      1154     0    47     1     4
  8.5301868438506423E-01 a      1155     0    47     1     5
  1.4297196930278686E-01 a      1156     0    47     1     6
 -1.0395189777580500E+00 a      1157     0    47     1     7
  2.2220454825933658E+00 a      1158     0    47     1     8
  5.2842510312521442E-02 a      1159     0    47     1     9
  5.0899106204334410E-01 a      1160     0    47     1    10
 -6.5118436309773986E-01 a      1161     0    47     1    11
  7.9683802246432525E-02 a      1162     0    47     1    12
 -2.4448981223626989E+00 a      1163     0    47     1    13
 -1.4519057021981656E+00 a      1164     0    47     1    14
 -5.2326702427937044E-01 a      1165     0    47     1    15
 -9.3631688705452826E-02 a      1166     0    47     1    16
 -3.9439328174345900E+00 a      1167     0    47     1    17
 -8.7803738464080916E-01 a      1168     0    47     1    18
 -1.4543423569038867E+00 a      1169     0    47     1    19
  1.1036932788828544E+00 a      1170     0    47     1    20
 -3.8994241131031857E+00 a      1171     0    47     1    21
 -2.3687980777478193E+00 a      1172     0    47     1    22
 -1.6107293979244808E+00 a      1173     0    47     1    23
 -5.7397560231582567E-01 a      1174     0    47     1    24
 -1.0673340773235835E+00 a      1175     0    47     1    25
  4.7721272990617031E-01 a      1176     0    48     1     1
  2.4356192540515467E-01 a      1177     0    48     1     2
  1.4773088643758231E-01 a      1178     0    48     1     3
  1.2204968222883950E-01 a      1179     0    48     1     4
  2.6889296579085137E-01 a      1180     0    48     1     5
  5.3794154617750312E-01 a      1181     0    48     1     6
  1.0549820956322824E-01 a      1182     0    48     1     7
  2.6858849315316774E-01 a      1183     0    48     1     8
 -7.4198200934919534E-01 a      1184     0    48     1     9
  4.4770642310475284E-01 a      1185     0    48     1    10
 -1.1192554119377132E-01 a      1186     0    48     1    11
 -1.1815744221151299E+00 a      1187     0    48     1    12
 -6.8830384682512691E-01 a      1188     0    48     1    13
 -3.0638746866116573E-01 a      1189     0    48     1    14
 -6.7503273842359190E-01 a      1190     0    48     1    15
  5.6869371584775719E-01 a      1191     0    48     1    16
  7.3323797741047991E-01 a      1192     0    48     1    17
 -4.0692936248349143E-01 a      1193     0    48     1    18
 -9.7222227559998320E-01 a      1194     0    48     1    19
 -9.6275303967494796E-01 a      1195     0    48     1    20
 -5.6515337444272529E-01 a      1196     0    48     1    21
  1.8759638386000763E-01 a      1197     0    48     1    22
  4.4355435971574564E-01 a      1198     0    48     1    23
  3.8838655348467238E-01 a      1199     0    48     1    24
  6.8037449775728531E-01 a      1200     0    48     1    25
 -1.8473328888788140E-01 a      1201     0    49     1     1
 -2.8441031720286780E-01 a      1202     0    49     1     2
  4.5468444001046893E-01 a      1203     0    49     1     3
 -6.0419205900346822E-02 a      1204     0    49     1     4
 -1.5405474777999115E-01 a      1205     0    49     1     5
 -1.0423426606693060E+00 a      1206     0    49     1     6
  2.4358168899961419E-01 a      1207     0    49     1     7
 -1.2862765672343968E+00 a      1208     0    49     1     8
  8.7639855670187072E-01 a      1209     0    49     1     9
 -7.9421665526727070E-01 a      1210     0    49     1    10
  3.8353243801399900E-02 a      1211     0    49     1    11
 -2.5647947811153993E-01 a      1212     0    49     1    12
  6.3055381740812966E-01 a      1213     0    49     1    13
  3.6515815272097296E-01 a      1214     0    49     1    14
  8.1862214027228242E-01 a      1215     0    49     1    15
 -3.9814263738958539E-01 a      1216     0    49     1    16
 -7.8488766351503814E-01 a      1217     0    49     1    17
 -7.9729338822260376E-01 a      1218     0    49     1    18
  7.7057247183880033E-03 a      1219     0    49     1    19
  5.7615094937826494E-01 a      1220     0    49     1    20
  8.9350713198553300E-01 a      1221     0    49     1    21
  1.9586831935815584E-02 a      1222     0    49     1    22
 -7.5680650015420931E-02 a      1223     0    49     1    23
 -7.9899417966056441E-01 a      1224     0    49     1    24
 -4.1313581584203329E-01 a      1225     0    49     1    25
 -1.2481726199350014E+00 a      1226     0    50     1     1
 -3.5194064997488752E+00 a      1227     0    50     1     2
 -6.2865810959793835E+00 a      1228     0    50     1     3
 -1.1663805616477370E+00 a      1229     0    50     1     4
 -1.9356894436609247E+00 a      1230     0    50     1     5
  1.9714497788274781E+00 a      1231     0    50     1     6
 -2.1237735809308025E+00 a      1232     0    50     1     7
  3.8161409316897599E+00 a      1233     0    50     1     8
  6.6062228676577277E+00 a      1234     0    50     1     9
  1.3137376032394947E+00 a      1235     0    50     1    10
  6.9235489476053158E-01 a      1236     0    50     1    11
  2.6042315729093852E+00 a      1237     0    50     1    12
  5.9289464902722067E-01 a      1238     0    50     1    13
  2.0295277602074342E+00 a      1239     0    50     1    14
 -9.2989083235495940E-01 a      1240     0    50     1    15
 -1.2777015228258451E-01 a      1241     0    50     1    16
 -2.9589349209912386E+00 a      1242     0    50     1    17
  8.3980879163181488E-01 a      1243     0    50     1    18
  1.9552670920126294E+00 a      1244     0    50     1    19
 -1.6192162170024540E+00 a      1245     0    50     1    20
  1.1254884410416889E-02 a      1246     0    50     1    21
  1.5775193660329505E+00 a      1247     0    50     1    22
 -4.6150929835985349E-01 a      1248     0    50     1    23
  2.6879905024702877E-01 a      1249     0    50     1    24
 -2.7923240727172011E-01 a      1250     0    50     1    25
  1.0659501983590400E+00 a      1251     0    51     1     1
 -1.7624865499929825E+00 a      1252     0    51     1     2
 -9.2656413256109871E-01 a      1253     0    51     1     3
  7.9576011063892949E-01 a      1254     0    51     1     4
  2.0398977494671014E-01 a      1255     0    51     1     5
  2.5290339559878761E+00 a      1256     0    51     1     6
 -4.8598642986330309E-01 a      1257     0    51     1     7
  4.4103106756128856E+00 a      1258     0    51     1     8
  2.8646438128814622E-01 a      1259     0    51     1     9
  8.7873636959794610E-02 a      1260     0    51     1    10
  5.4523937162298763E-01 a      1261     0    51     1    11
 -2.6583851998617375E-01 a      1262     0    51     1    12
 -3.1035873926272117E-01 a      1263     0    51     1    13
  1.3366390396119063E+00 a      1264     0    51     1    14
 -7.8870748858922635E-01 a      1265     0    51     1    15
 -1.0265187395070428E+00 a      1266     0    51     1    16
 -1.2634985561993597E+00 a      1267     0    51     1    17
 -1.7211630943246774E+00 a      1268     0    51     1    18
  2.2565825661894072E+00 a      1269     0    51     1    19
  1.6187558081945428E+00 a      1270     0    51     1    20
  3.5539571301652373E-01 a      1271     0    51     1    21
  4.2393601088548094E-01 a      1272     0    51     1    22
 -2.3187065332963437E+00 a      1273     0    51     1    23
  5.1284700321253573E-01 a      1274     0    51     1    24
 -2.0856705019666748E+00 a      1275     0    51     1    25
  1.3010537613691884E+00 a      1276     0    52     1     1
 -3.0929338349594961E+00 a      1277     0    52     1     2
 -1.4539694094620075E+00 a      1278     0    52     1     3
  1.0962759306716088E+00 a      1279     0    52     1     4
 -4.9316650034624976E-01 a      1280     0    52     1     5
  1.8332667696382032E+00 a      1281     0    52     1     6
 -1.1015595235911007E+00 a      1282     0    52     1     7
  2.7063268451690345E+00 a      1283     0    52     1     8
 -1.3715022984314895E-01 a      1284     0    52     1     9
 -1.0336597462848416E+00 a      1285     0    52     1    10
  4.7222441479265402E-02 a      1286     0    52     1    11
 -7.4399649948193175E-02 a      1287     0    52     1    12
 -2.9175768775143596E-01 a      1288     0    52     1    13
  1.1691380955528168E+00 a      1289     0    52     1    14
  1.4918752002532290E-01 a      1290     0    52     1    15
 -9.2298178932493780E-01 a      1291     0    52     1    16
 -2.6748703804253964E-02 a      1292     0    52     1    17
 -1.1532325157309888E+00 a      1293     0    52     1    18
  2.1817099871363155E+00 a      1294     0    52     1    19
  7.0179541631198550E-01 a      1295     0    52     1    20
 -7.5422169391834792E-01 a      1296     0    52     1    21
  1.7543273297720576E+00 a      1297     0    52     1    22
 -1.5805344218635489E+00 a      1298     0    52     1    23
  2.7434589835659634E-01 a      1299     0    52     1    24
 -2.3011933487047216E+00 a      1300     0    52     1    25
 -5.1014988128687593E+00 a      1301     0    53     1     1
 -2.5256833943550769E+00 a      1302     0    53     1     2
 -1.4810872045826395E+00 a      1303     0    53     1     3
 -9.5094230402037877E-02 a      1304     0    53     1     4
 -5.2061231749158150E+00 a      1305     0    53     1     5
 -2.7802045672269955E+00 a      1306     0    53     1     6
 -2.3024145694088842E+00 a      1307     0    53     1     7
 -2.5123695739699787E+00 a      1308     0    53     1     8
  2.1804934027795220E+00 a      1309     0    53     1     9
  7.3348603487615471E-01 a      1310     0    53     1    10
  1.8027950717998407E+00 a      1311     0    53     1    11
  1.9832523742223727E+00 a      1312     0    53     1    12
 -9.4805253523802904E+00 a      1313     0    53     1    13
 -4.2692331482771566E+00 a      1314     0    53     1    14
  1.9772283689357302E+00 a      1315     0    53     1    15
 -4.0150659555171906E+00 a      1316     0    53     1    16
  1.9680461277212071E+00 a      1317     0    53     1    17
 -3.5941103863719137E+00 a      1318     0    53     1    18
 -1.1504582029084363E+00 a      1319     0    53     1    19
  2.7889364157142245E+00 a      1320     0    53     1    20
 -1.7152858604401990E+00 a      1321     0    53     1    21
 -3.8843286671850663E+00 a      1322     0    53     1    22
  6.5641498828324329E-01 a      1323     0    53     1    23
  9.8548638437995006E-01 a      1324     0    53     1    24
 -2.6117940486184060E-01 a      1325     0    53     1    25
 -1.2062623614535803E+00 a      1326     0    54     1     1
  3.0384524076533790E+00 a      1327     0    54     1     2
 -3.1451318157644925E+00 a      1328     0    54     1     3
 -5.7353587059185185E-01 a      1329     0    54     1     4
  2.1618278317925301E+00 a      1330     0    54     1     5
 -2.9693769880187687E-01 a      1331     0    54     1     6
  2.4514993102414104E+00 a      1332     0    54     1     7
  1.1524306619063060E-01 a      1333     0    54     1     8
  7.8753499646068126E-01 a      1334     0    54     1     9
 -1.2103688028519599E+00 a      1335     0    54     1    10
  3.0499526136758695E+00 a      1336     0    54     1    11
  1.8151230469534518E+00 a      1337     0    54     1    12
 -2.3837718152593306E+00 a      1338     0    54     1    13
  6.5097965514731504E-01 a      1339     0    54     1    14
 -8.0492259507856279E-01 a      1340     0    54     1    15
 -8.0381803749918779E-01 a      1341     0    54     1    16
  2.5234352817927737E+00 a      1342     0    54     1    17
  1.2960414659255302E+00 a      1343     0    54     1    18
 -9.2551469535115360E-01 a      1344     0    54     1    19
  4.1139246082700770E-01 a      1345     0    54     1    20
  2.5065951901917525E+00 a      1346     0    54     1    21
 -1.8684241389977772E+00 a      1347     0    54     1    22
  4.9982172758318661E+00 a      1348     0    54     1    23
 -2.4787048204243995E+00 a      1349     0    54     1    24
 -5.9271566337965942E-01 a      1350     0    54     1    25
 -3.8162041509883454E-01 a      1351     0    55     1     1
 -1.0733257469937181E+00 a      1352     0    55     1     2
 -5.1497211270216459E-01 a      1353     0    55     1     3
 -1.9032022729132997E-01 a      1354     0    55     1     4
 -2.7513218791991984E-01 a      1355     0    55     1     5
 -1.0434525920958826E-01 a      1356     0    55     1     6
  4.7395350884449799E-01 a      1357     0    55     1     7
  1.3695430198075925E-01 a      1358     0    55     1     8
  4.5340661980550923E-01 a      1359     0    55     1     9
  4.9196573404170763E-01 a      1360     0    55     1    10
 -8.0301416088885891E-01 a      1361     0    55     1    11
 -1.7410909112375729E-02 a      1362     0    55     1    12
  6.1586762443522980E-01 a      1363     0    55     1    13
  4.2215982786872303E-01 a      1364     0    55     1    14
 -6.0292773953498226E-02 a      1365     0    55     1    15
 -1.0128399298712130E-01 a      1366     0    55     1    16
  6.2005963924629404E-01 a      1367     0    55     1    17
  5.6377576615047975E-01 a      1368     0    55     1    18
  5.7736837413696895E-01 a      1369     0    55     1    19
  8.7418241517493245E-01 a      1370     0    55     1    20
  8.6994066337639386E-01 a      1371     0    55     1    21
  5.6564813750021048E-01 a      1372     0    55     1    22
  1.1312750469487716E+00 a      1373     0    55     1    23
 -2.7110277177367476E-01 a      1374     0    55     1    24
  7.1463742525935503E-01 a      1375     0    55     1    25
  8.2811952349069757E-03 a      1376     0    56     1     1
  6.0765240452523284E-01 a      1377     0    56     1     2
  1.6335087850409474E-01 a      1378     0    56     1     3
 -2.6128768605392275E-02 a      1379     0    56     1     4
 -1.6446479990428869E-01 a      1380     0    56     1     5
 -6.3662825318428973E-01 a      1381     0    56     1     6
 -4.1618469553510162E-01 a      1382     0    56     1     7
 -9.3261719997503734E-01 a      1383     0    56     1     8
  1.4474169991250230E-01 a      1384     0    56     1     9
  7.2504015611742786E-02 a      1385     0    56     1    10
 -3.5271579854324586E-01 a      1386     0    56     1    11
  2.1071918606435058E-01 a      1387     0    56     1    12
  3.3721614189784033E-01 a      1388     0    56     1    13
 -8.2475120328546392E-01 a      1389     0    56     1    14
  2.4469870556776679E-01 a      1390     0    56     1    15
 -6.9631318690643862E-01 a      1391     0    56     1    16
  2.0389869683901907E+00 a      1392     0    56     1    17
  3.5197184729237818E-01 a      1393     0    56     1    18
  3.5555347870167353E-01 a      1394     0    56     1    19
 -6.5364910476961213E-01 a      1395     0    56     1    20
  1.3410692305622789E+00 a      1396     0    56     1    21
  3.3415146676711749E-01 a      1397     0    56     1    22
  7.4885389020433868E-01 a      1398     0    56     1    23
  2.7520617390029745E-01 a      1399     0    56     1    24
 -7.0280409166005287E-01 a      1400     0    56     1    25
  5.0562321267104171E-01 a      1401     0    57     1     1
  2.1080306974123217E-01 a      1402     0    57     1     2
 -1.2541325588952275E+00 a      1403     0    57     1     3
  2.5248857676393610E-01 a      1404     0    57     1     4
  7.1707497576579304E-01 a      1405     0    57     1     5
  1.5752384711233261E-01 a      1406     0    57     1     6
 -7.6603630985845672E-01 a      1407     0    57     1     7
 -2.1077796612684267E-02 a      1408     0    57     1     8
  5.7162247807784061E-01 a      1409     0    57     1     9
 -1.1770450357735493E-01 a      1410     0    57     1    10
  1.1129000118541722E-01 a      1411     0    57     1    11
  6.5607666072272508E-01 a      1412     0    57     1    12
  2.5514909760416310E-01 a      1413     0    57     1    13
  5.9408070783135891E-01 a      1414     0    57     1    14
  8.8521365499452415E-02 a      1415     0    57     1    15
 -4.7142903171367095E-01 a      1416     0    57     1    16
 -2.1567553584298224E-01 a      1417     0    57     1    17
  8.9561337199156521E-01 a      1418     0    57     1    18
  5.5775050565001683E-01 a      1419     0    57     1    19
 -2.8027975775586922E-01 a      1420     0    57     1    20
 -1.1233057696917956E-01 a      1421     0    57     1    21
 -2.1709833818341451E-01 a      1422     0    57     1    22
  7.3111793130993152E-01 a      1423     0    57     1    23
  4.2587560536215796E-01 a      1424     0    57     1    24
 -2.3240243236425973E-01 a      1425     0    57     1    25
 -6.2947533134637035E-01 a      1426     0    58     1     1
 -3.0225562819421424E-03 a      1427     0    58     1     2
  5.8538671088801708E-01 a      1428     0    58     1     3
 -1.6166501333426311E-01 a      1429     0    58     1     4
 -6.9396449112369796E-01 a      1430     0    58     1     5
  3.3583669658628100E-02 a      1431     0    58     1     6
  3.7778090942899578E-01 a      1432     0    58     1     7
  1.3823174339251645E-01 a      1433     0    58     1     8
 -4.9949850574606980E-01 a      1434     0    58     1     9
  3.5067452489999013E-02 a      1435     0    58     1    10
  3.8581081142583649E-02 a      1436     0    58     1    11
  2.1282501636356058E-01 a      1437     0    58     1    12
 -3.6893202647046275E-01 a      1438     0    58     1    13
 -6.3710194300745548E-01 a      1439     0    58     1    14
 -2.6128109443510089E-01 a      1440     0    58     1    15
  3.7360586535911700E-01 a      1441     0    58     1    16
  6.3241671710323799E-02 a      1442     0    58     1    17
 -1.5883568705706791E-01 a      1443     0    58     1    18
 -1.4145994232891959E-01 a      1444     0    58     1    19
  5.7669145101048769E-01 a      1445     0    58     1    20
  6.8264206618004988E-02 a      1446     0    58     1    21
  4.6219891395707036E-01 a      1447     0    58     1    22
 -6.2569987033426255E-01 a      1448     0    58     1    23
 -1.6719951096524424E-01 a      1449     0    58     1    24
  1.7272595543275246E-01 a      1450     0    58     1    25
  9.4357873688670224E-01 a      1451     0    59     1     1
  3.2616806275404939E+00 a      1452     0    59     1     2
  1.8824321696981730E+00 a      1453     0    59     1     3
  3.4632376853862673E-01 a      1454     0    59     1     4
  9.3858224636257159E-01 a      1455     0    59     1     5
 -1.4946276980159587E+00 a      1456     0    59     1     6
  2.7391788337897043E+00 a      1457     0    59     1     7
 -3.6748137771631133E+00 a      1458     0    59     1     8
 -3.7167623027873273E+00 a      1459     0    59     1     9
 -1.3130624554260619E+00 a      1460     0    59     1    10
 -1.2516267541054558E+00 a      1461     0    59     1    11
 -1.0151048019734001E+00 a      1462     0    59     1    12
  1.1000716297877611E+00 a      1463     0    59     1    13
 -1.0574193340821429E+00 a      1464     0    59     1    14
  6.2934278006347821E-01 a      1465     0    59     1    15
  8.0607683837766730E-01 a      1466     0    59     1    16
  2.3041365171119352E+00 a      1467     0    59     1    17
 -2.6351168983491431E+00 a      1468     0    59     1    18
 -1.4520561476223084E+00 a      1469     0    59     1    19
  1.5953919032190882E+00 a      1470     0    59     1    20
 -1.0398823616525559E+00 a      1471     0    59     1    21
 -1.4554359895135918E+00 a      1472     0    59     1    22
  4.3844679433145711E-01 a      1473     0    59     1    23
 -1.8706305855742475E-01 a      1474     0    59     1    24
  1.3035411970663258E-01 a      1475     0    59     1    25
  2.7827423467780171E-01 a      1476     0    60     1     1
  1.0291288775086909E+00 a      1477     0    60     1     2
  1.4262550345466856E+00 a      1478     0    60     1     3
  5.8681563377605428E-01 a      1479     0    60     1     4
  1.5579970088231146E-01 a      1480     0    60     1     5
 -7.5070508535946401E-01 a      1481     0    60     1     6
  1.7218328659242563E-01 a      1482     0    60     1     7
 -1.9386752455480518E+00 a      1483     0    60     1     8
  7.1622374277883549E-01 a      1484     0    60     1     9
  1.0924773751550780E-01 a      1485     0    60     1    10
  3.8793168621808249E-01 a      1486     0    60     1    11
  6.4563873312311748E-01 a      1487     0    60     1    12
 -3.6432631367305457E-01 a      1488     0    60     1    13
  4.7232160197693197E-02 a      1489     0    60     1    14
 -6.3053906008577332E-01 a      1490     0    60     1    15
  5.5533028429865972E-01 a      1491     0    60     1    16
 -4.2115793468939788E-01 a      1492     0    60     1    17
 -4.5442373240652079E-01 a      1493     0    60     1    18
 -1.0458891316307997E+00 a      1494     0    60     1    19
  7.3063610416360128E-02 a      1495     0    60     1    20
  1.6579471993704470E-01 a      1496     0    60     1    21
 -5.0420582554776006E-01 a      1497     0    60     1    22
  6.7506976051942769E-01 a      1498     0    60     1    23
  6.4415422817060075E-01 a      1499     0    60     1    24
  4.2871943152747449E-01 a      1500     0    60     1    25
 -4.1266553099754766E-01 a      1501     0    61     1     1
  1.4356654182242052E+00 a      1502     0    61     1     2
  7.5481513467683914E-01 a      1503     0    61     1     3
 -1.1913975124648599E+00 a      1504     0    61     1     4
  5.9055270485640288E-01 a      1505     0    61     1     5
 -3.7162091519104340E-01 a      1506     0    61     1     6
  6.5876746352550075E-01 a      1507     0    61     1     7
 -7.2824599970006909E-01 a      1508     0    61     1     8
  9.0145411107015838E-01 a      1509     0    61     1     9
  2.9344120850439426E-01 a      1510     0    61     1    10
  1.7714337043817638E-01 a      1511     0    61     1    11
 -3.5168549696242590E-01 a      1512     0    61     1    12
 -1.2108125352276032E-01 a      1513     0    61     1    13
 -1.5402103980033499E-01 a      1514     0    61     1    14
  6.2445483231972354E-01 a      1515     0    61     1    15
  1.6632746926179273E-01 a      1516     0    61     1    16
  8.7605221536589628E-01 a      1517     0    61     1    17
  1.2473133352976040E+00 a      1518     0    61     1    18
 -7.1832186530939668E-01 a      1519     0    61     1    19
 -1.6090698838793629E-01 a      1520     0    61     1    20
 -8.0663908018513497E-01 a      1521     0    61     1    21
 -4.7545981346704813E-01 a      1522     0    61     1    22
  1.4796239842297367E+00 a      1523     0    61     1    23
 -4.3870523598155509E-01 a      1524     0    61     1    24
 -3.8490187361557537E-01 a      1525     0    61     1    25
  3.1858441296837907E+00 a      1526     0    62     1     1
  1.0520069346573988E+00 a      1527     0    62     1     2
  2.1524453779975103E+00 a      1528     0    62     1     3
 -9.3650505931371042E-01 a      1529     0    62     1     4
  2.6978585770710355E+00 a      1530     0    62     1     5
  4.4619651638179985E+00 a      1531     0    62     1     6
  1.2876615547736763E+00 a      1532     0    62     1     7
  1.2883874627954803E+00 a      1533     0    62     1     8
 -2.5460499143628876E+00 a      1534     0    62     1     9
  7.4030006033349482E-01 a      1535     0    62     1    10
 -3.8748986745647157E-01 a      1536     0    62     1    11
  3.3838146004730169E-01 a      1537     0    62     1    12
  2.1283998036609568E+00 a      1538     0    62     1    13
  1.9130329388497356E+00 a      1539     0    62     1    14
 -3.6207281323466572E-01 a      1540     0    62     1    15
  1.3580596431234582E+00 a      1541     0    62     1    16
  5.2876131464187515E-01 a      1542     0    62     1    17
  1.4890178289563596E+00 a      1543     0    62     1    18
 -2.1921753820429117E+00 a      1544     0    62     1    19
 -1.2642298379824565E-01 a      1545     0    62     1    20
  1.3092495263198920E+00 a      1546     0    62     1    21
  3.1310499913129468E+00 a      1547     0    62     1    22
  7.5199866979181551E-01 a      1548     0    62     1    23
  3.6039807569673896E+00 a      1549     0    62     1    24
  1.0360809081973145E-01 a      1550     0    62     1    25
  1.6342743421989849E+00 b      1551     1     1
 -3.3561210011963247E+00 b      1552     1     2
  7.3332653121464753E-01 b      1553     1     3
  1.8853166082883597E+00 b      1554     1     4
 -3.5290893876588592E-01 b      1555     1     5
 -3.3166085193644013E+00 b      1556     1     6
  2.0059956508915096E+00 b      1557     1     7
 -3.5075117765878210E-03 b      1558     1     8
 -6.9312206248977792E-01 b      1559     1     9
  7.5900328568922440E-02 b      1560     1    10
  1.4345606418699135E+00 b      1561     1    11
 -4.5744796752286021E+00 b      1562     1    12
  1.9520963146326002E+00 b      1563     1    13
 -5.3431616486266342E-01 b      1564     1    14
  4.8254257097656894E-01 b      1565     1    15
  7.4549128238436180E-02 b      1566     1    16
 -1.2638832599258347E+00 b      1567     1    17
 -1.6223598369936459E-01 b      1568     1    18
 -7.6090882145079908E-01 b      1569     1    19
 -1.6041373761399380E+00 b      1570     1    20
 -5.1757866055212531E-01 b      1571     1    21
  1.1953762018777518E+00 b      1572     1    22
 -1.4143660327527354E+00 b      1573     1    23
  1.5742236785521009E+00 b      1574     1    24
  4.6745695702287166E-01 b      1575     1    25
  5.6652322824403623E-01 a      1576     1     1     2     1
  8.4785934528141360E-01 a      1577     1     1     2     2
 -2.7000174701928015E-01 a      1578     1     1     2     3
  5.3199150424549568E-01 a      1579     1     1     2     4
 -1.1337352109835819E-01 a      1580     1     1     2     5
 -3.6332921634029358E-01 a      1581     1     1     2     6
  1.9578949462345072E+00 a      1582     1     1     2     7
 -1.1498898274833780E-01 a      1583     1     1     2     8
 -1.3236132427380209E+00 a      1584     1     1     2     9
  1.1458516664011740E+00 a      1585     1     1     2    10
  5.3076697687300645E-01 a      1586     1     1     2    11
  3.7045178099334047E-01 a      1587     1     1     2    12
  2.3455995154566924E+00 a      1588     1     1     2    13
  8.3090567776785729E-01 a      1589     1     1     2    14
 -1.9438865417293409E+00 a      1590     1     1     2    15
 -1.9527996358765409E-01 a      1591     1     1     2    16
 -2.1667106049121798E-01 a      1592     1     1     2    17
 -6.5858727580430521E-01 a      1593     1     1     2    18
  1.0241293531112943E+00 a      1594     1     1     2    19
 -4.7571969952191334E-01 a      1595     1     1     2    20
  1.2873992109046068E+00 a      1596     1     1     2    21
 -4.4794657511615960E-01 a      1597     1     1     2    22
  9.1886522232809235E-03 a      1598     1     1     2    23
  1.1792336344191257E+00 a      1599     1     1     2    24
  7.5389070985315432E-01 a      1600     1     1     2    25
 -1.0957926508067914E+00 a      1601     1     2     2     1
 -5.1117040503111533E-01 a      1602     1     2     2     2
  1.5608443880751470E+00 a      1603     1     2     2     3
 -9.4694658722949065E-01 a      1604     1     2     2     4
 -4.2724705560601999E+00 a      1605     1     2     2     5
  3.9595057519692439E-01 a      1606     1     2     2     6
 -1.1091269938586730E+00 a      1607     1     2     2     7
 -3.7968248129671101E-01 a      1608     1     2     2     8
  7.4897618636775165E-01 a      1609     1     2     2     9
  4.7115035430761659E-01 a      1610     1     2     2    10
 -1.8350674730431775E+00 a      1611     1     2     2    11
 -4.3055556366993220E-01 a      1612     1     2     2    12
  2.6381471409042447E+00 a      1613     1     2     2    13
  3.9344853521945309E+00 a      1614     1     2     2    14
 -1.1061572250123444E+00 a      1615     1     2     2    15
 -3.9303651989740512E-01 a      1616     1     2     2    16
 -9.3621457990740731E-02 a      1617     1     2     2    17
  7.6988658900451568E-01 a      1618     1     2     2    18
 -1.2714783011066277E+00 a      1619     1     2     2    19
 -1.5217364414298855E+00 a      1620     1     2     2    20
  1.2814754335112695E+00 a      1621     1     2     2    21
 -8.1293946751796231E-01 a      1622     1     2     2    22
  3.1771180553977124E-01 a      1623     1     2     2    23
  1.0490110397381611E+00 a      1624     1     2     2    24
 -1.4812103901637195E+00 a      1625     1     2     2    25
  2.1382532221838743E-01 a      1626     1     3     2     1
  4.4048705931242710E-01 a      1627     1     3     2     2
 -1.8962964284939793E-01 a      1628     1     3     2     3
