################################################################################
# Neural network connection values (weights and biases).
################################################################################
# Col  Name       Description
################################################################################
# 1    connection Neural network connection value.
# 2    t          Connection type (a = weight, b = bias).
# 3    index      Index enumerating weights.
# 4    l_s        Starting point layer (end point layer for biases).
# 5    n_s        Starting point neuron in starting layer (end point neuron for biases).
# 6    l_e        End point layer.
# 7    n_e        End point neuron in end layer.
################################################################################
#                      1 2         3     4     5     6     7
#             connection t     index   l_s   n_s   l_e   n_e
############################################################
 -1.2926400385537816E+01 a         1     0     1     1     1
  2.4285987251259744E+01 a         2     0     1     1     2
 -3.0914853238210132E+01 a         3     0     1     1     3
 -2.8672214254158408E+01 a         4     0     1     1     4
 -9.7998444815959243E+00 a         5     0     1     1     5
  2.5541172765458800E+01 a         6     0     1     1     6
 -3.9753642725892767E+01 a         7     0     1     1     7
  3.5868328205114786E+01 a         8     0     1     1     8
 -4.8687080299896969E+01 a         9     0     1     1     9
 -1.7661667699167829E+01 a        10     0     1     1    10
 -1.0397631259150781E+01 a        11     0     1     1    11
 -9.9389972431416602E+00 a        12     0     1     1    12
 -1.7443542414555637E+01 a        13     0     1     1    13
 -4.9759666182200313E+01 a        14     0     1     1    14
 -1.6061106860212885E+01 a        15     0     1     1    15
 -2.2340688015324637E+00 a        16     0     1     1    16
  5.8564601386736630E+00 a        17     0     1     1    17
  2.1873721803004077E+01 a        18     0     1     1    18
 -1.3713318761202940E+01 a        19     0     1     1    19
  4.4097609815098476E-01 a        20     0     1     1    20
 -1.6537922896478808E+01 a        21     0     1     1    21
 -4.3803130674156057E+00 a        22     0     1     1    22
 -2.4840436983365421E+01 a        23     0     1     1    23
  1.2909509888850041E+01 a        24     0     1     1    24
 -1.1356535827969381E+01 a        25     0     1     1    25
 -1.7641402980646252E+01 a        26     0     2     1     1
 -2.2016916627881223E+01 a        27     0     2     1     2
  8.4847241658946231E+01 a        28     0     2     1     3
 -4.6860943789425065E+01 a        29     0     2     1     4
  3.0655273932822997E+01 a        30     0     2     1     5
  6.7945096508251297E+01 a        31     0     2     1     6
 -1.1385154927135154E+01 a        32     0     2     1     7
 -4.4394344560675741E-01 a        33     0     2     1     8
  1.0829839145548950E+01 a        34     0     2     1     9
 -1.3989985266830828E+01 a        35     0     2     1    10
  2.4180289601813620E+01 a        36     0     2     1    11
  6.7053816442195604E+00 a        37     0     2     1    12
 -5.3145097753653715E+01 a        38     0     2     1    13
  4.7359795547586238E+01 a        39     0     2     1    14
  1.3613967270260680E+01 a        40     0     2     1    15
 -4.5138715177687851E+00 a        41     0     2     1    16
  3.4407151124377808E+00 a        42     0     2     1    17
 -9.5152353442962347E+00 a        43     0     2     1    18
  1.6577705256058092E+01 a        44     0     2     1    19
  4.8767626204394006E+01 a        45     0     2     1    20
 -7.8411167099769417E+00 a        46     0     2     1    21
  1.1879869483767436E+01 a        47     0     2     1    22
 -1.1286338009360325E+01 a        48     0     2     1    23
 -7.5624803650120853E+00 a        49     0     2     1    24
  7.9658029223114639E+01 a        50     0     2     1    25
  3.4999366345667099E+01 a        51     0     3     1     1
 -7.2201556360531987E+00 a        52     0     3     1     2
  2.9090438329237220E+01 a        53     0     3     1     3
  3.7868036832837831E+01 a        54     0     3     1     4
 -6.6720379809080399E+01 a        55     0     3     1     5
  3.8283445724069040E+01 a        56     0     3     1     6
  1.4552519108362734E+00 a        57     0     3     1     7
  3.6208827328980909E+01 a        58     0     3     1     8
  5.6971044724352637E+01 a        59     0     3     1     9
  2.9363375944394530E+01 a        60     0     3     1    10
  6.0708537129443641E+01 a        61     0     3     1    11
  8.0784123002155468E+01 a        62     0     3     1    12
  8.0953901965153889E+00 a        63     0     3     1    13
  7.6060263552026939E+01 a        64     0     3     1    14
  6.3089724950209130E+00 a        65     0     3     1    15
 -3.0453935167070188E+01 a        66     0     3     1    16
  4.1949825230110960E+01 a        67     0     3     1    17
 -9.6996027279026421E+01 a        68     0     3     1    18
 -2.2469214613090194E+00 a        69     0     3     1    19
 -4.8399308735122073E+00 a        70     0     3     1    20
 -3.6445557841292612E+01 a        71     0     3     1    21
 -4.4039741940521743E+01 a        72     0     3     1    22
 -2.0614984498999139E+01 a        73     0     3     1    23
 -6.6213773922524510E+01 a        74     0     3     1    24
  5.7214160993393499E+01 a        75     0     3     1    25
  2.0484514364691989E+01 a        76     0     4     1     1
 -3.3811281134330763E+01 a        77     0     4     1     2
  5.6233187799545469E+01 a        78     0     4     1     3
  5.9878592737516549E+01 a        79     0     4     1     4
  2.8343948606061797E+01 a        80     0     4     1     5
 -5.2577416382296931E+01 a        81     0     4     1     6
  5.9321522522137791E+01 a        82     0     4     1     7
 -6.7207178520894146E+01 a        83     0     4     1     8
  7.9578610512679120E+01 a        84     0     4     1     9
  3.2677655891761354E+01 a        85     0     4     1    10
  9.5062372838533591E+00 a        86     0     4     1    11
  1.0316377843598797E+01 a        87     0     4     1    12
  2.9818776268235066E+01 a        88     0     4     1    13
  6.2988149374314119E+01 a        89     0     4     1    14
  1.0415382184263718E+01 a        90     0     4     1    15
  2.7584270279286480E+00 a        91     0     4     1    16
 -9.3860330097448426E+00 a        92     0     4     1    17
 -3.8939171799794906E+01 a        93     0     4     1    18
  3.1017630442507198E+01 a        94     0     4     1    19
 -4.7563879008086873E+00 a        95     0     4     1    20
  2.7199214184237398E+01 a        96     0     4     1    21
  1.3330479526022470E+01 a        97     0     4     1    22
  4.4983128314020931E+01 a        98     0     4     1    23
 -9.2115129611322590E+00 a        99     0     4     1    24
  1.0753963857653732E+01 a       100     0     4     1    25
  4.7758225019505240E+01 a       101     0     5     1     1
  2.7511310522924106E+01 a       102     0     5     1     2
 -1.2682150939412048E+02 a       103     0     5     1     3
  9.2635315198934094E+01 a       104     0     5     1     4
 -6.8514340023266058E+01 a       105     0     5     1     5
 -8.8142576059732662E+01 a       106     0     5     1     6
  1.4234702875031051E+01 a       107     0     5     1     7
 -2.4039762057581897E+00 a       108     0     5     1     8
 -3.1651969618096640E+01 a       109     0     5     1     9
  2.1639723373047463E+01 a       110     0     5     1    10
 -2.8997342562254840E+01 a       111     0     5     1    11
 -8.6114441649569162E+00 a       112     0     5     1    12
  1.0657590229761510E+02 a       113     0     5     1    13
 -5.7578272174517267E+01 a       114     0     5     1    14
 -6.7207177268246960E+00 a       115     0     5     1    15
  6.8170998249131232E-01 a       116     0     5     1    16
 -1.5611202125568022E+01 a       117     0     5     1    17
  2.5860995243164773E+01 a       118     0     5     1    18
 -2.6711966054776415E+01 a       119     0     5     1    19
 -7.6878230907479420E+01 a       120     0     5     1    20
  1.3840769842056709E+01 a       121     0     5     1    21
 -2.6919428323365782E+01 a       122     0     5     1    22
  3.5886493007911255E+01 a       123     0     5     1    23
  3.5122378673665096E+00 a       124     0     5     1    24
 -1.1836416330404610E+02 a       125     0     5     1    25
 -5.7313524665084365E+01 a       126     0     6     1     1
  3.6562102720730174E+01 a       127     0     6     1     2
 -4.3370621084563275E+01 a       128     0     6     1     3
 -6.4310096968616634E+01 a       129     0     6     1     4
  1.2220719403894269E+02 a       130     0     6     1     5
 -5.0116608785503843E+01 a       131     0     6     1     6
 -2.8579633140391465E+00 a       132     0     6     1     7
 -3.2786102521525414E+01 a       133     0     6     1     8
 -1.0299618695333432E+02 a       134     0     6     1     9
 -6.2010138431887114E+01 a       135     0     6     1    10
 -9.6455726811988384E+01 a       136     0     6     1    11
 -1.3395573921377752E+02 a       137     0     6     1    12
 -2.2882612787427608E+00 a       138     0     6     1    13
 -1.1794910537603403E+02 a       139     0     6     1    14
  6.9563184031268070E+00 a       140     0     6     1    15
  4.8458189668599580E+01 a       141     0     6     1    16
 -7.7325398109804908E+01 a       142     0     6     1    17
  1.7077136670036322E+02 a       143     0     6     1    18
  5.3472218018890292E+00 a       144     0     6     1    19
  1.4411247341825202E+00 a       145     0     6     1    20
  4.6681525172010012E+01 a       146     0     6     1    21
  6.5521937137207217E+01 a       147     0     6     1    22
  4.4943487351666626E+01 a       148     0     6     1    23
  1.0700398490221028E+02 a       149     0     6     1    24
 -8.9039449685075596E+01 a       150     0     6     1    25
 -1.4171625268553029E+01 a       151     0     7     1     1
  8.8179714991609810E+00 a       152     0     7     1     2
 -3.8727893322801521E+01 a       153     0     7     1     3
 -4.3444382654210443E+01 a       154     0     7     1     4
 -2.7761215062733186E+01 a       155     0     7     1     5
  2.7464609676541048E+01 a       156     0     7     1     6
 -3.0661262163528541E+01 a       157     0     7     1     7
  3.3203579443251058E+01 a       158     0     7     1     8
 -5.0401417168616305E+01 a       159     0     7     1     9
 -2.2603055824633579E+01 a       160     0     7     1    10
 -4.0996158824732163E+00 a       161     0     7     1    11
 -5.2907118989892892E+00 a       162     0     7     1    12
 -1.3507379576924563E+01 a       163     0     7     1    13
 -2.5709118649212929E+01 a       164     0     7     1    14
  1.2723163874028602E+01 a       165     0     7     1    15
 -4.2341166202180247E+00 a       166     0     7     1    16
 -9.7142294704584964E-01 a       167     0     7     1    17
  1.8583448592694509E+01 a       168     0     7     1    18
 -3.2224028856355787E+01 a       169     0     7     1    19
  4.8510611689583429E+00 a       170     0     7     1    20
 -1.1858196195399508E+01 a       171     0     7     1    21
 -1.0106504425810636E+01 a       172     0     7     1    22
 -2.9047010853621543E+01 a       173     0     7     1    23
 -3.7183368669503722E+00 a       174     0     7     1    24
 -9.1660337240735890E-01 a       175     0     7     1    25
 -5.5328979593975262E+01 a       176     0     8     1     1
  7.2924471245941035E+01 a       177     0     8     1     2
 -1.8107458619259003E+01 a       178     0     8     1     3
 -4.0450849297378817E+01 a       179     0     8     1     4
  3.7055158281810691E+01 a       180     0     8     1     5
 -3.7630221709336156E+00 a       181     0     8     1     6
  3.4568851151818997E+01 a       182     0     8     1     7
 -5.3609051361710502E+00 a       183     0     8     1     8
  5.2265915961268149E+01 a       184     0     8     1     9
  1.4501025901983139E+01 a       185     0     8     1    10
 -2.2629251992447362E+01 a       186     0     8     1    11
 -2.4977708236900973E+01 a       187     0     8     1    12
 -1.7888911210143032E+01 a       188     0     8     1    13
 -1.0874838125273405E+01 a       189     0     8     1    14
 -3.2999535252653978E+01 a       190     0     8     1    15
  1.8894684914401275E+01 a       191     0     8     1    16
  1.8290528925191069E+01 a       192     0     8     1    17
  2.0012039884884803E+01 a       193     0     8     1    18
  1.8305128194912403E+01 a       194     0     8     1    19
  1.8783971739169125E+01 a       195     0     8     1    20
 -3.9115644349044956E+01 a       196     0     8     1    21
 -2.7821493921941276E+01 a       197     0     8     1    22
 -4.7358219088097961E+01 a       198     0     8     1    23
  8.2657858933966732E+00 a       199     0     8     1    24
 -2.7499262922809120E+01 a       200     0     8     1    25
  1.7102454479663731E+01 a       201     0     9     1     1
 -1.2221338501410367E+01 a       202     0     9     1     2
 -5.8410740255625315E+00 a       203     0     9     1     3
  2.7377640744252353E+01 a       204     0     9     1     4
 -3.3842456924607049E+01 a       205     0     9     1     5
  1.4191620612458035E+01 a       206     0     9     1     6
  7.5525880086717079E+00 a       207     0     9     1     7
  1.2518979747077621E+01 a       208     0     9     1     8
  2.9723073440064699E+01 a       209     0     9     1     9
  1.3328252865637678E+01 a       210     0     9     1    10
  2.4053327233292254E+01 a       211     0     9     1    11
  6.5306024237391881E+01 a       212     0     9     1    12
 -6.2302593172284473E+00 a       213     0     9     1    13
  3.2291801278113006E+01 a       214     0     9     1    14
  2.3571128335763866E+01 a       215     0     9     1    15
 -1.9763189695694379E+01 a       216     0     9     1    16
 -9.6199132900650475E-01 a       217     0     9     1    17
 -6.9103353138150865E+01 a       218     0     9     1    18
 -2.9883375096879017E+00 a       219     0     9     1    19
  1.1963600099819452E+01 a       220     0     9     1    20
 -9.6390546243986674E-01 a       221     0     9     1    21
 -3.4770279606812764E+01 a       222     0     9     1    22
  1.8774507979550567E+01 a       223     0     9     1    23
 -5.0122444024920227E+01 a       224     0     9     1    24
  3.5607821995337687E+01 a       225     0     9     1    25
  7.0730516281667777E+00 a       226     0    10     1     1
 -4.8139587284909799E+00 a       227     0    10     1     2
  1.1442227153292510E+01 a       228     0    10     1     3
  6.4990651486953812E+00 a       229     0    10     1     4
  1.0320217208084051E+01 a       230     0    10     1     5
 -6.2863480030347745E+00 a       231     0    10     1     6
  8.1124790781035472E+00 a       232     0    10     1     7
 -5.4124885402640563E+00 a       233     0    10     1     8
  1.2648014276057756E+01 a       234     0    10     1     9
  8.1798547401374062E+00 a       235     0    10     1    10
  4.0462956014383860E+00 a       236     0    10     1    11
  5.1649420951994260E+00 a       237     0    10     1    12
  2.6004557423370334E+00 a       238     0    10     1    13
 -3.1190410452848279E-03 a       239     0    10     1    14
 -5.9214141122639088E+00 a       240     0    10     1    15
 -2.6268912620863718E+00 a       241     0    10     1    16
  3.0847380398901993E+00 a       242     0    10     1    17
 -1.3826404887444357E+00 a       243     0    10     1    18
  2.2250369214055102E+01 a       244     0    10     1    19
  2.6547034083079510E+00 a       245     0    10     1    20
  3.3761700403333985E+00 a       246     0    10     1    21
  7.1247339344146488E-01 a       247     0    10     1    22
  8.1780010417031868E+00 a       248     0    10     1    23
  2.7931303342845091E+00 a       249     0    10     1    24
 -3.6802586886914912E-01 a       250     0    10     1    25
  1.8170906155722008E+01 a       251     0    11     1     1
 -3.8336040135442204E+01 a       252     0    11     1     2
  2.2620196524482790E+01 a       253     0    11     1     3
  5.7860652398604699E+00 a       254     0    11     1     4
 -7.7059109867142359E+00 a       255     0    11     1     5
  1.2509882814744881E+01 a       256     0    11     1     6
 -1.8041756663534759E+01 a       257     0    11     1     7
  3.6452107871046180E+00 a       258     0    11     1     8
 -2.3556384615008525E+01 a       259     0    11     1     9
 -9.1778459525991760E+00 a       260     0    11     1    10
  1.5255407031559827E+01 a       261     0    11     1    11
  1.4284397861112877E+01 a       262     0    11     1    12
 -8.3625237757820479E+00 a       263     0    11     1    13
  1.3318269060122827E+01 a       264     0    11     1    14
  1.8567458535466077E+01 a       265     0    11     1    15
 -8.8246028379335613E+00 a       266     0    11     1    16
 -6.9255475544725353E+00 a       267     0    11     1    17
 -1.5094945370092105E+01 a       268     0    11     1    18
 -5.7991722767270684E+00 a       269     0    11     1    19
  1.8929806751525549E+00 a       270     0    11     1    20
  1.9401165530247710E+01 a       271     0    11     1    21
  1.8106666825791823E+01 a       272     0    11     1    22
  1.4803958790321255E+01 a       273     0    11     1    23
 -3.1458511338835242E+00 a       274     0    11     1    24
  2.7967067605648513E+01 a       275     0    11     1    25
  2.9096703039546635E-02 a       276     0    12     1     1
 -2.3163925432035555E+00 a       277     0    12     1     2
  6.9045272067702061E+00 a       278     0    12     1     3
 -3.1482614881551898E+00 a       279     0    12     1     4
 -4.0374428380826339E+00 a       280     0    12     1     5
  2.6542718387715842E-02 a       281     0    12     1     6
 -3.7578657509796014E+00 a       282     0    12     1     7
 -2.2654854710555736E+00 a       283     0    12     1     8
  3.3533396209422706E-01 a       284     0    12     1     9
  5.4219242890186718E+00 a       285     0    12     1    10
  3.4818348674078039E+00 a       286     0    12     1    11
 -1.1011348140026021E+01 a       287     0    12     1    12
  4.2717288406011091E+00 a       288     0    12     1    13
  3.1848409547882959E+00 a       289     0    12     1    14
 -1.4719409954654292E+01 a       290     0    12     1    15
  1.4494628644521446E+00 a       291     0    12     1    16
  1.3382821188277598E+01 a       292     0    12     1    17
  7.5872490417022140E+00 a       293     0    12     1    18
  1.9212476042944379E-03 a       294     0    12     1    19
 -6.6434190823531347E+00 a       295     0    12     1    20
 -3.8193264777466318E+00 a       296     0    12     1    21
  8.5780680225097896E+00 a       297     0    12     1    22
 -1.9537180040714546E+01 a       298     0    12     1    23
  9.0964610753928028E+00 a       299     0    12     1    24
 -4.9901120982530642E+00 a       300     0    12     1    25
 -2.0694477268460063E+00 a       301     0    13     1     1
  4.8335577093509343E+00 a       302     0    13     1     2
  2.2361977127960699E+00 a       303     0    13     1     3
  7.9659056911264843E+00 a       304     0    13     1     4
  3.9809968903079113E-01 a       305     0    13     1     5
  2.4616016846349038E+00 a       306     0    13     1     6
  9.3949713239070998E-01 a       307     0    13     1     7
  4.9448091289785046E-01 a       308     0    13     1     8
  3.3466771129862551E+00 a       309     0    13     1     9
 -2.6669849329673481E+00 a       310     0    13     1    10
 -3.2956132508225333E+00 a       311     0    13     1    11
 -2.7395458933408898E+00 a       312     0    13     1    12
 -2.3891843920669036E+00 a       313     0    13     1    13
  5.7571506151824154E+00 a       314     0    13     1    14
 -1.2512640926074170E+00 a       315     0    13     1    15
  5.8628535061422875E+00 a       316     0    13     1    16
 -9.0433737828872396E-01 a       317     0    13     1    17
  5.6556484954410757E-01 a       318     0    13     1    18
 -7.0056756214532312E+00 a       319     0    13     1    19
 -3.0394561106737790E+00 a       320     0    13     1    20
 -9.8630802825488484E-01 a       321     0    13     1    21
  1.6081951069717662E+00 a       322     0    13     1    22
 -5.5342387557473982E-01 a       323     0    13     1    23
  1.4462484996657281E+00 a       324     0    13     1    24
  1.7130942994837228E+00 a       325     0    13     1    25
  5.0175220729418362E+00 a       326     0    14     1     1
 -5.2858944796695980E+01 a       327     0    14     1     2
  6.3209475388064369E+01 a       328     0    14     1     3
 -1.2548675811782436E+01 a       329     0    14     1     4
  5.7813453838738473E+00 a       330     0    14     1     5
  1.7416650307871880E+01 a       331     0    14     1     6
 -2.2062694564336358E+01 a       332     0    14     1     7
 -2.8693735415038826E+00 a       333     0    14     1     8
  8.4648090141829986E+00 a       334     0    14     1     9
 -1.8015855950468470E+01 a       335     0    14     1    10
  2.1854519972687477E+01 a       336     0    14     1    11
  1.9374870641686165E+01 a       337     0    14     1    12
 -3.8560931617027194E+01 a       338     0    14     1    13
  1.9632502205388874E+01 a       339     0    14     1    14
  6.5361701552534104E+00 a       340     0    14     1    15
 -5.1965723765138732E+00 a       341     0    14     1    16
 -1.7314453110160319E+00 a       342     0    14     1    17
 -3.5851551701970159E+01 a       343     0    14     1    18
 -3.0664159874576802E+00 a       344     0    14     1    19
  1.1804471038600299E+01 a       345     0    14     1    20
  1.8648502729227697E+01 a       346     0    14     1    21
  2.7010522364315371E+01 a       347     0    14     1    22
  7.4191260841942430E+00 a       348     0    14     1    23
 -4.9775292797228747E+00 a       349     0    14     1    24
  5.3537710720910248E+01 a       350     0    14     1    25
  1.0235865995762852E+01 a       351     0    15     1     1
 -1.6352216762169203E+01 a       352     0    15     1     2
  1.1408550086098845E+01 a       353     0    15     1     3
 -8.9670119053766957E+00 a       354     0    15     1     4
 -2.6285241854539333E+01 a       355     0    15     1     5
  3.4151391533469564E+00 a       356     0    15     1     6
  5.4676712055582692E+00 a       357     0    15     1     7
 -2.0016109334295667E+01 a       358     0    15     1     8
  1.9102791097045429E+01 a       359     0    15     1     9
  2.4400689161323239E+01 a       360     0    15     1    10
  1.9101998987829720E+01 a       361     0    15     1    11
 -6.7141433519390850E+00 a       362     0    15     1    12
 -1.2885489914338509E+01 a       363     0    15     1    13
  2.4884913180567867E+01 a       364     0    15     1    14
 -3.0778939464323873E+01 a       365     0    15     1    15
 -8.7907553929243898E-01 a       366     0    15     1    16
  3.1377049085155274E+01 a       367     0    15     1    17
 -1.7073884904890591E+01 a       368     0    15     1    18
 -6.3517558268912011E-01 a       369     0    15     1    19
  1.0465900501340808E+00 a       370     0    15     1    20
 -5.5273373024934633E+00 a       371     0    15     1    21
  1.0467624727664681E+01 a       372     0    15     1    22
 -2.7282636970977762E+01 a       373     0    15     1    23
 -2.4548251698253738E+00 a       374     0    15     1    24
  1.9672830217731510E-01 a       375     0    15     1    25
  3.1053948109382679E-01 a       376     0    16     1     1
 -1.8912423297909347E+00 a       377     0    16     1     2
 -2.5312741314525460E+00 a       378     0    16     1     3
 -6.2927505336496017E+00 a       379     0    16     1     4
 -1.6981688591007567E+00 a       380     0    16     1     5
 -2.8780521261212644E+00 a       381     0    16     1     6
 -8.5747936471860431E-01 a       382     0    16     1     7
 -2.7703045673244087E+00 a       383     0    16     1     8
 -1.9461209669529997E+00 a       384     0    16     1     9
  1.5024085437118402E+00 a       385     0    16     1    10
  8.9774431582143688E-01 a       386     0    16     1    11
 -4.7929881901750548E-01 a       387     0    16     1    12
  2.8760659726674698E+00 a       388     0    16     1    13
 -2.9273159267981468E+00 a       389     0    16     1    14
  1.2857087040114863E+00 a       390     0    16     1    15
 -3.3284805901344794E+00 a       391     0    16     1    16
  1.2284994555128528E+00 a       392     0    16     1    17
 -9.6223858369541637E-01 a       393     0    16     1    18
 -4.5705350088036056E-01 a       394     0    16     1    19
  2.0988244720868277E-01 a       395     0    16     1    20
 -1.4952309590789246E+00 a       396     0    16     1    21
 -1.1339229936374127E+00 a       397     0    16     1    22
 -1.1161055794356296E+00 a       398     0    16     1    23
 -2.2233619975924683E+00 a       399     0    16     1    24
 -6.8961600193386707E-01 a       400     0    16     1    25
  2.7898591405760422E+00 a       401     0    17     1     1
  1.3760632214866648E+01 a       402     0    17     1     2
 -2.2825582613237639E+01 a       403     0    17     1     3
  5.8268951444474482E+00 a       404     0    17     1     4
 -1.4598899711163629E+00 a       405     0    17     1     5
 -1.7728645827239102E+00 a       406     0    17     1     6
  3.7904012017693129E+00 a       407     0    17     1     7
  3.9838553039426570E+00 a       408     0    17     1     8
 -1.5466427416781348E+01 a       409     0    17     1     9
  5.1018358873559331E+00 a       410     0    17     1    10
 -5.8041143499074845E+00 a       411     0    17     1    11
 -5.1441925432643600E+00 a       412     0    17     1    12
  1.3520092444659699E+01 a       413     0    17     1    13
 -3.5231726548839517E+00 a       414     0    17     1    14
  1.3953512742627963E+00 a       415     0    17     1    15
  1.6439464771753134E-01 a       416     0    17     1    16
  1.4696385609296336E+00 a       417     0    17     1    17
  1.3178972009816638E+01 a       418     0    17     1    18
  7.6693167751148672E-01 a       419     0    17     1    19
 -3.5057459398384134E+00 a       420     0    17     1    20
 -3.9695430400323852E+00 a       421     0    17     1    21
 -3.7975444898294608E+00 a       422     0    17     1    22
  2.2846461375717173E-01 a       423     0    17     1    23
  1.7178475528040380E+00 a       424     0    17     1    24
 -1.5789682955375989E+01 a       425     0    17     1    25
 -3.4930282527224779E+00 a       426     0    18     1     1
  7.2583263643543576E+00 a       427     0    18     1     2
 -2.0165924170511473E-01 a       428     0    18     1     3
  1.1492114839748414E+01 a       429     0    18     1     4
  7.3554025218671981E+00 a       430     0    18     1     5
 -9.1697903930868585E-01 a       431     0    18     1     6
 -6.1935085784186459E+00 a       432     0    18     1     7
  1.0102773961105891E+01 a       433     0    18     1     8
  3.2568141302554959E-01 a       434     0    18     1     9
 -8.0928429394534511E+00 a       435     0    18     1    10
 -4.7802503995627843E+00 a       436     0    18     1    11
  6.9106616676234864E+00 a       437     0    18     1    12
  8.3889185370649439E+00 a       438     0    18     1    13
 -6.7189680036849513E+00 a       439     0    18     1    14
  9.3400900512975884E+00 a       440     0    18     1    15
  3.5914446258014554E-01 a       441     0    18     1    16
 -4.8857445234501666E+00 a       442     0    18     1    17
  1.5173735952020380E+00 a       443     0    18     1    18
 -2.5198860261253730E-01 a       444     0    18     1    19
 -4.5534807940343054E+00 a       445     0    18     1    20
 -8.4681248826646305E-01 a       446     0    18     1    21
 -7.1946808921939231E+00 a       447     0    18     1    22
  5.2011326683785830E+00 a       448     0    18     1    23
 -8.2336597324236616E-01 a       449     0    18     1    24
  1.6836011136469657E+00 a       450     0    18     1    25
 -1.4468017656678935E+00 a       451     0    19     1     1
  1.2532887120859795E+00 a       452     0    19     1     2
  1.1705594113121511E+00 a       453     0    19     1     3
  3.1836391296070978E+00 a       454     0    19     1     4
 -3.2992946411890531E-02 a       455     0    19     1     5
  1.6523559695829466E+00 a       456     0    19     1     6
 -4.5079717722770662E-01 a       457     0    19     1     7
  1.8705229606972924E+00 a       458     0    19     1     8
  9.9572899205307075E-01 a       459     0    19     1     9
 -1.4343345463907293E+00 a       460     0    19     1    10
 -5.2566164490181810E-01 a       461     0    19     1    11
  3.8417901742417998E-01 a       462     0    19     1    12
 -3.6169740234613523E+00 a       463     0    19     1    13
  1.2204965421064742E+00 a       464     0    19     1    14
 -3.6792049391147263E-01 a       465     0    19     1    15
  2.2823464545857144E+00 a       466     0    19     1    16
 -8.4421982747971247E-01 a       467     0    19     1    17
  4.5657373981138522E-01 a       468     0    19     1    18
  5.3379218283291889E-02 a       469     0    19     1    19
  1.0642478414263590E-01 a       470     0    19     1    20
  1.3996411473570021E+00 a       471     0    19     1    21
  2.4717842725397182E-01 a       472     0    19     1    22
  1.5109818543114035E+00 a       473     0    19     1    23
  1.6033772270623647E-01 a       474     0    19     1    24
  7.6148347717129539E-01 a       475     0    19     1    25
  5.8048967557616939E-02 a       476     0    20     1     1
 -1.4548011908347653E+00 a       477     0    20     1     2
  3.1451207507804180E-01 a       478     0    20     1     3
 -3.2192648330633206E-01 a       479     0    20     1     4
  2.2765975003650976E+00 a       480     0    20     1     5
  9.6344122793210096E-01 a       481     0    20     1     6
 -8.6631051650346380E-01 a       482     0    20     1     7
  3.6860465962151707E+00 a       483     0    20     1     8
 -2.4049807945837194E+00 a       484     0    20     1     9
 -7.9479220704982667E-01 a       485     0    20     1    10
  2.7102399519842452E-01 a       486     0    20     1    11
  2.4286501854239639E-01 a       487     0    20     1    12
 -1.7673803610297021E+00 a       488     0    20     1    13
  1.1060335837075017E+00 a       489     0    20     1    14
 -1.3084618228293947E+00 a       490     0    20     1    15
  9.8863067092379908E-01 a       491     0    20     1    16
  8.1868139703072107E-03 a       492     0    20     1    17
 -4.3292188751255251E-01 a       493     0    20     1    18
  5.2621106639977294E-02 a       494     0    20     1    19
 -5.8177228036730543E-03 a       495     0    20     1    20
  1.1537790841587499E+00 a       496     0    20     1    21
  1.4031609316877096E+00 a       497     0    20     1    22
 -6.3322170719131254E-01 a       498     0    20     1    23
  4.4462038534975762E-01 a       499     0    20     1    24
  1.1360555779933408E+00 a       500     0    20     1    25
  1.4331245742577089E-02 a       501     0    21     1     1
 -9.8902635198101962E-01 a       502     0    21     1     2
 -2.8387146101190358E-01 a       503     0    21     1     3
 -6.4722893016990746E-01 a       504     0    21     1     4
 -1.2726675880702404E-01 a       505     0    21     1     5
  1.4683040744862025E-01 a       506     0    21     1     6
 -5.6669365839985342E-01 a       507     0    21     1     7
 -9.2323618845680366E-01 a       508     0    21     1     8
  2.2887559152538719E+00 a       509     0    21     1     9
  9.2595256322189046E-01 a       510     0    21     1    10
  1.5870769502016679E-01 a       511     0    21     1    11
 -1.1363982269004287E+00 a       512     0    21     1    12
 -5.0616549222766383E-01 a       513     0    21     1    13
 -4.1326459296458712E-01 a       514     0    21     1    14
 -1.4825962921886644E+00 a       515     0    21     1    15
  9.8990995966071429E-02 a       516     0    21     1    16
  1.6555655372416398E+00 a       517     0    21     1    17
  3.8530955150242241E-01 a       518     0    21     1    18
 -2.3292729249055667E-02 a       519     0    21     1    19
  4.7589047660386810E-02 a       520     0    21     1    20
 -1.0869639395126007E+00 a       521     0    21     1    21
  7.4508298066401779E-01 a       522     0    21     1    22
 -8.7871190375778896E-01 a       523     0    21     1    23
 -2.8086400613863682E-01 a       524     0    21     1    24
 -2.1358338943384847E-01 a       525     0    21     1    25
  7.2553561282974866E-01 a       526     0    22     1     1
 -2.5299660530447826E-01 a       527     0    22     1     2
 -2.8419480752368637E-01 a       528     0    22     1     3
 -3.3139429084649991E-01 a       529     0    22     1     4
  4.8040606026369281E-02 a       530     0    22     1     5
 -1.4695827990569907E-01 a       531     0    22     1     6
 -1.8567973616046299E-01 a       532     0    22     1     7
 -1.6169109008538865E-01 a       533     0    22     1     8
 -1.4884136194631956E-01 a       534     0    22     1     9
 -9.6615546996431656E-02 a       535     0    22     1    10
 -3.2816071892512955E-01 a       536     0    22     1    11
 -4.2225490198317378E-01 a       537     0    22     1    12
  1.1964937792643167E+00 a       538     0    22     1    13
 -1.9402799287137729E-01 a       539     0    22     1    14
 -1.7015904214123859E-01 a       540     0    22     1    15
 -5.4608517375106924E-01 a       541     0    22     1    16
  4.6524545642752357E-01 a       542     0    22     1    17
  4.2992909376643695E-01 a       543     0    22     1    18
 -1.7240951246232888E-01 a       544     0    22     1    19
  3.4790078953224035E-01 a       545     0    22     1    20
 -3.9054304012344254E-01 a       546     0    22     1    21
 -4.1322961696210003E-01 a       547     0    22     1    22
 -2.2287061811481601E-01 a       548     0    22     1    23
 -6.0854028951914951E-01 a       549     0    22     1    24
  8.2099755429554361E-02 a       550     0    22     1    25
 -9.2864400988481907E-02 a       551     0    23     1     1
  1.9813142645084370E-01 a       552     0    23     1     2
  6.7275896400558133E-01 a       553     0    23     1     3
  1.6050588525408260E-01 a       554     0    23     1     4
 -1.0053488319618069E+00 a       555     0    23     1     5
 -1.6630344208569939E-01 a       556     0    23     1     6
 -1.3913327496942171E-01 a       557     0    23     1     7
 -9.9987555364120151E-01 a       558     0    23     1     8
  2.3166607216423141E-01 a       559     0    23     1     9
  2.7251679411728108E-01 a       560     0    23     1    10
  6.5464726164984749E-02 a       561     0    23     1    11
  2.8037768686880815E-01 a       562     0    23     1    12
  1.3880049379513656E-01 a       563     0    23     1    13
 -6.7274050587519085E-01 a       564     0    23     1    14
  4.2692074878986394E-02 a       565     0    23     1    15
  2.2105722264091368E-01 a       566     0    23     1    16
  2.4374284048873235E-01 a       567     0    23     1    17
  8.2493085436632377E-02 a       568     0    23     1    18
 -1.2257996751175373E-01 a       569     0    23     1    19
  1.4447775775510699E-01 a       570     0    23     1    20
 -5.1647348807924665E-01 a       571     0    23     1    21
 -1.2667039617977197E-01 a       572     0    23     1    22
 -1.9584863737696215E-01 a       573     0    23     1    23
 -2.1752140253839755E-01 a       574     0    23     1    24
  8.2881464234626320E-02 a       575     0    23     1    25
 -8.2885982271957481E-02 a       576     0    24     1     1
  2.5828332437363134E-02 a       577     0    24     1     2
 -2.2221217957686587E-01 a       578     0    24     1     3
  4.3882513274038687E-01 a       579     0    24     1     4
 -3.9162135480607724E-01 a       580     0    24     1     5
 -1.4405092229036059E-01 a       581     0    24     1     6
 -8.5563757334023896E-02 a       582     0    24     1     7
 -7.4476703857003379E-01 a       583     0    24     1     8
 -2.9693280654357018E-01 a       584     0    24     1     9
 -5.1280731396119283E-01 a       585     0    24     1    10
 -8.1522896379281964E-02 a       586     0    24     1    11
  6.7922895961351470E-01 a       587     0    24     1    12
 -6.8507177608518599E-01 a       588     0    24     1    13
 -5.8507495587841664E-02 a       589     0    24     1    14
  2.4812528124327796E-01 a       590     0    24     1    15
  1.3520878048331991E-01 a       591     0    24     1    16
 -9.1855383947093117E-01 a       592     0    24     1    17
 -9.4408259080784107E-01 a       593     0    24     1    18
  2.8508870100349894E-02 a       594     0    24     1    19
  1.4709539226187826E-01 a       595     0    24     1    20
  6.4586067159008853E-01 a       596     0    24     1    21
  5.2538223048852424E-02 a       597     0    24     1    22
  1.9577893407052915E-01 a       598     0    24     1    23
  1.5423421055985612E-01 a       599     0    24     1    24
 -2.9973169486749079E-01 a       600     0    24     1    25
 -6.3661096684399038E-02 b       601     1     1
 -1.5770724229461024E+00 b       602     1     2
 -4.7919982413912061E+00 b       603     1     3
 -1.1609779590953867E-01 b       604     1     4
 -5.8433048103620777E-01 b       605     1     5
 -2.0278252381935800E+00 b       606     1     6
  8.7857227926960213E-01 b       607     1     7
 -1.9990390291471045E+00 b       608     1     8
 -2.0534937697686875E+00 b       609     1     9
 -3.4826793262132494E-01 b       610     1    10
 -2.0707021825758298E+00 b       611     1    11
 -5.3640713350264024E-01 b       612     1    12
 -9.1230831769169196E-01 b       613     1    13
 -1.1887828032750651E+00 b       614     1    14
  8.3021089836382611E-01 b       615     1    15
 -9.3844319983631330E-01 b       616     1    16
 -1.6993762744384642E+00 b       617     1    17
 -2.9923911170069623E-01 b       618     1    18
 -2.2631775791411539E+00 b       619     1    19
  1.0999714492769008E+00 b       620     1    20
  9.3629294291643672E-01 b       621     1    21
 -9.1566677041976086E-01 b       622     1    22
 -1.0066800864281400E+00 b       623     1    23
  4.1137395127170890E+00 b       624     1    24
 -1.0630674893812713E+00 b       625     1    25
  2.6255758586978577E+00 a       626     1     1     2     1
 -5.5219499630147084E-01 a       627     1     1     2     2
  2.5384975086304769E+00 a       628     1     1     2     3
  8.6917702516770234E-01 a       629     1     1     2     4
  7.3369206328762637E-01 a       630     1     1     2     5
 -2.0050516727801262E+00 a       631     1     1     2     6
  9.8794266968179656E-01 a       632     1     1     2     7
  1.2746183553116319E+00 a       633     1     1     2     8
 -1.6753191859506047E+00 a       634     1     1     2     9
  4.7192848403240555E-02 a       635     1     1     2    10
  5.7649095169464770E-01 a       636     1     1     2    11
 -5.2483240615136828E-01 a       637     1     1     2    12
 -8.3311261785819912E-01 a       638     1     1     2    13
 -3.5840086474285415E-01 a       639     1     1     2    14
 -3.9239341619476081E-01 a       640     1     1     2    15
 -1.6977179402328828E+00 a       641     1     1     2    16
 -3.3837579084204761E-01 a       642     1     1     2    17
 -2.1972054364921632E+00 a       643     1     1     2    18
 -2.5903674510734436E+00 a       644     1     1     2    19
 -2.1972638601802594E-01 a       645     1     1     2    20
 -1.2520094182544961E+00 a       646     1     1     2    21
  1.7850866299685340E+00 a       647     1     1     2    22
  1.7572555892432065E+00 a       648     1     1     2    23
 -1.0237608928758786E+00 a       649     1     1     2    24
  1.3273624455114241E+00 a       650     1     1     2    25
 -2.6215981380862924E-01 a       651     1     2     2     1
  1.8290039569012986E-01 a       652     1     2     2     2
  3.3722336012154869E-01 a       653     1     2     2     3
  5.7178984101956765E-01 a       654     1     2     2     4
  3.5654943383510890E-01 a       655     1     2     2     5
  2.0506176138481791E-01 a       656     1     2     2     6
  9.1948328139426438E-01 a       657     1     2     2     7
 -8.5141238640979744E-01 a       658     1     2     2     8
 -1.4395692613923075E+00 a       659     1     2     2     9
 -2.1717353909839878E+00 a       660     1     2     2    10
  1.5548828070494987E+00 a       661     1     2     2    11
  2.7372374728294291E-01 a       662     1     2     2    12
  2.0775371374323734E+00 a       663     1     2     2    13
 -4.6857874590781421E+00 a       664     1     2     2    14
 -2.9249011162523968E+00 a       665     1     2     2    15
  1.7217729339087688E+00 a       666     1     2     2    16
 -3.1818228023510371E+00 a       667     1     2     2    17
  5.6300903130202062E-01 a       668     1     2     2    18
 -2.2779326347513598E+00 a       669     1     2     2    19
 -2.2754799311785878E-02 a       670     1     2     2    20
  4.6499819230491413E-01 a       671     1     2     2    21
 -8.9339840197396836E-01 a       672     1     2     2    22
  1.2492788059868332E+00 a       673     1     2     2    23
 -1.3389642071385564E+00 a       674     1     2     2    24
 -1.1934596603370209E+00 a       675     1     2     2    25
  1.7288368783739401E+00 a       676     1     3     2     1
  6.3015442734454266E-02 a       677     1     3     2     2
 -9.5972769475618525E-01 a       678     1     3     2     3
  1.2805797899566745E-01 a       679     1     3     2     4
  3.5612639336749680E-01 a       680     1     3     2     5
 -4.1110640539680974E+00 a       681     1     3     2     6
  7.3157072892212416E-01 a       682     1     3     2     7
 -3.9570527304227332E-01 a       683     1     3     2     8
  1.1793457652657340E+00 a       684     1     3     2     9
 -2.5253321474288803E+00 a       685     1     3     2    10
 -1.3341894643047061E+00 a       686     1     3     2    11
 -6.3172053308742282E-01 a       687     1     3     2    12
 -4.2391792019618482E+00 a       688     1     3     2    13
  3.5024720570212979E+00 a       689     1     3     2    14
  4.3288712579445521E-01 a       690     1     3     2    15
  9.3560023350228838E-01 a       691     1     3     2    16
  3.0466393682394179E+00 a       692     1     3     2    17
  1.9228756844145793E+00 a       693     1     3     2    18
 -3.4362213031569933E-01 a       694     1     3     2    19
 -5.0821805937078246E-01 a       695     1     3     2    20
  2.9378627458522999E-01 a       696     1     3     2    21
 -1.1477305824233164E+00 a       697     1     3     2    22
  1.4107852881586997E+00 a       698     1     3     2    23
 -3.1814361334207919E+00 a       699     1     3     2    24
 -1.3033768659098055E+00 a       700     1     3     2    25
  7.7535003564299454E-01 a       701     1     4     2     1
 -1.5102552304407062E+00 a       702     1     4     2     2
  3.0098095514100063E+00 a       703     1     4     2     3
  4.7252148712470127E-01 a       704     1     4     2     4
  4.9106274921101289E-01 a       705     1     4     2     5
  2.3759455477625460E-01 a       706     1     4     2     6
  9.4315203876704712E-01 a       707     1     4     2     7
 -6.0230069362756700E-01 a       708     1     4     2     8
  1.7857949449874928E+00 a       709     1     4     2     9
  3.1292353909207664E+00 a       710     1     4     2    10
 -4.4889953363556355E-02 a       711     1     4     2    11
  1.2696275683533803E-01 a       712     1     4     2    12
  3.3764442655402183E-02 a       713     1     4     2    13
 -1.9388424543206371E+00 a       714     1     4     2    14
  4.8217911274790515E+00 a       715     1     4     2    15
 -1.0713196133392340E+00 a       716     1     4     2    16
 -6.8585628898763717E-01 a       717     1     4     2    17
  2.2191347188803014E+00 a       718     1     4     2    18
  1.6096780563313928E+00 a       719     1     4     2    19
 -6.2227086760128025E-01 a       720     1     4     2    20
  5.5457505164360943E-01 a       721     1     4     2    21
 -7.8586910058959869E-01 a       722     1     4     2    22
 -1.2604264835362549E+00 a       723     1     4     2    23
  1.8659623395472014E+00 a       724     1     4     2    24
 -7.4052601970364129E-01 a       725     1     4     2    25
 -8.4590297427457606E-01 a       726     1     5     2     1
 -1.2078857431244898E+00 a       727     1     5     2     2
  9.2573031140030959E-01 a       728     1     5     2     3
  2.1786897662401388E+00 a       729     1     5     2     4
 -2.0706460305564152E+00 a       730     1     5     2     5
 -1.3936600044452760E+00 a       731     1     5     2     6
  4.0337065964092472E-01 a       732     1     5     2     7
  8.6142094890563869E-01 a       733     1     5     2     8
 -8.5578477222751137E-01 a       734     1     5     2     9
  1.5545273893944136E+00 a       735     1     5     2    10
 -3.2473130993910062E+00 a       736     1     5     2    11
 -4.9334827184118452E-01 a       737     1     5     2    12
  1.0807390023481021E-01 a       738     1     5     2    13
 -3.3195016382783432E-01 a       739     1     5     2    14
  1.2755547944285703E+00 a       740     1     5     2    15
  1.8027902557732949E+00 a       741     1     5     2    16
  3.0340262827823365E+00 a       742     1     5     2    17
 -9.6157604061267798E-01 a       743     1     5     2    18
 -7.3259730059718886E-01 a       744     1     5     2    19
 -3.4510375895896964E-02 a       745     1     5     2    20
  1.5597389162473381E+00 a       746     1     5     2    21
 -1.0991043154357438E+00 a       747     1     5     2    22
 -2.5066699199418121E+00 a       748     1     5     2    23
  9.5729252681169152E-01 a       749     1     5     2    24
 -1.6913819382688353E-01 a       750     1     5     2    25
  2.3379178896263825E-01 a       751     1     6     2     1
 -2.1238146133037779E+00 a       752     1     6     2     2
  9.6625992742704014E-01 a       753     1     6     2     3
  5.3652047687361346E+00 a       754     1     6     2     4
  6.0901922214756543E-01 a       755     1     6     2     5
 -5.1879450586182474E-01 a       756     1     6     2     6
 -2.5958568143043701E+00 a       757     1     6     2     7
  2.7281985076182300E+00 a       758     1     6     2     8
  8.9920804108590835E-01 a       759     1     6     2     9
  4.9378694550348818E+00 a       760     1     6     2    10
  6.0324606155485827E-01 a       761     1     6     2    11
 -6.6492437780458213E-01 a       762     1     6     2    12
 -8.2974821458223458E-01 a       763     1     6     2    13
  1.6709969143551846E+00 a       764     1     6     2    14
  1.7540995582343410E+00 a       765     1     6     2    15
 -7.9637597848397912E-01 a       766     1     6     2    16
  2.0345443106495211E+00 a       767     1     6     2    17
  1.9587583265447486E+00 a       768     1     6     2    18
 -3.4633886311553036E-01 a       769     1     6     2    19
  1.7945466510885674E-01 a       770     1     6     2    20
  4.3812227599075598E-01 a       771     1     6     2    21
 -2.8445546866788165E+00 a       772     1     6     2    22
 -3.4454669024602564E+00 a       773     1     6     2    23
 -6.0426248045858442E+00 a       774     1     6     2    24
 -2.4485413002293797E+00 a       775     1     6     2    25
 -1.0612926033672385E+00 a       776     1     7     2     1
 -6.6224417544016101E-01 a       777     1     7     2     2
  1.6186398093955969E+00 a       778     1     7     2     3
  1.4459220329756488E+00 a       779     1     7     2     4
 -1.7315606761177108E-02 a       780     1     7     2     5
  4.9818768267575708E-01 a       781     1     7     2     6
 -6.7493612982389117E-01 a       782     1     7     2     7
 -1.1484283579410761E+00 a       783     1     7     2     8
  8.1876869306736744E-01 a       784     1     7     2     9
  1.3022553320907138E+00 a       785     1     7     2    10
  6.9867620161042476E-01 a       786     1     7     2    11
 -9.6635542871097124E-01 a       787     1     7     2    12
 -1.8686082887058153E-01 a       788     1     7     2    13
  7.4477587241232501E-01 a       789     1     7     2    14
  7.9053384485749956E-01 a       790     1     7     2    15
  4.9279585112247787E-01 a       791     1     7     2    16
 -7.7648488681235084E-01 a       792     1     7     2    17
  2.7263982068157664E+00 a       793     1     7     2    18
  1.4272286867792432E+00 a       794     1     7     2    19
  4.3590226277913480E-01 a       795     1     7     2    20
 -7.0147515364794044E-01 a       796     1     7     2    21
 -2.7794245929152095E-01 a       797     1     7     2    22
 -2.6206981284090962E+00 a       798     1     7     2    23
 -5.2737492422890675E+00 a       799     1     7     2    24
 -1.0163109573219728E-01 a       800     1     7     2    25
 -3.8951546188881597E-01 a       801     1     8     2     1
 -3.0490863576184926E+00 a       802     1     8     2     2
  1.8675866426406325E+00 a       803     1     8     2     3
 -1.5282498097505364E+00 a       804     1     8     2     4
  1.4546546136544534E+00 a       805     1     8     2     5
 -1.2975982068329308E+00 a       806     1     8     2     6
  1.4216947081749627E+00 a       807     1     8     2     7
  1.2215888829613786E+00 a       808     1     8     2     8
  3.1951431826091667E+00 a       809     1     8     2     9
 -1.2164980232185034E+00 a       810     1     8     2    10
  4.8095331241035139E-01 a       811     1     8     2    11
  1.3239721108556377E+00 a       812     1     8     2    12
 -1.5759528625960666E+00 a       813     1     8     2    13
  5.9836455969009383E-01 a       814     1     8     2    14
  9.9237846755890846E-01 a       815     1     8     2    15
 -8.9150554504646939E-01 a       816     1     8     2    16
 -2.2569472878748296E+00 a       817     1     8     2    17
 -1.7795465692112200E-01 a       818     1     8     2    18
  1.8652163149077643E+00 a       819     1     8     2    19
 -2.3332454542312561E-01 a       820     1     8     2    20
 -2.4456610131869669E-01 a       821     1     8     2    21
  8.1240063437395005E-01 a       822     1     8     2    22
  1.4488644455314764E-01 a       823     1     8     2    23
 -5.7988952097729618E-01 a       824     1     8     2    24
  2.0192275027400133E-01 a       825     1     8     2    25
  1.5128763037726574E+00 a       826     1     9     2     1
  5.3950717505578380E-02 a       827     1     9     2     2
 -4.7168632811268868E-01 a       828     1     9     2     3
  7.7046457934285084E-01 a       829     1     9     2     4
 -5.9366871467473159E-02 a       830     1     9     2     5
 -2.9832952431102444E-01 a       831     1     9     2     6
 -2.3383101886685136E+00 a       832     1     9     2     7
 -1.1103236584325223E-01 a       833     1     9     2     8
  8.4722254546537534E-01 a       834     1     9     2     9
  2.1476007540162763E+00 a       835     1     9     2    10
  1.8645162292363255E+00 a       836     1     9     2    11
 -2.0280297555794866E+00 a       837     1     9     2    12
  5.4334615810083464E-01 a       838     1     9     2    13
 -1.4724002301299288E+00 a       839     1     9     2    14
  8.2305683461581047E-01 a       840     1     9     2    15
  7.9795745160759013E-01 a       841     1     9     2    16
 -2.7545146477910700E+00 a       842     1     9     2    17
  1.1824321038447942E+00 a       843     1     9     2    18
  2.1370149170354118E+00 a       844     1     9     2    19
 -1.1623069730861024E-01 a       845     1     9     2    20
  1.3416609981190932E+00 a       846     1     9     2    21
  2.9933012207856896E-01 a       847     1     9     2    22
 -1.4629886959209151E-02 a       848     1     9     2    23
  2.2944510576736050E+00 a       849     1     9     2    24
  3.9448689176796940E-02 a       850     1     9     2    25
  4.2784021507074116E-01 a       851     1    10     2     1
  1.5693145805967610E+00 a       852     1    10     2     2
 -1.7492060542989145E+00 a       853     1    10     2     3
 -1.1603203934983501E+00 a       854     1    10     2     4
  2.0995768870264344E+00 a       855     1    10     2     5
  1.1610728555737295E+00 a       856     1    10     2     6
  1.1984393689619579E+00 a       857     1    10     2     7
  1.6872906713078653E+00 a       858     1    10     2     8
  1.7490367929540160E-01 a       859     1    10     2     9
 -1.8501982857411425E+00 a       860     1    10     2    10
 -2.5409466750901628E-02 a       861     1    10     2    11
  5.7337082571283882E-01 a       862     1    10     2    12
 -3.4719905592754280E-01 a       863     1    10     2    13
  2.2696008737312082E-01 a       864     1    10     2    14
  3.4288650839580557E+00 a       865     1    10     2    15
 -4.3363892037188725E+00 a       866     1    10     2    16
 -1.0951089279959543E+00 a       867     1    10     2    17
  2.9757487586840083E+00 a       868     1    10     2    18
 -2.4886609890868745E+00 a       869     1    10     2    19
  4.2323785548316445E-01 a       870     1    10     2    20
 -7.1069844842900032E-01 a       871     1    10     2    21
  2.0711359362511378E-01 a       872     1    10     2    22
  9.7004752992573795E-01 a       873     1    10     2    23
 -9.8350404792362278E-01 a       874     1    10     2    24
 -7.0755102265057668E-01 a       875     1    10     2    25
 -3.1537931638993411E-01 a       876     1    11     2     1
  1.0127190076487349E+00 a       877     1    11     2     2
  4.0510297917073790E-01 a       878     1    11     2     3
  8.5774654014949669E-01 a       879     1    11     2     4
  3.0376193620051373E-01 a       880     1    11     2     5
  8.6371197141258094E-01 a       881     1    11     2     6
  1.4995613596231680E-01 a       882     1    11     2     7
 -6.9476254785353564E-01 a       883     1    11     2     8
  3.6048622466363714E-02 a       884     1    11     2     9
 -2.0782891591711907E+00 a       885     1    11     2    10
 -4.4063320214919024E+00 a       886     1    11     2    11
  2.0546651136871663E+00 a       887     1    11     2    12
  1.9089255319330398E+00 a       888     1    11     2    13
 -3.5406693108683092E+00 a       889     1    11     2    14
 -3.6452696913449065E+00 a       890     1    11     2    15
  5.7304951412679692E+00 a       891     1    11     2    16
 -1.2565114862439395E+00 a       892     1    11     2    17
  2.9020265334192672E+00 a       893     1    11     2    18
  3.3357587077104900E+00 a       894     1    11     2    19
  9.5064026174923577E-01 a       895     1    11     2    20
 -1.3332529869569731E+00 a       896     1    11     2    21
  7.0275896354303369E-01 a       897     1    11     2    22
  8.9529867885994097E-01 a       898     1    11     2    23
 -9.9753477610802577E-01 a       899     1    11     2    24
 -1.0960623465099122E+00 a       900     1    11     2    25
  1.2555133225818541E-01 a       901     1    12     2     1
 -1.5669655363211110E+00 a       902     1    12     2     2
 -1.3082016800424230E+00 a       903     1    12     2     3
 -2.6337595564330503E+00 a       904     1    12     2     4
 -1.3617245707807653E+00 a       905     1    12     2     5
  5.9143006876384530E-01 a       906     1    12     2     6
 -2.1280588917837506E+00 a       907     1    12     2     7
  7.0910623363952152E-01 a       908     1    12     2     8
  5.4423540276915627E-01 a       909     1    12     2     9
  1.0644301019485893E+00 a       910     1    12     2    10
 -1.3421137484970500E+00 a       911     1    12     2    11
 -7.1955757987857638E-01 a       912     1    12     2    12
  2.9428107448889557E-01 a       913     1    12     2    13
  1.4743010240378990E-01 a       914     1    12     2    14
 -8.9555658983491193E-01 a       915     1    12     2    15
  2.6256636943075322E+00 a       916     1    12     2    16
  8.4854226433044389E-01 a       917     1    12     2    17
 -8.5610976513724457E-01 a       918     1    12     2    18
 -1.9306888420737303E+00 a       919     1    12     2    19
 -3.7799197982313815E-01 a       920     1    12     2    20
 -1.3756279499632265E+00 a       921     1    12     2    21
 -1.8011325982843662E+00 a       922     1    12     2    22
  7.7871673644868578E-01 a       923     1    12     2    23
  2.8357515353594251E-02 a       924     1    12     2    24
  4.1400473551950273E-01 a       925     1    12     2    25
 -3.5923495987871426E+00 a       926     1    13     2     1
  4.4004488156787342E+00 a       927     1    13     2     2
 -2.1985374858170488E+00 a       928     1    13     2     3
 -1.8643660244964506E+00 a       929     1    13     2     4
  1.8910745700538728E-01 a       930     1    13     2     5
  3.2003914199867576E+00 a       931     1    13     2     6
  6.0300341100309129E-01 a       932     1    13     2     7
 -9.7138106997459750E-01 a       933     1    13     2     8
  1.0849479716429880E+00 a       934     1    13     2     9
 -1.1034815795575974E+00 a       935     1    13     2    10
 -3.9895496883367187E-01 a       936     1    13     2    11
  2.7201016412306576E+00 a       937     1    13     2    12
  3.0149134890469207E+00 a       938     1    13     2    13
 -4.0528413298192367E+00 a       939     1    13     2    14
 -6.0727310168819981E-01 a       940     1    13     2    15
  2.6120445782247028E+00 a       941     1    13     2    16
 -4.6512761862276111E-02 a       942     1    13     2    17
 -1.3119105327749647E+00 a       943     1    13     2    18
 -3.4075053880556144E-01 a       944     1    13     2    19
 -5.6495717288652736E-01 a       945     1    13     2    20
  6.5303654192225802E-01 a       946     1    13     2    21
  6.3757155683102607E-01 a       947     1    13     2    22
  7.7926646653318166E-01 a       948     1    13     2    23
 -1.5155306565575490E+00 a       949     1    13     2    24
 -1.0049102672737964E+00 a       950     1    13     2    25
  1.2438857351487824E+00 a       951     1    14     2     1
 -1.2153664217590660E-01 a       952     1    14     2     2
 -1.2784752897139828E+00 a       953     1    14     2     3
 -8.8869476380015988E-01 a       954     1    14     2     4
 -5.4020559309007299E-01 a       955     1    14     2     5
 -3.0853806703898445E-01 a       956     1    14     2     6
 -1.3943930699919640E+00 a       957     1    14     2     7
 -5.7513116797281183E-01 a       958     1    14     2     8
  7.9602425547033862E-01 a       959     1    14     2     9
 -2.6799494362818108E+00 a       960     1    14     2    10
 -1.2133836267356470E+00 a       961     1    14     2    11
  1.1462115846548389E+00 a       962     1    14     2    12
  1.5101103306772112E-01 a       963     1    14     2    13
  2.6470660330544740E+00 a       964     1    14     2    14
 -3.2948836353402680E+00 a       965     1    14     2    15
 -1.5898860258261922E+00 a       966     1    14     2    16
  2.1366627688431894E+00 a       967     1    14     2    17
  1.7609789014706650E-01 a       968     1    14     2    18
  9.8610035815842045E-01 a       969     1    14     2    19
 -6.6676763270840422E-01 a       970     1    14     2    20
 -1.4395086842290483E+00 a       971     1    14     2    21
 -2.7093634257861243E-01 a       972     1    14     2    22
 -2.2145515645980859E-01 a       973     1    14     2    23
  1.2941107263801555E+00 a       974     1    14     2    24
 -3.3785492443548426E-01 a       975     1    14     2    25
  1.6803058742396060E+00 a       976     1    15     2     1
  3.1265646285412374E+00 a       977     1    15     2     2
  9.3808140759170566E-01 a       978     1    15     2     3
  5.9137655191925231E-01 a       979     1    15     2     4
  3.0121165043890291E-01 a       980     1    15     2     5
  1.6076811743188174E-01 a       981     1    15     2     6
 -5.8534451212763572E-02 a       982     1    15     2     7
  2.2165985567902996E-01 a       983     1    15     2     8
  1.8907744373657173E-01 a       984     1    15     2     9
  1.8303407291576670E-01 a       985     1    15     2    10
 -1.5362777598094999E+00 a       986     1    15     2    11
 -2.9191660733072339E-01 a       987     1    15     2    12
 -5.9049504918309914E-01 a       988     1    15     2    13
 -1.7299718514880231E+00 a       989     1    15     2    14
 -1.9662727598831993E+00 a       990     1    15     2    15
 -4.7723775704296378E-01 a       991     1    15     2    16
  1.1526273822075992E+00 a       992     1    15     2    17
 -5.7702412113249379E-01 a       993     1    15     2    18
  8.4801665304590512E-01 a       994     1    15     2    19
 -5.7049308969466883E-01 a       995     1    15     2    20
  1.0972638694780410E+00 a       996     1    15     2    21
 -5.5472858405128966E-01 a       997     1    15     2    22
  1.7529974171313010E+00 a       998     1    15     2    23
  2.0445697168147183E+00 a       999     1    15     2    24
  4.6627450163427488E-02 a      1000     1    15     2    25
  1.1110503988502329E+00 a      1001     1    16     2     1
  6.1062239690643585E+00 a      1002     1    16     2     2
 -1.0098180608335448E+00 a      1003     1    16     2     3
  1.5026163901565037E+00 a      1004     1    16     2     4
  1.1259108273838745E+00 a      1005     1    16     2     5
  1.8579906129712294E+00 a      1006     1    16     2     6
  1.0190452380785266E+00 a      1007     1    16     2     7
 -5.9394467275015295E-01 a      1008     1    16     2     8
 -5.1370792358426334E+00 a      1009     1    16     2     9
 -5.8270187760006276E-01 a      1010     1    16     2    10
 -1.7581612823043959E+00 a      1011     1    16     2    11
 -1.1843751268058217E-01 a      1012     1    16     2    12
  1.6092871947678247E+00 a      1013     1    16     2    13
 -1.6110013146165711E+00 a      1014     1    16     2    14
 -1.5623890588962683E+00 a      1015     1    16     2    15
  3.8198698235606159E+00 a      1016     1    16     2    16
  1.8317397040243879E+00 a      1017     1    16     2    17
 -7.7230265824138289E-01 a      1018     1    16     2    18
 -3.3658743461631331E+00 a      1019     1    16     2    19
  4.8741128709398002E-01 a      1020     1    16     2    20
  2.1728253999424423E+00 a      1021     1    16     2    21
  1.2280107262346198E+00 a      1022     1    16     2    22
  6.7418839709829245E-02 a      1023     1    16     2    23
 -3.0555752377675865E-01 a      1024     1    16     2    24
 -6.8774631851288437E-01 a      1025     1    16     2    25
 -5.7874096742651098E+00 a      1026     1    17     2     1
  5.8672412196675594E-01 a      1027     1    17     2     2
 -1.3942026850748452E+00 a      1028     1    17     2     3
 -4.3622483935669332E-01 a      1029     1    17     2     4
  6.6661333406807716E-02 a      1030     1    17     2     5
  1.8995736395542036E+00 a      1031     1    17     2     6
  1.7294163360412004E-01 a      1032     1    17     2     7
 -4.1200310698664921E-01 a      1033     1    17     2     8
 -5.4962139510598684E-01 a      1034     1    17     2     9
 -3.4866878598372142E-01 a      1035     1    17     2    10
  1.6513727427819351E+00 a      1036     1    17     2    11
  1.5277691991846725E+00 a      1037     1    17     2    12
 -1.5268170262511365E+00 a      1038     1    17     2    13
  2.7470553343702182E+00 a      1039     1    17     2    14
 -3.1412184152925815E+00 a      1040     1    17     2    15
  6.6228711095936521E-01 a      1041     1    17     2    16
  1.5814260654442354E+00 a      1042     1    17     2    17
 -1.7715460120347399E+00 a      1043     1    17     2    18
 -2.2107753623153145E-01 a      1044     1    17     2    19
 -1.1444369564884938E-01 a      1045     1    17     2    20
 -1.2325063702202337E+00 a      1046     1    17     2    21
 -3.0356290064915042E-01 a      1047     1    17     2    22
 -1.9796046297260468E+00 a      1048     1    17     2    23
  1.1554778126083389E+00 a      1049     1    17     2    24
  3.5609733113363889E-01 a      1050     1    17     2    25
  1.1136343111879894E+00 a      1051     1    18     2     1
 -5.3195262617360655E+00 a      1052     1    18     2     2
 -2.7589151684672442E-01 a      1053     1    18     2     3
  7.1021940104660330E-01 a      1054     1    18     2     4
 -5.6748108971574551E-01 a      1055     1    18     2     5
  1.6266058813762236E+00 a      1056     1    18     2     6
 -4.2611224902395084E-01 a      1057     1    18     2     7
 -1.5892874763021829E+00 a      1058     1    18     2     8
 -8.2719900192639906E-01 a      1059     1    18     2     9
  1.0306281712955305E+00 a      1060     1    18     2    10
  2.9055572871641810E-01 a      1061     1    18     2    11
 -3.7001660053308144E-01 a      1062     1    18     2    12
  1.6070456008266174E+00 a      1063     1    18     2    13
  1.8806698866590743E-01 a      1064     1    18     2    14
 -1.1452611467168077E+00 a      1065     1    18     2    15
  1.4602675460103907E+00 a      1066     1    18     2    16
 -3.0176946648581473E+00 a      1067     1    18     2    17
  8.2466978300374516E-01 a      1068     1    18     2    18
  3.6305166915037055E+00 a      1069     1    18     2    19
 -6.2324413682964008E-01 a      1070     1    18     2    20
  2.8324973677941417E-01 a      1071     1    18     2    21
 -7.5769745791097209E-01 a      1072     1    18     2    22
  3.9472091972481282E-01 a      1073     1    18     2    23
 -1.6888799407840782E+00 a      1074     1    18     2    24
 -6.2110580646274083E-01 a      1075     1    18     2    25
 -1.8899642433783661E+00 a      1076     1    19     2     1
  1.0339448882896911E+00 a      1077     1    19     2     2
  2.2434692148504238E+00 a      1078     1    19     2     3
  9.3375892023512652E-01 a      1079     1    19     2     4
 -4.1207630418047092E-01 a      1080     1    19     2     5
 -2.3071623812081149E-01 a      1081     1    19     2     6
 -6.7026924418562006E-01 a      1082     1    19     2     7
 -1.6741364542959651E+00 a      1083     1    19     2     8
  1.5112670734553382E+00 a      1084     1    19     2     9
  5.6386166519108427E-01 a      1085     1    19     2    10
 -9.2438746627538815E-02 a      1086     1    19     2    11
 -3.2406078312671440E-03 a      1087     1    19     2    12
  2.1906118117507789E-01 a      1088     1    19     2    13
 -2.5342708034085826E+00 a      1089     1    19     2    14
 -4.1701708348083324E+00 a      1090     1    19     2    15
 -2.8410630887220947E+00 a      1091     1    19     2    16
 -2.8568716591409631E+00 a      1092     1    19     2    17
  5.9660059129532890E+00 a      1093     1    19     2    18
 -1.0089870320729981E+00 a      1094     1    19     2    19
  2.7683473312188023E-01 a      1095     1    19     2    20
  9.0438922218374396E-01 a      1096     1    19     2    21
 -1.6972128152760881E+00 a      1097     1    19     2    22
  3.2988026879823065E+00 a      1098     1    19     2    23
  1.9999953060798288E+00 a      1099     1    19     2    24
  1.0955610838486207E+00 a      1100     1    19     2    25
  1.6336855160662782E+00 a      1101     1    20     2     1
  1.5332314331001691E+00 a      1102     1    20     2     2
 -2.6012384076808597E+00 a      1103     1    20     2     3
 -5.4292480291424938E-01 a      1104     1    20     2     4
  8.1504722262257814E-02 a      1105     1    20     2     5
  5.7318479546297929E-01 a      1106     1    20     2     6
 -2.9047906389294426E-01 a      1107     1    20     2     7
  2.6536082255942822E-02 a      1108     1    20     2     8
 -1.3826581998556899E+00 a      1109     1    20     2     9
 -3.4251566816910289E-01 a      1110     1    20     2    10
  4.3111377685354602E-01 a      1111     1    20     2    11
 -3.5993190884927106E-01 a      1112     1    20     2    12
 -4.1198947745706493E-01 a      1113     1    20     2    13
  1.0777613845997387E+00 a      1114     1    20     2    14
 -1.6351680249012910E+00 a      1115     1    20     2    15
 -7.6705114658256934E-01 a      1116     1    20     2    16
  2.3736222101560069E+00 a      1117     1    20     2    17
 -1.1684056976115220E+00 a      1118     1    20     2    18
  8.3092937744316986E-01 a      1119     1    20     2    19
 -8.6935695275225500E-01 a      1120     1    20     2    20
  1.0103002883032877E+00 a      1121     1    20     2    21
 -1.2229562383716625E-01 a      1122     1    20     2    22
 -7.0040328665342810E-01 a      1123     1    20     2    23
  2.8559442387740379E+00 a      1124     1    20     2    24
 -9.0428213750048769E-01 a      1125     1    20     2    25
 -5.1987798401618257E-01 a      1126     1    21     2     1
 -1.7943264896286346E+00 a      1127     1    21     2     2
  5.5392902385394438E-01 a      1128     1    21     2     3
 -2.3304127383834258E-01 a      1129     1    21     2     4
  5.2220489335096965E-01 a      1130     1    21     2     5
 -2.7403073881278246E+00 a      1131     1    21     2     6
  8.2764325687082807E-01 a      1132     1    21     2     7
  2.5013285486822345E-01 a      1133     1    21     2     8
  1.9689240583657236E-01 a      1134     1    21     2     9
  2.3138698457378259E+00 a      1135     1    21     2    10
  5.4594210670334864E-01 a      1136     1    21     2    11
  2.2642428782571979E+00 a      1137     1    21     2    12
 -2.2443787275611906E+00 a      1138     1    21     2    13
 -2.4808887585517851E+00 a      1139     1    21     2    14
  6.3672549145914104E-01 a      1140     1    21     2    15
  5.1288319312572528E-01 a      1141     1    21     2    16
 -3.4098302291689273E+00 a      1142     1    21     2    17
 -5.0324570811308822E-01 a      1143     1    21     2    18
 -1.0860487101304002E+00 a      1144     1    21     2    19
  6.0415892862654597E-01 a      1145     1    21     2    20
  8.9258336757491186E-01 a      1146     1    21     2    21
  7.3447096118406274E-01 a      1147     1    21     2    22
  1.7363346295950083E-01 a      1148     1    21     2    23
 -6.9139519543990280E-01 a      1149     1    21     2    24
 -4.2835873137054425E-01 a      1150     1    21     2    25
 -9.1737780297275340E-01 a      1151     1    22     2     1
 -3.0656357771166731E-01 a      1152     1    22     2     2
  2.9743805554549918E+00 a      1153     1    22     2     3
 -2.2197922592482131E-01 a      1154     1    22     2     4
  1.4563572215474296E-01 a      1155     1    22     2     5
 -2.9309399873240172E+00 a      1156     1    22     2     6
 -3.5355359450430592E+00 a      1157     1    22     2     7
 -1.0492711249708595E+00 a      1158     1    22     2     8
  5.0413187459311626E-01 a      1159     1    22     2     9
  1.8176637888614122E+00 a      1160     1    22     2    10
 -1.1407385468261582E+00 a      1161     1    22     2    11
 -3.5377586354616812E+00 a      1162     1    22     2    12
  1.8460634854549323E+00 a      1163     1    22     2    13
 -5.2553721942563927E+00 a      1164     1    22     2    14
 -3.2100645982504421E+00 a      1165     1    22     2    15
  3.8284417334609748E+00 a      1166     1    22     2    16
 -1.9450976763346621E+00 a      1167     1    22     2    17
  8.2592865350769740E-01 a      1168     1    22     2    18
  4.9112058510725927E+00 a      1169     1    22     2    19
 -1.7829618057271794E+00 a      1170     1    22     2    20
  2.3575588817223014E+00 a      1171     1    22     2    21
 -2.9848219742535433E+00 a      1172     1    22     2    22
 -6.2698508544961740E-01 a      1173     1    22     2    23
  1.4754630283358534E+00 a      1174     1    22     2    24
 -1.0655669462286582E-01 a      1175     1    22     2    25
 -4.2126522806778044E-01 a      1176     1    23     2     1
 -3.6391298033859119E-02 a      1177     1    23     2     2
  6.0377493215082878E-01 a      1178     1    23     2     3
 -1.8801832199007065E-01 a      1179     1    23     2     4
  1.6871441959709128E+00 a      1180     1    23     2     5
  8.1809959996617010E-01 a      1181     1    23     2     6
 -1.0789325240934908E+00 a      1182     1    23     2     7
 -9.9740035898089785E-01 a      1183     1    23     2     8
 -1.1805663152017847E+00 a      1184     1    23     2     9
 -1.6408759205602641E+00 a      1185     1    23     2    10
  2.0338313740601666E+00 a      1186     1    23     2    11
 -5.9556273181842223E-01 a      1187     1    23     2    12
 -9.9487267313647931E-01 a      1188     1    23     2    13
 -5.1667766173447878E-02 a      1189     1    23     2    14
  1.3640298748317299E+00 a      1190     1    23     2    15
 -1.0222725067052385E+00 a      1191     1    23     2    16
  1.9627965737663939E+00 a      1192     1    23     2    17
  2.4851060860272520E-01 a      1193     1    23     2    18
 -1.5919532894769057E+00 a      1194     1    23     2    19
  7.0491711487688413E-01 a      1195     1    23     2    20
  1.2681573044040542E+00 a      1196     1    23     2    21
 -8.0819726945011217E-01 a      1197     1    23     2    22
  1.6587646876394087E+00 a      1198     1    23     2    23
  1.1248923108079796E+00 a      1199     1    23     2    24
 -1.6515848486628140E+00 a      1200     1    23     2    25
  1.5314241537068460E+00 a      1201     1    24     2     1
 -6.8276786196339734E-01 a      1202     1    24     2     2
 -3.2129580578897848E-01 a      1203     1    24     2     3
  6.0454006052694964E-01 a      1204     1    24     2     4
  2.5996996686241858E-01 a      1205     1    24     2     5
  2.1395704773075392E+00 a      1206     1    24     2     6
 -2.8973496934413184E-02 a      1207     1    24     2     7
  3.9758846868612879E-01 a      1208     1    24     2     8
 -1.3660544145169753E+00 a      1209     1    24     2     9
 -2.4102455763375490E+00 a      1210     1    24     2    10
  3.2656874706267711E+00 a      1211     1    24     2    11
  4.3949296719284880E-01 a      1212     1    24     2    12
  6.0188768007126214E-01 a      1213     1    24     2    13
  2.6092387613376089E+00 a      1214     1    24     2    14
  1.2929372278799183E+00 a      1215     1    24     2    15
 -2.2786441139979394E+00 a      1216     1    24     2    16
  1.2561672100739603E+00 a      1217     1    24     2    17
  1.7458140566958322E+00 a      1218     1    24     2    18
 -2.6969495580143288E-01 a      1219     1    24     2    19
  4.6138809339594644E-01 a      1220     1    24     2    20
  6.9151232959170816E-01 a      1221     1    24     2    21
  8.2226065053718256E-01 a      1222     1    24     2    22
 -1.2410189407450154E+00 a      1223     1    24     2    23
  2.2858555370800691E+00 a      1224     1    24     2    24
  8.2155523829084587E-01 a      1225     1    24     2    25
  7.4795515947520319E-01 a      1226     1    25     2     1
 -2.9861634022177315E+00 a      1227     1    25     2     2
  4.9124833137945460E-02 a      1228     1    25     2     3
 -1.8729911384461964E+00 a      1229     1    25     2     4
 -7.1646868800245800E-01 a      1230     1    25     2     5
  1.7233570391559232E+00 a      1231     1    25     2     6
 -5.3489371038526690E-01 a      1232     1    25     2     7
  4.7955567092330320E-01 a      1233     1    25     2     8
 -2.9391386216884068E+00 a      1234     1    25     2     9
 -5.9349230404457010E-01 a      1235     1    25     2    10
 -1.6606805693347015E+00 a      1236     1    25     2    11
 -8.6056177224344610E-01 a      1237     1    25     2    12
  6.6683371601289778E+00 a      1238     1    25     2    13
 -4.7444507399652043E+00 a      1239     1    25     2    14
  6.7186714657113766E-01 a      1240     1    25     2    15
 -2.3361871667670648E+00 a      1241     1    25     2    16
  1.1171199430778556E+00 a      1242     1    25     2    17
  1.1073774447178124E+00 a      1243     1    25     2    18
 -4.7744170540835622E+00 a      1244     1    25     2    19
  1.2177619280714460E+00 a      1245     1    25     2    20
 -4.3760936454212684E-01 a      1246     1    25     2    21
  7.0160694953078340E-01 a      1247     1    25     2    22
  8.7368896323190848E-01 a      1248     1    25     2    23
  2.9855036797121524E+00 a      1249     1    25     2    24
  1.9073739383662538E+00 a      1250     1    25     2    25
 -1.3633428210585965E+01 b      1251     2     1
 -1.3327129925115180E+00 b      1252     2     2
 -4.8291788217674299E+00 b      1253     2     3
 -2.9718628574153252E+00 b      1254     2     4
 -3.2428590132160924E+00 b      1255     2     5
 -5.6635824508639709E+00 b      1256     2     6
  1.0197791399755593E+01 b      1257     2     7
  6.1798011618697366E+00 b      1258     2     8
 -2.2561197321720221E+00 b      1259     2     9
  1.8765395201406350E+00 b      1260     2    10
 -8.4840320953146779E+00 b      1261     2    11
  6.0593847667048513E+00 b      1262     2    12
 -2.0358923069078596E+00 b      1263     2    13
 -2.5643197027217877E+00 b      1264     2    14
 -5.5344361787526326E+00 b      1265     2    15
  1.1580233302896128E+01 b      1266     2    16
 -4.0509471310244409E+00 b      1267     2    17
 -1.4436148340908406E-01 b      1268     2    18
  6.9971075422658036E-01 b      1269     2    19
 -2.0406811110679581E+00 b      1270     2    20
 -2.4329140361410206E+00 b      1271     2    21
  2.2771977072975784E+00 b      1272     2    22
  3.7199356225404259E+00 b      1273     2    23
 -1.0778410691906238E+01 b      1274     2    24
  3.6765425324511050E+00 b      1275     2    25
 -3.4261111362160374E-01 a      1276     2     1     3     1
 -2.4519138348976757E-01 a      1277     2     2     3     1
  3.7165249649696047E-01 a      1278     2     3     3     1
 -6.1108019421016291E-01 a      1279     2     4     3     1
 -1.8277846734939922E+00 a      1280     2     5     3     1
  3.9532170586353432E-01 a      1281     2     6     3     1
 -5.6771230136888573E-01 a      1282     2     7     3     1
  1.2367941806629654E+00 a      1283     2     8     3     1
  1.5935492434121401E+00 a      1284     2     9     3     1
 -3.6578050076135982E-01 a      1285     2    10     3     1
  5.2459542889887778E-01 a      1286     2    11     3     1
  1.0280616738988426E+00 a      1287     2    12     3     1
 -3.7521421601570404E-01 a      1288     2    13     3     1
 -3.6938617799980228E-01 a      1289     2    14     3     1
 -4.4505458956294724E-01 a      1290     2    15     3     1
  4.8783354589448719E-01 a      1291     2    16     3     1
  4.0215709037996866E-01 a      1292     2    17     3     1
  1.7105731548536660E+00 a      1293     2    18     3     1
 -3.5501231341366757E-01 a      1294     2    19     3     1
  2.9724148010981848E+00 a      1295     2    20     3     1
  6.5893476802176076E-01 a      1296     2    21     3     1
  8.7200055549885092E-01 a      1297     2    22     3     1
  7.4758387023739614E-01 a      1298     2    23     3     1
 -1.7247759868808760E-01 a      1299     2    24     3     1
  9.7653400847985361E-01 a      1300     2    25     3     1
 -2.4392401582692651E+00 b      1301     3     1
