################################################################################
# Neural network connection values (weights and biases).
################################################################################
# Col  Name       Description
################################################################################
# 1    connection Neural network connection value.
# 2    t          Connection type (a = weight, b = bias).
# 3    index      Index enumerating weights.
# 4    l_s        Starting point layer (end point layer for biases).
# 5    n_s        Starting point neuron in starting layer (end point neuron for biases).
# 6    l_e        End point layer.
# 7    n_e        End point neuron in end layer.
################################################################################
#                      1 2         3     4     5     6     7
#             connection t     index   l_s   n_s   l_e   n_e
############################################################
  3.0371822024384802E+01 a         1     0     1     1     1
 -2.0866321583542270E+01 a         2     0     1     1     2
  4.2328297372133996E+01 a         3     0     1     1     3
 -7.2016875505008727E+01 a         4     0     1     1     4
 -1.3600257182686683E+01 a         5     0     1     1     5
 -2.1339093130743805E+01 a         6     0     1     1     6
  1.2845453800828341E+01 a         7     0     1     1     7
 -2.0498968772763586E+00 a         8     0     1     1     8
 -1.4398703670826553E+01 a         9     0     1     1     9
 -1.6252822441237917E+01 a        10     0     1     1    10
  2.9797688754170636E+01 a        11     0     1     1    11
  1.4448387715581003E+01 a        12     0     1     1    12
  1.3773664676254430E+01 a        13     0     1     1    13
  4.2255868362433468E+01 a        14     0     1     1    14
 -1.5882193515314755E+00 a        15     0     1     1    15
  1.1592429362310787E+01 a        16     0     1     1    16
 -5.2573307696577656E+00 a        17     0     1     1    17
 -3.2975386736772137E+01 a        18     0     1     1    18
  4.4893531374970213E+00 a        19     0     1     1    19
 -4.0474654873243949E+01 a        20     0     1     1    20
  4.0210847741316371E+00 a        21     0     1     1    21
 -2.6106796783654577E+01 a        22     0     1     1    22
 -7.7998010653524705E+00 a        23     0     1     1    23
 -1.2715580207486154E+01 a        24     0     1     1    24
  3.4175262233475735E+01 a        25     0     1     1    25
 -2.1460506051951239E+01 a        26     0     2     1     1
 -9.1713162491521523E+00 a        27     0     2     1     2
 -2.4489224593609990E+01 a        28     0     2     1     3
 -7.1421803755600655E+00 a        29     0     2     1     4
 -1.9050915868504759E-01 a        30     0     2     1     5
  4.8208169719453146E+01 a        31     0     2     1     6
  4.2113176150294960E+00 a        32     0     2     1     7
  7.7212480708951858E+01 a        33     0     2     1     8
  2.7415624628632398E+00 a        34     0     2     1     9
 -3.6284657369729935E+01 a        35     0     2     1    10
  7.2051416031195012E+00 a        36     0     2     1    11
  1.8364580817878210E+01 a        37     0     2     1    12
  4.0668380337061997E+01 a        38     0     2     1    13
  3.3204682853191173E+01 a        39     0     2     1    14
  1.4708631009960881E+01 a        40     0     2     1    15
  1.0792892074166668E+01 a        41     0     2     1    16
  6.4505999185016989E+01 a        42     0     2     1    17
 -3.1754644358734887E+00 a        43     0     2     1    18
 -7.8230845238116551E+00 a        44     0     2     1    19
 -2.9038385043570978E+00 a        45     0     2     1    20
 -3.7146887586912407E+00 a        46     0     2     1    21
  4.5557489151681914E+01 a        47     0     2     1    22
  2.5924267868853268E+00 a        48     0     2     1    23
  3.7549126949915916E+01 a        49     0     2     1    24
 -2.7147001432440668E+01 a        50     0     2     1    25
  4.3814654097316350E+01 a        51     0     3     1     1
 -1.4480171491109473E+01 a        52     0     3     1     2
  2.2955519199087611E+01 a        53     0     3     1     3
  4.5360391369230484E+01 a        54     0     3     1     4
 -2.6293025610324925E+01 a        55     0     3     1     5
  1.8915983019620231E+01 a        56     0     3     1     6
  5.1031063982984008E+01 a        57     0     3     1     7
  5.2384524585793180E+01 a        58     0     3     1     8
 -5.5788243950821554E+00 a        59     0     3     1     9
 -1.0821096287081447E+01 a        60     0     3     1    10
 -5.0260091355974879E+01 a        61     0     3     1    11
 -1.8134447502147918E+01 a        62     0     3     1    12
 -4.1050241128895522E+01 a        63     0     3     1    13
 -1.4766570560291848E+01 a        64     0     3     1    14
 -3.4142517409325016E+01 a        65     0     3     1    15
 -1.3213764466892677E+01 a        66     0     3     1    16
  6.0674946332095736E+00 a        67     0     3     1    17
  2.3968665296451448E+01 a        68     0     3     1    18
  1.0192912473148908E+01 a        69     0     3     1    19
  2.2605305679069744E+01 a        70     0     3     1    20
 -5.7392220883324123E+00 a        71     0     3     1    21
  2.2893934295072420E+01 a        72     0     3     1    22
 -9.0964845860958565E+00 a        73     0     3     1    23
  3.1772993013321500E+00 a        74     0     3     1    24
  6.5003079267811827E+00 a        75     0     3     1    25
 -6.1960560171016240E+01 a        76     0     4     1     1
  5.9728704393637628E+01 a        77     0     4     1     2
 -9.2625961784085405E+01 a        78     0     4     1     3
  1.6288875161011188E+02 a        79     0     4     1     4
  3.6551203458097326E+01 a        80     0     4     1     5
  5.1511705008464666E+01 a        81     0     4     1     6
 -2.4063020251804097E+01 a        82     0     4     1     7
  1.8675092247365100E+01 a        83     0     4     1     8
  2.6397576256876572E+01 a        84     0     4     1     9
  2.0023172945140271E+01 a        85     0     4     1    10
 -7.4555662963175820E+01 a        86     0     4     1    11
 -2.4564757452058483E+01 a        87     0     4     1    12
 -9.1773507335958975E+00 a        88     0     4     1    13
 -9.2125088321514966E+01 a        89     0     4     1    14
 -5.2250662396558072E+00 a        90     0     4     1    15
 -2.5954255854548805E+01 a        91     0     4     1    16
  1.5893659154097563E+01 a        92     0     4     1    17
  6.7925810707267360E+01 a        93     0     4     1    18
 -4.1256170485897989E+00 a        94     0     4     1    19
  8.4499340458655155E+01 a        95     0     4     1    20
  5.3379549651336504E-02 a        96     0     4     1    21
  5.3791571643479912E+01 a        97     0     4     1    22
  1.5855290819101658E+01 a        98     0     4     1    23
  2.3116151639334422E+01 a        99     0     4     1    24
 -6.9153571459106274E+01 a       100     0     4     1    25
  3.4181798828912370E+01 a       101     0     5     1     1
  3.0739534043028407E+01 a       102     0     5     1     2
  5.0736691936380801E+01 a       103     0     5     1     3
  3.3812857286227072E+01 a       104     0     5     1     4
  7.0973648092370105E+00 a       105     0     5     1     5
 -1.0698985270354571E+02 a       106     0     5     1     6
 -5.7720572757756183E-01 a       107     0     5     1     7
 -1.5322961254899084E+02 a       108     0     5     1     8
 -1.2690333340601486E+01 a       109     0     5     1     9
  5.7744147746804849E+01 a       110     0     5     1    10
  8.3277390501440718E-01 a       111     0     5     1    11
 -3.2023269975579709E+01 a       112     0     5     1    12
 -5.7035393728028438E+01 a       113     0     5     1    13
 -4.9924048481934967E+01 a       114     0     5     1    14
 -3.3672925037986424E+01 a       115     0     5     1    15
 -2.5627160544088067E+01 a       116     0     5     1    16
 -1.1643206279852394E+02 a       117     0     5     1    17
  8.1590090861325155E+00 a       118     0     5     1    18
  1.3596016889109668E+01 a       119     0     5     1    19
 -1.1613397075485386E+01 a       120     0     5     1    20
  7.7917810876824598E+00 a       121     0     5     1    21
 -9.4960158325003349E+01 a       122     0     5     1    22
 -1.8232200174493077E+01 a       123     0     5     1    23
 -7.5246136439144152E+01 a       124     0     5     1    24
  2.9486495260449963E+01 a       125     0     5     1    25
 -9.1731160371319362E+01 a       126     0     6     1     1
  2.9149267010986353E+01 a       127     0     6     1     2
 -4.8809403277104757E+01 a       128     0     6     1     3
 -8.6536774667614637E+01 a       129     0     6     1     4
  5.4131803856356200E+01 a       130     0     6     1     5
 -3.6415183243664991E+01 a       131     0     6     1     6
 -9.4678479512352467E+01 a       132     0     6     1     7
 -1.2345723611974798E+02 a       133     0     6     1     8
  1.0429353275624367E+01 a       134     0     6     1     9
  2.3678882470864359E+01 a       135     0     6     1    10
  8.9468938279235061E+01 a       136     0     6     1    11
  4.1808944829503282E+01 a       137     0     6     1    12
  7.6097954217203508E+01 a       138     0     6     1    13
  1.7474267021948307E+01 a       139     0     6     1    14
  7.3864687459062182E+01 a       140     0     6     1    15
  3.0097060789331021E+01 a       141     0     6     1    16
 -9.6556115209898419E+00 a       142     0     6     1    17
 -5.2318341593591242E+01 a       143     0     6     1    18
 -1.9103724059819744E+01 a       144     0     6     1    19
 -4.0375141403673638E+01 a       145     0     6     1    20
  1.2683484692350770E+01 a       146     0     6     1    21
 -3.6931449823948086E+01 a       147     0     6     1    22
  2.2947755546651020E+01 a       148     0     6     1    23
 -2.2974524203381659E+00 a       149     0     6     1    24
 -8.6515731696730480E+00 a       150     0     6     1    25
  4.2327928233148945E+01 a       151     0     7     1     1
 -2.6899772564530295E+01 a       152     0     7     1     2
  5.7831644004429258E+01 a       153     0     7     1     3
 -1.1189566808180254E+02 a       154     0     7     1     4
 -2.0693051996999603E+01 a       155     0     7     1     5
 -3.0879847907402176E+01 a       156     0     7     1     6
  2.1153909863872308E+01 a       157     0     7     1     7
 -6.5619845399569101E+00 a       158     0     7     1     8
 -1.4888926603456081E+01 a       159     0     7     1     9
 -2.4856031045904846E+01 a       160     0     7     1    10
  3.7678401037360402E+01 a       161     0     7     1    11
  1.8048775805398765E+01 a       162     0     7     1    12
  2.0373893658370637E+01 a       163     0     7     1    13
  6.3413707932825560E+01 a       164     0     7     1    14
  8.2625336544788297E+00 a       165     0     7     1    15
  1.6646236226263877E+01 a       166     0     7     1    16
 -1.3755026383521709E+01 a       167     0     7     1    17
 -4.4259861694043259E+01 a       168     0     7     1    18
  4.1997557525794846E+00 a       169     0     7     1    19
 -6.0620721187753837E+01 a       170     0     7     1    20
  3.6721920285765273E+00 a       171     0     7     1    21
 -2.4993722144485684E+01 a       172     0     7     1    22
 -1.0851016282001360E+01 a       173     0     7     1    23
 -1.2391813761699039E+01 a       174     0     7     1    24
  4.1550631846250958E+01 a       175     0     7     1    25
 -1.5166382347690329E+01 a       176     0     8     1     1
 -3.6277587616042837E+01 a       177     0     8     1     2
 -4.2715889301556274E+01 a       178     0     8     1     3
 -5.3373216512924699E+01 a       179     0     8     1     4
 -1.8452068187468178E+01 a       180     0     8     1     5
  1.1752883022383276E+02 a       181     0     8     1     6
 -7.1132420381140351E+00 a       182     0     8     1     7
  1.1755402046893926E+02 a       183     0     8     1     8
  1.8481906293723561E+01 a       184     0     8     1     9
 -1.9608690828264884E+01 a       185     0     8     1    10
 -1.2513179861304497E+01 a       186     0     8     1    11
  2.2597756085659970E+01 a       187     0     8     1    12
  6.8842501625936077E+00 a       188     0     8     1    13
  1.3568028430299091E+01 a       189     0     8     1    14
  2.0936800097929854E+01 a       190     0     8     1    15
  2.6969259993950537E+01 a       191     0     8     1    16
  7.4303883367708593E+01 a       192     0     8     1    17
 -1.6592647394931575E+01 a       193     0     8     1    18
 -1.4463665785303217E+01 a       194     0     8     1    19
  2.3761785213145231E+01 a       195     0     8     1    20
 -5.4776452947727661E+00 a       196     0     8     1    21
  6.3297554215030878E+01 a       197     0     8     1    22
  3.4850884190030136E+01 a       198     0     8     1    23
  5.8537491864152791E+01 a       199     0     8     1    24
 -3.2247785113068463E+00 a       200     0     8     1    25
  5.9769665039823622E+01 a       201     0     9     1     1
 -1.6192387643643453E+00 a       202     0     9     1     2
  5.1023369436493923E+01 a       203     0     9     1     3
  1.0204651657910969E+02 a       204     0     9     1     4
 -3.7088839976735308E+01 a       205     0     9     1     5
  1.9895898159159508E+01 a       206     0     9     1     6
  4.2257996854485000E+01 a       207     0     9     1     7
  7.9886376319262624E+01 a       208     0     9     1     8
 -2.4816346782430010E+01 a       209     0     9     1     9
 -2.3058964947135220E+01 a       210     0     9     1    10
 -2.8164944549972390E+01 a       211     0     9     1    11
 -4.5360933366288727E+01 a       212     0     9     1    12
 -5.6836830359174293E+01 a       213     0     9     1    13
  1.0743511382358983E+01 a       214     0     9     1    14
 -5.0780693408623122E+01 a       215     0     9     1    15
 -2.2441952197149170E+01 a       216     0     9     1    16
  7.2798234919040992E+00 a       217     0     9     1    17
  2.8136827584959558E+01 a       218     0     9     1    18
  1.8168330950227265E+01 a       219     0     9     1    19
  2.0259907392031387E+01 a       220     0     9     1    20
 -1.0932233542222178E+01 a       221     0     9     1    21
  1.7350469396791741E+01 a       222     0     9     1    22
 -2.4423461434968061E+01 a       223     0     9     1    23
  5.7653348198252372E+00 a       224     0     9     1    24
  2.3496810274027480E-01 a       225     0     9     1    25
 -1.1186996445858423E+01 a       226     0    10     1     1
 -3.4261623723452490E+00 a       227     0    10     1     2
 -1.0367729569207635E+01 a       228     0    10     1     3
  2.5701095569017959E+01 a       229     0    10     1     4
  1.4464675484392133E+00 a       230     0    10     1     5
  4.9377797115613493E+00 a       231     0    10     1     6
 -7.9039194469281551E+00 a       232     0    10     1     7
 -4.7336419645811603E+00 a       233     0    10     1     8
  2.3169700788910297E+00 a       234     0    10     1     9
  1.4783138013063772E+01 a       235     0    10     1    10
  3.2051499819416901E-01 a       236     0    10     1    11
 -6.5356132001483331E+00 a       237     0    10     1    12
 -1.7381926655213352E+01 a       238     0    10     1    13
 -1.4499820918896924E+01 a       239     0    10     1    14
 -3.4204898961406700E+00 a       240     0    10     1    15
 -3.0159888774710071E+00 a       241     0    10     1    16
  3.6464867582694267E+00 a       242     0    10     1    17
  9.4847871120588589E+00 a       243     0    10     1    18
 -2.7051585154030731E+00 a       244     0    10     1    19
  1.8072280795156335E+01 a       245     0    10     1    20
 -4.7436038141890853E+00 a       246     0    10     1    21
  3.8600258280011429E-01 a       247     0    10     1    22
  2.5335905668949867E+00 a       248     0    10     1    23
  2.3549738198936208E+00 a       249     0    10     1    24
 -7.0156747386953846E+00 a       250     0    10     1    25
 -6.4199875920343592E+00 a       251     0    11     1     1
  1.8548957903809953E+01 a       252     0    11     1     2
  2.9897042697711651E+01 a       253     0    11     1     3
  3.3053090540131086E-01 a       254     0    11     1     4
  2.2085543024335855E+01 a       255     0    11     1     5
 -9.9637636891999449E+01 a       256     0    11     1     6
  9.0707066927099191E+00 a       257     0    11     1     7
 -2.8216978349860064E+01 a       258     0    11     1     8
 -2.4215551523358663E+01 a       259     0    11     1     9
 -2.0125218499771343E+01 a       260     0    11     1    10
 -1.1494154507671423E+01 a       261     0    11     1    11
 -1.7584560915459051E+01 a       262     0    11     1    12
  3.4434370212779970E+00 a       263     0    11     1    13
  1.1381728918058272E+01 a       264     0    11     1    14
  1.0606369466540375E+00 a       265     0    11     1    15
 -1.6911300266006492E+01 a       266     0    11     1    16
 -6.9590994409699247E+00 a       267     0    11     1    17
  1.3515811297950675E+01 a       268     0    11     1    18
  2.0250364202640181E+01 a       269     0    11     1    19
 -3.1091178284509096E+00 a       270     0    11     1    20
 -9.2755235051541920E+00 a       271     0    11     1    21
 -3.8842649230702957E+00 a       272     0    11     1    22
 -2.2797989703151508E+01 a       273     0    11     1    23
 -3.6067308527127210E+01 a       274     0    11     1    24
 -5.6029995329019711E+00 a       275     0    11     1    25
 -1.5444158225164143E+01 a       276     0    12     1     1
 -1.5162025047322738E+01 a       277     0    12     1     2
 -2.8997673777061596E+01 a       278     0    12     1     3
 -6.8082845430412732E+01 a       279     0    12     1     4
  1.0299461653642592E+01 a       280     0    12     1     5
 -1.4535561770700920E+00 a       281     0    12     1     6
  3.4583673622641542E+00 a       282     0    12     1     7
 -1.2971211654526817E+01 a       283     0    12     1     8
  2.3131263638550973E+01 a       284     0    12     1     9
  1.1163078258413968E+01 a       285     0    12     1    10
 -1.6120073405133819E+01 a       286     0    12     1    11
  2.5285137058766690E+01 a       287     0    12     1    12
  2.3994725549558488E+01 a       288     0    12     1    13
 -1.8193537156493061E+01 a       289     0    12     1    14
  1.2264530642056819E+01 a       290     0    12     1    15
  7.2681758326041663E+00 a       291     0    12     1    16
 -3.0506276958507543E+00 a       292     0    12     1    17
 -7.6891258512746627E-02 a       293     0    12     1    18
 -1.1249049761290085E+01 a       294     0    12     1    19
 -2.9122796056070057E+00 a       295     0    12     1    20
  6.6145922315125292E+00 a       296     0    12     1    21
 -2.8417372408333774E+00 a       297     0    12     1    22
  1.2496873732012304E+01 a       298     0    12     1    23
 -7.9240704817808387E+00 a       299     0    12     1    24
  1.4245429224872655E-01 a       300     0    12     1    25
  9.8248961879058283E-01 a       301     0    13     1     1
 -2.0940041216118841E+00 a       302     0    13     1     2
 -6.0852956136650622E+00 a       303     0    13     1     3
  2.7195366870069728E+00 a       304     0    13     1     4
 -2.9870853082706668E+00 a       305     0    13     1     5
  2.5610164423502820E+01 a       306     0    13     1     6
 -3.1758009529763740E+00 a       307     0    13     1     7
 -9.7954188806618457E-03 a       308     0    13     1     8
  5.4390019518039487E+00 a       309     0    13     1     9
  2.7080701516768619E+00 a       310     0    13     1    10
  4.6671928224619377E+00 a       311     0    13     1    11
  2.9584552423165711E+00 a       312     0    13     1    12
 -1.1786357877927869E+00 a       313     0    13     1    13
 -3.7513567666669165E+00 a       314     0    13     1    14
 -9.9332919528454092E-02 a       315     0    13     1    15
  3.2402969039458469E+00 a       316     0    13     1    16
 -4.4686497454507551E-01 a       317     0    13     1    17
 -3.8606634501296360E+00 a       318     0    13     1    18
 -2.7022580546447359E+00 a       319     0    13     1    19
 -4.4329374360594759E-01 a       320     0    13     1    20
  2.4941353420746308E+00 a       321     0    13     1    21
  1.1175961882925256E+00 a       322     0    13     1    22
  6.8119270178731304E+00 a       323     0    13     1    23
  5.4445688973674056E+00 a       324     0    13     1    24
 -1.4881090576162287E-01 a       325     0    13     1    25
  2.3487944381529416E-01 a       326     0    14     1     1
  4.1122797568465277E+00 a       327     0    14     1     2
  5.1600090414439777E+00 a       328     0    14     1     3
  1.1609810270675991E+01 a       329     0    14     1     4
 -6.5764094351180802E-02 a       330     0    14     1     5
 -1.1138192604371036E+00 a       331     0    14     1     6
 -4.2471586923762423E+00 a       332     0    14     1     7
 -2.4019567006510285E+00 a       333     0    14     1     8
 -5.2545433314397272E+00 a       334     0    14     1     9
 -9.8952702198462070E-02 a       335     0    14     1    10
  6.7414312258956590E+00 a       336     0    14     1    11
 -4.2055009295358676E+00 a       337     0    14     1    12
 -3.3921158458674006E+00 a       338     0    14     1    13
  4.3444348193267652E+00 a       339     0    14     1    14
  3.9350941194030142E-01 a       340     0    14     1    15
 -5.0128533940991049E-01 a       341     0    14     1    16
  3.9907313647175496E-01 a       342     0    14     1    17
 -2.2657129405573389E+00 a       343     0    14     1    18
  2.2016218696362237E+00 a       344     0    14     1    19
 -1.4578007143314704E+00 a       345     0    14     1    20
 -1.2955604623215102E+00 a       346     0    14     1    21
 -6.2817154545254095E-01 a       347     0    14     1    22
 -1.0983912318927933E+00 a       348     0    14     1    23
  2.2504780171234553E+00 a       349     0    14     1    24
  8.2242607718768657E-01 a       350     0    14     1    25
  1.5023047318318801E+00 a       351     0    15     1     1
 -2.0037327853600885E+01 a       352     0    15     1     2
  7.0663724192610742E+00 a       353     0    15     1     3
 -9.3327270666484772E+00 a       354     0    15     1     4
 -7.6946785099769990E+00 a       355     0    15     1     5
 -7.5443370460970725E+00 a       356     0    15     1     6
 -2.8495239399891439E+00 a       357     0    15     1     7
 -1.0021999866759213E+01 a       358     0    15     1     8
 -8.6132922170240045E-03 a       359     0    15     1     9
  1.5418738562422776E+01 a       360     0    15     1    10
  1.7105944405165776E+01 a       361     0    15     1    11
 -2.3487682155663685E+00 a       362     0    15     1    12
 -1.4693966399197249E+01 a       363     0    15     1    13
  2.5280423822851885E+00 a       364     0    15     1    14
  2.0953373244515128E-01 a       365     0    15     1    15
  2.2552733510397016E+00 a       366     0    15     1    16
  9.1274203231703310E-01 a       367     0    15     1    17
 -2.7798999680927765E+00 a       368     0    15     1    18
 -3.7078628090954178E+00 a       369     0    15     1    19
 -2.6347202623162311E+00 a       370     0    15     1    20
 -5.3202958805324059E+00 a       371     0    15     1    21
 -1.0693971916960241E+01 a       372     0    15     1    22
 -1.2110096059350319E-02 a       373     0    15     1    23
 -2.2003837592333522E+00 a       374     0    15     1    24
  4.3415640352202169E+00 a       375     0    15     1    25
  1.3338727615858703E+01 a       376     0    16     1     1
  1.3265553274324189E+00 a       377     0    16     1     2
 -9.1419597519879989E+00 a       378     0    16     1     3
  2.4498631028678936E+01 a       379     0    16     1     4
 -8.2113737932905084E-01 a       380     0    16     1     5
  2.1426477796969873E+01 a       381     0    16     1     6
  2.9455370353615073E-01 a       382     0    16     1     7
 -1.2298421009256444E+01 a       383     0    16     1     8
  1.5459440326563453E+01 a       384     0    16     1     9
  8.4085738698646733E+00 a       385     0    16     1    10
  1.2473266770040087E+01 a       386     0    16     1    11
  4.3411332211993336E+00 a       387     0    16     1    12
  9.5670853456149683E+00 a       388     0    16     1    13
  1.1184327686690547E+00 a       389     0    16     1    14
 -1.4170648555867233E+00 a       390     0    16     1    15
 -2.0865981324492386E+00 a       391     0    16     1    16
 -1.1877884772214223E+01 a       392     0    16     1    17
 -6.4977394323575108E+00 a       393     0    16     1    18
 -1.1150015393897574E+00 a       394     0    16     1    19
  3.4669939015449791E-01 a       395     0    16     1    20
  8.9017564435310224E+00 a       396     0    16     1    21
 -1.2318886793055830E+01 a       397     0    16     1    22
  5.0773970176212631E+00 a       398     0    16     1    23
 -2.4346061328033723E+00 a       399     0    16     1    24
 -4.1808484552604619E-01 a       400     0    16     1    25
  1.5354537126894155E-01 a       401     0    17     1     1
  8.6541355518619714E+00 a       402     0    17     1     2
 -1.0690455484427881E+00 a       403     0    17     1     3
  6.6550407075448426E-01 a       404     0    17     1     4
  3.0006742123891637E+00 a       405     0    17     1     5
  2.2132507645459483E+00 a       406     0    17     1     6
  7.9210899538369295E-01 a       407     0    17     1     7
  4.0797084598444373E+00 a       408     0    17     1     8
 -8.3505763752950668E-01 a       409     0    17     1     9
 -8.0462764279529733E+00 a       410     0    17     1    10
 -6.1432628951124517E+00 a       411     0    17     1    11
  1.0858969357374959E+00 a       412     0    17     1    12
  5.9254171457350164E+00 a       413     0    17     1    13
  2.0385115753462828E+00 a       414     0    17     1    14
 -1.5232404333769781E-01 a       415     0    17     1    15
 -3.6953097192902923E-01 a       416     0    17     1    16
 -1.7644335535472035E+00 a       417     0    17     1    17
 -1.2513699257826250E-01 a       418     0    17     1    18
  1.6858557552069038E+00 a       419     0    17     1    19
  7.8204747454547252E-01 a       420     0    17     1    20
  1.5934574303177633E+00 a       421     0    17     1    21
  4.9450391755866070E+00 a       422     0    17     1    22
 -6.2710205835399691E-01 a       423     0    17     1    23
  9.6128470579890302E-01 a       424     0    17     1    24
 -5.4066211415479071E-01 a       425     0    17     1    25
  4.6864188422467130E+00 a       426     0    18     1     1
 -4.2221748418673988E+00 a       427     0    18     1     2
 -2.0213763730219131E-01 a       428     0    18     1     3
 -3.1967806014491282E+00 a       429     0    18     1     4
 -1.9034699265405239E+00 a       430     0    18     1     5
  1.8666532704425929E+00 a       431     0    18     1     6
  4.4414523593798281E+00 a       432     0    18     1     7
  7.6412924035242806E+00 a       433     0    18     1     8
  3.5725146309111704E+00 a       434     0    18     1     9
 -1.6695806721604980E+00 a       435     0    18     1    10
 -5.7514785341668242E+00 a       436     0    18     1    11
 -8.9260049074366177E-01 a       437     0    18     1    12
 -2.1963784530579420E+00 a       438     0    18     1    13
 -2.7337737981793042E-01 a       439     0    18     1    14
 -3.4239566721289818E+00 a       440     0    18     1    15
 -8.6329345882700070E-01 a       441     0    18     1    16
 -8.6996331968886642E-01 a       442     0    18     1    17
  4.4067418121796020E+00 a       443     0    18     1    18
 -1.5432234516142279E-01 a       444     0    18     1    19
  2.5540663611693764E+00 a       445     0    18     1    20
 -1.4214134902398456E+00 a       446     0    18     1    21
  1.6171451777031423E+00 a       447     0    18     1    22
 -1.3787193931062436E+00 a       448     0    18     1    23
 -1.5759274514298796E+00 a       449     0    18     1    24
 -7.6300186010708038E-02 a       450     0    18     1    25
 -5.3481800037014597E+00 a       451     0    19     1     1
  7.2717371137270326E-01 a       452     0    19     1     2
  2.9708715260319773E+00 a       453     0    19     1     3
 -1.2132629636659555E+01 a       454     0    19     1     4
 -4.8199126030039452E-01 a       455     0    19     1     5
 -8.1316008003027782E-02 a       456     0    19     1     6
 -8.7976356347500551E-01 a       457     0    19     1     7
  4.8485855377143956E+00 a       458     0    19     1     8
 -6.6737372110785023E+00 a       459     0    19     1     9
 -2.6575628002389760E+00 a       460     0    19     1    10
 -4.6943285768098963E+00 a       461     0    19     1    11
 -1.0346239710749534E+00 a       462     0    19     1    12
 -3.2693511250003038E+00 a       463     0    19     1    13
  1.4595208975407525E+00 a       464     0    19     1    14
  1.5501179591208705E+00 a       465     0    19     1    15
  1.9559631460322433E+00 a       466     0    19     1    16
  5.5470488266547964E+00 a       467     0    19     1    17
 -8.8498553686281442E-02 a       468     0    19     1    18
 -2.4204619272369124E-01 a       469     0    19     1    19
 -2.6334786362629803E-01 a       470     0    19     1    20
 -3.9643564289078443E+00 a       471     0    19     1    21
  3.9851510626238835E+00 a       472     0    19     1    22
 -6.1343747919800085E-01 a       473     0    19     1    23
  3.6383296225424107E+00 a       474     0    19     1    24
  1.3350780877795907E+00 a       475     0    19     1    25
 -8.3237810107230414E-01 a       476     0    20     1     1
 -1.1782191574672782E+00 a       477     0    20     1     2
 -1.0822604882365729E+00 a       478     0    20     1     3
 -3.1660911104958709E+00 a       479     0    20     1     4
  3.9659908573298874E-01 a       480     0    20     1     5
 -6.7997455898573822E-01 a       481     0    20     1     6
  1.0110614306547216E+00 a       482     0    20     1     7
  3.1940899346839202E-01 a       483     0    20     1     8
 -7.9589362939415487E-02 a       484     0    20     1     9
  2.4377240221929184E+00 a       485     0    20     1    10
 -8.9138006669883896E-01 a       486     0    20     1    11
  1.0060768210900040E+00 a       487     0    20     1    12
  1.2839305368607254E+00 a       488     0    20     1    13
 -1.7256606978827924E+00 a       489     0    20     1    14
 -7.4970936439344227E-01 a       490     0    20     1    15
 -2.6748930986227953E-01 a       491     0    20     1    16
  2.6104524334891299E-01 a       492     0    20     1    17
  8.0023544160892537E-02 a       493     0    20     1    18
 -7.4265006752380447E-01 a       494     0    20     1    19
 -2.8712190751010782E+00 a       495     0    20     1    20
  1.8127839438205429E+00 a       496     0    20     1    21
 -9.7611822380090696E-01 a       497     0    20     1    22
  1.5030648617003579E+00 a       498     0    20     1    23
 -5.1270133046094268E-01 a       499     0    20     1    24
 -8.4831840387828772E-01 a       500     0    20     1    25
 -7.8392700607171517E-01 a       501     0    21     1     1
 -9.8709466843632176E-01 a       502     0    21     1     2
 -1.9212067631887095E-01 a       503     0    21     1     3
  4.5383006361800543E-01 a       504     0    21     1     4
 -4.3594160235472225E-02 a       505     0    21     1     5
  2.3801903137805048E-02 a       506     0    21     1     6
 -5.8552763350856252E-01 a       507     0    21     1     7
 -7.8368123039832527E-01 a       508     0    21     1     8
 -3.1205063685427281E-01 a       509     0    21     1     9
  1.3399575061554729E+00 a       510     0    21     1    10
  1.9218095322303332E+00 a       511     0    21     1    11
 -6.1438048213124752E-01 a       512     0    21     1    12
 -6.1997643716519468E-01 a       513     0    21     1    13
  2.4480232112739145E-01 a       514     0    21     1    14
 -4.5982024717712400E-02 a       515     0    21     1    15
 -9.0892043091494359E-02 a       516     0    21     1    16
 -4.9904500490423392E-01 a       517     0    21     1    17
  1.4796131164774023E-01 a       518     0    21     1    18
 -4.0369367593986577E-01 a       519     0    21     1    19
  1.7522112609834326E+00 a       520     0    21     1    20
 -3.7812392551308316E-01 a       521     0    21     1    21
  2.9106264253489206E-01 a       522     0    21     1    22
  1.1800083161272429E-01 a       523     0    21     1    23
 -5.1848104552202789E-01 a       524     0    21     1    24
 -3.5774602119880056E-01 a       525     0    21     1    25
  2.5849109592003146E+00 a       526     0    22     1     1
  3.2503839022247766E-01 a       527     0    22     1     2
 -2.9077881194722068E+00 a       528     0    22     1     3
  8.4742680064399387E+00 a       529     0    22     1     4
  1.4046006709280048E+00 a       530     0    22     1     5
  3.4131280699705258E+00 a       531     0    22     1     6
  9.3812867669451749E-01 a       532     0    22     1     7
 -7.4040433031658139E+00 a       533     0    22     1     8
  3.7077772034349605E+00 a       534     0    22     1     9
  4.1907502192704689E+00 a       535     0    22     1    10
  7.3526222522645472E+00 a       536     0    22     1    11
  1.4459905565925886E+00 a       537     0    22     1    12
  6.7140425703122464E+00 a       538     0    22     1    13
  1.6552713556117273E+00 a       539     0    22     1    14
  1.3181717658650758E+00 a       540     0    22     1    15
 -1.5856959774218671E+00 a       541     0    22     1    16
 -3.7022200890939096E+00 a       542     0    22     1    17
 -4.7324282451686206E-01 a       543     0    22     1    18
  9.9180058525522963E-01 a       544     0    22     1    19
 -3.2999050270407154E-01 a       545     0    22     1    20
  2.6734410823405033E+00 a       546     0    22     1    21
  3.0540174053542026E+00 a       547     0    22     1    22
  1.8495430649741396E-01 a       548     0    22     1    23
  2.0795108519168290E-01 a       549     0    22     1    24
  1.2586581639054852E+00 a       550     0    22     1    25
 -1.4908396196088511E-01 a       551     0    23     1     1
 -1.0455622123015953E+00 a       552     0    23     1     2
 -5.0880695197569492E-01 a       553     0    23     1     3
 -7.6043061041690752E-01 a       554     0    23     1     4
  9.6758768236952453E-02 a       555     0    23     1     5
  3.0231374555484941E-01 a       556     0    23     1     6
  2.8715897244163990E-01 a       557     0    23     1     7
  2.4218601139510993E+00 a       558     0    23     1     8
  3.4346155920474769E-01 a       559     0    23     1     9
  7.8110824052334471E-01 a       560     0    23     1    10
 -1.4133987263434244E+00 a       561     0    23     1    11
 -6.3745210480434258E-02 a       562     0    23     1    12
  9.8132777213865441E-01 a       563     0    23     1    13
  5.6231541467293289E-01 a       564     0    23     1    14
 -4.6512221489428274E-01 a       565     0    23     1    15
 -5.1507525882393346E-01 a       566     0    23     1    16
 -6.2586096593528817E-01 a       567     0    23     1    17
  1.3792650752583981E+00 a       568     0    23     1    18
 -5.6323780314551097E-01 a       569     0    23     1    19
 -1.9858714335847449E+00 a       570     0    23     1    20
  7.9986682756988881E-01 a       571     0    23     1    21
  5.9000364045500631E-01 a       572     0    23     1    22
 -1.9390113406335636E-02 a       573     0    23     1    23
 -1.0208290860630373E+00 a       574     0    23     1    24
 -1.4019623518855266E+00 a       575     0    23     1    25
 -1.0009551657888202E-01 a       576     0    24     1     1
 -2.1602080413604546E-01 a       577     0    24     1     2
  2.3344454633968989E-02 a       578     0    24     1     3
  4.4862180063540630E-01 a       579     0    24     1     4
  1.8259722795276004E-01 a       580     0    24     1     5
  4.9075753469827697E-02 a       581     0    24     1     6
 -5.3320600972408740E-02 a       582     0    24     1     7
 -6.7745969301709619E-02 a       583     0    24     1     8
  2.4771856430513967E-02 a       584     0    24     1     9
 -4.4308081551371448E-01 a       585     0    24     1    10
 -3.4880606500748362E-01 a       586     0    24     1    11
  1.4760483985397116E-01 a       587     0    24     1    12
 -2.2997815711646272E-01 a       588     0    24     1    13
 -5.3736962209258710E-01 a       589     0    24     1    14
  1.5784644552439775E-01 a       590     0    24     1    15
  5.8156792049788963E-02 a       591     0    24     1    16
  3.8409570297209994E-01 a       592     0    24     1    17
  1.3742183453977128E-02 a       593     0    24     1    18
  2.8755520951011626E-01 a       594     0    24     1    19
 -2.0707360358511653E-01 a       595     0    24     1    20
 -1.9764518071554862E-01 a       596     0    24     1    21
 -3.7380753855143367E-01 a       597     0    24     1    22
 -2.5226406942113470E-02 a       598     0    24     1    23
  5.6998516535550359E-01 a       599     0    24     1    24
  1.6040078369693311E-01 a       600     0    24     1    25
 -1.6288182727641758E+00 a       601     0    25     1     1
 -3.1367879350030776E-02 a       602     0    25     1     2
  1.9508733450287963E+00 a       603     0    25     1     3
 -3.5880461404635149E+00 a       604     0    25     1     4
 -1.1800789193138450E+00 a       605     0    25     1     5
 -2.5250184697045182E+00 a       606     0    25     1     6
 -4.6036908781830937E-01 a       607     0    25     1     7
  4.8797752291065688E+00 a       608     0    25     1     8
 -2.1219122683463896E+00 a       609     0    25     1     9
 -2.8947764210958584E+00 a       610     0    25     1    10
 -4.8588633827560912E+00 a       611     0    25     1    11
 -7.4220748136995940E-01 a       612     0    25     1    12
 -4.4066798104285763E+00 a       613     0    25     1    13
 -6.4293688656735781E-01 a       614     0    25     1    14
 -9.4007055951954310E-01 a       615     0    25     1    15
  9.1268054893106054E-01 a       616     0    25     1    16
  2.5309415818168954E+00 a       617     0    25     1    17
  1.9963922615345786E-01 a       618     0    25     1    18
 -7.5237117643770357E-01 a       619     0    25     1    19
  5.2473527533551956E-01 a       620     0    25     1    20
 -1.5659858158562385E+00 a       621     0    25     1    21
 -2.5858615158995595E+00 a       622     0    25     1    22
 -9.8565830384992142E-02 a       623     0    25     1    23
 -7.5747649542979689E-01 a       624     0    25     1    24
 -1.4279723724755431E+00 a       625     0    25     1    25
  6.1230575221696160E-01 a       626     0    26     1     1
  5.8737917621564639E-01 a       627     0    26     1     2
  4.2976584237795029E-01 a       628     0    26     1     3
  8.0994640862110584E-02 a       629     0    26     1     4
 -3.6221777184128978E-01 a       630     0    26     1     5
 -2.4459300683117396E-01 a       631     0    26     1     6
  4.8128853460937254E-01 a       632     0    26     1     7
 -1.3982161460530553E+00 a       633     0    26     1     8
 -4.9220929622320475E-01 a       634     0    26     1     9
 -9.7033217780210268E-01 a       635     0    26     1    10
  1.1544506639135135E+00 a       636     0    26     1    11
 -5.8462949831935172E-03 a       637     0    26     1    12
 -8.7476093351077244E-01 a       638     0    26     1    13
  7.3860830537824732E-02 a       639     0    26     1    14
 -2.6767127205850594E-01 a       640     0    26     1    15
  2.2234176639648201E-01 a       641     0    26     1    16
  4.0247195263615015E-01 a       642     0    26     1    17
 -2.7843542901504176E-01 a       643     0    26     1    18
  6.2638931502961914E-01 a       644     0    26     1    19
  1.5242619063928069E+00 a       645     0    26     1    20
 -3.3015261713086624E-01 a       646     0    26     1    21
  3.3256686587006473E-01 a       647     0    26     1    22
  1.4048624375648949E-01 a       648     0    26     1    23
  6.6460041459972341E-01 a       649     0    26     1    24
  1.0061378232935985E+00 a       650     0    26     1    25
  4.9620964965968450E-01 a       651     0    27     1     1
 -1.0406340643161089E+01 a       652     0    27     1     2
 -8.0072608884060639E+00 a       653     0    27     1     3
 -1.0137939226335775E+00 a       654     0    27     1     4
 -8.0433341472953526E+00 a       655     0    27     1     5
  1.4082098303053827E+00 a       656     0    27     1     6
  2.0072667327039964E-01 a       657     0    27     1     7
  5.3159554994721612E+00 a       658     0    27     1     8
  4.9748154382467744E+00 a       659     0    27     1     9
  1.0937584993578698E+01 a       660     0    27     1    10
  2.1253817762843252E-02 a       661     0    27     1    11
  1.9980166801679431E+00 a       662     0    27     1    12
 -1.9306882022891931E+00 a       663     0    27     1    13
 -9.3261019380699004E+00 a       664     0    27     1    14
 -4.8115283182566273E+00 a       665     0    27     1    15
  6.9353151918195177E-01 a       666     0    27     1    16
 -5.9922016267586544E+00 a       667     0    27     1    17
  8.4603714181413048E-01 a       668     0    27     1    18
 -1.2107165916468075E+01 a       669     0    27     1    19
 -2.1884965420170846E-01 a       670     0    27     1    20
  3.5089431343007691E+00 a       671     0    27     1    21
  3.1291856502916158E+00 a       672     0    27     1    22
  9.9274670865293357E-01 a       673     0    27     1    23
  6.5593851959683978E+00 a       674     0    27     1    24
  2.8357833603726816E+00 a       675     0    27     1    25
 -1.8696133256342609E+00 a       676     0    28     1     1
  1.0989884187161197E+01 a       677     0    28     1     2
  5.3258030194801416E+00 a       678     0    28     1     3
  8.3047460634004722E+00 a       679     0    28     1     4
  3.4570407519253571E-01 a       680     0    28     1     5
  5.5892768901565826E-01 a       681     0    28     1     6
 -4.3489480489901053E+00 a       682     0    28     1     7
 -6.0018727471765470E+00 a       683     0    28     1     8
 -4.2072882209414200E+00 a       684     0    28     1     9
 -1.8946906886607815E+00 a       685     0    28     1    10
  7.1410452754671754E+00 a       686     0    28     1    11
  5.5744421891104690E-01 a       687     0    28     1    12
  3.0440416800338177E+00 a       688     0    28     1    13
 -3.7868717538203702E+00 a       689     0    28     1    14
  7.2790556564644038E-01 a       690     0    28     1    15
  1.5585964468416338E+00 a       691     0    28     1    16
 -4.0136561996959880E-01 a       692     0    28     1    17
  1.2490415225650565E+01 a       693     0    28     1    18
 -1.7242451351357793E+00 a       694     0    28     1    19
 -6.1124451121716694E+00 a       695     0    28     1    20
 -3.3312432704489070E+00 a       696     0    28     1    21
 -1.0367400416035903E-01 a       697     0    28     1    22
 -5.8490138928154458E+00 a       698     0    28     1    23
  4.1581577701943147E+00 a       699     0    28     1    24
 -5.7143751501502915E-02 a       700     0    28     1    25
  4.1981949917738826E-01 a       701     0    29     1     1
  5.6818026437601681E+00 a       702     0    29     1     2
  2.4535262099490400E+00 a       703     0    29     1     3
  1.8684165034339022E+00 a       704     0    29     1     4
  2.7271832311871926E+00 a       705     0    29     1     5
 -1.7163670068116235E+00 a       706     0    29     1     6
  2.1860956915568535E+00 a       707     0    29     1     7
 -1.5868398718894774E+00 a       708     0    29     1     8
 -2.0976064169011188E+00 a       709     0    29     1     9
 -1.8351684876435193E+00 a       710     0    29     1    10
 -5.1650777018691341E-01 a       711     0    29     1    11
  2.7992007257668083E-01 a       712     0    29     1    12
  3.2366768622500923E+00 a       713     0    29     1    13
  6.9410677704885915E+00 a       714     0    29     1    14
  2.1704704073124739E+00 a       715     0    29     1    15
  8.7949783600049225E-01 a       716     0    29     1    16
  1.4935259666348983E+00 a       717     0    29     1    17
 -1.0678382515911660E+00 a       718     0    29     1    18
  4.2154057078100369E+00 a       719     0    29     1    19
  2.4652759534843097E-01 a       720     0    29     1    20
 -9.4164652305345786E-01 a       721     0    29     1    21
 -6.5396173848547319E+00 a       722     0    29     1    22
 -1.7616486510754554E+00 a       723     0    29     1    23
 -5.6307357850779161E-01 a       724     0    29     1    24
  4.2152585366485584E-01 a       725     0    29     1    25
  1.9335929678251207E+00 a       726     0    30     1     1
 -3.9951616574806730E+00 a       727     0    30     1     2
 -4.5182868849522040E-01 a       728     0    30     1     3
 -6.1227742195094335E+00 a       729     0    30     1     4
 -2.7224895918363496E+00 a       730     0    30     1     5
  2.4442225462356699E+00 a       731     0    30     1     6
 -1.9562976984981102E+00 a       732     0    30     1     7
  1.7193438663811564E+00 a       733     0    30     1     8
 -6.1233877219839217E-01 a       734     0    30     1     9
  2.2941346730392200E+00 a       735     0    30     1    10
 -1.6112191208395130E+00 a       736     0    30     1    11
  8.0582546437103530E-01 a       737     0    30     1    12
 -4.2337501640818616E+00 a       738     0    30     1    13
 -6.8169853357517995E-01 a       739     0    30     1    14
 -1.4917630049191144E+00 a       740     0    30     1    15
 -5.1518231905319700E-01 a       741     0    30     1    16
 -3.6983974076850729E-01 a       742     0    30     1    17
 -1.8142438963131373E+00 a       743     0    30     1    18
 -2.2916513291355951E+00 a       744     0    30     1    19
 -1.4984607786328991E-01 a       745     0    30     1    20
  7.1743801922849182E-02 a       746     0    30     1    21
  1.7124757650982809E+00 a       747     0    30     1    22
  1.2584820626261166E+00 a       748     0    30     1    23
 -2.9802793634675667E-01 a       749     0    30     1    24
  8.1411277162885831E-01 a       750     0    30     1    25
  1.2757705512517761E+00 b       751     1     1
  1.1911062335297267E+00 b       752     1     2
  4.5428261908264633E-01 b       753     1     3
 -1.9588032362202328E+00 b       754     1     4
  1.5787021855462551E+00 b       755     1     5
  7.4371348751485016E+00 b       756     1     6
  2.2285699258605645E+00 b       757     1     7
 -1.3819395955701974E+00 b       758     1     8
 -2.4086728808217706E-01 b       759     1     9
  1.4017717000095964E+00 b       760     1    10
  8.3182210309607929E-01 b       761     1    11
  7.1586238976792643E-02 b       762     1    12
 -1.9798677490253008E-01 b       763     1    13
  7.2990649381091943E-01 b       764     1    14
 -1.3027955766762158E+00 b       765     1    15
  1.5301543609931647E+00 b       766     1    16
  1.5728130916371559E+00 b       767     1    17
  1.3853225091816292E+00 b       768     1    18
 -6.2283989296819020E-01 b       769     1    19
 -1.7313519111886104E+00 b       770     1    20
 -1.9365544011327899E-02 b       771     1    21
 -2.8881281405681275E-01 b       772     1    22
 -3.1953227276715596E-01 b       773     1    23
 -6.0293517760504023E-01 b       774     1    24
 -2.4293905660722923E-01 b       775     1    25
 -9.1146793457905206E-01 a       776     1     1     2     1
  2.4767377859134512E+00 a       777     1     1     2     2
  1.7854678619281181E+00 a       778     1     1     2     3
  1.2640679789667381E-01 a       779     1     1     2     4
 -7.3252180962059876E-01 a       780     1     1     2     5
 -1.1062162923392724E+00 a       781     1     1     2     6
 -6.9471412620842854E-01 a       782     1     1     2     7
  8.6490464554813729E-01 a       783     1     1     2     8
  1.7257586717100970E-01 a       784     1     1     2     9
 -8.4995567333682742E-01 a       785     1     1     2    10
  2.7230096452472041E-01 a       786     1     1     2    11
  1.1515260348903520E+00 a       787     1     1     2    12
  3.4142349264369415E-01 a       788     1     1     2    13
 -3.5809229799052089E-01 a       789     1     1     2    14
 -2.2182925337386716E-01 a       790     1     1     2    15
 -2.5754461022047559E-01 a       791     1     1     2    16
  6.2668630671357528E-01 a       792     1     1     2    17
 -7.1131805782558744E-01 a       793     1     1     2    18
  5.6941440673362442E-01 a       794     1     1     2    19
  1.7811425341264930E+00 a       795     1     1     2    20
 -1.0059826228052140E+00 a       796     1     1     2    21
 -1.0209922224318544E+00 a       797     1     1     2    22
 -5.9163128754465333E-02 a       798     1     1     2    23
  2.9225475140124915E+00 a       799     1     1     2    24
 -8.6108233849546467E-01 a       800     1     1     2    25
 -3.2034382281707624E-01 a       801     1     2     2     1
  5.4636518302158266E-03 a       802     1     2     2     2
  1.5045675897218929E+00 a       803     1     2     2     3
 -2.9537110320026509E-03 a       804     1     2     2     4
  1.6900001030112914E+00 a       805     1     2     2     5
  3.9997339225588090E-02 a       806     1     2     2     6
  4.4048150645272993E-01 a       807     1     2     2     7
  1.3190683729824429E-01 a       808     1     2     2     8
 -5.2347146704821657E-01 a       809     1     2     2     9
  1.0323604121911667E+00 a       810     1     2     2    10
 -1.6463599129695830E+00 a       811     1     2     2    11
 -1.7689920373475621E+00 a       812     1     2     2    12
  7.5936769117203329E-01 a       813     1     2     2    13
  1.6081541403578066E+00 a       814     1     2     2    14
 -1.0635347506359680E+00 a       815     1     2     2    15
 -4.9802991995266455E-01 a       816     1     2     2    16
  2.0188553107811709E-02 a       817     1     2     2    17
  2.2164023109990016E-01 a       818     1     2     2    18
 -2.6708060407804995E-01 a       819     1     2     2    19
 -8.7200496247646631E-01 a       820     1     2     2    20
 -5.3105122431662088E-01 a       821     1     2     2    21
 -6.2354592788590546E-01 a       822     1     2     2    22
  4.7286144660285612E-01 a       823     1     2     2    23
 -1.1800664248373056E+00 a       824     1     2     2    24
  1.6590525108422400E+00 a       825     1     2     2    25
 -2.6728107664494077E-01 a       826     1     3     2     1
 -2.4585812845845481E-01 a       827     1     3     2     2
 -2.2865471713782290E+00 a       828     1     3     2     3
 -5.5093860942624340E-01 a       829     1     3     2     4
 -4.7708031707987009E-01 a       830     1     3     2     5
 -1.6338351232404322E+00 a       831     1     3     2     6
  4.3132466799286684E-01 a       832     1     3     2     7
  3.9674658345955044E-01 a       833     1     3     2     8
  7.0183185877919929E-01 a       834     1     3     2     9
 -9.3791814095952297E-01 a       835     1     3     2    10
  2.6218793975122794E+00 a       836     1     3     2    11
 -6.2940642310531292E-01 a       837     1     3     2    12
  7.0786546324497746E-01 a       838     1     3     2    13
  1.4050356253663165E+00 a       839     1     3     2    14
  1.3521046545634061E+00 a       840     1     3     2    15
  1.0116434563006409E+00 a       841     1     3     2    16
  1.4718820125587186E+00 a       842     1     3     2    17
 -8.0257607542752574E-02 a       843     1     3     2    18
  5.5643166253030685E-01 a       844     1     3     2    19
  7.8997794792415166E-01 a       845     1     3     2    20
  3.7118397292094779E-01 a       846     1     3     2    21
  2.9214360273203952E+00 a       847     1     3     2    22
 -1.1375850214209982E+00 a       848     1     3     2    23
  2.7606978662939552E-01 a       849     1     3     2    24
 -1.6859043847254256E+00 a       850     1     3     2    25
  8.7547377633766954E-01 a       851     1     4     2     1
 -6.9012809116338314E-01 a       852     1     4     2     2
 -1.1494389527408752E-01 a       853     1     4     2     3
 -5.0005958237017500E-01 a       854     1     4     2     4
 -1.5532933949598147E+00 a       855     1     4     2     5
  6.3293153011744119E-01 a       856     1     4     2     6
  2.9350944751141333E-01 a       857     1     4     2     7
 -2.6859354598433544E-01 a       858     1     4     2     8
 -3.7737965840398929E-01 a       859     1     4     2     9
  3.6364836305422427E-01 a       860     1     4     2    10
 -1.3672615936826042E+00 a       861     1     4     2    11
 -4.2055569143566703E-03 a       862     1     4     2    12
 -7.9549581353812404E-01 a       863     1     4     2    13
  1.1573685874375321E+00 a       864     1     4     2    14
  1.0732699581926544E+00 a       865     1     4     2    15
 -3.0935796534157339E-01 a       866     1     4     2    16
  5.6040543985248348E-01 a       867     1     4     2    17
  1.1900224892495250E+00 a       868     1     4     2    18
  9.7833889345845004E-01 a       869     1     4     2    19
 -1.0465896626744009E+00 a       870     1     4     2    20
 -2.7832973090114194E-01 a       871     1     4     2    21
  1.5165047756737879E+00 a       872     1     4     2    22
  3.0827014064318026E-01 a       873     1     4     2    23
 -4.7065257143901296E-01 a       874     1     4     2    24
  4.5930465237831342E-01 a       875     1     4     2    25
 -2.1934850957925751E+00 a       876     1     5     2     1
  1.8942761646267701E+00 a       877     1     5     2     2
  6.6320218887183702E-01 a       878     1     5     2     3
  1.0826343032760379E+00 a       879     1     5     2     4
 -6.8352363720842357E-01 a       880     1     5     2     5
  2.6327793959122965E+00 a       881     1     5     2     6
 -1.3927090959290749E+00 a       882     1     5     2     7
 -1.8335908311461266E+00 a       883     1     5     2     8
 -9.4259210061378912E-02 a       884     1     5     2     9
 -1.6488340568970805E+00 a       885     1     5     2    10
  2.9787883169042964E+00 a       886     1     5     2    11
 -7.2284586802195117E-01 a       887     1     5     2    12
 -2.0996574450283259E-01 a       888     1     5     2    13
  2.4037557495382909E+00 a       889     1     5     2    14
 -3.1737292545346714E+00 a       890     1     5     2    15
 -2.3053505958779557E+00 a       891     1     5     2    16
 -5.0493074772521063E-01 a       892     1     5     2    17
 -2.1069161623393868E+00 a       893     1     5     2    18
 -4.7005072493472683E-01 a       894     1     5     2    19
  8.9984148204307479E-01 a       895     1     5     2    20
 -1.8067062471614999E+00 a       896     1     5     2    21
 -3.2816424034030103E+00 a       897     1     5     2    22
  2.1950735444997664E+00 a       898     1     5     2    23
  1.8523264606403558E+00 a       899     1     5     2    24
 -7.6352576328438626E-01 a       900     1     5     2    25
  9.7319657292875528E-01 a       901     1     6     2     1
 -9.8102328829752977E-02 a       902     1     6     2     2
 -4.3212660388950874E-01 a       903     1     6     2     3
  1.4543052548034918E+00 a       904     1     6     2     4
  6.6966398283590913E-03 a       905     1     6     2     5
  4.4401259680299998E-01 a       906     1     6     2     6
 -1.1707962947788380E+00 a       907     1     6     2     7
  4.8881559185463210E+00 a       908     1     6     2     8
  1.0518626789988776E+00 a       909     1     6     2     9
  6.1858427135175420E-01 a       910     1     6     2    10
  5.4811209511799297E-01 a       911     1     6     2    11
  5.3165793961161556E-01 a       912     1     6     2    12
  7.6795884318269451E-03 a       913     1     6     2    13
 -5.2328634096585436E-01 a       914     1     6     2    14
 -5.4206807063580970E-02 a       915     1     6     2    15
 -1.7316708990796442E-02 a       916     1     6     2    16
 -2.9096473595228811E-01 a       917     1     6     2    17
  4.4203035841283594E-01 a       918     1     6     2    18
  4.8415386270922461E-01 a       919     1     6     2    19
 -3.3000839267279081E-01 a       920     1     6     2    20
  5.8476915885165559E-01 a       921     1     6     2    21
  1.4408822658259132E-01 a       922     1     6     2    22
  1.4328476029711629E-01 a       923     1     6     2    23
  6.6543084486605664E-01 a       924     1     6     2    24
  1.4812841947625999E-02 a       925     1     6     2    25
  4.5178366847690160E-01 a       926     1     7     2     1
  1.5197419639850637E-01 a       927     1     7     2     2
 -1.4520404640106606E+00 a       928     1     7     2     3
  6.2479015870090848E-01 a       929     1     7     2     4
  6.3305437745708815E-01 a       930     1     7     2     5
 -1.9258566738356537E+00 a       931     1     7     2     6
  1.1164664483182511E+00 a       932     1     7     2     7
 -6.5133777760916534E-01 a       933     1     7     2     8
  9.8773078259729619E-01 a       934     1     7     2     9
 -6.6112672570825293E-01 a       935     1     7     2    10
  5.4913432698891131E-02 a       936     1     7     2    11
  2.4560982944984416E-01 a       937     1     7     2    12
 -2.7828455324755591E-01 a       938     1     7     2    13
  5.7849515292728093E-01 a       939     1     7     2    14
  1.7579786407416484E-01 a       940     1     7     2    15
  1.0824792114814741E+00 a       941     1     7     2    16
  6.9627782306152164E-01 a       942     1     7     2    17
  2.2099202289779725E+00 a       943     1     7     2    18
  2.4670295736283696E-01 a       944     1     7     2    19
  6.5591867196547360E-01 a       945     1     7     2    20
 -5.8033916869857517E-02 a       946     1     7     2    21
  1.6418805185655678E+00 a       947     1     7     2    22
 -1.1324723811737518E+00 a       948     1     7     2    23
 -1.9325029892450236E+00 a       949     1     7     2    24
 -1.3267522594596737E+00 a       950     1     7     2    25
  2.9606973706794526E+00 a       951     1     8     2     1
  1.4017034140981899E-02 a       952     1     8     2     2
 -8.8381768708027586E-01 a       953     1     8     2     3
  9.8670573993654798E-01 a       954     1     8     2     4
 -2.6635269334939364E+00 a       955     1     8     2     5
  1.1336799238982544E+00 a       956     1     8     2     6
 -2.1970855526035940E-01 a       957     1     8     2     7
 -8.8950929781391919E-01 a       958     1     8     2     8
  6.6113491854243611E-01 a       959     1     8     2     9
  1.0157698574925653E+00 a       960     1     8     2    10
 -8.5190005169337946E-01 a       961     1     8     2    11
  7.5179273969964311E-01 a       962     1     8     2    12
 -8.6656785627811331E-02 a       963     1     8     2    13
  3.9648126023250402E-01 a       964     1     8     2    14
  2.1545200757580325E+00 a       965     1     8     2    15
  1.8270003475733729E+00 a       966     1     8     2    16
 -3.0816800223688057E-01 a       967     1     8     2    17
  8.4611592690148077E-02 a       968     1     8     2    18
  1.4691780011305340E+00 a       969     1     8     2    19
 -1.2813042000958161E+00 a       970     1     8     2    20
  5.9138884926975543E-01 a       971     1     8     2    21
  1.9204596137894783E+00 a       972     1     8     2    22
 -1.4105799853136534E+00 a       973     1     8     2    23
  5.6190309777675251E-01 a       974     1     8     2    24
 -1.3247907111496907E-01 a       975     1     8     2    25
  8.2831495176355019E-01 a       976     1     9     2     1
 -1.7961761724073393E+00 a       977     1     9     2     2
 -5.1545910167737139E+00 a       978     1     9     2     3
 -3.3267508944214064E+00 a       979     1     9     2     4
 -5.3587788272626957E-01 a       980     1     9     2     5
 -1.9168252635884113E+00 a       981     1     9     2     6
 -2.1086053671990386E+00 a       982     1     9     2     7
 -5.1325070192147892E-01 a       983     1     9     2     8
  2.0363713888328080E-01 a       984     1     9     2     9
 -6.2275502855242880E-02 a       985     1     9     2    10
 -3.1540336946703933E+00 a       986     1     9     2    11
  1.4201061557160026E+00 a       987     1     9     2    12
  1.7783510079574183E-01 a       988     1     9     2    13
  1.7169808645674995E+00 a       989     1     9     2    14
 -4.5541895360589661E-02 a       990     1     9     2    15
  3.4890440723878625E-02 a       991     1     9     2    16
 -5.7069789964039719E-01 a       992     1     9     2    17
 -2.5841127764565497E-01 a       993     1     9     2    18
 -3.7123053874255807E-01 a       994     1     9     2    19
 -1.1743966585563121E+00 a       995     1     9     2    20
  1.5938385133642519E+00 a       996     1     9     2    21
 -1.2277660728343580E+00 a       997     1     9     2    22
 -1.4227282405045414E+00 a       998     1     9     2    23
 -3.3180291192772606E+00 a       999     1     9     2    24
  9.9789099797068426E-01 a      1000     1     9     2    25
  1.3410763426916759E+00 a      1001     1    10     2     1
  3.4934935940839386E-02 a      1002     1    10     2     2
  1.1592664592230091E+00 a      1003     1    10     2     3
  3.9297214591263774E-01 a      1004     1    10     2     4
  1.1241890523019207E+00 a      1005     1    10     2     5
 -1.0208982959216608E+00 a      1006     1    10     2     6
 -8.2320454292949496E-01 a      1007     1    10     2     7
  1.5343990224140094E+00 a      1008     1    10     2     8
 -1.2923017569055593E+00 a      1009     1    10     2     9
 -3.4291423489378761E+00 a      1010     1    10     2    10
 -2.1989282819609786E+00 a      1011     1    10     2    11
 -4.6217435266176637E-01 a      1012     1    10     2    12
  3.4872057548178943E+00 a      1013     1    10     2    13
 -2.1047666227007702E+00 a      1014     1    10     2    14
  1.1927239196117247E+00 a      1015     1    10     2    15
 -3.8060038820737352E-01 a      1016     1    10     2    16
 -1.1113098114799502E+00 a      1017     1    10     2    17
 -7.9927736800734384E-01 a      1018     1    10     2    18
  5.4722092380319032E-01 a      1019     1    10     2    19
  1.7227797176442775E-01 a      1020     1    10     2    20
 -7.0079015323154331E-02 a      1021     1    10     2    21
 -1.9611085336933101E+00 a      1022     1    10     2    22
 -1.2415071900172188E+00 a      1023     1    10     2    23
 -1.7101536739014138E+00 a      1024     1    10     2    24
  1.3570752724104157E-01 a      1025     1    10     2    25
 -1.1562632972555217E-01 a      1026     1    11     2     1
  1.0596598093658019E-01 a      1027     1    11     2     2
  5.3284957190593762E-01 a      1028     1    11     2     3
 -3.7227602327151560E-01 a      1029     1    11     2     4
 -3.7664565928325178E-01 a      1030     1    11     2     5
  1.3751516207461436E+00 a      1031     1    11     2     6
  4.5409866786025521E-01 a      1032     1    11     2     7
 -3.5654461099617135E-01 a      1033     1    11     2     8
 -3.4361399875133680E-01 a      1034     1    11     2     9
  9.2792725742228821E-01 a      1035     1    11     2    10
  1.7601706555224550E+00 a      1036     1    11     2    11
  2.6080876879005829E-02 a      1037     1    11     2    12
 -3.2330535383623155E-01 a      1038     1    11     2    13
  1.0557663696432307E+00 a      1039     1    11     2    14
  2.9016844717782386E-01 a      1040     1    11     2    15
  1.4879980743391510E+00 a      1041     1    11     2    16
  4.5363650571485714E-01 a      1042     1    11     2    17
 -3.5810776261928529E-01 a      1043     1    11     2    18
 -5.5124326898779752E-01 a      1044     1    11     2    19
  9.3063892759918310E-01 a      1045     1    11     2    20
  1.0141465096082811E+00 a      1046     1    11     2    21
  9.5925951425197109E-01 a      1047     1    11     2    22
 -3.5327414848514898E+00 a      1048     1    11     2    23
  2.2674629861784576E-01 a      1049     1    11     2    24
 -5.9721688163540221E-01 a      1050     1    11     2    25
 -4.0776775666515530E-01 a      1051     1    12     2     1
 -4.3737147353879235E-01 a      1052     1    12     2     2
  4.8955209316584658E-01 a      1053     1    12     2     3
  2.8671487403745952E+00 a      1054     1    12     2     4
 -1.7801367964651147E+00 a      1055     1    12     2     5
 -9.1381729281783974E-01 a      1056     1    12     2     6
 -3.7963060192770492E+00 a      1057     1    12     2     7
  1.7784971157715241E+00 a      1058     1    12     2     8
 -1.5478826671643928E+00 a      1059     1    12     2     9
  1.1787681537535939E+00 a      1060     1    12     2    10
  2.7747481609466078E+00 a      1061     1    12     2    11
 -4.4679850659704687E+00 a      1062     1    12     2    12
  8.1090281963832955E-01 a      1063     1    12     2    13
 -1.6936164050121039E-01 a      1064     1    12     2    14
  4.5581527402973532E-01 a      1065     1    12     2    15
 -3.6829204143796237E+00 a      1066     1    12     2    16
 -1.9620062028044694E+00 a      1067     1    12     2    17
 -2.0613349466429556E+00 a      1068     1    12     2    18
  1.4645732688340811E+00 a      1069     1    12     2    19
  1.6747611444896422E+00 a      1070     1    12     2    20
 -8.5344866221471671E-01 a      1071     1    12     2    21
  1.8775260326908480E-01 a      1072     1    12     2    22
 -9.9633157431924757E-01 a      1073     1    12     2    23
  4.0214131077753512E-01 a      1074     1    12     2    24
  1.1881812388048514E+00 a      1075     1    12     2    25
 -7.7503079485725157E-01 a      1076     1    13     2     1
  3.6970391912989525E-01 a      1077     1    13     2     2
 -4.5169235834055210E-01 a      1078     1    13     2     3
  1.3167382604376641E+00 a      1079     1    13     2     4
  2.4836895864255029E+00 a      1080     1    13     2     5
 -2.0679095251070896E+00 a      1081     1    13     2     6
  1.4851927684260193E+00 a      1082     1    13     2     7
 -7.2361922195952923E-03 a      1083     1    13     2     8
 -1.6015444513994155E+00 a      1084     1    13     2     9
 -1.3768034722609586E+00 a      1085     1    13     2    10
 -5.4234755037273062E-02 a      1086     1    13     2    11
 -1.4006100624834552E+00 a      1087     1    13     2    12
  1.4864473703408673E-01 a      1088     1    13     2    13
 -2.7398512277463083E+00 a      1089     1    13     2    14
 -2.7661977897469674E+00 a      1090     1    13     2    15
  1.5033099877716734E+00 a      1091     1    13     2    16
  8.1634709460646493E-01 a      1092     1    13     2    17
 -2.3142265563975104E+00 a      1093     1    13     2    18
  2.6034331752575224E-01 a      1094     1    13     2    19
 -1.3011647342520527E+00 a      1095     1    13     2    20
 -1.1808143096161783E+00 a      1096     1    13     2    21
 -9.3394815344990589E-01 a      1097     1    13     2    22
  9.4260463342833345E-01 a      1098     1    13     2    23
  2.4301156141783659E-02 a      1099     1    13     2    24
 -8.3924847467946162E-01 a      1100     1    13     2    25
  9.0010684718419764E-01 a      1101     1    14     2     1
 -8.0063539397333805E-01 a      1102     1    14     2     2
 -1.0379238439767187E+00 a      1103     1    14     2     3
 -2.4204880795377504E+00 a      1104     1    14     2     4
 -1.1410327664460731E+00 a      1105     1    14     2     5
  2.0272508191537906E+00 a      1106     1    14     2     6
  2.6113643410173232E-01 a      1107     1    14     2     7
 -1.6263483459335426E-01 a      1108     1    14     2     8
  1.1705551771942255E+00 a      1109     1    14     2     9
 -1.0275502404981685E+00 a      1110     1    14     2    10
  1.3723166555295725E+00 a      1111     1    14     2    11
  4.3859954187083732E+00 a      1112     1    14     2    12
 -5.2150626628758467E-01 a      1113     1    14     2    13
  3.8911912351193606E-01 a      1114     1    14     2    14
  1.4733069999426722E+00 a      1115     1    14     2    15
  3.5510575283040663E-01 a      1116     1    14     2    16
 -9.3656373951776239E-01 a      1117     1    14     2    17
  3.8100066378140279E-01 a      1118     1    14     2    18
 -5.0104915255042415E-01 a      1119     1    14     2    19
 -3.7643527301615182E-01 a      1120     1    14     2    20
  2.0869841242014835E+00 a      1121     1    14     2    21
 -1.2949961440472715E+00 a      1122     1    14     2    22
  7.0465792292094687E-01 a      1123     1    14     2    23
  4.4729361359299191E-01 a      1124     1    14     2    24
  7.2560089572700848E-01 a      1125     1    14     2    25
  3.8853953051652632E+00 a      1126     1    15     2     1
 -1.2186839775982858E-01 a      1127     1    15     2     2
 -2.2633258001715371E+00 a      1128     1    15     2     3
  5.2620695053043409E-01 a      1129     1    15     2     4
  9.8943941948385727E-01 a      1130     1    15     2     5
 -1.2758588136364504E+00 a      1131     1    15     2     6
  2.8195167227955326E-01 a      1132     1    15     2     7
 -5.3708746714746902E-01 a      1133     1    15     2     8
 -7.6559523168315935E-01 a      1134     1    15     2     9
  1.3160967637741199E+00 a      1135     1    15     2    10
 -5.8031668415249782E-01 a      1136     1    15     2    11
 -1.8141845774920478E+00 a      1137     1    15     2    12
 -8.9494456082319329E-01 a      1138     1    15     2    13
  2.8352294973376790E+00 a      1139     1    15     2    14
 -9.1172145987749331E-01 a      1140     1    15     2    15
 -7.8618511041560979E-01 a      1141     1    15     2    16
 -1.6393413098962306E-01 a      1142     1    15     2    17
  4.1490494825338908E+00 a      1143     1    15     2    18
 -4.8768173894996908E-01 a      1144     1    15     2    19
  1.3618599504698299E+00 a      1145     1    15     2    20
  7.4948504114741565E-01 a      1146     1    15     2    21
 -7.5286106316752954E-01 a      1147     1    15     2    22
 -6.7081357020754628E-01 a      1148     1    15     2    23
  1.6797941073286957E+00 a      1149     1    15     2    24
  2.5923820422153648E-01 a      1150     1    15     2    25
 -2.8710156966009515E+00 a      1151     1    16     2     1
  4.4438983280605342E+00 a      1152     1    16     2     2
 -4.6748954248937963E-01 a      1153     1    16     2     3
  6.0670622224640502E-01 a      1154     1    16     2     4
  2.1040089515724496E+00 a      1155     1    16     2     5
 -2.0920285355022235E+00 a      1156     1    16     2     6
  5.5490612891701474E-01 a      1157     1    16     2     7
  1.3891924082134330E+00 a      1158     1    16     2     8
 -3.9163538841180273E-01 a      1159     1    16     2     9
 -1.0619590088027158E+00 a      1160     1    16     2    10
 -1.6020985190386832E+00 a      1161     1    16     2    11
 -1.9529014289214626E+00 a      1162     1    16     2    12
  2.8060795401751809E-01 a      1163     1    16     2    13
  1.8709690359264219E-01 a      1164     1    16     2    14
 -2.4302221989057236E+00 a      1165     1    16     2    15
  3.6173582999120812E+00 a      1166     1    16     2    16
  1.8059983930241394E+00 a      1167     1    16     2    17
 -2.2733675819415842E+00 a      1168     1    16     2    18
 -4.5992288072918379E+00 a      1169     1    16     2    19
 -6.7570450936233251E-01 a      1170     1    16     2    20
 -1.8475774826424733E+00 a      1171     1    16     2    21
 -8.6030666390219745E-01 a      1172     1    16     2    22
 -2.6374360696350690E-01 a      1173     1    16     2    23
 -1.9939456262748806E-01 a      1174     1    16     2    24
 -1.2712591759487775E+00 a      1175     1    16     2    25
 -1.7656497303582819E+00 a      1176     1    17     2     1
  1.2455032016579297E+00 a      1177     1    17     2     2
  1.9647175875763698E+00 a      1178     1    17     2     3
 -6.7756352507915429E-01 a      1179     1    17     2     4
 -2.0223051592455845E+00 a      1180     1    17     2     5
 -4.3422188161211894E-01 a      1181     1    17     2     6
 -1.9210099829531206E+00 a      1182     1    17     2     7
  1.8809323310795956E+00 a      1183     1    17     2     8
 -7.8483089461447064E-01 a      1184     1    17     2     9
 -2.3779898677339708E+00 a      1185     1    17     2    10
 -8.0081694130386771E-01 a      1186     1    17     2    11
  1.0729553971761371E-01 a      1187     1    17     2    12
  2.4376711825025006E+00 a      1188     1    17     2    13
 -3.7109403306458860E-01 a      1189     1    17     2    14
 -2.3457908940579135E+00 a      1190     1    17     2    15
 -8.7192097637721044E-01 a      1191     1    17     2    16
 -1.4097864377643905E+00 a      1192     1    17     2    17
  2.8231942072898297E-01 a      1193     1    17     2    18
 -9.0711257296018200E-01 a      1194     1    17     2    19
  1.3627029554103620E+00 a      1195     1    17     2    20
 -1.3479801501629018E+00 a      1196     1    17     2    21
 -1.6933133896951140E+00 a      1197     1    17     2    22
  1.5954221581868773E+00 a      1198     1    17     2    23
 -1.8524679662315494E-01 a      1199     1    17     2    24
  1.9555684961037942E-01 a      1200     1    17     2    25
  6.8629052802719848E-01 a      1201     1    18     2     1
 -1.0091415625370261E+00 a      1202     1    18     2     2
 -1.7816419422601559E+00 a      1203     1    18     2     3
 -1.0446733515912356E+00 a      1204     1    18     2     4
 -1.1678815680162415E+00 a      1205     1    18     2     5
  9.9788432248493997E-01 a      1206     1    18     2     6
 -1.9783700933069931E-01 a      1207     1    18     2     7
 -1.4242857278222494E+00 a      1208     1    18     2     8
  3.1283250118300185E+00 a      1209     1    18     2     9
 -3.6401166412057756E-01 a      1210     1    18     2    10
  1.3823743969715276E+00 a      1211     1    18     2    11
  1.6880308891298685E+00 a      1212     1    18     2    12
 -9.2183516697803769E-01 a      1213     1    18     2    13
 -1.5572878297013357E-01 a      1214     1    18     2    14
 -2.9378120500684829E-01 a      1215     1    18     2    15
 -8.9188949971097176E-01 a      1216     1    18     2    16
 -6.7107802494715851E-01 a      1217     1    18     2    17
  1.9177707701179385E+00 a      1218     1    18     2    18
 -1.1147571638996698E+00 a      1219     1    18     2    19
 -1.3493815370398363E+00 a      1220     1    18     2    20
  8.1108859376983700E-01 a      1221     1    18     2    21
 -1.9948170585112859E-01 a      1222     1    18     2    22
 -1.0385637541562736E+00 a      1223     1    18     2    23
 -5.2636174614916886E-01 a      1224     1    18     2    24
 -2.1008354732669181E+00 a      1225     1    18     2    25
 -4.6483066990856985E+00 a      1226     1    19     2     1
  2.2431132944581438E+00 a      1227     1    19     2     2
  4.5182638397413273E+00 a      1228     1    19     2     3
  1.9342437112133147E-02 a      1229     1    19     2     4
  4.0831459429259089E+00 a      1230     1    19     2     5
  1.4595179296186572E-01 a      1231     1    19     2     6
  2.6661480343028940E+00 a      1232     1    19     2     7
 -1.0379435487940958E+00 a      1233     1    19     2     8
  2.1802591668249378E+00 a      1234     1    19     2     9
 -3.2684080480013149E+00 a      1235     1    19     2    10
  5.1824260010934375E-01 a      1236     1    19     2    11
  4.3774589083066786E+00 a      1237     1    19     2    12
  1.1563813893252795E+00 a      1238     1    19     2    13
  9.2556285943794026E-01 a      1239     1    19     2    14
 -4.1809243312471969E+00 a      1240     1    19     2    15
  3.6659604947578511E-01 a      1241     1    19     2    16
 -2.4195939471659400E-01 a      1242     1    19     2    17
 -2.2234669985699789E+00 a      1243     1    19     2    18
 -4.3101141994895364E+00 a      1244     1    19     2    19
 -5.1101735086433910E+00 a      1245     1    19     2    20
 -2.3229055480148375E+00 a      1246     1    19     2    21
 -3.6163702735889345E+00 a      1247     1    19     2    22
  7.4365088429660675E-01 a      1248     1    19     2    23
  1.2420029129346875E+00 a      1249     1    19     2    24
  6.0712405233078948E-01 a      1250     1    19     2    25
 -8.7419671843097091E-01 a      1251     1    20     2     1
 -1.4673083940650075E-01 a      1252     1    20     2     2
 -1.9725374520492369E+00 a      1253     1    20     2     3
 -1.0035215839990085E-01 a      1254     1    20     2     4
 -2.1815571775406566E+00 a      1255     1    20     2     5
  2.6339914847038348E+00 a      1256     1    20     2     6
 -1.6282923868201606E+00 a      1257     1    20     2     7
 -1.8259854105881292E+00 a      1258     1    20     2     8
  1.3365152111168281E+00 a      1259     1    20     2     9
 -2.5117492285737748E-02 a      1260     1    20     2    10
  1.7440151554002198E-01 a      1261     1    20     2    11
 -9.7005692602984792E-02 a      1262     1    20     2    12
  3.2694951975706388E-01 a      1263     1    20     2    13
 -2.0866550979323075E+00 a      1264     1    20     2    14
 -8.7865302023569791E-01 a      1265     1    20     2    15
  2.7860791818672546E+00 a      1266     1    20     2    16
 -8.4585912290251719E-01 a      1267     1    20     2    17
 -6.1804411748224219E-01 a      1268     1    20     2    18
  3.4296461398624450E-01 a      1269     1    20     2    19
 -3.8286834461556923E-01 a      1270     1    20     2    20
  2.3112038524193960E-02 a      1271     1    20     2    21
  5.7170367687109402E-01 a      1272     1    20     2    22
  2.8269281956215968E-02 a      1273     1    20     2    23
 -1.1767856650901314E+00 a      1274     1    20     2    24
  2.4166961121610514E-01 a      1275     1    20     2    25
  8.3378186410674260E-01 a      1276     1    21     2     1
  6.2794355193756635E-01 a      1277     1    21     2     2
 -2.3392216966606711E+00 a      1278     1    21     2     3
 -1.1537603929716329E+00 a      1279     1    21     2     4
 -6.0841966184387930E+00 a      1280     1    21     2     5
  3.6928847004605205E+00 a      1281     1    21     2     6
 -8.3832504507823913E-01 a      1282     1    21     2     7
  3.5204796956848655E-01 a      1283     1    21     2     8
  2.6550119942328458E+00 a      1284     1    21     2     9
  4.4204719353875728E+00 a      1285     1    21     2    10
 -9.4143437209659830E-01 a      1286     1    21     2    11
  2.0774002160831966E+00 a      1287     1    21     2    12
 -2.8812983793743396E-01 a      1288     1    21     2    13
 -2.4022655866796244E-01 a      1289     1    21     2    14
  1.0351595278048049E+00 a      1290     1    21     2    15
 -1.6608082598321785E+00 a      1291     1    21     2    16
 -8.9913582402215886E-01 a      1292     1    21     2    17
  6.4928112132288351E-01 a      1293     1    21     2    18
  1.7179005664302616E+00 a      1294     1    21     2    19
  3.6450378524388558E+00 a      1295     1    21     2    20
 -2.9829677780723496E-01 a      1296     1    21     2    21
  1.1977234799898169E+00 a      1297     1    21     2    22
  1.9489778032205701E-01 a      1298     1    21     2    23
  3.7582314095699583E+00 a      1299     1    21     2    24
 -1.6494954013490730E+00 a      1300     1    21     2    25
  4.0646279596044588E-01 a      1301     1    22     2     1
  3.9748830103801075E-01 a      1302     1    22     2     2
 -5.3729641091257607E-01 a      1303     1    22     2     3
  6.8642991422448851E-01 a      1304     1    22     2     4
  3.1031334500159646E+00 a      1305     1    22     2     5
 -1.2014919415224206E+00 a      1306     1    22     2     6
  5.5310824154363014E-01 a      1307     1    22     2     7
  2.9287511080399603E-01 a      1308     1    22     2     8
 -1.5115858969137503E+00 a      1309     1    22     2     9
  3.6146298811812777E-01 a      1310     1    22     2    10
 -2.4501325049053837E+00 a      1311     1    22     2    11
 -2.9137182948239326E-01 a      1312     1    22     2    12
  3.9817222181289513E-01 a      1313     1    22     2    13
 -2.0104044633478355E+00 a      1314     1    22     2    14
 -1.1676013805885847E-01 a      1315     1    22     2    15
  1.4022055860756606E+00 a      1316     1    22     2    16
 -8.2770111509553171E-02 a      1317     1    22     2    17
 -1.3569729101802215E+00 a      1318     1    22     2    18
  5.3148581523829896E-01 a      1319     1    22     2    19
  1.7998046760418696E-01 a      1320     1    22     2    20
 -5.1848865919028952E-01 a      1321     1    22     2    21
 -3.1921723648004297E-01 a      1322     1    22     2    22
 -9.8244811318458103E-01 a      1323     1    22     2    23
 -5.5699980143122130E-01 a      1324     1    22     2    24
  1.0916917324423354E+00 a      1325     1    22     2    25
 -1.2925147878650027E+00 a      1326     1    23     2     1
 -2.7949767635114005E+00 a      1327     1    23     2     2
 -1.1506480243851120E+00 a      1328     1    23     2     3
 -6.2542034134561153E-01 a      1329     1    23     2     4
  7.1151761213954701E-01 a      1330     1    23     2     5
 -3.9087054464926729E-01 a      1331     1    23     2     6
  1.8187436993117978E+00 a      1332     1    23     2     7
  2.5430641911230043E+00 a      1333     1    23     2     8
 -1.7756765525980414E+00 a      1334     1    23     2     9
 -4.6921510495172425E-01 a      1335     1    23     2    10
 -3.2496521489417435E-01 a      1336     1    23     2    11
  3.3705271839861983E+00 a      1337     1    23     2    12
  5.6267728974755182E-01 a      1338     1    23     2    13
  2.5460202368290421E+00 a      1339     1    23     2    14
  4.2940198906795923E-01 a      1340     1    23     2    15
  4.1634101981661242E-01 a      1341     1    23     2    16
  5.8156123665095127E-01 a      1342     1    23     2    17
 -1.7510865211678817E-01 a      1343     1    23     2    18
  1.1315786664270464E+00 a      1344     1    23     2    19
  1.2371526448791360E-01 a      1345     1    23     2    20
  4.2046263054995003E-01 a      1346     1    23     2    21
  5.8699912130609910E-01 a      1347     1    23     2    22
  2.5837536739666089E-01 a      1348     1    23     2    23
 -4.3367926502712227E-02 a      1349     1    23     2    24
  1.3028282036156300E+00 a      1350     1    23     2    25
  1.4335496585636884E+00 a      1351     1    24     2     1
 -7.6182114876543716E-01 a      1352     1    24     2     2
 -6.2691255761851361E-01 a      1353     1    24     2     3
 -1.9086345025876483E+00 a      1354     1    24     2     4
  4.2453802264657066E+00 a      1355     1    24     2     5
 -4.7898270664302617E-01 a      1356     1    24     2     6
  2.5234296313502169E-01 a      1357     1    24     2     7
  1.7873052996729859E+00 a      1358     1    24     2     8
 -3.1869639408188537E-02 a      1359     1    24     2     9
  2.1075600083034199E-01 a      1360     1    24     2    10
  1.0735534109397211E+00 a      1361     1    24     2    11
  3.0964554125371500E+00 a      1362     1    24     2    12
  1.8427388947715917E-01 a      1363     1    24     2    13
 -1.3064619897569403E+00 a      1364     1    24     2    14
  2.0595969543375992E+00 a      1365     1    24     2    15
 -1.7675435400467878E+00 a      1366     1    24     2    16
 -2.7201612997683061E-01 a      1367     1    24     2    17
  1.5925802319952522E+00 a      1368     1    24     2    18
  3.0786401562803212E+00 a      1369     1    24     2    19
  4.8150051279934764E-01 a      1370     1    24     2    20
  2.8570661364925165E-01 a      1371     1    24     2    21
  4.2128462434339715E-02 a      1372     1    24     2    22
 -3.2062329648512827E-01 a      1373     1    24     2    23
  1.1144895008605293E+00 a      1374     1    24     2    24
 -2.5266205696098210E+00 a      1375     1    24     2    25
 -1.6180019420186575E+00 a      1376     1    25     2     1
  4.2074725304048249E-01 a      1377     1    25     2     2
 -1.4495800923237190E-01 a      1378     1    25     2     3
  3.7201984828808032E-01 a      1379     1    25     2     4
 -2.0996086050794873E+00 a      1380     1    25     2     5
  1.6504459941563014E+00 a      1381     1    25     2     6
 -1.8778177469042623E+00 a      1382     1    25     2     7
 -4.6505555802839910E-01 a      1383     1    25     2     8
 -7.1591928684958428E-01 a      1384     1    25     2     9
  1.0980546336223040E+00 a      1385     1    25     2    10
  2.6110757823140218E-01 a      1386     1    25     2    11
 -8.9942827311497153E-01 a      1387     1    25     2    12
 -1.6842577524350349E-01 a      1388     1    25     2    13
  1.0532859217264818E+00 a      1389     1    25     2    14
 -3.6394811657633142E-01 a      1390     1    25     2    15
  1.6750543196097447E+00 a      1391     1    25     2    16
 -2.4596843464245763E-01 a      1392     1    25     2    17
 -9.0208811769470687E-01 a      1393     1    25     2    18
 -2.7849495866076635E+00 a      1394     1    25     2    19
  7.7888812131430951E-01 a      1395     1    25     2    20
 -9.6199031563421231E-02 a      1396     1    25     2    21
  1.5249606151833848E+00 a      1397     1    25     2    22
  1.8270468462955578E+00 a      1398     1    25     2    23
 -2.4581080801266735E+00 a      1399     1    25     2    24
  1.6802132305895017E+00 a      1400     1    25     2    25
  3.8849850550656471E+00 b      1401     2     1
 -1.0242289400580818E+01 b      1402     2     2
  2.7015020868241835E+00 b      1403     2     3
 -5.9749467832527934E+00 b      1404     2     4
 -8.9831052937082809E-02 b      1405     2     5
 -7.6598474682941264E-01 b      1406     2     6
  1.4639778442571986E+01 b      1407     2     7
  1.6842242250247181E+00 b      1408     2     8
 -2.7595883594668962E+00 b      1409     2     9
  4.6846436850484832E+00 b      1410     2    10
 -1.1173029100734119E+01 b      1411     2    11
 -2.4913441087087449E+00 b      1412     2    12
 -2.3355665114879072E+00 b      1413     2    13
 -7.7992243830226515E+00 b      1414     2    14
  1.5849503453983507E+01 b      1415     2    15
  2.5532640356629996E+00 b      1416     2    16
  4.3391625243282430E+00 b      1417     2    17
  6.0821276666122799E+00 b      1418     2    18
  1.4649022303323600E+00 b      1419     2    19
 -6.6869367262123554E+00 b      1420     2    20
  1.3890448492250129E+00 b      1421     2    21
  8.6500103359294194E+00 b      1422     2    22
 -8.4727068298756514E-01 b      1423     2    23
 -9.5668287966026764E+00 b      1424     2    24
  1.8574427729161720E+00 b      1425     2    25
  1.7507199921958166E-01 a      1426     2     1     3     1
  1.9230700700676820E-01 a      1427     2     2     3     1
 -1.4213087560817739E-01 a      1428     2     3     3     1
 -1.3879212619595338E-01 a      1429     2     4     3     1
 -8.0572485607825192E-02 a      1430     2     5     3     1
  1.1948747673427774E-01 a      1431     2     6     3     1
  1.0067226668703519E-01 a      1432     2     7     3     1
  1.2433326385411674E+00 a      1433     2     8     3     1
  3.4107947663927518E-01 a      1434     2     9     3     1
 -1.0765672563171821E-01 a      1435     2    10     3     1
  7.7680818034818452E-02 a      1436     2    11     3     1
 -1.9393816398442248E-01 a      1437     2    12     3     1
 -3.7713720326420386E-01 a      1438     2    13     3     1
  1.3023593792413901E-01 a      1439     2    14     3     1
  1.3102860310490028E-01 a      1440     2    15     3     1
  4.0451232812328564E-01 a      1441     2    16     3     1
 -5.3880333616211451E-01 a      1442     2    17     3     1
 -1.6837683312010110E-01 a      1443     2    18     3     1
 -2.3027269877795470E-01 a      1444     2    19     3     1
 -1.6233065030071483E-01 a      1445     2    20     3     1
 -2.1081554578372921E-01 a      1446     2    21     3     1
  1.1058218176884813E-01 a      1447     2    22     3     1
 -1.7478348284118131E-01 a      1448     2    23     3     1
  1.5730932335298053E-01 a      1449     2    24     3     1
  3.0589822763285718E-01 a      1450     2    25     3     1
 -3.7451256448778905E+00 b      1451     3     1
