################################################################################
# Neural network connection values (weights and biases).
################################################################################
# Col  Name       Description
################################################################################
# 1    connection Neural network connection value.
# 2    t          Connection type (a = weight, b = bias).
# 3    index      Index enumerating weights.
# 4    l_s        Starting point layer (end point layer for biases).
# 5    n_s        Starting point neuron in starting layer (end point neuron for biases).
# 6    l_e        End point layer.
# 7    n_e        End point neuron in end layer.
################################################################################
#                      1 2         3     4     5     6     7
#             connection t     index   l_s   n_s   l_e   n_e
############################################################
  1.1092255724806394E+01 a         1     0     1     1     1
  1.7015752154929523E+01 a         2     0     1     1     2
  6.8972460340292656E+01 a         3     0     1     1     3
 -5.0476050004504449E+00 a         4     0     1     1     4
  7.2425247919383673E-01 a         5     0     1     1     5
 -2.6308433084010630E+00 a         6     0     1     1     6
 -4.1551709530969170E+00 a         7     0     1     1     7
  1.1290839926154575E+01 a         8     0     1     1     8
  3.3292808076775323E+01 a         9     0     1     1     9
 -2.4684231733027605E+01 a        10     0     1     1    10
 -1.2080761980919823E+01 a        11     0     1     1    11
  9.4818645048074330E+00 a        12     0     1     1    12
  1.8857367014853488E+00 a        13     0     1     1    13
  7.1112054446014898E+00 a        14     0     1     1    14
 -1.0882269817847368E+01 a        15     0     1     1    15
 -1.5235120191005565E+01 a        16     0     1     1    16
 -1.2795977638679490E+01 a        17     0     1     1    17
 -2.9731710232103317E+00 a        18     0     1     1    18
  7.0802633891706623E+00 a        19     0     1     1    19
  4.6720971618491189E+00 a        20     0     1     1    20
 -1.5905599699820925E+01 a        21     0     1     1    21
  3.4678353361390104E+00 a        22     0     1     1    22
 -1.1168902287304574E+01 a        23     0     1     1    23
 -1.7879928876985174E+00 a        24     0     1     1    24
  3.8924502525932533E-02 a        25     0     1     1    25
 -2.6210257569307693E+01 a        26     0     2     1     1
 -2.5216372492909742E+00 a        27     0     2     1     2
 -4.0675013469772360E+01 a        28     0     2     1     3
 -5.2990792732186193E+01 a        29     0     2     1     4
 -2.1910991730112080E+01 a        30     0     2     1     5
  7.1400809096782714E-01 a        31     0     2     1     6
  1.8511815180260982E+01 a        32     0     2     1     7
  2.4294075510037980E+00 a        33     0     2     1     8
 -2.3683030718815228E+01 a        34     0     2     1     9
 -2.5508492420754767E+01 a        35     0     2     1    10
  7.8724920354720727E+00 a        36     0     2     1    11
 -4.0516227188690337E+01 a        37     0     2     1    12
 -2.6355123364640065E+01 a        38     0     2     1    13
  4.8825364143743428E+01 a        39     0     2     1    14
 -1.3060249113181143E+01 a        40     0     2     1    15
 -1.3782948654702301E+01 a        41     0     2     1    16
  3.1447740817189125E+01 a        42     0     2     1    17
  1.6035336580237864E+01 a        43     0     2     1    18
  8.3521562129075573E+00 a        44     0     2     1    19
 -2.1621257330412340E+00 a        45     0     2     1    20
 -1.3303457698888822E+01 a        46     0     2     1    21
 -2.5979817778239013E+01 a        47     0     2     1    22
  1.7965736497737463E+01 a        48     0     2     1    23
  3.5222862133590368E+01 a        49     0     2     1    24
 -8.0949195531285190E-01 a        50     0     2     1    25
  5.4431127488302105E+00 a        51     0     3     1     1
  1.4589726432942774E+01 a        52     0     3     1     2
  3.5343659160755308E+01 a        53     0     3     1     3
  3.3963899712874994E+00 a        54     0     3     1     4
  2.5584310213774902E+01 a        55     0     3     1     5
 -9.1475660582500495E+00 a        56     0     3     1     6
  2.0326636620456938E+01 a        57     0     3     1     7
 -1.3050737025503453E+01 a        58     0     3     1     8
  2.0869246879262679E+01 a        59     0     3     1     9
  2.0390410847889438E+01 a        60     0     3     1    10
 -6.1844424266154086E+00 a        61     0     3     1    11
  3.2073531096363887E+01 a        62     0     3     1    12
  1.3003769794446532E+01 a        63     0     3     1    13
 -1.5719977052433141E+01 a        64     0     3     1    14
 -3.4524800263496601E+01 a        65     0     3     1    15
  1.0528861617708079E+01 a        66     0     3     1    16
  8.2535796666208405E+00 a        67     0     3     1    17
  1.7503202085418664E+01 a        68     0     3     1    18
  1.0403185056693172E+00 a        69     0     3     1    19
 -6.4481604317339043E+00 a        70     0     3     1    20
 -3.1856710234615029E+01 a        71     0     3     1    21
  5.5572163603873266E+00 a        72     0     3     1    22
  2.6271066518329810E+01 a        73     0     3     1    23
  8.0857260955250929E+00 a        74     0     3     1    24
 -7.0842834859940829E-01 a        75     0     3     1    25
 -1.5614068011643150E+01 a        76     0     4     1     1
 -4.3608931126967079E+01 a        77     0     4     1     2
 -1.1888376349608104E+02 a        78     0     4     1     3
  9.7686178729392132E+00 a        79     0     4     1     4
 -4.0959501422699987E+00 a        80     0     4     1     5
 -3.9922795818350800E+00 a        81     0     4     1     6
  6.9373872321480112E+00 a        82     0     4     1     7
 -2.5161398920322750E+01 a        83     0     4     1     8
 -6.4932359415088655E+01 a        84     0     4     1     9
  5.2378730367687176E+01 a        85     0     4     1    10
  2.4875765660880738E+01 a        86     0     4     1    11
 -2.1638404587521809E+01 a        87     0     4     1    12
 -4.2402772952864174E+00 a        88     0     4     1    13
 -1.2172317500996956E+00 a        89     0     4     1    14
  1.3508250197522765E+01 a        90     0     4     1    15
  2.8875079421730295E+01 a        91     0     4     1    16
  3.0403244422846651E+01 a        92     0     4     1    17
  4.5567881316469885E+00 a        93     0     4     1    18
 -1.4042225929507426E+01 a        94     0     4     1    19
 -1.1808280467456941E+01 a        95     0     4     1    20
  3.1030700112449228E+01 a        96     0     4     1    21
 -8.6485859800979927E+00 a        97     0     4     1    22
  2.7093996221443945E+01 a        98     0     4     1    23
  1.0399429930261128E+01 a        99     0     4     1    24
 -4.8632445185546702E-01 a       100     0     4     1    25
  2.7369017808562266E+01 a       101     0     5     1     1
  1.6893826072318920E+01 a       102     0     5     1     2
  5.0590958428796228E+01 a       103     0     5     1     3
  1.2428052370945174E+02 a       104     0     5     1     4
  6.1032667901059945E+01 a       105     0     5     1     5
 -1.5827594687860149E+01 a       106     0     5     1     6
 -3.7227429204429363E+01 a       107     0     5     1     7
 -3.3584870278242467E+00 a       108     0     5     1     8
  4.4303467906591194E+01 a       109     0     5     1     9
  5.1891650996648131E+01 a       110     0     5     1    10
 -1.7077253329244812E+01 a       111     0     5     1    11
  8.7783941008304168E+01 a       112     0     5     1    12
  5.6424719205111465E+01 a       113     0     5     1    13
 -1.0002625280235027E+02 a       114     0     5     1    14
  3.2325068815550104E+01 a       115     0     5     1    15
  3.8609905772680740E+01 a       116     0     5     1    16
 -6.3050530598206898E+01 a       117     0     5     1    17
 -3.4138850717037499E+01 a       118     0     5     1    18
 -1.5082940676438582E+01 a       119     0     5     1    19
 -4.3650825749970812E+00 a       120     0     5     1    20
  3.2975811299202540E+01 a       121     0     5     1    21
  6.0475935050087330E+01 a       122     0     5     1    22
 -4.4123246074205582E+01 a       123     0     5     1    23
 -6.6017845741949685E+01 a       124     0     5     1    24
 -4.8970086267551292E+00 a       125     0     5     1    25
 -1.9530915362964265E+01 a       126     0     6     1     1
 -4.0739791490259101E+01 a       127     0     6     1     2
 -8.5436291985806037E+01 a       128     0     6     1     3
  5.3830718002134130E+00 a       129     0     6     1     4
 -6.9382892363678508E+01 a       130     0     6     1     5
  1.9998204228099748E+01 a       131     0     6     1     6
 -5.6097505578329034E+01 a       132     0     6     1     7
  2.5849390277529150E+01 a       133     0     6     1     8
 -5.7974830975079698E+01 a       134     0     6     1     9
 -5.1452538461206863E+01 a       135     0     6     1    10
  2.1315704535771300E+01 a       136     0     6     1    11
 -7.4803242310152896E+01 a       137     0     6     1    12
 -3.5620302092814455E+01 a       138     0     6     1    13
  3.7312797881272679E+01 a       139     0     6     1    14
  6.0997057353034258E+01 a       140     0     6     1    15
 -2.8365088027816856E+01 a       141     0     6     1    16
 -3.2709510653237047E+01 a       142     0     6     1    17
 -2.2962436363003135E+01 a       143     0     6     1    18
  4.9676870363860370E+00 a       144     0     6     1    19
  8.2963223122445964E+00 a       145     0     6     1    20
  5.6253669432246120E+01 a       146     0     6     1    21
 -1.6734892451557414E+01 a       147     0     6     1    22
 -5.5190713516942012E+01 a       148     0     6     1    23
 -5.4775032402720436E+00 a       149     0     6     1    24
  5.2112726168565295E+00 a       150     0     6     1    25
  8.9110447828696469E+00 a       151     0     7     1     1
  4.9599617791218400E+01 a       152     0     7     1     2
  8.7340104616797376E+01 a       153     0     7     1     3
 -3.5686335519959318E+00 a       154     0     7     1     4
  2.9566641955429027E+00 a       155     0     7     1     5
  1.1767889429455925E+01 a       156     0     7     1     6
 -5.2687700442686323E+00 a       157     0     7     1     7
  2.5382798697392140E+01 a       158     0     7     1     8
  5.3347716133661685E+01 a       159     0     7     1     9
 -4.8374650775915228E+01 a       160     0     7     1    10
 -2.3143357605550502E+01 a       161     0     7     1    11
  2.3013665281030338E+01 a       162     0     7     1    12
  2.3502810285694435E+00 a       163     0     7     1    13
 -1.7053584477412624E+01 a       164     0     7     1    14
  2.3491964348720158E+00 a       165     0     7     1    15
 -2.2963225955492273E+01 a       166     0     7     1    16
 -3.3064711860657681E+01 a       167     0     7     1    17
 -3.4391323612192819E+00 a       168     0     7     1    18
  1.2664059599794861E+01 a       169     0     7     1    19
  1.3276852916459379E+01 a       170     0     7     1    20
 -2.9463224703347759E+01 a       171     0     7     1    21
  1.3090719201399194E+01 a       172     0     7     1    22
 -3.2617596743121283E+01 a       173     0     7     1    23
 -2.0650331621176772E+01 a       174     0     7     1    24
 -2.3322719134000516E+00 a       175     0     7     1    25
  2.4750744554837754E+00 a       176     0     8     1     1
 -3.2380865907953094E+01 a       177     0     8     1     2
 -4.1820897367223555E+00 a       178     0     8     1     3
 -1.1152307893767660E+02 a       179     0     8     1     4
 -7.1589444483349979E+01 a       180     0     8     1     5
  3.7791769223120120E+01 a       181     0     8     1     6
  2.1868281600888849E+01 a       182     0     8     1     7
  3.9538058637212763E+00 a       183     0     8     1     8
 -5.6258858244376569E+01 a       184     0     8     1     9
 -4.3809296492944782E+01 a       185     0     8     1    10
  9.3671382350254397E+00 a       186     0     8     1    11
 -7.6268104229928767E+01 a       187     0     8     1    12
 -4.9805675839470986E+01 a       188     0     8     1    13
  8.5535291310766482E+01 a       189     0     8     1    14
 -2.7981447313430973E+01 a       190     0     8     1    15
 -4.4721019723917699E+01 a       191     0     8     1    16
  1.9751409120689512E+01 a       192     0     8     1    17
  2.0521072570883394E+01 a       193     0     8     1    18
 -1.0927438203919222E+00 a       194     0     8     1    19
  2.9437996763259115E+01 a       195     0     8     1    20
 -4.1027013640169642E+01 a       196     0     8     1    21
 -5.8912629041694714E+01 a       197     0     8     1    22
  2.8317910760846761E+01 a       198     0     8     1    23
  6.1019054691280736E+01 a       199     0     8     1    24
  1.8601030763792092E+01 a       200     0     8     1    25
  4.6246044044839238E+01 a       201     0     9     1     1
  8.9810014707905012E+01 a       202     0     9     1     2
  1.0719229772184870E+02 a       203     0     9     1     3
 -3.8360044401406213E+01 a       204     0     9     1     4
  1.2501172565842913E+02 a       205     0     9     1     5
 -2.3059233767574433E+01 a       206     0     9     1     6
  1.0418121616723401E+02 a       207     0     9     1     7
 -3.6060741429173312E+01 a       208     0     9     1     8
  1.0818714995543218E+02 a       209     0     9     1     9
  6.5192618349394451E+01 a       210     0     9     1    10
 -5.0428448578003128E+01 a       211     0     9     1    11
  9.7030473778853107E+01 a       212     0     9     1    12
  6.6971029955199242E+01 a       213     0     9     1    13
 -5.7760987793291918E+01 a       214     0     9     1    14
 -3.5078791278492673E+01 a       215     0     9     1    15
  3.3697952778593645E+01 a       216     0     9     1    16
  8.3430222044496659E+01 a       217     0     9     1    17
 -1.1632081896441251E+00 a       218     0     9     1    18
 -2.3856267931236722E+01 a       219     0     9     1    19
  1.4574686390634476E+01 a       220     0     9     1    20
 -4.4159994446545191E+01 a       221     0     9     1    21
  2.9095416009640424E+01 a       222     0     9     1    22
  5.1239068640057909E+01 a       223     0     9     1    23
  5.2322686433471048E+00 a       224     0     9     1    24
 -1.7497872502415859E+01 a       225     0     9     1    25
 -1.6101266110789656E+01 a       226     0    10     1     1
 -1.9373831433681509E+01 a       227     0    10     1     2
 -7.3294865596529624E+00 a       228     0    10     1     3
 -3.5407451546751263E+00 a       229     0    10     1     4
  5.9615843508225286E+00 a       230     0    10     1     5
 -2.9106105763785894E+00 a       231     0    10     1     6
 -1.0856291631459456E+00 a       232     0    10     1     7
 -9.7926278355356153E+00 a       233     0    10     1     8
 -1.2539958634252969E+01 a       234     0    10     1     9
  1.7724855621060925E+01 a       235     0    10     1    10
  9.6615864026553329E+00 a       236     0    10     1    11
 -1.2156529603459663E+01 a       237     0    10     1    12
  1.1845895693820342E+01 a       238     0    10     1    13
  1.4886499979068283E+01 a       239     0    10     1    14
  5.8267560965208762E+00 a       240     0    10     1    15
  3.4057117725806636E+00 a       241     0    10     1    16
  1.5667279397456584E+01 a       242     0    10     1    17
  7.6286057922007302E+00 a       243     0    10     1    18
 -8.5239316588208229E+00 a       244     0    10     1    19
 -8.0159660685675416E+00 a       245     0    10     1    20
  1.7109168449606585E+01 a       246     0    10     1    21
 -1.6611910262115540E+01 a       247     0    10     1    22
  8.6384839937350364E+00 a       248     0    10     1    23
  1.1991995611168464E+01 a       249     0    10     1    24
  1.1874894623564396E+01 a       250     0    10     1    25
  8.3770146541206536E+00 a       251     0    11     1     1
  5.8174508653536847E+00 a       252     0    11     1     2
 -4.0538628672498966E+01 a       253     0    11     1     3
  4.1293303237620968E+01 a       254     0    11     1     4
  3.7152225453930242E+01 a       255     0    11     1     5
 -2.9988485950289366E+01 a       256     0    11     1     6
 -7.4389703035701178E+00 a       257     0    11     1     7
 -2.0639483372601202E+01 a       258     0    11     1     8
  4.3408938363172332E+01 a       259     0    11     1     9
  3.0535201538265955E+01 a       260     0    11     1    10
  4.5030258542547870E+00 a       261     0    11     1    11
  5.3254190601834033E+01 a       262     0    11     1    12
  3.6174841260489494E+01 a       263     0    11     1    13
 -3.9978584057125097E+01 a       264     0    11     1    14
 -5.2221338858410515E+00 a       265     0    11     1    15
  3.0614140484924341E+01 a       266     0    11     1    16
  5.7080716697497742E+01 a       267     0    11     1    17
  8.1177560945859977E+00 a       268     0    11     1    18
  3.6808116590297999E+01 a       269     0    11     1    19
 -3.6730481643900092E+01 a       270     0    11     1    20
  3.8161034722985768E+01 a       271     0    11     1    21
  3.0443685769178462E+01 a       272     0    11     1    22
  1.7187147192307712E+01 a       273     0    11     1    23
 -2.9210701058139925E+01 a       274     0    11     1    24
 -2.8796349353122515E+01 a       275     0    11     1    25
 -6.5764136824334315E+01 a       276     0    12     1     1
 -1.8653585967229824E+02 a       277     0    12     1     2
 -6.6740048212418699E+01 a       278     0    12     1     3
  6.8168897842491774E+01 a       279     0    12     1     4
 -2.1252764164558585E+02 a       280     0    12     1     5
  2.2039861817935144E+01 a       281     0    12     1     6
 -1.3435980829739387E+02 a       282     0    12     1     7
  4.8642150232875636E+01 a       283     0    12     1     8
 -1.8028011398936655E+02 a       284     0    12     1     9
 -5.4417550096547920E+01 a       285     0    12     1    10
  7.6120432074703899E+01 a       286     0    12     1    11
 -8.0937736847058147E+01 a       287     0    12     1    12
 -8.3423781722318154E+01 a       288     0    12     1    13
  6.5032443299462031E+01 a       289     0    12     1    14
  2.3349118000491935E+00 a       290     0    12     1    15
 -4.7394924614423971E+01 a       291     0    12     1    16
 -1.4559893788026207E+02 a       292     0    12     1    17
  2.0098719907573976E+01 a       293     0    12     1    18
  3.8644579940236831E+01 a       294     0    12     1    19
 -4.9647624043659427E+01 a       295     0    12     1    20
  2.3847593078186804E+01 a       296     0    12     1    21
 -3.1437331128407827E+01 a       297     0    12     1    22
 -2.5320263152741223E+01 a       298     0    12     1    23
  1.9633315610940234E+00 a       299     0    12     1    24
  2.9445736362366599E+01 a       300     0    12     1    25
 -8.6977603834100083E+00 a       301     0    13     1     1
  6.4787143654993278E+00 a       302     0    13     1     2
  2.3779768929124032E+01 a       303     0    13     1     3
 -5.9807149451941601E+00 a       304     0    13     1     4
 -6.6274888197329602E+00 a       305     0    13     1     5
  4.5299423036062683E+00 a       306     0    13     1     6
 -1.0611376827661567E+00 a       307     0    13     1     7
  8.3057784506882602E+00 a       308     0    13     1     8
 -8.6657726789411988E+00 a       309     0    13     1     9
 -9.8373574027917563E+00 a       310     0    13     1    10
  2.6971389679716036E+00 a       311     0    13     1    11
 -1.5877858207865900E+01 a       312     0    13     1    12
 -2.8561660418297388E+00 a       313     0    13     1    13
  5.9018030065096019E+00 a       314     0    13     1    14
  1.2464125386577454E+01 a       315     0    13     1    15
 -7.9292446185700705E+00 a       316     0    13     1    16
 -2.0072428743202433E+01 a       317     0    13     1    17
 -2.6941237618565088E+00 a       318     0    13     1    18
 -1.6065602545666316E+01 a       319     0    13     1    19
  9.2807330344764232E+00 a       320     0    13     1    20
 -9.4115315462859641E+00 a       321     0    13     1    21
 -1.0741495120031688E+01 a       322     0    13     1    22
 -1.2301115583490500E+01 a       323     0    13     1    23
  2.2412682135013045E+00 a       324     0    13     1    24
  8.1888101882393745E+00 a       325     0    13     1    25
  2.4562150487266866E+01 a       326     0    14     1     1
  7.8141912006971921E+01 a       327     0    14     1     2
  1.6598241604288347E+01 a       328     0    14     1     3
 -3.2574128361829331E+01 a       329     0    14     1     4
  8.3537304640340906E+01 a       330     0    14     1     5
 -8.3445530344220789E+00 a       331     0    14     1     6
  4.7999995088921942E+01 a       332     0    14     1     7
 -1.7775369153012189E+01 a       333     0    14     1     8
  7.0356852322573857E+01 a       334     0    14     1     9
  1.0923333722649314E+01 a       335     0    14     1    10
 -2.6737639360823362E+01 a       336     0    14     1    11
  2.1319141069463683E+01 a       337     0    14     1    12
  3.6224030606218271E+01 a       338     0    14     1    13
 -2.0682147810155680E+01 a       339     0    14     1    14
  1.2090133160407758E+01 a       340     0    14     1    15
  1.6464257926114126E+01 a       341     0    14     1    16
  6.2324970866023286E+01 a       342     0    14     1    17
 -8.4284423843045317E+00 a       343     0    14     1    18
 -1.4882108776308028E+01 a       344     0    14     1    19
  2.4598226534979080E+01 a       345     0    14     1    20
 -7.2659591836999027E-01 a       346     0    14     1    21
  1.9964594264483333E+00 a       347     0    14     1    22
 -2.2894404129819274E-01 a       348     0    14     1    23
  3.6210481112902604E-01 a       349     0    14     1    24
 -9.3746874962096882E+00 a       350     0    14     1    25
  1.1307665736087213E+01 a       351     0    15     1     1
 -1.5451763034337114E+01 a       352     0    15     1     2
 -3.6976992748043315E+01 a       353     0    15     1     3
  2.1403293136329351E+00 a       354     0    15     1     4
 -4.2694863877011171E+00 a       355     0    15     1     5
 -1.1289289715972020E+01 a       356     0    15     1     6
  2.2446814708463956E+00 a       357     0    15     1     7
 -5.1284065267797763E+00 a       358     0    15     1     8
 -1.2819531133285128E+01 a       359     0    15     1     9
  1.4006290181913760E+01 a       360     0    15     1    10
  3.1813874180397237E+00 a       361     0    15     1    11
 -2.8781130267281556E+00 a       362     0    15     1    12
 -7.9677217027990741E+00 a       363     0    15     1    13
  1.2556948837126813E+00 a       364     0    15     1    14
 -1.4730849747575755E+01 a       365     0    15     1    15
  9.4125180124857089E+00 a       366     0    15     1    16
  8.0930875015033159E+00 a       367     0    15     1    17
 -3.9375247574729935E+00 a       368     0    15     1    18
  5.2201707119710859E-02 a       369     0    15     1    19
 -1.6030501484078921E-01 a       370     0    15     1    20
  1.1117951301457185E+00 a       371     0    15     1    21
  5.3491692642791477E+00 a       372     0    15     1    22
  1.1693608518505304E+01 a       373     0    15     1    23
  3.0517406467507180E+00 a       374     0    15     1    24
 -1.2168896464317521E+01 a       375     0    15     1    25
  5.0903007044478059E+00 a       376     0    16     1     1
  1.0967611363321250E+01 a       377     0    16     1     2
  1.5783484461156609E+01 a       378     0    16     1     3
  2.2443252588019313E+00 a       379     0    16     1     4
  1.7445781533426576E+00 a       380     0    16     1     5
  6.8527715452844120E+00 a       381     0    16     1     6
  4.2725112970937795E-01 a       382     0    16     1     7
  5.7538905743898159E+00 a       383     0    16     1     8
  6.3454300205028549E+00 a       384     0    16     1     9
 -1.3819600470999738E+01 a       385     0    16     1    10
 -3.2029324823190417E+00 a       386     0    16     1    11
  4.2237109672620612E+00 a       387     0    16     1    12
  3.0326786272671327E+00 a       388     0    16     1    13
 -3.8508984523633703E+00 a       389     0    16     1    14
  8.3007800629321533E+00 a       390     0    16     1    15
 -6.7844308652415695E+00 a       391     0    16     1    16
 -7.2742338061268121E+00 a       392     0    16     1    17
  4.4438378091082464E+00 a       393     0    16     1    18
  2.1531987413480804E+00 a       394     0    16     1    19
  3.0684686418270810E+00 a       395     0    16     1    20
 -2.2991641193118517E-01 a       396     0    16     1    21
 -1.4101633007456571E+00 a       397     0    16     1    22
 -8.3197520529649154E+00 a       398     0    16     1    23
 -2.7544111103126103E+00 a       399     0    16     1    24
  2.4282167993670325E+00 a       400     0    16     1    25
  1.0410118763281284E+01 a       401     0    17     1     1
  6.1089702529949982E+01 a       402     0    17     1     2
 -1.1528856817480417E+01 a       403     0    17     1     3
 -1.4157142568983781E+01 a       404     0    17     1     4
  5.4094061420935141E+01 a       405     0    17     1     5
 -8.5619493659100900E+00 a       406     0    17     1     6
  1.1454901130517545E+01 a       407     0    17     1     7
 -5.6348201331543128E+00 a       408     0    17     1     8
  5.3439995444262642E+01 a       409     0    17     1     9
  7.3533596211969243E+00 a       410     0    17     1    10
 -1.3231475096309287E+01 a       411     0    17     1    11
  7.0533336408338354E-01 a       412     0    17     1    12
  1.0138129229308719E+00 a       413     0    17     1    13
 -2.6387459782131306E+00 a       414     0    17     1    14
  2.0891261951047890E+00 a       415     0    17     1    15
  1.6510217957019631E+01 a       416     0    17     1    16
  3.6320370160129421E+01 a       417     0    17     1    17
 -4.5363806540121425E+00 a       418     0    17     1    18
 -6.1973695109134290E+00 a       419     0    17     1    19
  5.3377948399700736E+00 a       420     0    17     1    20
  1.5336624383316438E-01 a       421     0    17     1    21
  2.1887795878803060E+00 a       422     0    17     1    22
  3.7214349760921466E+00 a       423     0    17     1    23
 -3.2872885379579193E+00 a       424     0    17     1    24
 -8.1485280390938062E+00 a       425     0    17     1    25
 -6.3123444075781272E+00 a       426     0    18     1     1
  2.2612362998087985E+00 a       427     0    18     1     2
  2.6700938383845934E+00 a       428     0    18     1     3
  2.0904665427118188E+00 a       429     0    18     1     4
  8.2969006419512237E-01 a       430     0    18     1     5
 -3.3907087556455417E+00 a       431     0    18     1     6
  6.2375634067372476E-01 a       432     0    18     1     7
  5.7364361588422499E+00 a       433     0    18     1     8
 -1.3968779026886806E+00 a       434     0    18     1     9
 -5.3842040786523961E+00 a       435     0    18     1    10
 -1.2346649090533463E+01 a       436     0    18     1    11
 -4.9226726209588243E+00 a       437     0    18     1    12
 -5.0759826240349586E+00 a       438     0    18     1    13
  4.6814462203062601E-01 a       439     0    18     1    14
  1.0936922086009485E+01 a       440     0    18     1    15
  1.7456929073321046E+00 a       441     0    18     1    16
 -8.0331333220955230E+00 a       442     0    18     1    17
 -5.4898228860202272E+00 a       443     0    18     1    18
 -1.1308233924731169E+01 a       444     0    18     1    19
  6.5062619749373063E-01 a       445     0    18     1    20
 -5.1905585445530829E+00 a       446     0    18     1    21
  5.3130761617275779E-01 a       447     0    18     1    22
 -6.9696887352531727E+00 a       448     0    18     1    23
  3.0113178930916468E-01 a       449     0    18     1    24
  3.3038457812008000E+00 a       450     0    18     1    25
  1.0419424958220496E+00 a       451     0    19     1     1
 -1.5560257904817249E+01 a       452     0    19     1     2
  5.9225856254719540E+00 a       453     0    19     1     3
 -1.2722882743220711E+00 a       454     0    19     1     4
 -1.0549591531468529E+01 a       455     0    19     1     5
  6.2624044102390917E+00 a       456     0    19     1     6
  1.8099947133517167E+00 a       457     0    19     1     7
 -1.7210473681082237E+00 a       458     0    19     1     8
 -1.4850795617655209E+01 a       459     0    19     1     9
 -1.9089021799654637E+00 a       460     0    19     1    10
  6.7938815108736339E-01 a       461     0    19     1    11
  2.5781245997460518E+00 a       462     0    19     1    12
  9.8963984839155064E+00 a       463     0    19     1    13
 -5.3956345738163209E+00 a       464     0    19     1    14
  5.7325513072752221E+00 a       465     0    19     1    15
 -3.4925736907175282E+00 a       466     0    19     1    16
 -6.4301644072369903E+00 a       467     0    19     1    17
 -3.9521209532057033E-01 a       468     0    19     1    18
  4.8744083277076822E-01 a       469     0    19     1    19
  3.8913493349613373E+00 a       470     0    19     1    20
  1.6228605928558388E+00 a       471     0    19     1    21
 -2.2950908356493440E+00 a       472     0    19     1    22
 -1.6626856856543959E+00 a       473     0    19     1    23
  4.0952639990942952E-02 a       474     0    19     1    24
  7.1449028787520019E-01 a       475     0    19     1    25
  1.4045716477038230E+00 a       476     0    20     1     1
 -3.4269493904791686E+00 a       477     0    20     1     2
  4.9217819716388931E+00 a       478     0    20     1     3
 -4.9824385706271848E+00 a       479     0    20     1     4
 -7.8734476395685304E-01 a       480     0    20     1     5
  5.0996359172457808E+00 a       481     0    20     1     6
  6.6950592257063860E-02 a       482     0    20     1     7
  1.1066636872084268E+00 a       483     0    20     1     8
  4.0436126133606942E+00 a       484     0    20     1     9
 -2.3164823797062843E+00 a       485     0    20     1    10
  8.9480691290868215E+00 a       486     0    20     1    11
 -4.3285463388528820E+00 a       487     0    20     1    12
 -8.8049115245668186E-01 a       488     0    20     1    13
  1.2887757226058507E+00 a       489     0    20     1    14
 -1.7701729710302039E+00 a       490     0    20     1    15
 -2.7746234960628269E+00 a       491     0    20     1    16
 -2.6834121029770461E+00 a       492     0    20     1    17
  1.7153849439045230E+00 a       493     0    20     1    18
  8.6424652918724476E-01 a       494     0    20     1    19
  1.7147883875692556E+00 a       495     0    20     1    20
 -3.3648537218986668E-02 a       496     0    20     1    21
 -4.0067358314518584E+00 a       497     0    20     1    22
 -1.7991233834699236E+00 a       498     0    20     1    23
 -3.1277569766257192E+00 a       499     0    20     1    24
 -1.3525108840130078E+00 a       500     0    20     1    25
 -3.4325597185006981E-02 a       501     0    21     1     1
 -2.4419097117257031E+00 a       502     0    21     1     2
 -1.6734916145867296E+00 a       503     0    21     1     3
  4.3907536368690303E-01 a       504     0    21     1     4
  8.7247477288544895E-01 a       505     0    21     1     5
 -1.0496398497184805E+00 a       506     0    21     1     6
  3.7515084049940178E-01 a       507     0    21     1     7
 -4.7588257275726759E-01 a       508     0    21     1     8
 -1.0791127909412408E+00 a       509     0    21     1     9
  1.6145634764054169E+00 a       510     0    21     1    10
  9.6153315221050939E-01 a       511     0    21     1    11
 -5.4007777754266406E-01 a       512     0    21     1    12
 -7.7402979585491716E-01 a       513     0    21     1    13
  1.0894823567408367E+00 a       514     0    21     1    14
 -1.9102430058399362E+00 a       515     0    21     1    15
  7.0299563926033914E-01 a       516     0    21     1    16
  9.3741834229300980E-01 a       517     0    21     1    17
 -4.4964190119151576E-01 a       518     0    21     1    18
 -4.7519922631997619E-01 a       519     0    21     1    19
 -1.3057893075004248E-01 a       520     0    21     1    20
  3.0011956362930031E-01 a       521     0    21     1    21
 -3.5655719467378710E-01 a       522     0    21     1    22
  1.5700021252058629E+00 a       523     0    21     1    23
  1.5407880711722737E+00 a       524     0    21     1    24
 -1.5650742697695844E-01 a       525     0    21     1    25
  4.0920527023896930E-01 a       526     0    22     1     1
  6.0297891045333951E-01 a       527     0    22     1     2
  5.0370803506788873E-02 a       528     0    22     1     3
 -4.3918000591330802E-01 a       529     0    22     1     4
 -4.4924675218373866E-01 a       530     0    22     1     5
  3.6363869314480446E-01 a       531     0    22     1     6
 -9.6998715993826659E-02 a       532     0    22     1     7
 -1.5152149069928414E-01 a       533     0    22     1     8
  2.5276106516380159E-01 a       534     0    22     1     9
 -3.1472438495010180E-01 a       535     0    22     1    10
 -3.0374958478776737E-01 a       536     0    22     1    11
  5.7310175517332515E-02 a       537     0    22     1    12
  1.6182475997399853E-01 a       538     0    22     1    13
 -6.4097983729420493E-02 a       539     0    22     1    14
  3.8531040668640892E-01 a       540     0    22     1    15
 -2.0055290465880488E-01 a       541     0    22     1    16
 -2.8895779084898415E-02 a       542     0    22     1    17
  7.1542756726238249E-02 a       543     0    22     1    18
  2.8131663164834120E-01 a       544     0    22     1    19
  9.1479998579592145E-02 a       545     0    22     1    20
 -5.7176440866808044E-02 a       546     0    22     1    21
  2.1324313723683255E-01 a       547     0    22     1    22
 -3.1990602679783742E-01 a       548     0    22     1    23
 -2.1294298591897531E-01 a       549     0    22     1    24
 -3.1706854234608624E-02 a       550     0    22     1    25
 -1.9118929408063141E+00 a       551     0    23     1     1
  2.3068964765606546E+00 a       552     0    23     1     2
 -2.7158466386634124E+00 a       553     0    23     1     3
  1.0211106998311399E+00 a       554     0    23     1     4
  3.4434882905863735E+00 a       555     0    23     1     5
 -1.0830145523392170E+00 a       556     0    23     1     6
 -1.4569872517597648E+00 a       557     0    23     1     7
  1.0521628490670212E+00 a       558     0    23     1     8
  2.6877135602737257E+00 a       559     0    23     1     9
  2.3776875528321946E+00 a       560     0    23     1    10
  9.1660291964879770E-01 a       561     0    23     1    11
 -9.3055861878634150E-01 a       562     0    23     1    12
 -2.2872726359285873E+00 a       563     0    23     1    13
  3.6407306051331817E-01 a       564     0    23     1    14
 -2.7802491605672901E+00 a       565     0    23     1    15
  2.6069150990606036E+00 a       566     0    23     1    16
  7.0479195954977447E-01 a       567     0    23     1    17
 -1.7200745741723524E+00 a       568     0    23     1    18
  3.8613188556959083E-01 a       569     0    23     1    19
 -1.5471215524150328E+00 a       570     0    23     1    20
  6.6187716016297871E-01 a       571     0    23     1    21
  5.1599014634670060E-01 a       572     0    23     1    22
  1.4523228785505331E+00 a       573     0    23     1    23
 -1.8859894070251495E+00 a       574     0    23     1    24
 -4.5051230342847881E-01 a       575     0    23     1    25
  3.3017597178467356E-01 a       576     0    24     1     1
  2.1051337043656599E-03 a       577     0    24     1     2
 -1.0852495246827745E+00 a       578     0    24     1     3
  2.3539802123928563E-01 a       579     0    24     1     4
 -2.4723282575338920E-01 a       580     0    24     1     5
  3.4557343267666812E-01 a       581     0    24     1     6
  5.1094918611313522E-01 a       582     0    24     1     7
 -1.2160860828387311E-02 a       583     0    24     1     8
 -2.0122129270741784E-01 a       584     0    24     1     9
  1.4736195828680704E-01 a       585     0    24     1    10
  1.6875603386673968E-01 a       586     0    24     1    11
 -7.1020033501432356E-01 a       587     0    24     1    12
 -5.5811133505398824E-01 a       588     0    24     1    13
  1.9346689060029529E-01 a       589     0    24     1    14
 -4.9709722313111715E-01 a       590     0    24     1    15
  5.5571578769753258E-02 a       591     0    24     1    16
  9.0019237756561654E-01 a       592     0    24     1    17
  3.5790420230349151E-01 a       593     0    24     1    18
  3.7393361652660556E-01 a       594     0    24     1    19
 -3.4594524350792982E-01 a       595     0    24     1    20
 -7.0024411071047579E-02 a       596     0    24     1    21
 -2.1802684020893179E-01 a       597     0    24     1    22
  1.0751777314086040E+00 a       598     0    24     1    23
 -5.2988337906656482E-02 a       599     0    24     1    24
  8.9130661805979075E-02 a       600     0    24     1    25
  1.1641148656276601E+00 a       601     0    25     1     1
 -1.6607338692885483E+00 a       602     0    25     1     2
  2.7433624082424402E+00 a       603     0    25     1     3
 -6.8216093838118141E-01 a       604     0    25     1     4
 -2.1243327645726673E+00 a       605     0    25     1     5
  6.0186912121231262E-01 a       606     0    25     1     6
  8.4132424775231684E-01 a       607     0    25     1     7
 -6.4880477201990383E-01 a       608     0    25     1     8
 -1.1624244531494012E+00 a       609     0    25     1     9
 -1.0561583540723869E+00 a       610     0    25     1    10
 -4.7366441944497362E-01 a       611     0    25     1    11
  3.9126838304761691E-01 a       612     0    25     1    12
  1.2603534051377827E+00 a       613     0    25     1    13
  4.9195189735575162E-03 a       614     0    25     1    14
  1.3531086949917113E+00 a       615     0    25     1    15
 -1.5632537826839843E+00 a       616     0    25     1    16
 -6.1562605202260412E-01 a       617     0    25     1    17
  1.0375093126864090E+00 a       618     0    25     1    18
 -3.0677659404802055E-01 a       619     0    25     1    19
  7.7006153805384703E-01 a       620     0    25     1    20
 -6.0365434207884405E-01 a       621     0    25     1    21
 -3.1956382197943317E-01 a       622     0    25     1    22
 -8.6473865871530731E-01 a       623     0    25     1    23
  9.7492626394313830E-01 a       624     0    25     1    24
  3.3723549395806612E-01 a       625     0    25     1    25
 -9.2608242504886129E-01 a       626     0    26     1     1
 -7.6942047885816392E-02 a       627     0    26     1     2
  1.0193576939380717E+00 a       628     0    26     1     3
 -2.3431416736679106E-01 a       629     0    26     1     4
  2.4571267054031601E-01 a       630     0    26     1     5
 -3.9509148324098259E-01 a       631     0    26     1     6
 -2.9598848805284733E-01 a       632     0    26     1     7
  2.6996901085183361E-02 a       633     0    26     1     8
  3.8497218830525937E-01 a       634     0    26     1     9
 -2.0707415872739145E-02 a       635     0    26     1    10
 -6.5287884897712492E-02 a       636     0    26     1    11
  5.3496418240786625E-01 a       637     0    26     1    12
  2.2321952553948166E-01 a       638     0    26     1    13
 -8.2370056842354600E-02 a       639     0    26     1    14
  4.8077779607702631E-01 a       640     0    26     1    15
  1.8709873818912734E-01 a       641     0    26     1    16
 -6.5420038805863068E-01 a       642     0    26     1    17
 -3.3072240519281859E-01 a       643     0    26     1    18
 -3.1502324168842422E-01 a       644     0    26     1    19
  7.1205854787905976E-02 a       645     0    26     1    20
  2.3095298803365385E-02 a       646     0    26     1    21
  1.8856964544334215E-01 a       647     0    26     1    22
 -6.5537644570169296E-01 a       648     0    26     1    23
 -2.6412339562333166E-02 a       649     0    26     1    24
 -3.8972843810922891E-02 a       650     0    26     1    25
 -5.1421193812639494E+00 a       651     0    27     1     1
 -2.8209621133176288E+00 a       652     0    27     1     2
 -4.1404078346320068E+00 a       653     0    27     1     3
 -4.7407769954346310E+00 a       654     0    27     1     4
 -1.9662674237750244E+00 a       655     0    27     1     5
  1.4601782607204441E+00 a       656     0    27     1     6
  1.3109526868744259E+00 a       657     0    27     1     7
 -4.6209185576264677E-01 a       658     0    27     1     8
 -3.9662631144511376E+00 a       659     0    27     1     9
  3.4915121724285783E+00 a       660     0    27     1    10
 -2.5103174047656012E+00 a       661     0    27     1    11
 -1.1789338616273339E+00 a       662     0    27     1    12
 -1.5823757444320659E+00 a       663     0    27     1    13
 -2.5302439471895934E+00 a       664     0    27     1    14
 -3.5143107205804855E+00 a       665     0    27     1    15
  3.8010792216389309E+00 a       666     0    27     1    16
 -1.5333923607547488E+00 a       667     0    27     1    17
  3.4934659903896206E+00 a       668     0    27     1    18
 -2.8325366777173770E+00 a       669     0    27     1    19
 -2.5907521823556969E+00 a       670     0    27     1    20
 -2.3521707813082475E+00 a       671     0    27     1    21
 -8.9821782229093283E-01 a       672     0    27     1    22
  2.2501536149877288E+00 a       673     0    27     1    23
  6.8123083219030045E-01 a       674     0    27     1    24
  1.6373852812252090E+00 a       675     0    27     1    25
 -1.4312809806656484E+00 a       676     0    28     1     1
 -4.2676439762835899E-01 a       677     0    28     1     2
  2.0374146548951293E+00 a       678     0    28     1     3
 -3.2745051779072937E-01 a       679     0    28     1     4
 -5.4547315872999713E-01 a       680     0    28     1     5
 -2.2838537730424141E-01 a       681     0    28     1     6
  1.2270517511391879E+00 a       682     0    28     1     7
 -1.6253982748455851E+00 a       683     0    28     1     8
 -2.0227419605099932E+00 a       684     0    28     1     9
 -4.6469509245277950E-03 a       685     0    28     1    10
  1.4786669713441218E+00 a       686     0    28     1    11
 -1.9430107495647033E+00 a       687     0    28     1    12
 -1.5839727125346474E+00 a       688     0    28     1    13
  1.1396344702524894E+00 a       689     0    28     1    14
 -1.7238542660113563E+00 a       690     0    28     1    15
 -1.4830413095692110E+00 a       691     0    28     1    16
 -1.4582947543046518E+00 a       692     0    28     1    17
 -1.3502030222338759E+00 a       693     0    28     1    18
  3.8670017771786058E-01 a       694     0    28     1    19
  1.2788312141666054E+00 a       695     0    28     1    20
  2.6999531630486712E-01 a       696     0    28     1    21
  2.0187549245986619E-01 a       697     0    28     1    22
  1.4700997543080783E+00 a       698     0    28     1    23
  1.3736480142283185E+00 a       699     0    28     1    24
  1.4737158701857556E-01 a       700     0    28     1    25
 -2.6677954836949778E+00 a       701     0    29     1     1
  2.9606382033643505E-02 a       702     0    29     1     2
  1.3986978277280449E+00 a       703     0    29     1     3
 -2.0999589870500794E+00 a       704     0    29     1     4
  2.9278334427710029E-01 a       705     0    29     1     5
 -3.8653210570777058E-01 a       706     0    29     1     6
 -3.7721965006944705E-02 a       707     0    29     1     7
 -6.0612953136282488E-01 a       708     0    29     1     8
 -1.7390400929391518E+00 a       709     0    29     1     9
 -9.4501481239977270E-01 a       710     0    29     1    10
  7.4276299098257559E-01 a       711     0    29     1    11
 -1.8956835550734981E+00 a       712     0    29     1    12
 -2.2660156220495780E+00 a       713     0    29     1    13
  1.0623717523128391E+00 a       714     0    29     1    14
 -1.4147946345487583E+00 a       715     0    29     1    15
 -1.1297552414664338E+00 a       716     0    29     1    16
 -9.2813229414203691E-01 a       717     0    29     1    17
 -2.2896089517632556E+00 a       718     0    29     1    18
  7.4052826443699316E-01 a       719     0    29     1    19
  6.4647886903595209E-01 a       720     0    29     1    20
  2.0464810611114070E+00 a       721     0    29     1    21
  1.2345230729766608E+00 a       722     0    29     1    22
  1.0888531198288204E-01 a       723     0    29     1    23
  1.3722328179602874E+00 a       724     0    29     1    24
  9.6626651556087040E-01 a       725     0    29     1    25
 -5.2482206092516204E-01 a       726     0    30     1     1
  6.9121032038640184E-01 a       727     0    30     1     2
  4.7606477076541504E-01 a       728     0    30     1     3
  5.5515814539436914E-01 a       729     0    30     1     4
 -2.7044750745105095E-01 a       730     0    30     1     5
  5.6105118059936743E-01 a       731     0    30     1     6
  7.1817746024162932E-01 a       732     0    30     1     7
 -3.8242347805080866E-02 a       733     0    30     1     8
  8.7712157218392497E-02 a       734     0    30     1     9
 -2.4353741780023386E-01 a       735     0    30     1    10
  2.8616969704572887E-01 a       736     0    30     1    11
  8.5545687702935858E-01 a       737     0    30     1    12
 -8.4854153802561574E-02 a       738     0    30     1    13
 -5.6714986178852689E-01 a       739     0    30     1    14
  7.2783524550038314E-01 a       740     0    30     1    15
 -2.9985233799403200E-02 a       741     0    30     1    16
  3.4584097311166123E-01 a       742     0    30     1    17
 -7.7845368730775333E-01 a       743     0    30     1    18
 -1.6747999142357725E-01 a       744     0    30     1    19
  3.5884490456780449E-01 a       745     0    30     1    20
 -4.4218304201334019E-01 a       746     0    30     1    21
  5.2110345836501759E-01 a       747     0    30     1    22
  2.3815995777853299E-01 a       748     0    30     1    23
 -1.4982747083973297E-01 a       749     0    30     1    24
  4.0168976905090553E-01 a       750     0    30     1    25
 -6.6742023582943688E-01 a       751     0    31     1     1
 -4.9726446714917903E-02 a       752     0    31     1     2
  7.9629162879478088E-01 a       753     0    31     1     3
 -6.6196291964872700E-01 a       754     0    31     1     4
  2.1076160057357146E-01 a       755     0    31     1     5
  6.5067946696910361E-01 a       756     0    31     1     6
 -4.3351590742640145E-01 a       757     0    31     1     7
 -4.8984523613284786E-02 a       758     0    31     1     8
  4.5897580407971650E-01 a       759     0    31     1     9
  1.9384516301621016E-01 a       760     0    31     1    10
 -6.6690902108542297E-02 a       761     0    31     1    11
 -3.1179305707897897E-02 a       762     0    31     1    12
 -7.2843730097941195E-01 a       763     0    31     1    13
 -2.8800629397967553E-01 a       764     0    31     1    14
 -1.3934893151612304E-01 a       765     0    31     1    15
  9.4562281948923757E-02 a       766     0    31     1    16
 -5.4019257217389638E-01 a       767     0    31     1    17
  9.1639318270657480E-02 a       768     0    31     1    18
  1.0517878379049415E-01 a       769     0    31     1    19
 -5.4259142078226963E-01 a       770     0    31     1    20
  3.8420111878873037E-01 a       771     0    31     1    21
 -3.5658732714491798E-01 a       772     0    31     1    22
  1.2665464297058079E-02 a       773     0    31     1    23
  6.1017440596592820E-01 a       774     0    31     1    24
  5.0139132967662825E-01 a       775     0    31     1    25
 -5.7406751377658818E+00 a       776     0    32     1     1
 -4.3030654094023681E+00 a       777     0    32     1     2
  2.7418500962789283E+00 a       778     0    32     1     3
  4.3320681979632427E+00 a       779     0    32     1     4
  6.3550220081010060E+00 a       780     0    32     1     5
 -2.8658691393809961E+00 a       781     0    32     1     6
  6.2190662632477384E-03 a       782     0    32     1     7
  1.9251375920238005E+00 a       783     0    32     1     8
  2.6906027503426194E-01 a       784     0    32     1     9
  1.2988674356421204E+00 a       785     0    32     1    10
 -4.5288036131345377E+00 a       786     0    32     1    11
  3.9045689432370327E+00 a       787     0    32     1    12
  9.6230116087791406E-01 a       788     0    32     1    13
  3.8371585506327763E+00 a       789     0    32     1    14
  1.1883540646720663E+00 a       790     0    32     1    15
 -9.2547385318550368E-01 a       791     0    32     1    16
 -5.2082462087952690E+00 a       792     0    32     1    17
 -3.5581903133445447E+00 a       793     0    32     1    18
 -7.8738384206116416E+00 a       794     0    32     1    19
  1.0823830658243030E+00 a       795     0    32     1    20
 -3.5681412057191914E-01 a       796     0    32     1    21
  3.3544690421877128E+00 a       797     0    32     1    22
 -3.1508155654594736E+00 a       798     0    32     1    23
  1.6301645919369747E+00 a       799     0    32     1    24
  2.3552643872373187E+00 a       800     0    32     1    25
 -2.8071207196810377E-01 a       801     0    33     1     1
  7.5818899366619430E+00 a       802     0    33     1     2
 -2.2613898892743349E+00 a       803     0    33     1     3
  7.2968196607519058E+00 a       804     0    33     1     4
  3.5950080564368353E-01 a       805     0    33     1     5
 -1.9414846235106422E+00 a       806     0    33     1     6
  1.0172675551453676E+00 a       807     0    33     1     7
 -4.4646012772332745E-02 a       808     0    33     1     8
 -2.7851657578211833E+00 a       809     0    33     1     9
  1.0412469823811434E+00 a       810     0    33     1    10
  2.1218814963080357E+00 a       811     0    33     1    11
  2.6395503727545919E+00 a       812     0    33     1    12
  6.0775004507542300E-02 a       813     0    33     1    13
 -1.4605541573459551E+00 a       814     0    33     1    14
 -5.3331190557017694E-01 a       815     0    33     1    15
 -1.8686001925428697E-01 a       816     0    33     1    16
 -2.2122993572224883E+00 a       817     0    33     1    17
 -1.4542005244505665E+00 a       818     0    33     1    18
 -8.7134751557057244E-01 a       819     0    33     1    19
  1.3745844858549816E+00 a       820     0    33     1    20
  2.4023499469490073E+00 a       821     0    33     1    21
  3.8317376219511781E+00 a       822     0    33     1    22
  2.0745425402784803E-01 a       823     0    33     1    23
  1.2302180386265076E+00 a       824     0    33     1    24
  8.1952903770557928E-01 a       825     0    33     1    25
 -7.9549338240177481E-01 a       826     0    34     1     1
  6.8334051454535478E+00 a       827     0    34     1     2
 -1.7225942794504037E+00 a       828     0    34     1     3
  7.1338272239482565E+00 a       829     0    34     1     4
  1.5694117678479000E+00 a       830     0    34     1     5
 -2.3103609930846036E+00 a       831     0    34     1     6
  6.8178195976737410E-01 a       832     0    34     1     7
 -3.8160789930556321E-01 a       833     0    34     1     8
 -1.9645689869088681E+00 a       834     0    34     1     9
  1.5684738439236749E+00 a       835     0    34     1    10
  1.5261795915311049E+00 a       836     0    34     1    11
  3.2563890202561572E+00 a       837     0    34     1    12
 -1.0631682246068133E+00 a       838     0    34     1    13
 -9.4375345390717680E-01 a       839     0    34     1    14
 -8.8340861121479097E-01 a       840     0    34     1    15
  1.0477635726902488E+00 a       841     0    34     1    16
 -1.9315922731365667E+00 a       842     0    34     1    17
 -1.5651309943560567E+00 a       843     0    34     1    18
 -6.4451818566007879E-01 a       844     0    34     1    19
  1.4508420660036099E+00 a       845     0    34     1    20
  3.0901682002462896E+00 a       846     0    34     1    21
  3.0985220660055548E+00 a       847     0    34     1    22
  7.9434347629236279E-01 a       848     0    34     1    23
  1.8952769566759878E-01 a       849     0    34     1    24
  1.6110905683411578E+00 a       850     0    34     1    25
 -5.1886963975115874E-01 a       851     0    35     1     1
  1.1581354886256434E+00 a       852     0    35     1     2
 -1.0915327671591413E+01 a       853     0    35     1     3
  7.1620194479909944E+00 a       854     0    35     1     4
 -4.3927120085788021E+00 a       855     0    35     1     5
 -7.4236584239850897E-02 a       856     0    35     1     6
  4.6626935465473638E+00 a       857     0    35     1     7
  1.5142055117654669E+00 a       858     0    35     1     8
 -7.6581979760073668E+00 a       859     0    35     1     9
  2.0728996676645184E+00 a       860     0    35     1    10
  1.4148078915564650E+00 a       861     0    35     1    11
  5.3266751959645617E+00 a       862     0    35     1    12
 -1.8640701910304931E+00 a       863     0    35     1    13
  2.2162648703180197E+00 a       864     0    35     1    14
 -1.5490017120997628E+01 a       865     0    35     1    15
  5.7062349642235493E+00 a       866     0    35     1    16
  9.8947217056110333E+00 a       867     0    35     1    17
  4.7278350231635269E+00 a       868     0    35     1    18
  1.0916728595621310E+00 a       869     0    35     1    19
 -2.5197269447639770E-01 a       870     0    35     1    20
 -4.0117718443757795E+00 a       871     0    35     1    21
  8.2507079396480520E+00 a       872     0    35     1    22
 -5.3179914567436590E+00 a       873     0    35     1    23
 -5.0587016618675396E+00 a       874     0    35     1    24
  2.7010200020934678E+00 a       875     0    35     1    25
  4.1287621023538196E-01 a       876     0    36     1     1
  1.8858549808884442E+00 a       877     0    36     1     2
 -4.8904211544525742E+00 a       878     0    36     1     3
  1.5256392918709514E+00 a       879     0    36     1     4
  3.4366973629191527E-01 a       880     0    36     1     5
  6.5769584897287292E-01 a       881     0    36     1     6
 -6.8101573698742768E-01 a       882     0    36     1     7
  1.6077011244837480E+00 a       883     0    36     1     8
 -7.1728087554436840E-02 a       884     0    36     1     9
  1.1326639029640662E+00 a       885     0    36     1    10
 -1.5317870925697079E+00 a       886     0    36     1    11
  1.5393755814222994E+00 a       887     0    36     1    12
 -5.5251973542536570E-01 a       888     0    36     1    13
  2.6676942731518762E+00 a       889     0    36     1    14
  2.1189603418933500E+00 a       890     0    36     1    15
  3.4291458746797987E-01 a       891     0    36     1    16
 -5.2688676648785882E-01 a       892     0    36     1    17
  7.5934806104345909E-01 a       893     0    36     1    18
  6.2491296262755958E-01 a       894     0    36     1    19
  1.1574668989773165E+00 a       895     0    36     1    20
  1.8867243025211393E+00 a       896     0    36     1    21
  1.4307404717340289E-01 a       897     0    36     1    22
  1.2126716006642926E+00 a       898     0    36     1    23
 -1.3888273643689493E+00 a       899     0    36     1    24
  2.0994000423402112E-01 a       900     0    36     1    25
  1.7307207062634593E+00 a       901     0    37     1     1
  2.9398185446933112E-01 a       902     0    37     1     2
 -2.5984567833242700E+00 a       903     0    37     1     3
 -2.5101242905481574E-01 a       904     0    37     1     4
  4.2503630313033430E-01 a       905     0    37     1     5
 -4.4160547844676198E-02 a       906     0    37     1     6
  2.8726108395150241E-01 a       907     0    37     1     7
 -1.9733492656124486E-02 a       908     0    37     1     8
 -5.6015814008532194E-01 a       909     0    37     1     9
 -1.1204770435523848E+00 a       910     0    37     1    10
  3.1390969583403461E-01 a       911     0    37     1    11
  6.7256186812841234E-02 a       912     0    37     1    12
 -2.8974014442145607E-01 a       913     0    37     1    13
 -2.1491348162128351E-01 a       914     0    37     1    14
  5.4041328722990034E-01 a       915     0    37     1    15
  6.2663279771180780E-01 a       916     0    37     1    16
  7.5469736588926817E-01 a       917     0    37     1    17
  1.7411736845773049E+00 a       918     0    37     1    18
  9.2163558740497353E-01 a       919     0    37     1    19
 -7.6748615812199639E-01 a       920     0    37     1    20
 -3.7016372875242931E-01 a       921     0    37     1    21
  8.6496499981113750E-01 a       922     0    37     1    22
  4.0574199332934457E-01 a       923     0    37     1    23
 -6.3287326627336482E-01 a       924     0    37     1    24
  2.1174699133011352E-01 a       925     0    37     1    25
  1.5921242286577295E+00 a       926     0    38     1     1
 -4.2153070164809114E-01 a       927     0    38     1     2
 -3.2352566745520872E+00 a       928     0    38     1     3
  3.1420820624871981E-01 a       929     0    38     1     4
 -8.8348630181250021E-01 a       930     0    38     1     5
  8.5927397601457400E-02 a       931     0    38     1     6
  1.1775318922543988E-01 a       932     0    38     1     7
  4.3530869994241279E-02 a       933     0    38     1     8
  6.4593392748467995E-02 a       934     0    38     1     9
 -1.1562095831663365E-01 a       935     0    38     1    10
  4.6815741633463687E-01 a       936     0    38     1    11
  8.4039440880268590E-01 a       937     0    38     1    12
  4.0225018025870440E-01 a       938     0    38     1    13
 -2.2720373667260965E-01 a       939     0    38     1    14
  3.8912676390849710E-01 a       940     0    38     1    15
  1.6859050520216892E-01 a       941     0    38     1    16
 -2.5306927557393166E-02 a       942     0    38     1    17
  1.6021865521916989E+00 a       943     0    38     1    18
 -6.9488057718253360E-01 a       944     0    38     1    19
 -2.0436754096557569E-01 a       945     0    38     1    20
 -5.8574674811422023E-01 a       946     0    38     1    21
  4.0513483198494588E-01 a       947     0    38     1    22
  2.1616796426767972E-02 a       948     0    38     1    23
  3.1307759036594829E-01 a       949     0    38     1    24
 -5.1888662264322483E-01 a       950     0    38     1    25
  1.2075527475876162E+00 a       951     0    39     1     1
 -2.7435506546929367E-01 a       952     0    39     1     2
 -4.0544678451058858E-01 a       953     0    39     1     3
 -2.8725415367290402E-01 a       954     0    39     1     4
 -6.2525576057685817E-01 a       955     0    39     1     5
 -1.1119242105637786E-01 a       956     0    39     1     6
 -2.2394036772880624E-01 a       957     0    39     1     7
 -1.0591026378678739E-01 a       958     0    39     1     8
  2.7310092374529465E-01 a       959     0    39     1     9
 -6.9971725444530355E-02 a       960     0    39     1    10
 -5.8014682321817157E-01 a       961     0    39     1    11
 -3.3805011479588465E-01 a       962     0    39     1    12
  6.7202677772352937E-01 a       963     0    39     1    13
  2.8819778316226624E-01 a       964     0    39     1    14
 -1.1293566470265755E+00 a       965     0    39     1    15
 -2.1777788822150865E-01 a       966     0    39     1    16
  4.6284201333701730E-01 a       967     0    39     1    17
  7.3239323194012121E-02 a       968     0    39     1    18
  4.1557680671512048E-01 a       969     0    39     1    19
  1.3886175416217678E-01 a       970     0    39     1    20
 -3.1530432499767319E-01 a       971     0    39     1    21
  2.4048936479024885E-01 a       972     0    39     1    22
  5.6710590202992806E-01 a       973     0    39     1    23
 -7.9581198363030778E-02 a       974     0    39     1    24
  3.9137118007379651E-01 a       975     0    39     1    25
 -3.4996230830622316E-01 a       976     0    40     1     1
  8.4624572236762730E-01 a       977     0    40     1     2
 -6.1887951117107609E-01 a       978     0    40     1     3
 -2.2024183524526159E-01 a       979     0    40     1     4
  7.5129132146069577E-01 a       980     0    40     1     5
  4.1405819841055923E-02 a       981     0    40     1     6
  2.4950210300326003E-01 a       982     0    40     1     7
 -1.9399029544229290E-01 a       983     0    40     1     8
 -4.8711636293016464E-01 a       984     0    40     1     9
 -3.7380086484457842E-01 a       985     0    40     1    10
  4.5304180929228072E-01 a       986     0    40     1    11
 -3.8102106304544320E-01 a       987     0    40     1    12
 -6.2722346702709242E-01 a       988     0    40     1    13
  6.2935022238001098E-02 a       989     0    40     1    14
  7.4679206993931457E-01 a       990     0    40     1    15
 -1.1964603478634550E-01 a       991     0    40     1    16
 -6.0916341854262568E-01 a       992     0    40     1    17
  6.7053673640857181E-02 a       993     0    40     1    18
 -1.8981926979458197E-01 a       994     0    40     1    19
  1.0100543029163699E-02 a       995     0    40     1    20
  6.2816299854905555E-01 a       996     0    40     1    21
 -6.5828014842025617E-01 a       997     0    40     1    22
 -5.4397498905024988E-01 a       998     0    40     1    23
 -1.0883490278822334E-01 a       999     0    40     1    24
 -7.7294703764557368E-02 a      1000     0    40     1    25
  3.3954192460363317E+00 a      1001     0    41     1     1
  2.0459658420875932E+00 a      1002     0    41     1     2
  4.2508095935500032E+00 a      1003     0    41     1     3
 -3.2271609377849781E+00 a      1004     0    41     1     4
 -2.6357429161398103E+00 a      1005     0    41     1     5
  3.8001294088349704E+00 a      1006     0    41     1     6
  1.3728385037187483E+00 a      1007     0    41     1     7
  1.4335043045350005E-02 a      1008     0    41     1     8
  2.4599622213039245E+00 a      1009     0    41     1     9
  5.6156564441048606E-02 a      1010     0    41     1    10
  1.7622662319720583E+00 a      1011     0    41     1    11
 -3.8703974392063700E+00 a      1012     0    41     1    12
 -1.6411666264727101E+00 a      1013     0    41     1    13
 -1.5803396128546761E+00 a      1014     0    41     1    14
 -2.7034719923984640E-01 a      1015     0    41     1    15
  8.3291926088785273E-01 a      1016     0    41     1    16
  1.6077312946211904E+00 a      1017     0    41     1    17
 -2.9584854241909695E+00 a      1018     0    41     1    18
  7.1552347427842045E-01 a      1019     0    41     1    19
 -1.0989339653584980E+00 a      1020     0    41     1    20
 -6.1270039616222349E-01 a      1021     0    41     1    21
 -1.0777516793187887E+00 a      1022     0    41     1    22
  6.8485416858503545E-01 a      1023     0    41     1    23
 -2.9284471905420437E+00 a      1024     0    41     1    24
 -2.5846526219450028E-01 a      1025     0    41     1    25
  1.3579518629419693E+00 a      1026     0    42     1     1
 -4.8078166577880210E-01 a      1027     0    42     1     2
  1.8133662176634585E-01 a      1028     0    42     1     3
 -2.2234339838893455E+00 a      1029     0    42     1     4
  9.8583018274989720E-01 a      1030     0    42     1     5
  7.4579375609875909E-01 a      1031     0    42     1     6
 -3.7932740586661406E-02 a      1032     0    42     1     7
  4.6571204563226143E-01 a      1033     0    42     1     8
  1.3678139327276300E+00 a      1034     0    42     1     9
 -8.2638084547980784E-01 a      1035     0    42     1    10
 -2.7535362089078941E-01 a      1036     0    42     1    11
 -1.8801396445168075E+00 a      1037     0    42     1    12
 -6.8477236846781508E-01 a      1038     0    42     1    13
  3.7509105932053410E-01 a      1039     0    42     1    14
 -7.6263274924587099E-01 a      1040     0    42     1    15
  8.6416710124140136E-02 a      1041     0    42     1    16
  3.0174872214945553E-01 a      1042     0    42     1    17
 -1.6367051735833701E-01 a      1043     0    42     1    18
  7.6794021719084915E-01 a      1044     0    42     1    19
 -2.4350344930227527E-01 a      1045     0    42     1    20
 -3.3183819697322808E-01 a      1046     0    42     1    21
 -5.5009581089529858E-01 a      1047     0    42     1    22
  6.0957173187705027E-01 a      1048     0    42     1    23
 -1.1829753333375832E+00 a      1049     0    42     1    24
 -4.1493959071176506E-01 a      1050     0    42     1    25
 -1.3249780933678536E-02 a      1051     0    43     1     1
 -2.1655074264406171E-01 a      1052     0    43     1     2
  6.3735356393096998E-01 a      1053     0    43     1     3
 -1.8738181739097552E+00 a      1054     0    43     1     4
  1.1976774868585425E+00 a      1055     0    43     1     5
  7.1446940067668863E-01 a      1056     0    43     1     6
  6.1154818509222796E-02 a      1057     0    43     1     7
 -2.6249287166401725E-01 a      1058     0    43     1     8
  3.7740453026406412E-01 a      1059     0    43     1     9
  9.2622231925626974E-01 a      1060     0    43     1    10
  7.7534619148622075E-01 a      1061     0    43     1    11
 -1.5728129888082414E+00 a      1062     0    43     1    12
 -4.5825444379013580E-01 a      1063     0    43     1    13
 -1.9710895341124821E-01 a      1064     0    43     1    14
 -3.4686260643694439E-01 a      1065     0    43     1    15
 -6.3300388571670796E-01 a      1066     0    43     1    16
  7.7042902760623511E-01 a      1067     0    43     1    17
  1.3510480213793261E+00 a      1068     0    43     1    18
 -6.3893682062505264E-01 a      1069     0    43     1    19
 -8.7692213672238173E-01 a      1070     0    43     1    20
 -1.0059251343934974E+00 a      1071     0    43     1    21
 -1.6707419502230871E+00 a      1072     0    43     1    22
 -2.3076881779913824E-01 a      1073     0    43     1    23
  2.1420086524455961E-01 a      1074     0    43     1    24
  6.0598284683793369E-01 a      1075     0    43     1    25
  2.2051347856707204E-01 a      1076     0    44     1     1
 -4.9785970634654647E-01 a      1077     0    44     1     2
  2.0618408169900850E+00 a      1078     0    44     1     3
  1.8781908985965756E+00 a      1079     0    44     1     4
  1.0998601850479544E+00 a      1080     0    44     1     5
 -5.9680437466283243E-01 a      1081     0    44     1     6
 -2.0059573276553890E+00 a      1082     0    44     1     7
 -8.8562535062006242E-01 a      1083     0    44     1     8
  9.4072459445315482E-01 a      1084     0    44     1     9
 -5.3004588401328778E-01 a      1085     0    44     1    10
  7.0340897066011010E-01 a      1086     0    44     1    11
 -2.5944398963788173E+00 a      1087     0    44     1    12
  1.6128356612341299E+00 a      1088     0    44     1    13
  1.0160314805240092E+00 a      1089     0    44     1    14
  2.2777029615691387E+00 a      1090     0    44     1    15
  7.4536042818592274E-01 a      1091     0    44     1    16
 -4.6401194165006086E+00 a      1092     0    44     1    17
 -6.0137985031738872E-01 a      1093     0    44     1    18
  1.2815086732994436E+00 a      1094     0    44     1    19
  4.2597224820020058E-01 a      1095     0    44     1    20
 -1.0686859575958969E+00 a      1096     0    44     1    21
 -1.4759067027893316E+00 a      1097     0    44     1    22
 -1.1949016081321560E+00 a      1098     0    44     1    23
 -5.0130237944694853E+00 a      1099     0    44     1    24
  2.7442009740955026E-01 a      1100     0    44     1    25
  8.3290343021735769E-01 a      1101     0    45     1     1
  2.9212290997977850E+00 a      1102     0    45     1     2
 -6.1363290411561022E-01 a      1103     0    45     1     3
  1.3967931097616624E+00 a      1104     0    45     1     4
 -3.1661641601266184E+00 a      1105     0    45     1     5
 -2.4639865106430414E+00 a      1106     0    45     1     6
 -2.2900723991465726E+00 a      1107     0    45     1     7
  6.3542609780412496E-01 a      1108     0    45     1     8
  2.0019798795351060E+00 a      1109     0    45     1     9
 -1.6243776887970283E+00 a      1110     0    45     1    10
  4.8474114077202590E-01 a      1111     0    45     1    11
 -2.1966357159477063E+01 a      1112     0    45     1    12
  3.0563522562451284E-01 a      1113     0    45     1    13
 -1.1396843519624826E+00 a      1114     0    45     1    14
  3.2203761237166648E+00 a      1115     0    45     1    15
 -6.7129642330370531E-01 a      1116     0    45     1    16
 -2.3549832957899725E-01 a      1117     0    45     1    17
 -7.8210473361565136E-01 a      1118     0    45     1    18
  2.2201765936137017E+00 a      1119     0    45     1    19
  5.6074096875362089E-01 a      1120     0    45     1    20
  7.9192953800160573E-02 a      1121     0    45     1    21
  8.9696074065774434E-01 a      1122     0    45     1    22
 -5.1799426927617305E-02 a      1123     0    45     1    23
 -2.9314875083050568E-01 a      1124     0    45     1    24
 -1.3843049610041236E+00 a      1125     0    45     1    25
  1.2794207167765093E+00 a      1126     0    46     1     1
 -1.3189954227291447E+00 a      1127     0    46     1     2
 -2.5561787341915405E+00 a      1128     0    46     1     3
  3.4847034981135859E-02 a      1129     0    46     1     4
 -1.3088952945151946E+00 a      1130     0    46     1     5
  2.6360418637680738E-01 a      1131     0    46     1     6
 -7.7888107244167715E-01 a      1132     0    46     1     7
  1.1382802081025045E+00 a      1133     0    46     1     8
  2.7199792209499187E+00 a      1134     0    46     1     9
  8.1146707165283261E-01 a      1135     0    46     1    10
 -3.9736965883822767E-01 a      1136     0    46     1    11
 -2.6776173787350199E-01 a      1137     0    46     1    12
 -2.2934682472994436E-01 a      1138     0    46     1    13
 -2.0743337775674719E+00 a      1139     0    46     1    14
  9.8745759160686075E-01 a      1140     0    46     1    15
 -2.1411350263905376E-02 a      1141     0    46     1    16
  1.3012879709389134E+00 a      1142     0    46     1    17
  5.7367539701710113E-01 a      1143     0    46     1    18
  8.5194670217720458E-01 a      1144     0    46     1    19
 -2.5018465670558139E+00 a      1145     0    46     1    20
 -1.7282151885593831E+00 a      1146     0    46     1    21
 -1.1401401985731456E-01 a      1147     0    46     1    22
 -8.0994238038916244E-01 a      1148     0    46     1    23
 -4.3405620623584689E+00 a      1149     0    46     1    24
  3.3448007249872008E-01 a      1150     0    46     1    25
  1.5360653270050373E+00 a      1151     0    47     1     1
 -1.2972204562121414E+00 a      1152     0    47     1     2
 -3.2793645443351136E+00 a      1153     0    47     1     3
  9.4155491639909616E-01 a      1154     0    47     1     4
  5.2680280602100227E-01 a      1155     0    47     1     5
 -2.8900982554936165E-02 a      1156     0    47     1     6
 -1.5024439596337136E+00 a      1157     0    47     1     7
  1.3648182240216651E+00 a      1158     0    47     1     8
  1.4187106336228110E+00 a      1159     0    47     1     9
  1.5254741339904836E+00 a      1160     0    47     1    10
  2.1437392536056553E-02 a      1161     0    47     1    11
 -7.2593408162066642E-01 a      1162     0    47     1    12
  9.8930181705192843E-01 a      1163     0    47     1    13
 -7.8209111665153208E-01 a      1164     0    47     1    14
  4.5591076189983454E-01 a      1165     0    47     1    15
  4.7540365046498134E-01 a      1166     0    47     1    16
  2.2481912737520124E-01 a      1167     0    47     1    17
  1.2046514397202115E+00 a      1168     0    47     1    18
 -2.3907318362063334E-01 a      1169     0    47     1    19
 -2.1223522463568041E+00 a      1170     0    47     1    20
 -1.2999004107052248E+00 a      1171     0    47     1    21
 -2.9903096347096825E-01 a      1172     0    47     1    22
 -4.3410981322218878E-01 a      1173     0    47     1    23
 -3.0020964151052119E+00 a      1174     0    47     1    24
 -5.8214083765863889E-01 a      1175     0    47     1    25
 -8.9990242478280114E-01 a      1176     0    48     1     1
 -3.1973450920379631E-01 a      1177     0    48     1     2
 -9.1067353742735946E-01 a      1178     0    48     1     3
  9.7670942657794957E-01 a      1179     0    48     1     4
 -2.7446961996060765E-01 a      1180     0    48     1     5
  2.1737017088841317E-02 a      1181     0    48     1     6
 -4.6864058500657856E-02 a      1182     0    48     1     7
 -7.3418954866306108E-01 a      1183     0    48     1     8
 -2.5754393836425649E-01 a      1184     0    48     1     9
  7.7086553370233390E-01 a      1185     0    48     1    10
  7.8147968346253205E-01 a      1186     0    48     1    11
  6.8630499992051827E-02 a      1187     0    48     1    12
  2.1268826075123995E-01 a      1188     0    48     1    13
  3.2585051272703147E-01 a      1189     0    48     1    14
 -1.2343677641306450E+00 a      1190     0    48     1    15
  4.8577807926572064E-01 a      1191     0    48     1    16
  1.1845295274716929E-01 a      1192     0    48     1    17
 -1.1269175472121373E+00 a      1193     0    48     1    18
 -6.4232519130710297E-01 a      1194     0    48     1    19
  9.5916309524838494E-01 a      1195     0    48     1    20
  5.1715658306061896E-01 a      1196     0    48     1    21
  7.5623814029779690E-01 a      1197     0    48     1    22
 -2.3210299685543354E-01 a      1198     0    48     1    23
  1.6115582678970650E-01 a      1199     0    48     1    24
 -4.9673175613856979E-01 a      1200     0    48     1    25
  2.4806752700597226E-01 a      1201     0    49     1     1
 -2.0677448358606468E-02 a      1202     0    49     1     2
  6.9207064361014037E-01 a      1203     0    49     1     3
 -8.2676279549999110E-01 a      1204     0    49     1     4
  2.4711774285689994E-01 a      1205     0    49     1     5
 -6.9699644340721811E-01 a      1206     0    49     1     6
 -8.9430312008304397E-03 a      1207     0    49     1     7
  6.2799528979554953E-01 a      1208     0    49     1     8
  2.0440060089011997E-01 a      1209     0    49     1     9
 -1.3780023858350018E-01 a      1210     0    49     1    10
 -8.6925824080158975E-01 a      1211     0    49     1    11
 -5.9641919006187205E-01 a      1212     0    49     1    12
  1.9060618862722462E-01 a      1213     0    49     1    13
 -1.5706291074990955E-01 a      1214     0    49     1    14
  4.7569752090854338E-02 a      1215     0    49     1    15
 -5.8704637724495301E-01 a      1216     0    49     1    16
  1.8322327271699981E-01 a      1217     0    49     1    17
  3.9340167917306934E-01 a      1218     0    49     1    18
  5.9516061342250737E-01 a      1219     0    49     1    19
 -8.9370613777534824E-01 a      1220     0    49     1    20
 -1.2048258998316874E+00 a      1221     0    49     1    21
 -4.6238641406531622E-01 a      1222     0    49     1    22
  1.1845333430867466E-01 a      1223     0    49     1    23
 -3.0689983727669667E-01 a      1224     0    49     1    24
  1.6617553965182777E-01 a      1225     0    49     1    25
  5.7185169435246070E+00 a      1226     0    50     1     1
  5.2599974321223852E-01 a      1227     0    50     1     2
 -2.8905195359797200E+00 a      1228     0    50     1     3
 -2.9380959529403174E+00 a      1229     0    50     1     4
 -2.5314830861750934E+00 a      1230     0    50     1     5
  3.4148664699039681E+00 a      1231     0    50     1     6
 -1.8517500936289216E-01 a      1232     0    50     1     7
 -3.1897825731813656E-01 a      1233     0    50     1     8
  4.9342891045958986E-01 a      1234     0    50     1     9
 -7.5867898879132900E-01 a      1235     0    50     1    10
  3.7504857840898065E-01 a      1236     0    50     1    11
 -2.5404814974135896E+00 a      1237     0    50     1    12
 -7.9133656214196302E-01 a      1238     0    50     1    13
 -1.4483608925185569E+00 a      1239     0    50     1    14
 -6.5818514723612664E-01 a      1240     0    50     1    15
  1.6031735630572661E+00 a      1241     0    50     1    16
  1.7610335660791734E+00 a      1242     0    50     1    17
  2.7414036136523617E-01 a      1243     0    50     1    18
  4.3850404199418378E+00 a      1244     0    50     1    19
 -2.2070998500113156E-01 a      1245     0    50     1    20
 -8.3068300564640721E-02 a      1246     0    50     1    21
  4.4946210293565499E-02 a      1247     0    50     1    22
  5.1316568708892196E-01 a      1248     0    50     1    23
 -9.1901454425356721E-01 a      1249     0    50     1    24
 -6.2031366098755414E-01 a      1250     0    50     1    25
  1.9177615874447256E+00 a      1251     0    51     1     1
 -6.9952297608182894E+00 a      1252     0    51     1     2
 -2.9814293971355843E-01 a      1253     0    51     1     3
 -4.9770491666038970E+00 a      1254     0    51     1     4
 -1.0614439158927709E+00 a      1255     0    51     1     5
  2.2632343588308270E+00 a      1256     0    51     1     6
  5.3919666687945089E-01 a      1257     0    51     1     7
  1.8121472553117464E+00 a      1258     0    51     1     8
  1.2984251485794767E+00 a      1259     0    51     1     9
 -1.5035536197400565E-01 a      1260     0    51     1    10
 -2.0845548519233281E+00 a      1261     0    51     1    11
 -1.9996350402593430E+00 a      1262     0    51     1    12
 -1.9805718149862031E-01 a      1263     0    51     1    13
 -4.0192426591128672E-01 a      1264     0    51     1    14
 -3.6149291094344421E-01 a      1265     0    51     1    15
  1.6898132137097501E+00 a      1266     0    51     1    16
  1.9610935709929302E+00 a      1267     0    51     1    17
  1.2343355626997707E+00 a      1268     0    51     1    18
  1.0169831394499565E-01 a      1269     0    51     1    19
 -1.3184195291821992E+00 a      1270     0    51     1    20
 -3.3545558625923877E+00 a      1271     0    51     1    21
 -3.2796633651716385E+00 a      1272     0    51     1    22
  3.8382553916751505E-01 a      1273     0    51     1    23
 -4.5898604921541536E-01 a      1274     0    51     1    24
 -9.5292035476224890E-02 a      1275     0    51     1    25
  1.5832870244496731E+00 a      1276     0    52     1     1
 -5.5634461831008952E+00 a      1277     0    52     1     2
 -1.3166088669187381E+00 a      1278     0    52     1     3
 -3.7611478440449022E+00 a      1279     0    52     1     4
  2.1272257898983288E-01 a      1280     0    52     1     5
  2.0159963558988387E+00 a      1281     0    52     1     6
 -5.7781184733849278E-01 a      1282     0    52     1     7
  7.7999138268541868E-01 a      1283     0    52     1     8
  7.9955157889133388E-01 a      1284     0    52     1     9
 -1.2112110690519828E+00 a      1285     0    52     1    10
 -8.2195410896812671E-01 a      1286     0    52     1    11
 -1.9930443190658609E+00 a      1287     0    52     1    12
 -1.5372605745709608E-01 a      1288     0    52     1    13
 -7.2156800266419185E-01 a      1289     0    52     1    14
 -4.7649437481153029E-01 a      1290     0    52     1    15
  1.5593328238166748E+00 a      1291     0    52     1    16
  8.0972562176980012E-01 a      1292     0    52     1    17
  3.7306023545111910E-01 a      1293     0    52     1    18
  5.2346330123148688E-01 a      1294     0    52     1    19
 -8.5022414529325396E-01 a      1295     0    52     1    20
 -4.1347929545935020E+00 a      1296     0    52     1    21
 -2.2806588420542164E+00 a      1297     0    52     1    22
 -9.0978066846503081E-01 a      1298     0    52     1    23
 -1.1826292977863677E+00 a      1299     0    52     1    24
 -2.8238955762957091E-01 a      1300     0    52     1    25
  2.4571481200361029E+00 a      1301     0    53     1     1
 -6.3464992475785992E-02 a      1302     0    53     1     2
  3.3577013529293169E+00 a      1303     0    53     1     3
 -1.5359816940156212E+00 a      1304     0    53     1     4
  1.7532680455047116E+00 a      1305     0    53     1     5
  1.8733967795193069E+00 a      1306     0    53     1     6
 -3.8655845329530711E+00 a      1307     0    53     1     7
 -2.1884488944037428E+00 a      1308     0    53     1     8
  4.1552310409991380E+00 a      1309     0    53     1     9
 -1.2980282592045602E+00 a      1310     0    53     1    10
 -1.2392193409923707E-01 a      1311     0    53     1    11
 -3.3957853401980143E+00 a      1312     0    53     1    12
 -1.0776637307898418E+00 a      1313     0    53     1    13
 -9.8533015607337149E-01 a      1314     0    53     1    14
  7.0397634864748735E+00 a      1315     0    53     1    15
 -1.5609124801616800E+00 a      1316     0    53     1    16
 -9.1406185027313551E+00 a      1317     0    53     1    17
 -1.7086604229460032E+00 a      1318     0    53     1    18
 -1.1126681142354951E+00 a      1319     0    53     1    19
 -2.0254578582695859E+00 a      1320     0    53     1    20
  1.4019605947667098E+00 a      1321     0    53     1    21
 -5.5857664885113056E-01 a      1322     0    53     1    22
  4.4310605873824604E+00 a      1323     0    53     1    23
  1.1936280516645896E+00 a      1324     0    53     1    24
 -1.9241852933983286E+00 a      1325     0    53     1    25
 -1.1461750228755481E+00 a      1326     0    54     1     1
 -8.7192143375960418E-01 a      1327     0    54     1     2
  4.7145896241181360E+00 a      1328     0    54     1     3
  1.2095003265060336E+00 a      1329     0    54     1     4
 -3.8761876250316446E-01 a      1330     0    54     1     5
 -7.9025745834526895E-01 a      1331     0    54     1     6
  1.2641784410301697E+00 a      1332     0    54     1     7
 -9.7850848919270372E-01 a      1333     0    54     1     8
  6.0489304583863268E-01 a      1334     0    54     1     9
 -4.9705221855768285E+00 a      1335     0    54     1    10
  1.9218321391325761E+00 a      1336     0    54     1    11
  5.8650540038008918E+00 a      1337     0    54     1    12
  3.7725429287921874E-01 a      1338     0    54     1    13
 -1.1180053222918620E+00 a      1339     0    54     1    14
 -2.5562030813635328E+00 a      1340     0    54     1    15
  1.2315827190882853E+00 a      1341     0    54     1    16
  1.4474990081425050E+00 a      1342     0    54     1    17
 -2.4694209558773763E+00 a      1343     0    54     1    18
 -8.6824726877472599E-02 a      1344     0    54     1    19
 -1.0822484602839148E-01 a      1345     0    54     1    20
 -1.0879806753699115E+00 a      1346     0    54     1    21
  1.4978463990252011E+00 a      1347     0    54     1    22
 -2.3178547509041236E-01 a      1348     0    54     1    23
  2.0347554516252258E+00 a      1349     0    54     1    24
  1.1824577757957704E+00 a      1350     0    54     1    25
 -2.1836560492757084E+00 a      1351     0    55     1     1
  2.2179628252512334E-01 a      1352     0    55     1     2
  1.9602151041432370E+00 a      1353     0    55     1     3
  5.4469107881860923E-01 a      1354     0    55     1     4
  8.7311416536601250E-01 a      1355     0    55     1     5
  3.4517223568241318E-01 a      1356     0    55     1     6
 -7.6440597215015982E-01 a      1357     0    55     1     7
 -9.5064904536680525E-02 a      1358     0    55     1     8
 -3.1474588671303472E-01 a      1359     0    55     1     9
 -1.4055867107282377E-01 a      1360     0    55     1    10
 -7.1366386442729746E-01 a      1361     0    55     1    11
  6.1777858071594127E-01 a      1362     0    55     1    12
  4.5100003326680943E-01 a      1363     0    55     1    13
  9.2010627448559168E-01 a      1364     0    55     1    14
  7.1114647952196089E-02 a      1365     0    55     1    15
 -5.4522480070221901E-01 a      1366     0    55     1    16
  1.4176208347382271E-01 a      1367     0    55     1    17
 -5.9254524349841542E-01 a      1368     0    55     1    18
  2.7749179067961049E-01 a      1369     0    55     1    19
  3.5030931713534336E-01 a      1370     0    55     1    20
  4.9670337520482039E-01 a      1371     0    55     1    21
  3.8108163391708377E-01 a      1372     0    55     1    22
 -8.2332493067099954E-01 a      1373     0    55     1    23
  1.2466965081808863E+00 a      1374     0    55     1    24
 -1.5459037656460203E-01 a      1375     0    55     1    25
 -1.4276141420234412E+00 a      1376     0    56     1     1
  7.7075166157991737E-01 a      1377     0    56     1     2
  2.2280627468043037E+00 a      1378     0    56     1     3
  8.6761935230534293E-01 a      1379     0    56     1     4
 -2.5762054913470178E-01 a      1380     0    56     1     5
 -1.0750781719232676E-01 a      1381     0    56     1     6
  7.1849957874821135E-01 a      1382     0    56     1     7
 -2.0448499464143383E-01 a      1383     0    56     1     8
  2.3162125813462031E-01 a      1384     0    56     1     9
 -4.1628074634732531E-01 a      1385     0    56     1    10
  3.2414863501945240E-01 a      1386     0    56     1    11
  1.7008055032864405E-01 a      1387     0    56     1    12
 -8.4667384549723590E-01 a      1388     0    56     1    13
 -1.6977493566854585E-01 a      1389     0    56     1    14
 -4.6794964357002111E-01 a      1390     0    56     1    15
  1.1853372243361263E-02 a      1391     0    56     1    16
 -8.8645326693928428E-01 a      1392     0    56     1    17
 -1.2053513369750430E+00 a      1393     0    56     1    18
 -3.9650883788805424E-01 a      1394     0    56     1    19
  6.1420920129029444E-01 a      1395     0    56     1    20
 -2.1321369538079013E-01 a      1396     0    56     1    21
 -5.9846842356644492E-01 a      1397     0    56     1    22
  6.8551046960305206E-01 a      1398     0    56     1    23
 -1.1220419191303938E-01 a      1399     0    56     1    24
  1.7121778792503281E-01 a      1400     0    56     1    25
 -3.1932307039064806E-01 a      1401     0    57     1     1
 -4.0196294102095348E-01 a      1402     0    57     1     2
  5.8165310379760904E-01 a      1403     0    57     1     3
  4.1124688467489640E-01 a      1404     0    57     1     4
 -1.2704891122402875E-01 a      1405     0    57     1     5
 -3.1474111716113018E-01 a      1406     0    57     1     6
 -2.2363662629238007E-01 a      1407     0    57     1     7
 -3.6982450199064465E-01 a      1408     0    57     1     8
 -2.0456030195922159E-01 a      1409     0    57     1     9
  6.5916929183675269E-02 a      1410     0    57     1    10
  2.8568594501548555E-01 a      1411     0    57     1    11
  5.9658712496507382E-01 a      1412     0    57     1    12
 -5.7131242558610164E-02 a      1413     0    57     1    13
  2.6760595234367540E-01 a      1414     0    57     1    14
  6.9642991247114738E-01 a      1415     0    57     1    15
 -6.9591148390123550E-02 a      1416     0    57     1    16
 -5.6075073321269453E-01 a      1417     0    57     1    17
 -9.1403616900234508E-01 a      1418     0    57     1    18
 -3.2063277382475192E-02 a      1419     0    57     1    19
  4.0883604436507054E-01 a      1420     0    57     1    20
 -3.3089859027249113E-01 a      1421     0    57     1    21
  6.6509558968536786E-01 a      1422     0    57     1    22
  1.7126927556260418E-01 a      1423     0    57     1    23
 -1.2739035531242238E-01 a      1424     0    57     1    24
 -3.8312884086662613E-01 a      1425     0    57     1    25
  9.8723686227244326E-02 a      1426     0    58     1     1
  3.4131234140707595E-01 a      1427     0    58     1     2
  6.1329222762998392E-01 a      1428     0    58     1     3
 -2.9244126797142733E-02 a      1429     0    58     1     4
 -1.1180776264753112E-01 a      1430     0    58     1     5
  5.1846325966807216E-01 a      1431     0    58     1     6
  1.7476305357247265E-01 a      1432     0    58     1     7
  5.4652485059137990E-01 a      1433     0    58     1     8
  2.8855318823796983E-01 a      1434     0    58     1     9
  1.5365441925321044E-01 a      1435     0    58     1    10
 -3.1051561678045247E-01 a      1436     0    58     1    11
 -1.8251969882648647E-01 a      1437     0    58     1    12
 -1.4127295844678261E-01 a      1438     0    58     1    13
 -4.6774244134740850E-01 a      1439     0    58     1    14
  3.0831703617721837E-02 a      1440     0    58     1    15
  5.0586855364422412E-01 a      1441     0    58     1    16
  6.3113319855875138E-01 a      1442     0    58     1    17
  9.2843149426359761E-01 a      1443     0    58     1    18
 -3.5161359356246570E-02 a      1444     0    58     1    19
 -6.7422586090558012E-01 a      1445     0    58     1    20
 -1.4070816923269744E-01 a      1446     0    58     1    21
 -3.9059493118246102E-01 a      1447     0    58     1    22
 -1.5339103289552430E-01 a      1448     0    58     1    23
  1.4069366687102328E-01 a      1449     0    58     1    24
  1.4493715317361916E-01 a      1450     0    58     1    25
 -3.6189712538304062E+00 a      1451     0    59     1     1
  9.6047187886081617E-02 a      1452     0    59     1     2
 -8.6196126005637641E-01 a      1453     0    59     1     3
  3.0097601385314929E+00 a      1454     0    59     1     4
  1.3657620263146286E+00 a      1455     0    59     1     5
 -3.8392544062496934E+00 a      1456     0    59     1     6
 -1.8041443132979595E-01 a      1457     0    59     1     7
 -1.8566560917497112E-02 a      1458     0    59     1     8
 -1.4719671470574849E+00 a      1459     0    59     1     9
  4.7240918819802874E-01 a      1460     0    59     1    10
 -2.0524408150173923E-01 a      1461     0    59     1    11
  2.7616330322172016E+00 a      1462     0    59     1    12
  4.6462181288442478E-01 a      1463     0    59     1    13
  5.3844192372794986E-01 a      1464     0    59     1    14
 -2.5110751454996150E-01 a      1465     0    59     1    15
 -9.5982531094730339E-01 a      1466     0    59     1    16
 -1.0206542390834290E+00 a      1467     0    59     1    17
  1.2571137509652992E+00 a      1468     0    59     1    18
 -1.1149370538061540E+00 a      1469     0    59     1    19
 -2.5130049186305381E-01 a      1470     0    59     1    20
  8.1409102761993146E-01 a      1471     0    59     1    21
 -5.4213600726369982E-01 a      1472     0    59     1    22
  2.3147483263803023E-01 a      1473     0    59     1    23
  1.2062337626799642E+00 a      1474     0    59     1    24
  1.9074273433342515E-01 a      1475     0    59     1    25
 -1.0028649572071406E+00 a      1476     0    60     1     1
  9.6878768229051604E-01 a      1477     0    60     1     2
  1.4815063945648715E-01 a      1478     0    60     1     3
  1.5437659484936741E+00 a      1479     0    60     1     4
 -6.0815285538050512E-01 a      1480     0    60     1     5
  2.8884906331186000E-01 a      1481     0    60     1     6
  5.8507882341094897E-01 a      1482     0    60     1     7
 -6.5588004745413486E-01 a      1483     0    60     1     8
  9.6829257735957588E-02 a      1484     0    60     1     9
 -3.2296522388533577E-01 a      1485     0    60     1    10
  4.7596673375465454E-01 a      1486     0    60     1    11
  7.8705784182863892E-01 a      1487     0    60     1    12
  3.4499970724285911E-01 a      1488     0    60     1    13
  4.4909659393948986E-01 a      1489     0    60     1    14
  5.6987074540270688E-01 a      1490     0    60     1    15
 -2.5248356355979390E-01 a      1491     0    60     1    16
 -4.0379770666137499E-01 a      1492     0    60     1    17
 -7.6023976334648324E-01 a      1493     0    60     1    18
 -7.1125339099432994E-01 a      1494     0    60     1    19
  2.9331446760264107E-01 a      1495     0    60     1    20
  3.5680167029322712E-01 a      1496     0    60     1    21
  8.8140077427406793E-01 a      1497     0    60     1    22
  3.7476679394134127E-01 a      1498     0    60     1    23
  1.7478423981343350E-01 a      1499     0    60     1    24
 -5.3636727785694382E-01 a      1500     0    60     1    25
 -1.1442562316026927E+00 a      1501     0    61     1     1
  1.3213299320610969E+00 a      1502     0    61     1     2
 -1.9074230554544644E-02 a      1503     0    61     1     3
  2.1380271836947617E+00 a      1504     0    61     1     4
 -1.8171465557298105E-01 a      1505     0    61     1     5
 -1.6066396522549364E+00 a      1506     0    61     1     6
 -5.1362430052876762E-01 a      1507     0    61     1     7
  2.6457609232124679E-01 a      1508     0    61     1     8
 -6.2965890508078448E-01 a      1509     0    61     1     9
  3.9780399840818870E-01 a      1510     0    61     1    10
 -8.0535077510335207E-01 a      1511     0    61     1    11
  1.5902573434841802E+00 a      1512     0    61     1    12
  7.4785997208926480E-01 a      1513     0    61     1    13
 -1.0322881961210420E-01 a      1514     0    61     1    14
  3.6293509117371853E-01 a      1515     0    61     1    15
 -2.5702344431553843E-02 a      1516     0    61     1    16
  1.2123534192455789E-01 a      1517     0    61     1    17
 -9.3186833844084299E-02 a      1518     0    61     1    18
  2.7867646819051450E-01 a      1519     0    61     1    19
  9.7870599495876232E-01 a      1520     0    61     1    20
  1.3731251203045598E+00 a      1521     0    61     1    21
  6.5681978022274334E-01 a      1522     0    61     1    22
 -4.9850279245772722E-01 a      1523     0    61     1    23
  5.7989998255248720E-01 a      1524     0    61     1    24
  8.9920491350449036E-02 a      1525     0    61     1    25
 -8.6889738089033652E-01 a      1526     0    62     1     1
 -2.5501143909195229E-01 a      1527     0    62     1     2
 -2.5386848444527086E+00 a      1528     0    62     1     3
 -1.0489320491303500E+00 a      1529     0    62     1     4
  9.0102021911848673E-01 a      1530     0    62     1     5
  1.3257098147765728E-01 a      1531     0    62     1     6
  1.9909465435966029E+00 a      1532     0    62     1     7
  1.1949076494955411E+00 a      1533     0    62     1     8
 -3.8756530037651898E-01 a      1534     0    62     1     9
  6.1197927908168948E-01 a      1535     0    62     1    10
 -7.0730436456591887E-04 a      1536     0    62     1    11
  1.4012892714473617E+00 a      1537     0    62     1    12
 -7.3535194408145366E-01 a      1538     0    62     1    13
 -2.8467777248247111E-01 a      1539     0    62     1    14
 -1.7186775000780228E+00 a      1540     0    62     1    15
 -2.1837128455488217E-02 a      1541     0    62     1    16
  2.6152190900873853E+00 a      1542     0    62     1    17
  9.6085511043286692E-02 a      1543     0    62     1    18
 -2.3150068503623542E+00 a      1544     0    62     1    19
  4.7246088222089179E-02 a      1545     0    62     1    20
  4.1592044248009702E-01 a      1546     0    62     1    21
  1.0437643024414858E+00 a      1547     0    62     1    22
 -3.9154694952544034E-01 a      1548     0    62     1    23
  1.7651160858417727E+00 a      1549     0    62     1    24
 -1.1981981905401529E+00 a      1550     0    62     1    25
 -6.1086402934513251E-01 b      1551     1     1
 -2.3112246524197566E+00 b      1552     1     2
  8.8317335786677520E-01 b      1553     1     3
 -2.9717588266600836E-01 b      1554     1     4
  2.2678265414955553E-01 b      1555     1     5
  3.6174834057393734E-01 b      1556     1     6
 -8.7572557010741292E-01 b      1557     1     7
  6.4102012247705775E-01 b      1558     1     8
 -7.1195328683883424E-02 b      1559     1     9
 -1.7280986828652037E-01 b      1560     1    10
  7.9391128084200779E-01 b      1561     1    11
 -1.9761285826808226E+00 b      1562     1    12
  4.6570741784324343E-01 b      1563     1    13
 -5.1089966203598658E-01 b      1564     1    14
  3.4767996136897322E-01 b      1565     1    15
  1.6566281103845639E+00 b      1566     1    16
  8.9917234169656712E-01 b      1567     1    17
  5.2635577340269180E-01 b      1568     1    18
 -2.9970606383225888E+00 b      1569     1    19
 -8.6131642933281294E-01 b      1570     1    20
 -6.4075630323423061E-01 b      1571     1    21
  7.4259418440754943E-01 b      1572     1    22
  1.0424758799745244E-01 b      1573     1    23
  1.1753701569358279E+00 b      1574     1    24
  8.3670015302904011E-01 b      1575     1    25
  1.7284529741870076E+00 a      1576     1     1     2     1
  1.2854903493610323E+00 a      1577     1     1     2     2
  1.0237323048504010E+00 a      1578     1     1     2     3
  2.2129212897131451E-01 a      1579     1     1     2     4
 -9.3958596629369773E-01 a      1580     1     1     2     5
  1.4474718921806582E+00 a      1581     1     1     2     6
 -3.5004145077761439E-01 a      1582     1     1     2     7
  8.1107632316839473E-01 a      1583     1     1     2     8
  6.0320469102372176E-01 a      1584     1     1     2     9
  1.4268060865775173E-01 a      1585     1     1     2    10
 -4.5318585135617651E-02 a      1586     1     1     2    11
 -5.3495656820635584E-01 a      1587     1     1     2    12
 -2.4355502687538371E+00 a      1588     1     1     2    13
  3.0101440141279001E-01 a      1589     1     1     2    14
  3.3975805599451503E-01 a      1590     1     1     2    15
  2.2258271319388161E+00 a      1591     1     1     2    16
  2.4423288075476879E-01 a      1592     1     1     2    17
  1.8985844995737720E+00 a      1593     1     1     2    18
 -3.7201554645482388E-01 a      1594     1     1     2    19
 -6.4228804415424487E-02 a      1595     1     1     2    20
  2.9316526874465421E-01 a      1596     1     1     2    21
  1.2277977056910873E-01 a      1597     1     1     2    22
  1.4102425404480068E-01 a      1598     1     1     2    23
 -4.5047964036613070E-01 a      1599     1     1     2    24
 -3.1275489785568966E-01 a      1600     1     1     2    25
 -3.9754376449834128E-01 a      1601     1     2     2     1
  3.5492360720653706E+00 a      1602     1     2     2     2
 -8.4605440310534075E-02 a      1603     1     2     2     3
  1.9137400061356394E-01 a      1604     1     2     2     4
 -1.3342021733527848E-01 a      1605     1     2     2     5
 -5.5416800373743902E-01 a      1606     1     2     2     6
  2.1967254346225851E-01 a      1607     1     2     2     7
 -4.4310212589551640E-01 a      1608     1     2     2     8
 -3.6311974324443524E-01 a      1609     1     2     2     9
 -1.7544038650700755E-01 a      1610     1     2     2    10
 -5.2965667203368205E-03 a      1611     1     2     2    11
  5.4058939152676300E-01 a      1612     1     2     2    12
 -1.4108168964978871E-01 a      1613     1     2     2    13
  8.0401030415312782E-02 a      1614     1     2     2    14
 -9.5700142708951844E-02 a      1615     1     2     2    15
 -9.4725970555727546E-01 a      1616     1     2     2    16
 -1.0616231002659508E-02 a      1617     1     2     2    17
 -1.8637925062898633E-01 a      1618     1     2     2    18
  2.5571140134861037E-01 a      1619     1     2     2    19
 -3.0478169716640511E+00 a      1620     1     2     2    20
  2.3270873992044527E-01 a      1621     1     2     2    21
 -2.2970630690818070E-01 a      1622     1     2     2    22
 -1.2962533215958330E-01 a      1623     1     2     2    23
 -8.8861751304171385E-03 a      1624     1     2     2    24
  1.1041773403634193E-01 a      1625     1     2     2    25
 -3.2909658571710565E-01 a      1626     1     3     2     1
  1.1829827743687922E-01 a      1627     1     3     2     2
  4.2060680199742750E-01 a      1628     1     3     2     3
