################################################################################
# Neural network connection values (weights and biases).
################################################################################
# Col  Name       Description
################################################################################
# 1    connection Neural network connection value.
# 2    t          Connection type (a = weight, b = bias).
# 3    index      Index enumerating weights.
# 4    l_s        Starting point layer (end point layer for biases).
# 5    n_s        Starting point neuron in starting layer (end point neuron for biases).
# 6    l_e        End point layer.
# 7    n_e        End point neuron in end layer.
################################################################################
#                      1 2         3     4     5     6     7
#             connection t     index   l_s   n_s   l_e   n_e
############################################################
 -1.6427138582261119E+01 a         1     0     1     1     1
 -1.7904762864123349E+01 a         2     0     1     1     2
 -2.6693622708544398E+00 a         3     0     1     1     3
 -4.6656377017730854E+01 a         4     0     1     1     4
 -7.3403423018473388E+00 a         5     0     1     1     5
  9.6915874850770170E+00 a         6     0     1     1     6
 -5.6692778049754633E+00 a         7     0     1     1     7
 -8.7353937799612513E+00 a         8     0     1     1     8
  1.2414365810277232E+01 a         9     0     1     1     9
 -1.5919834289778677E+01 a        10     0     1     1    10
  5.5098373042457860E+00 a        11     0     1     1    11
  5.8938061862055058E+01 a        12     0     1     1    12
 -1.8764526027836066E+00 a        13     0     1     1    13
  2.4715076217393243E+01 a        14     0     1     1    14
 -4.8055324308487577E+01 a        15     0     1     1    15
  2.1709788104117525E+01 a        16     0     1     1    16
 -7.1665260510906394E+00 a        17     0     1     1    17
 -2.9765059608820660E+01 a        18     0     1     1    18
 -7.8139175745903691E+00 a        19     0     1     1    19
 -1.6870322510567024E+00 a        20     0     1     1    20
  4.3492613979330985E-01 a        21     0     1     1    21
  6.6957564370835714E+00 a        22     0     1     1    22
  2.1074684092837628E+00 a        23     0     1     1    23
  1.4171160061915353E+01 a        24     0     1     1    24
  8.7932957195878299E+00 a        25     0     1     1    25
  4.3170666868005458E+00 a        26     0     2     1     1
  1.7381280474767120E+01 a        27     0     2     1     2
  3.5593986798544520E+01 a        28     0     2     1     3
 -9.5564479523369652E+00 a        29     0     2     1     4
 -6.5485808375213650E-01 a        30     0     2     1     5
 -8.4555297988089411E+00 a        31     0     2     1     6
 -1.3354927405166901E+00 a        32     0     2     1     7
 -2.0452758880215807E+01 a        33     0     2     1     8
  1.8054239446363916E+01 a        34     0     2     1     9
  2.6484451229566361E+01 a        35     0     2     1    10
 -8.3234486322402468E+00 a        36     0     2     1    11
 -2.4086113585462122E+01 a        37     0     2     1    12
 -7.9519840731390161E+01 a        38     0     2     1    13
 -1.6869823988498449E+00 a        39     0     2     1    14
 -1.8158948496529331E-01 a        40     0     2     1    15
  5.7924741008197760E+00 a        41     0     2     1    16
  1.4790960640419437E+01 a        42     0     2     1    17
  3.1727656646103103E+01 a        43     0     2     1    18
  3.2700332908222414E+01 a        44     0     2     1    19
 -1.8037799211232024E+01 a        45     0     2     1    20
 -5.2170855176147789E+01 a        46     0     2     1    21
 -2.5120266984930559E+01 a        47     0     2     1    22
  2.9741572061903128E+01 a        48     0     2     1    23
 -4.0538380178026614E+01 a        49     0     2     1    24
 -5.4781948983163939E+00 a        50     0     2     1    25
 -6.0673490528901377E+00 a        51     0     3     1     1
 -2.0793796690474501E+01 a        52     0     3     1     2
  2.1553811313731003E+01 a        53     0     3     1     3
 -3.1048312702754782E+01 a        54     0     3     1     4
 -1.7889529158921992E+01 a        55     0     3     1     5
 -1.1714366873651157E+01 a        56     0     3     1     6
  1.0301283451374387E+01 a        57     0     3     1     7
  4.9043057421022866E+01 a        58     0     3     1     8
  2.5611917657682373E+01 a        59     0     3     1     9
 -4.2420113968839189E+01 a        60     0     3     1    10
  5.6004171908479536E+00 a        61     0     3     1    11
  1.2456328995307295E+01 a        62     0     3     1    12
  4.9122467857802228E+01 a        63     0     3     1    13
 -5.4477558945828406E+01 a        64     0     3     1    14
 -5.6757190152723609E+01 a        65     0     3     1    15
  2.2438970334552558E+01 a        66     0     3     1    16
  2.9108755492569877E+01 a        67     0     3     1    17
 -3.2017727436976564E+01 a        68     0     3     1    18
 -3.2627786112690593E+01 a        69     0     3     1    19
  3.3192332935147178E+01 a        70     0     3     1    20
  1.3217429581944899E+01 a        71     0     3     1    21
  3.8112169305393365E+01 a        72     0     3     1    22
  2.9719231643305246E+01 a        73     0     3     1    23
  8.8563667157561468E+01 a        74     0     3     1    24
 -5.1073152099063030E+01 a        75     0     3     1    25
  2.6748549228505812E+01 a        76     0     4     1     1
  2.5162873195866741E+01 a        77     0     4     1     2
 -5.7409547928268578E+00 a        78     0     4     1     3
  8.8655610545689939E+01 a        79     0     4     1     4
  2.3681546910314118E+01 a        80     0     4     1     5
 -1.5295985277538756E+01 a        81     0     4     1     6
  1.2938846376070099E+01 a        82     0     4     1     7
  1.0299240899039640E+01 a        83     0     4     1     8
 -2.0942542223660528E+01 a        84     0     4     1     9
  2.5520791054396302E+01 a        85     0     4     1    10
 -9.6629095325613612E+00 a        86     0     4     1    11
 -9.5069530230878939E+01 a        87     0     4     1    12
  1.0084091045958496E+01 a        88     0     4     1    13
 -3.5851075119945818E+01 a        89     0     4     1    14
  7.3807010524323772E+01 a        90     0     4     1    15
 -3.6386505058539434E+01 a        91     0     4     1    16
  1.4660186826344827E+01 a        92     0     4     1    17
  5.0939716789764248E+01 a        93     0     4     1    18
  7.6331131043484151E+00 a        94     0     4     1    19
  8.6831280927307186E-02 a        95     0     4     1    20
  6.2851077886894737E+00 a        96     0     4     1    21
 -1.5825338395916420E+00 a        97     0     4     1    22
  1.9362498866877498E+00 a        98     0     4     1    23
 -1.6839237315091921E+01 a        99     0     4     1    24
 -1.7459527936931071E+01 a       100     0     4     1    25
  2.3683735254986504E-01 a       101     0     5     1     1
 -2.4796325641381749E+01 a       102     0     5     1     2
 -4.7333762127343732E+01 a       103     0     5     1     3
  2.1736771654899069E+01 a       104     0     5     1     4
 -1.4861984079200292E+00 a       105     0     5     1     5
  7.2475018840108358E+00 a       106     0     5     1     6
 -3.5988560157829093E+00 a       107     0     5     1     7
  1.5838100317804882E+01 a       108     0     5     1     8
 -3.6520470138547239E+01 a       109     0     5     1     9
 -3.7596526234721729E+01 a       110     0     5     1    10
  2.1418871088474415E+01 a       111     0     5     1    11
  3.0204662721371015E+01 a       112     0     5     1    12
  1.5645330793359932E+02 a       113     0     5     1    13
  1.2206070443629319E+01 a       114     0     5     1    14
  4.0672172401216580E+00 a       115     0     5     1    15
 -1.6025853460889596E+01 a       116     0     5     1    16
 -7.9759741975472451E+00 a       117     0     5     1    17
 -8.5453442227678678E+01 a       118     0     5     1    18
 -6.3058580682774711E+01 a       119     0     5     1    19
  1.5529580730399006E+01 a       120     0     5     1    20
  8.6820670991468404E+01 a       121     0     5     1    21
  3.0676840951433235E+01 a       122     0     5     1    22
 -6.8640607345072453E+01 a       123     0     5     1    23
  6.6499635199491266E+01 a       124     0     5     1    24
  1.5876878030001938E+01 a       125     0     5     1    25
  6.5724652067323435E+00 a       126     0     6     1     1
  3.4716417598842590E+01 a       127     0     6     1     2
 -4.4884097701629628E+01 a       128     0     6     1     3
  5.4029508130780606E+01 a       129     0     6     1     4
  1.7246512050542194E+01 a       130     0     6     1     5
  2.1146399983636154E+01 a       131     0     6     1     6
 -3.3533779891696902E+01 a       132     0     6     1     7
 -9.6767797220821421E+01 a       133     0     6     1     8
 -4.0904349029559008E+01 a       134     0     6     1     9
  6.3073529426012620E+01 a       135     0     6     1    10
 -7.9356923971722946E+00 a       136     0     6     1    11
 -1.7287620223353436E+01 a       137     0     6     1    12
 -8.8608994099291550E+01 a       138     0     6     1    13
  8.9500895019514971E+01 a       139     0     6     1    14
  9.1843510120155543E+01 a       140     0     6     1    15
 -4.2164881586561116E+01 a       141     0     6     1    16
 -3.9735800377307491E+01 a       142     0     6     1    17
  6.4202033983138321E+01 a       143     0     6     1    18
  7.1350422180974931E+01 a       144     0     6     1    19
 -5.8387097353935822E+01 a       145     0     6     1    20
 -5.1503296769608742E-01 a       146     0     6     1    21
 -6.7770454521986295E+01 a       147     0     6     1    22
 -4.7771798904900940E+01 a       148     0     6     1    23
 -1.3799543947377904E+02 a       149     0     6     1    24
  8.7780752511716784E+01 a       150     0     6     1    25
  3.0093022470319497E-01 a       151     0     7     1     1
  8.7603896165650550E+00 a       152     0     7     1     2
  3.5009648121645127E+00 a       153     0     7     1     3
 -9.8375058565870663E+00 a       154     0     7     1     4
 -6.0971919921178575E+01 a       155     0     7     1     5
  2.1294207558052683E+01 a       156     0     7     1     6
 -2.9117575725573403E+01 a       157     0     7     1     7
  1.4123644168017231E+01 a       158     0     7     1     8
  5.5561643554635198E+00 a       159     0     7     1     9
  2.2425015862753388E+00 a       160     0     7     1    10
  7.3352145236031250E+00 a       161     0     7     1    11
 -2.4083023941632554E+01 a       162     0     7     1    12
  3.2696988959355657E+01 a       163     0     7     1    13
 -6.2212028354562330E+00 a       164     0     7     1    14
  4.0730166782183119E+01 a       165     0     7     1    15
  3.9068394732737765E+01 a       166     0     7     1    16
  1.4874581292392879E+01 a       167     0     7     1    17
  2.7270562407125674E+01 a       168     0     7     1    18
 -5.8750867587152193E+01 a       169     0     7     1    19
 -2.0306566776902002E+01 a       170     0     7     1    20
 -5.3717764901487477E+01 a       171     0     7     1    21
 -4.8973812529548439E+01 a       172     0     7     1    22
 -4.1754434353580848E+01 a       173     0     7     1    23
 -2.6997482805817832E+01 a       174     0     7     1    24
  1.6590966214159304E+00 a       175     0     7     1    25
 -4.8838631122567255E+00 a       176     0     8     1     1
  1.1915685380539520E+01 a       177     0     8     1     2
 -1.6246756204543114E+00 a       178     0     8     1     3
 -1.2939469814624850E+01 a       179     0     8     1     4
  2.8675245521888972E+00 a       180     0     8     1     5
 -5.7499644348633536E+00 a       181     0     8     1     6
  3.5462735964144141E+00 a       182     0     8     1     7
  2.1435892190745832E+01 a       183     0     8     1     8
  2.3515239182473863E+01 a       184     0     8     1     9
  2.1022050120012491E+01 a       185     0     8     1    10
 -2.4122707461892340E+01 a       186     0     8     1    11
  3.1070373694595967E+00 a       187     0     8     1    12
 -1.1478886487714156E+02 a       188     0     8     1    13
 -7.9766862412014659E+00 a       189     0     8     1    14
 -1.9489855827278710E+01 a       190     0     8     1    15
  7.7554907608398178E+00 a       191     0     8     1    16
 -1.0384037220263243E+01 a       192     0     8     1    17
  8.4043366910435566E+01 a       193     0     8     1    18
  3.9479217240937260E+01 a       194     0     8     1    19
  1.6126957408616679E+01 a       195     0     8     1    20
 -5.6138158379299064E+01 a       196     0     8     1    21
 -6.7242375113521522E+00 a       197     0     8     1    22
  6.9741492776140902E+01 a       198     0     8     1    23
 -2.3956974384398094E+01 a       199     0     8     1    24
 -2.3704544008949540E+01 a       200     0     8     1    25
 -2.3395279371500224E-01 a       201     0     9     1     1
 -1.9351620443481195E+01 a       202     0     9     1     2
  2.0160292665891141E+01 a       203     0     9     1     3
 -5.2764666978433725E+00 a       204     0     9     1     4
  3.6255585427830496E+01 a       205     0     9     1     5
  4.8898439753801179E+00 a       206     0     9     1     6
  4.3914878140980520E+01 a       207     0     9     1     7
  7.3132072416692949E+01 a       208     0     9     1     8
  8.6433955481733271E+00 a       209     0     9     1     9
 -6.1198516727661811E+00 a       210     0     9     1    10
 -6.4219404173281358E+00 a       211     0     9     1    11
  1.7119510637679326E+01 a       212     0     9     1    12
  3.4291583532024035E+01 a       213     0     9     1    13
 -4.1556348157847033E+01 a       214     0     9     1    14
 -3.4884909129145655E+01 a       215     0     9     1    15
  4.1852073310130599E+01 a       216     0     9     1    16
 -5.5643048303339233E+00 a       217     0     9     1    17
 -9.4817485579420886E+00 a       218     0     9     1    18
 -5.0516883003041988E+00 a       219     0     9     1    19
  2.6912734342331071E+01 a       220     0     9     1    20
 -1.6517993041122782E+01 a       221     0     9     1    21
  5.5744365660211635E+01 a       222     0     9     1    22
  1.3463252901035299E+01 a       223     0     9     1    23
  1.8896347497708459E+00 a       224     0     9     1    24
 -1.6095829415973490E+01 a       225     0     9     1    25
 -5.4148283509471273E+00 a       226     0    10     1     1
 -9.2260734684100569E+00 a       227     0    10     1     2
 -1.4738020386540396E-01 a       228     0    10     1     3
 -1.2544734516192710E+01 a       229     0    10     1     4
  3.1559322641994697E+01 a       230     0    10     1     5
 -9.9838052062083946E+00 a       231     0    10     1     6
  1.5036674863100371E+01 a       232     0    10     1     7
 -8.9583149834054101E+00 a       233     0    10     1     8
  6.8275229713685504E-01 a       234     0    10     1     9
 -6.2154075118134546E+00 a       235     0    10     1    10
 -2.4756996264761728E+00 a       236     0    10     1    11
  3.2643226461331814E+01 a       237     0    10     1    12
 -2.1542864349442720E+01 a       238     0    10     1    13
  1.1908011468151257E+01 a       239     0    10     1    14
 -3.8428056406596468E+01 a       240     0    10     1    15
 -1.8032453520252030E+01 a       241     0    10     1    16
 -1.1277564565470470E+01 a       242     0    10     1    17
 -2.6032408506490068E+01 a       243     0    10     1    18
  3.3081866312062324E+01 a       244     0    10     1    19
  1.2683723338045647E+01 a       245     0    10     1    20
  3.0218142731834977E+01 a       246     0    10     1    21
  2.8948601362499421E+01 a       247     0    10     1    22
  2.3086017496736719E+01 a       248     0    10     1    23
  1.9242234809950300E+01 a       249     0    10     1    24
  2.7689617686675212E+00 a       250     0    10     1    25
 -3.4029852714283342E+00 a       251     0    11     1     1
 -5.2814822415454126E+00 a       252     0    11     1     2
 -1.9995119598783786E+00 a       253     0    11     1     3
  1.9175656484979079E+01 a       254     0    11     1     4
  7.1928510738451639E+00 a       255     0    11     1     5
 -1.3238597016131447E+01 a       256     0    11     1     6
 -9.2749206903322290E-01 a       257     0    11     1     7
 -1.7925826206160920E+01 a       258     0    11     1     8
 -1.5201462806099080E+01 a       259     0    11     1     9
 -1.3992718676995477E+01 a       260     0    11     1    10
  1.1331662370613650E+01 a       261     0    11     1    11
 -3.1385411148178409E+01 a       262     0    11     1    12
  3.1236357266833473E+01 a       263     0    11     1    13
  1.3632830078191164E+01 a       264     0    11     1    14
  3.2765101980618216E+00 a       265     0    11     1    15
  9.2334352937606674E+00 a       266     0    11     1    16
 -1.0127919235976039E+00 a       267     0    11     1    17
 -4.9146637366237783E+01 a       268     0    11     1    18
 -1.3817196807741013E+01 a       269     0    11     1    19
 -2.3257594139355053E+01 a       270     0    11     1    20
  4.3961363890359726E+00 a       271     0    11     1    21
 -2.1607841968323700E+00 a       272     0    11     1    22
 -5.9825047123601294E+01 a       273     0    11     1    23
 -3.7634019410865291E+00 a       274     0    11     1    24
  2.4567873827618431E+01 a       275     0    11     1    25
 -1.4397558405741340E+00 a       276     0    12     1     1
  4.7561155722863226E+00 a       277     0    12     1     2
 -1.7974015960331797E+00 a       278     0    12     1     3
 -1.4194446707514183E+01 a       279     0    12     1     4
 -3.5456834969348733E+01 a       280     0    12     1     5
 -1.4961372389044872E+01 a       281     0    12     1     6
 -2.5985044816980061E+01 a       282     0    12     1     7
 -3.3837353906269968E+01 a       283     0    12     1     8
  6.4782550741937408E+00 a       284     0    12     1     9
 -1.6307494390675338E+01 a       285     0    12     1    10
  7.7454645083916036E+00 a       286     0    12     1    11
 -1.3941120058765337E+01 a       287     0    12     1    12
  1.2476373108073151E+00 a       288     0    12     1    13
  7.0949112873370135E+00 a       289     0    12     1    14
 -1.5222773640244902E-01 a       290     0    12     1    15
 -2.6139151483733563E+01 a       291     0    12     1    16
  1.4650825908624363E+01 a       292     0    12     1    17
 -2.1484978411644754E+01 a       293     0    12     1    18
 -2.5410583014833936E+01 a       294     0    12     1    19
 -1.7294869221340550E-01 a       295     0    12     1    20
  1.0160604632861691E+01 a       296     0    12     1    21
 -2.4620537195856315E+01 a       297     0    12     1    22
 -1.6640738934737072E+00 a       298     0    12     1    23
  4.5807000056360792E+01 a       299     0    12     1    24
 -1.6170920613653397E+01 a       300     0    12     1    25
  7.1259076877382352E-02 a       301     0    13     1     1
  8.8220013713039547E-01 a       302     0    13     1     2
  1.1285910264784484E+00 a       303     0    13     1     3
 -3.8899331277968403E+00 a       304     0    13     1     4
 -2.8619281305949476E+00 a       305     0    13     1     5
  9.3537283339794772E+00 a       306     0    13     1     6
 -8.3548640411849684E-01 a       307     0    13     1     7
  6.4508135642823703E+00 a       308     0    13     1     8
  5.2817860886982952E+00 a       309     0    13     1     9
  3.6525362596045357E+00 a       310     0    13     1    10
 -1.5742442641410705E+00 a       311     0    13     1    11
  1.3208166006831279E+01 a       312     0    13     1    12
  1.9352200540531606E+00 a       313     0    13     1    13
 -7.1061538966764335E+00 a       314     0    13     1    14
  3.0365749946087774E+00 a       315     0    13     1    15
 -1.4232801826280006E+01 a       316     0    13     1    16
  3.6487450871183000E+00 a       317     0    13     1    17
  8.4467990771035186E+00 a       318     0    13     1    18
  9.8177495133721955E+00 a       319     0    13     1    19
  5.2083988041239628E+00 a       320     0    13     1    20
  6.0520266562081968E+00 a       321     0    13     1    21
  1.8230373328024045E+00 a       322     0    13     1    22
  2.2872193260039168E+01 a       323     0    13     1    23
  4.4113839051490616E-01 a       324     0    13     1    24
 -4.1580301705653939E+00 a       325     0    13     1    25
  3.8431910536806402E-01 a       326     0    14     1     1
  1.0685398596082178E+00 a       327     0    14     1     2
 -2.9785823915121640E-01 a       328     0    14     1     3
  2.8001072572862942E+00 a       329     0    14     1     4
  4.7768981737529908E+00 a       330     0    14     1     5
  2.5841564259971825E+00 a       331     0    14     1     6
  3.7952166559496261E+00 a       332     0    14     1     7
  5.3436212882817982E+00 a       333     0    14     1     8
 -9.7665727579074013E-01 a       334     0    14     1     9
  3.3276396768664900E+00 a       335     0    14     1    10
 -9.3593502008355323E-01 a       336     0    14     1    11
  2.9949905653706481E+00 a       337     0    14     1    12
 -1.7530529513953519E-01 a       338     0    14     1    13
 -7.2080088298478368E-02 a       339     0    14     1    14
  1.4003168823623380E+00 a       340     0    14     1    15
  4.4267356526704056E+00 a       341     0    14     1    16
 -6.4614455123312786E-01 a       342     0    14     1    17
  5.0398652513626381E+00 a       343     0    14     1    18
  3.2073590490225046E+00 a       344     0    14     1    19
 -3.1969330572493688E+00 a       345     0    14     1    20
 -1.4817530141419311E+00 a       346     0    14     1    21
  2.0957263693828723E+00 a       347     0    14     1    22
  1.4335799767921271E+00 a       348     0    14     1    23
 -7.2316064724555842E+00 a       349     0    14     1    24
  3.6312035908142879E+00 a       350     0    14     1    25
 -9.0659956797196450E+00 a       351     0    15     1     1
 -1.5576555031246819E+01 a       352     0    15     1     2
  4.9627051257481669E-01 a       353     0    15     1     3
 -2.9603984672127108E+01 a       354     0    15     1     4
  1.6050727842908380E+01 a       355     0    15     1     5
 -3.3900192060167518E+00 a       356     0    15     1     6
  1.0200760989610236E+01 a       357     0    15     1     7
 -7.8121485697048803E+00 a       358     0    15     1     8
  5.0919119328826001E+00 a       359     0    15     1     9
 -9.6804725087487711E+00 a       360     0    15     1    10
 -1.3394477290696094E+00 a       361     0    15     1    11
  4.8248601751328266E+01 a       362     0    15     1    12
 -3.0170898619558173E+01 a       363     0    15     1    13
  8.5030918857662634E+00 a       364     0    15     1    14
 -4.3167693529425762E+01 a       365     0    15     1    15
 -1.3520920807555171E+01 a       366     0    15     1    16
 -2.5383666538918465E+01 a       367     0    15     1    17
 -3.5376470402263024E+01 a       368     0    15     1    18
  3.8409394352500875E+01 a       369     0    15     1    19
  9.7170640997853059E+00 a       370     0    15     1    20
  2.0226934032791441E+01 a       371     0    15     1    21
  1.8743314208753514E+01 a       372     0    15     1    22
  2.4940140515277065E+01 a       373     0    15     1    23
  1.3814815460201160E+01 a       374     0    15     1    24
  6.2771236424915342E+00 a       375     0    15     1    25
  1.0767588177169265E+00 a       376     0    16     1     1
 -4.6557788742595516E+00 a       377     0    16     1     2
  6.3358882527125315E-01 a       378     0    16     1     3
  5.8209518453749887E+00 a       379     0    16     1     4
 -3.7876080713599197E-01 a       380     0    16     1     5
 -1.7214969077435218E+00 a       381     0    16     1     6
 -2.9950258995822772E+00 a       382     0    16     1     7
  1.6481710835412500E+00 a       383     0    16     1     8
 -6.1490030261993811E-01 a       384     0    16     1     9
  7.2367898650334106E-01 a       385     0    16     1    10
  8.9770752361639794E-01 a       386     0    16     1    11
  5.8866017885462940E-01 a       387     0    16     1    12
  6.5648919189141628E+00 a       388     0    16     1    13
 -4.0253728786342329E+00 a       389     0    16     1    14
  2.5486983625739037E+00 a       390     0    16     1    15
 -1.7674982465035413E-01 a       391     0    16     1    16
  1.7646305847663242E+00 a       392     0    16     1    17
 -5.5723954915018403E-01 a       393     0    16     1    18
 -2.3965636673819781E+00 a       394     0    16     1    19
  3.5906384698603971E-01 a       395     0    16     1    20
  1.5826381824764018E+00 a       396     0    16     1    21
 -3.7848358707486858E+00 a       397     0    16     1    22
  6.0945243837275409E-01 a       398     0    16     1    23
  2.1508022802571856E+00 a       399     0    16     1    24
  1.2813689186526720E+00 a       400     0    16     1    25
  2.6308633431112316E+00 a       401     0    17     1     1
  7.1756357602239014E+00 a       402     0    17     1     2
  4.2417050728795127E+00 a       403     0    17     1     3
  6.3332434625425629E+00 a       404     0    17     1     4
  1.2296464402079648E+00 a       405     0    17     1     5
 -3.3570823609486928E+00 a       406     0    17     1     6
 -1.1170565549828018E+00 a       407     0    17     1     7
  2.0552355925620343E+00 a       408     0    17     1     8
 -1.9959597826467035E+00 a       409     0    17     1     9
  2.4172326770662642E+00 a       410     0    17     1    10
  6.2573477778399145E-01 a       411     0    17     1    11
 -1.5176065748589730E+01 a       412     0    17     1    12
  9.1708634980224719E+00 a       413     0    17     1    13
 -9.4428700497937135E-01 a       414     0    17     1    14
  9.6601732732865973E+00 a       415     0    17     1    15
  3.5918726106974597E+00 a       416     0    17     1    16
  1.2921618395179291E+01 a       417     0    17     1    17
  8.5915573789905757E+00 a       418     0    17     1    18
 -1.0187022852167727E+01 a       419     0    17     1    19
 -7.2533106556153371E-01 a       420     0    17     1    20
 -1.1047025223139284E+00 a       421     0    17     1    21
 -1.6225588953566017E+00 a       422     0    17     1    22
 -8.3642560936203161E+00 a       423     0    17     1    23
 -1.7928924558867987E+00 a       424     0    17     1    24
 -1.6275941811509427E+00 a       425     0    17     1    25
  1.2965448071752950E+00 a       426     0    18     1     1
  1.2942111436263843E+00 a       427     0    18     1     2
  6.6560082449523978E+00 a       428     0    18     1     3
 -1.1931918525865095E+01 a       429     0    18     1     4
 -1.4620911865193394E+01 a       430     0    18     1     5
 -5.5803187915484997E+00 a       431     0    18     1     6
 -9.5603917243344994E-01 a       432     0    18     1     7
  1.5302763889099600E+00 a       433     0    18     1     8
  6.4056801263216316E+00 a       434     0    18     1     9
 -7.8736823279328476E+00 a       435     0    18     1    10
  4.6474812453741210E+00 a       436     0    18     1    11
 -6.0807743226597943E-01 a       437     0    18     1    12
  1.1157545339216151E+01 a       438     0    18     1    13
 -5.5998275868750156E+00 a       439     0    18     1    14
 -3.7793473487894489E+00 a       440     0    18     1    15
  5.5720598559142847E+00 a       441     0    18     1    16
  6.6572807287542730E+00 a       442     0    18     1    17
 -5.8659051275625123E+00 a       443     0    18     1    18
 -2.5494852424525284E+01 a       444     0    18     1    19
 -1.0218844007929810E+00 a       445     0    18     1    20
 -3.5551881408049244E+00 a       446     0    18     1    21
 -3.9852046192615220E+00 a       447     0    18     1    22
  1.4027484636744060E+01 a       448     0    18     1    23
  2.2559975868866189E+01 a       449     0    18     1    24
 -1.4416381563048757E+01 a       450     0    18     1    25
 -5.4157325177487958E-01 a       451     0    19     1     1
  1.3720301500512893E+00 a       452     0    19     1     2
  1.9104953288176044E-01 a       453     0    19     1     3
 -2.7949659099301609E+00 a       454     0    19     1     4
 -8.8728543960966788E-01 a       455     0    19     1     5
  1.3077297267934580E+00 a       456     0    19     1     6
  1.1104078070381036E+00 a       457     0    19     1     7
 -2.0979595282224681E-01 a       458     0    19     1     8
  1.1571395730472713E+00 a       459     0    19     1     9
  9.6969956285831327E-02 a       460     0    19     1    10
 -2.8998221894002435E-01 a       461     0    19     1    11
  1.8384017189974751E+00 a       462     0    19     1    12
 -1.6725276866916903E+00 a       463     0    19     1    13
  1.2491758110864315E-01 a       464     0    19     1    14
 -1.2484818423360935E+00 a       465     0    19     1    15
 -2.9491151036516636E+00 a       466     0    19     1    16
  8.3159918929566090E-01 a       467     0    19     1    17
  7.0111827720001796E-01 a       468     0    19     1    18
  4.2022316186923501E+00 a       469     0    19     1    19
 -3.6589075074499372E-01 a       470     0    19     1    20
  1.9427289747744929E+00 a       471     0    19     1    21
  1.3300709435693532E+00 a       472     0    19     1    22
  2.9643267720469009E+00 a       473     0    19     1    23
 -5.1970513091782844E-01 a       474     0    19     1    24
 -2.0258850614787813E+00 a       475     0    19     1    25
 -8.8985021675292431E-01 a       476     0    20     1     1
 -9.7269245570355312E-01 a       477     0    20     1     2
 -1.7049187841137521E+00 a       478     0    20     1     3
  4.1455960405318919E+00 a       479     0    20     1     4
  6.3633811696461571E+00 a       480     0    20     1     5
 -1.9365320407120754E-01 a       481     0    20     1     6
 -2.3644533110374336E-01 a       482     0    20     1     7
 -2.5732608145105704E+00 a       483     0    20     1     8
 -2.1345883124231375E+00 a       484     0    20     1     9
  1.0689398039855755E+00 a       485     0    20     1    10
 -1.8183361559810316E+00 a       486     0    20     1    11
 -3.2679693560003313E+00 a       487     0    20     1    12
 -3.1257368575240307E+00 a       488     0    20     1    13
  2.1643143172311397E+00 a       489     0    20     1    14
  2.2499491459926813E-01 a       490     0    20     1    15
 -5.8919752881912713E+00 a       491     0    20     1    16
 -1.7325696083097684E+00 a       492     0    20     1    17
 -4.3178572156939588E+00 a       493     0    20     1    18
  7.6375105725873214E+00 a       494     0    20     1    19
  1.4184865173566954E+00 a       495     0    20     1    20
  1.3794883766372439E+00 a       496     0    20     1    21
  2.0665316163802947E+00 a       497     0    20     1    22
 -1.0621451096951313E+01 a       498     0    20     1    23
 -3.7967839394050649E+00 a       499     0    20     1    24
  4.9005651072464644E+00 a       500     0    20     1    25
  1.8905508987683134E-01 a       501     0    21     1     1
  1.7387176992599476E+00 a       502     0    21     1     2
  3.2102852832165323E+00 a       503     0    21     1     3
 -3.6471966542483090E+00 a       504     0    21     1     4
  2.1036858160512351E+00 a       505     0    21     1     5
 -2.0216481459917914E+00 a       506     0    21     1     6
  5.1315007321975870E-01 a       507     0    21     1     7
  1.3660633466232865E+00 a       508     0    21     1     8
  1.9254258827154574E-01 a       509     0    21     1     9
 -4.0066356670625153E-01 a       510     0    21     1    10
 -1.0002332135223065E-01 a       511     0    21     1    11
  4.0036008225920994E-01 a       512     0    21     1    12
 -2.3176275085907583E+00 a       513     0    21     1    13
  7.3289070382178401E-01 a       514     0    21     1    14
 -1.1945407836356861E+00 a       515     0    21     1    15
 -1.6507405064245197E+00 a       516     0    21     1    16
  8.1634126784125649E-01 a       517     0    21     1    17
 -1.4433057074615454E+00 a       518     0    21     1    18
  1.4585773756519573E+00 a       519     0    21     1    19
  3.0372506834567354E+00 a       520     0    21     1    20
  2.1736242530439061E+00 a       521     0    21     1    21
  2.0406253860860946E+00 a       522     0    21     1    22
 -4.7001194014577440E-02 a       523     0    21     1    23
  1.0390318701117199E-01 a       524     0    21     1    24
  8.7452028973947982E-01 a       525     0    21     1    25
 -7.0714431459309346E-01 a       526     0    22     1     1
 -8.2218423033982177E-02 a       527     0    22     1     2
  1.7089814833381112E+00 a       528     0    22     1     3
 -7.3432597593426041E-01 a       529     0    22     1     4
 -1.6452309643540712E+00 a       530     0    22     1     5
  1.1001736552135093E+00 a       531     0    22     1     6
 -1.0711766200974022E+00 a       532     0    22     1     7
  1.9926725762538662E+00 a       533     0    22     1     8
  1.3694608157393025E+00 a       534     0    22     1     9
 -4.3048530509786964E-02 a       535     0    22     1    10
  1.4770603351129039E-01 a       536     0    22     1    11
 -1.4755261929254275E+00 a       537     0    22     1    12
 -1.4716600891045610E+00 a       538     0    22     1    13
 -1.5802710143654419E+00 a       539     0    22     1    14
  3.4258757249837588E+00 a       540     0    22     1    15
 -9.6746513393408773E-01 a       541     0    22     1    16
 -5.5182110298738007E-01 a       542     0    22     1    17
 -2.7325438068328722E-01 a       543     0    22     1    18
  1.5021287337747600E+00 a       544     0    22     1    19
  1.6614622620859139E+00 a       545     0    22     1    20
  8.8222410894624470E-01 a       546     0    22     1    21
 -7.0070226343096365E-01 a       547     0    22     1    22
 -2.8829390708971531E-01 a       548     0    22     1    23
 -1.8585274054586820E+00 a       549     0    22     1    24
  7.7024410633179996E-01 a       550     0    22     1    25
 -5.5246265041350340E-01 a       551     0    23     1     1
 -1.7803317150452129E+00 a       552     0    23     1     2
 -2.2753438507404442E+00 a       553     0    23     1     3
  1.6654012691182578E+00 a       554     0    23     1     4
 -7.9657347470186379E-01 a       555     0    23     1     5
  8.3960548765249743E-01 a       556     0    23     1     6
  6.9472630882816577E-02 a       557     0    23     1     7
 -7.2920498487367069E-01 a       558     0    23     1     8
  7.8412825286537056E-03 a       559     0    23     1     9
 -2.8628562485487181E-02 a       560     0    23     1    10
  2.4563055268329092E-02 a       561     0    23     1    11
  7.6579148813562448E-01 a       562     0    23     1    12
  3.6463079939530924E-01 a       563     0    23     1    13
 -2.4800875385638840E-01 a       564     0    23     1    14
 -4.1978394975225747E-01 a       565     0    23     1    15
  1.1423392112865902E+00 a       566     0    23     1    16
 -1.2984337029895685E+00 a       567     0    23     1    17
 -5.6930090514615295E-01 a       568     0    23     1    18
  4.5823035288021348E-02 a       569     0    23     1    19
 -2.2814344874234469E+00 a       570     0    23     1    20
 -7.9431397704401597E-03 a       571     0    23     1    21
 -5.3375653566247461E-01 a       572     0    23     1    22
  8.8290006038663404E-01 a       573     0    23     1    23
  3.4611026729963784E-01 a       574     0    23     1    24
 -2.5709001329816861E-01 a       575     0    23     1    25
  1.6200854576642474E-02 a       576     0    24     1     1
  1.2878001257873928E+00 a       577     0    24     1     2
 -8.6360918364857153E-01 a       578     0    24     1     3
  8.7610139916680108E-01 a       579     0    24     1     4
  1.5393269602205839E+00 a       580     0    24     1     5
 -1.8545381119702058E+00 a       581     0    24     1     6
  2.0589370254810510E-01 a       582     0    24     1     7
  2.7023789029750004E-02 a       583     0    24     1     8
 -6.8658117003112906E-01 a       584     0    24     1     9
 -7.8341922872894776E-01 a       585     0    24     1    10
 -2.8253209856101719E-01 a       586     0    24     1    11
 -1.4461784617246289E+00 a       587     0    24     1    12
  1.2777725467456214E+00 a       588     0    24     1    13
  1.0295620107285472E+00 a       589     0    24     1    14
 -1.0231672696031540E+00 a       590     0    24     1    15
 -8.2036293356278001E-01 a       591     0    24     1    16
  8.0164409509518295E-02 a       592     0    24     1    17
 -3.8553317723602660E+00 a       593     0    24     1    18
 -3.0036994316021284E+00 a       594     0    24     1    19
 -4.6275294777869530E-01 a       595     0    24     1    20
 -9.0931443500840670E-01 a       596     0    24     1    21
  5.5846946782657103E-01 a       597     0    24     1    22
 -1.4911767182798357E+00 a       598     0    24     1    23
  1.4592508067298244E+00 a       599     0    24     1    24
  6.0691049126987284E-01 a       600     0    24     1    25
  2.5811966829173494E-01 a       601     0    25     1     1
 -2.8916164128624527E-01 a       602     0    25     1     2
 -1.6209834923740822E+00 a       603     0    25     1     3
  1.0830225874722572E+00 a       604     0    25     1     4
  1.3367734858596469E+00 a       605     0    25     1     5
 -5.5409037366069624E-01 a       606     0    25     1     6
  8.1814728533324466E-01 a       607     0    25     1     7
 -8.5418679318570490E-01 a       608     0    25     1     8
 -8.8506360718372701E-01 a       609     0    25     1     9
  1.1113652195717661E-02 a       610     0    25     1    10
 -1.8792313037314373E-01 a       611     0    25     1    11
  1.0733801889564680E+00 a       612     0    25     1    12
  7.6470626950084042E-01 a       613     0    25     1    13
  7.3318102661703177E-01 a       614     0    25     1    14
 -2.6108248570953885E+00 a       615     0    25     1    15
  4.9731999275179656E-02 a       616     0    25     1    16
 -3.1033755199179081E-01 a       617     0    25     1    17
  1.1589861187522557E+00 a       618     0    25     1    18
 -9.1336695725884054E-01 a       619     0    25     1    19
 -9.6826298653037235E-01 a       620     0    25     1    20
 -1.3749805715371350E+00 a       621     0    25     1    21
  8.5982497854768081E-01 a       622     0    25     1    22
  1.0458633588010233E+00 a       623     0    25     1    23
  1.3118258817478743E+00 a       624     0    25     1    24
 -3.0537450077100549E-02 a       625     0    25     1    25
 -6.4461920613396615E-04 a       626     0    26     1     1
 -1.3016627215842287E+00 a       627     0    26     1     2
  1.6669577360120091E+00 a       628     0    26     1     3
 -1.0560467073159170E+00 a       629     0    26     1     4
 -1.2227139808293472E+00 a       630     0    26     1     5
  8.2850265274400980E-01 a       631     0    26     1     6
 -1.4084353933374874E-01 a       632     0    26     1     7
 -3.8379703061549081E-01 a       633     0    26     1     8
  4.2023904027948145E-01 a       634     0    26     1     9
  5.2514000483864220E-01 a       635     0    26     1    10
  4.4566895880845353E-01 a       636     0    26     1    11
  7.6219209968173940E-01 a       637     0    26     1    12
 -7.2542917662520767E-01 a       638     0    26     1    13
 -7.1666253009321301E-01 a       639     0    26     1    14
  1.0549593769343466E+00 a       640     0    26     1    15
  1.9685918106570588E+00 a       641     0    26     1    16
 -7.2873406135735441E-01 a       642     0    26     1    17
  2.4500083340973995E+00 a       643     0    26     1    18
  1.4187500957683592E+00 a       644     0    26     1    19
  4.2063264825857816E-01 a       645     0    26     1    20
  9.6960196829574385E-01 a       646     0    26     1    21
 -4.6683736832268735E-01 a       647     0    26     1    22
  2.2964043586164096E-01 a       648     0    26     1    23
 -8.8444777189668711E-01 a       649     0    26     1    24
 -4.5299356054885120E-01 a       650     0    26     1    25
  2.5428800809477972E+00 a       651     0    27     1     1
  8.0988478413788076E+00 a       652     0    27     1     2
  4.7704111843832075E+00 a       653     0    27     1     3
 -1.7318607561690548E+01 a       654     0    27     1     4
 -5.9630046630673030E+00 a       655     0    27     1     5
  7.7280632738108066E+00 a       656     0    27     1     6
  4.7540335185489546E+00 a       657     0    27     1     7
  5.6037933988856237E+00 a       658     0    27     1     8
 -1.7266778668174874E+00 a       659     0    27     1     9
  4.1875177941411339E+00 a       660     0    27     1    10
 -2.6223372429520486E+00 a       661     0    27     1    11
  8.8320192753229598E+00 a       662     0    27     1    12
 -5.1038223301056052E+00 a       663     0    27     1    13
 -1.7370803492363511E+00 a       664     0    27     1    14
  2.9692715517640278E+00 a       665     0    27     1    15
  3.0895739554121988E+00 a       666     0    27     1    16
 -2.5453702701935916E+00 a       667     0    27     1    17
  1.6266524663324141E+01 a       668     0    27     1    18
 -1.9980740872295165E+01 a       669     0    27     1    19
  8.5240978598629340E+00 a       670     0    27     1    20
  6.0994895361379831E-01 a       671     0    27     1    21
 -2.9499332125042230E-02 a       672     0    27     1    22
  2.6021786362447918E+00 a       673     0    27     1    23
  9.7854188506589992E+00 a       674     0    27     1    24
 -9.4299557267922030E+00 a       675     0    27     1    25
  1.0039908267010074E+00 a       676     0    28     1     1
 -5.8442305676571948E-01 a       677     0    28     1     2
  1.6004600287105223E+01 a       678     0    28     1     3
 -1.1775151902391126E+01 a       679     0    28     1     4
 -1.6408622846797110E+00 a       680     0    28     1     5
  1.7177850868495995E+01 a       681     0    28     1     6
  7.4774812437430001E+00 a       682     0    28     1     7
 -8.4335693235164104E+00 a       683     0    28     1     8
  7.6553576155324965E+00 a       684     0    28     1     9
  6.1778990305948756E-01 a       685     0    28     1    10
  3.4121114579048522E+00 a       686     0    28     1    11
  6.2678843178311601E+00 a       687     0    28     1    12
  2.9325429172076074E+00 a       688     0    28     1    13
 -7.0166283240480221E+00 a       689     0    28     1    14
  9.0974342683933429E+00 a       690     0    28     1    15
 -4.9096380883065818E+00 a       691     0    28     1    16
  1.3034303912133685E+00 a       692     0    28     1    17
 -1.3377143675589722E+00 a       693     0    28     1    18
  1.6845229798739737E+01 a       694     0    28     1    19
 -2.4810397186867768E+00 a       695     0    28     1    20
  1.0289014913152737E+01 a       696     0    28     1    21
  3.0388893862225141E+00 a       697     0    28     1    22
  6.6983035211032798E+00 a       698     0    28     1    23
 -8.2493371113028395E+00 a       699     0    28     1    24
 -4.8207348535641337E-01 a       700     0    28     1    25
  8.8805576626204336E-02 a       701     0    29     1     1
 -6.2543305446440431E+00 a       702     0    29     1     2
 -2.7280708834509402E+00 a       703     0    29     1     3
  9.3061364817085579E+00 a       704     0    29     1     4
  1.5728640990709444E+00 a       705     0    29     1     5
 -1.3801569393607243E+01 a       706     0    29     1     6
  3.2347520820819341E-02 a       707     0    29     1     7
 -7.0141972488112270E+00 a       708     0    29     1     8
 -7.6194919825599083E-01 a       709     0    29     1     9
 -3.0397273928061042E+00 a       710     0    29     1    10
 -2.4735365066149237E-01 a       711     0    29     1    11
 -7.9359533504863764E+00 a       712     0    29     1    12
  3.4310181677123945E+00 a       713     0    29     1    13
 -6.4918377995969068E-01 a       714     0    29     1    14
 -3.3305285511980669E+00 a       715     0    29     1    15
  4.1490803908236673E+00 a       716     0    29     1    16
  2.4306801963425659E+00 a       717     0    29     1    17
 -9.6112431116340158E+00 a       718     0    29     1    18
  8.6321757121965081E+00 a       719     0    29     1    19
 -4.3496406832830452E+00 a       720     0    29     1    20
 -1.3093607709520396E+00 a       721     0    29     1    21
 -3.2394433183036608E+00 a       722     0    29     1    22
 -5.0822188555735623E+00 a       723     0    29     1    23
 -3.9542146071013216E+00 a       724     0    29     1    24
  3.4305327916101008E-01 a       725     0    29     1    25
 -2.5108441667323322E-01 a       726     0    30     1     1
  8.1112873153868936E-01 a       727     0    30     1     2
 -4.1937705327304906E+00 a       728     0    30     1     3
  2.3456394931266673E+00 a       729     0    30     1     4
  5.9773396985464833E-01 a       730     0    30     1     5
 -3.3468973987405659E-01 a       731     0    30     1     6
 -7.0422746382550256E+00 a       732     0    30     1     7
  3.6935194491860179E+00 a       733     0    30     1     8
 -8.3913723483413183E-01 a       734     0    30     1     9
  1.8273753504479395E+00 a       735     0    30     1    10
 -3.5323233037214141E-01 a       736     0    30     1    11
  2.4223117563566663E+00 a       737     0    30     1    12
 -1.7969613127038260E+00 a       738     0    30     1    13
  4.0039318377399260E+00 a       739     0    30     1    14
 -3.2283103470685961E+00 a       740     0    30     1    15
  2.6318612767463074E+00 a       741     0    30     1    16
 -5.3527384621405960E-01 a       742     0    30     1    17
  2.1041203368407664E+00 a       743     0    30     1    18
 -7.4460712783677838E+00 a       744     0    30     1    19
  3.7429741537101044E+00 a       745     0    30     1    20
 -1.4526251919198472E+00 a       746     0    30     1    21
  2.0232888078547915E+00 a       747     0    30     1    22
  4.5203228192694089E-01 a       748     0    30     1    23
  4.3445479191547109E+00 a       749     0    30     1    24
  9.9919726422334110E-01 a       750     0    30     1    25
 -1.3257151293441654E+00 b       751     1     1
  1.9574183793253827E-01 b       752     1     2
 -8.9694642792683543E-01 b       753     1     3
  1.0547778766300981E+00 b       754     1     4
 -9.9181620082200084E-01 b       755     1     5
 -6.0284435094652338E+00 b       756     1     6
  7.6205655225017810E-01 b       757     1     7
 -1.7943125292504036E+00 b       758     1     8
  2.5518853134155872E+00 b       759     1     9
  1.7684859452139094E+00 b       760     1    10
  1.5887390040563948E-01 b       761     1    11
  1.3383664654570973E+00 b       762     1    12
 -1.4497758956961764E+00 b       763     1    13
  7.7331706147597290E-01 b       764     1    14
 -3.6272611335425330E-02 b       765     1    15
 -3.9294478726157184E-01 b       766     1    16
  9.8811923241339183E-01 b       767     1    17
 -2.4462923168328814E+00 b       768     1    18
  1.8016092005694229E+00 b       769     1    19
  7.1013160234256534E-01 b       770     1    20
 -1.1007283468599156E+00 b       771     1    21
  1.7207594712265224E+00 b       772     1    22
 -2.4343742642344894E+00 b       773     1    23
 -5.6291349739401342E-01 b       774     1    24
  1.9499953536427441E+00 b       775     1    25
  1.2700071054570550E+00 a       776     1     1     2     1
 -5.6482184834246789E+00 a       777     1     1     2     2
  1.1486547508345097E+00 a       778     1     1     2     3
 -6.6283936400066716E+00 a       779     1     1     2     4
 -2.7907093273353305E+00 a       780     1     1     2     5
 -3.7400443732535047E+00 a       781     1     1     2     6
 -2.4255231073530790E+00 a       782     1     1     2     7
 -1.9448689429954429E+00 a       783     1     1     2     8
  6.6771844527332522E-02 a       784     1     1     2     9
  1.0323924777049669E-01 a       785     1     1     2    10
  4.5624056705970301E-01 a       786     1     1     2    11
 -9.0865140121109045E-01 a       787     1     1     2    12
  1.8136356402361913E+00 a       788     1     1     2    13
 -1.9212444605641303E+00 a       789     1     1     2    14
 -4.6737461393601643E-01 a       790     1     1     2    15
  1.9251540868120467E+00 a       791     1     1     2    16
 -9.5633351334588468E-01 a       792     1     1     2    17
  8.4377053336918750E-01 a       793     1     1     2    18
 -5.7689190859665962E-01 a       794     1     1     2    19
  1.5284399760853903E-01 a       795     1     1     2    20
 -3.6582468712291882E-01 a       796     1     1     2    21
 -1.7014973459855098E+00 a       797     1     1     2    22
  2.4783907467858115E+00 a       798     1     1     2    23
 -1.3928219299652529E+00 a       799     1     1     2    24
  7.6438093433249435E-02 a       800     1     1     2    25
 -1.2432129803476093E+00 a       801     1     2     2     1
  6.6618113018412739E-01 a       802     1     2     2     2
  1.6350923707540193E+00 a       803     1     2     2     3
 -3.0576018868711541E-01 a       804     1     2     2     4
  4.0215650148512316E-01 a       805     1     2     2     5
  1.1530834511227244E+00 a       806     1     2     2     6
 -1.9863251271339695E+00 a       807     1     2     2     7
 -7.4925365630131768E-01 a       808     1     2     2     8
 -4.7560738317025569E-01 a       809     1     2     2     9
  7.7722214609586204E-01 a       810     1     2     2    10
 -3.8740540802749773E-01 a       811     1     2     2    11
  1.0557030139403254E+00 a       812     1     2     2    12
  1.2621315514952256E+00 a       813     1     2     2    13
 -5.4577101462286814E-01 a       814     1     2     2    14
 -2.4985240602895358E+00 a       815     1     2     2    15
 -3.5094510158693942E-02 a       816     1     2     2    16
 -1.0537593187275047E+00 a       817     1     2     2    17
  1.9042250112431578E+00 a       818     1     2     2    18
  9.3892589207151400E-01 a       819     1     2     2    19
 -1.1444147858377081E-01 a       820     1     2     2    20
 -1.0476780199184632E+00 a       821     1     2     2    21
 -5.0736592835539485E-01 a       822     1     2     2    22
  6.0066509090651732E-01 a       823     1     2     2    23
  1.6225126705074762E+00 a       824     1     2     2    24
 -1.9516233149553144E+00 a       825     1     2     2    25
  1.8710204774423778E-01 a       826     1     3     2     1
  6.1084375608644281E-01 a       827     1     3     2     2
  1.0190770013397472E+00 a       828     1     3     2     3
  7.9380687703115871E-01 a       829     1     3     2     4
 -3.1553420247033021E-01 a       830     1     3     2     5
  8.5819539075759155E-01 a       831     1     3     2     6
 -9.8810348410387083E-01 a       832     1     3     2     7
  8.1367987260844465E-01 a       833     1     3     2     8
 -3.5072891362905984E-01 a       834     1     3     2     9
 -8.6651540993414755E-01 a       835     1     3     2    10
 -3.3704971838334724E-01 a       836     1     3     2    11
  1.8098605733513112E-01 a       837     1     3     2    12
  8.3535875555375105E-01 a       838     1     3     2    13
  9.0782635806190826E-01 a       839     1     3     2    14
  1.1673176478285989E+00 a       840     1     3     2    15
 -1.8747878385572208E+00 a       841     1     3     2    16
  1.3307900826497798E-01 a       842     1     3     2    17
  7.8841013075249433E-01 a       843     1     3     2    18
  2.7706740679129904E-01 a       844     1     3     2    19
 -1.4033795386574022E-01 a       845     1     3     2    20
 -9.1233685138836096E-01 a       846     1     3     2    21
 -5.2327212329578909E-01 a       847     1     3     2    22
 -1.6092375584638881E+00 a       848     1     3     2    23
 -2.6611239400513548E-01 a       849     1     3     2    24
 -6.3157846955530872E-01 a       850     1     3     2    25
  6.1836831392143055E-01 a       851     1     4     2     1
  8.7156972282841205E-01 a       852     1     4     2     2
 -1.0835363531256557E+00 a       853     1     4     2     3
  1.7949612957578420E+00 a       854     1     4     2     4
  2.4257332627853290E-01 a       855     1     4     2     5
  2.8925733661758861E+00 a       856     1     4     2     6
 -5.5919219544520549E-01 a       857     1     4     2     7
  4.0043055581953718E-01 a       858     1     4     2     8
 -8.4703797744146492E-02 a       859     1     4     2     9
 -5.9332747176434740E-02 a       860     1     4     2    10
 -1.3395954867807947E+00 a       861     1     4     2    11
  5.7967361934403161E-02 a       862     1     4     2    12
  8.0049661336101807E-02 a       863     1     4     2    13
  1.3926432777757161E+00 a       864     1     4     2    14
 -8.6320759961870408E-01 a       865     1     4     2    15
  1.7636801970986185E-01 a       866     1     4     2    16
  1.5152010551312232E+00 a       867     1     4     2    17
  1.3213155861184649E+00 a       868     1     4     2    18
  3.2440409691136805E-03 a       869     1     4     2    19
  9.4395161661172822E-01 a       870     1     4     2    20
 -7.2675570883504084E-02 a       871     1     4     2    21
 -6.1581190107164036E-03 a       872     1     4     2    22
  1.7984465899555166E-01 a       873     1     4     2    23
 -8.7323796922220387E-01 a       874     1     4     2    24
  2.3128209469074386E+00 a       875     1     4     2    25
  5.0068498104956483E-01 a       876     1     5     2     1
  6.6744304303837221E-01 a       877     1     5     2     2
 -1.6571724399583809E+00 a       878     1     5     2     3
  4.4359961382637083E+00 a       879     1     5     2     4
  2.0301742777528911E+00 a       880     1     5     2     5
 -7.8282308088095143E-01 a       881     1     5     2     6
  1.8046170366696752E+00 a       882     1     5     2     7
 -2.1461225154639489E+00 a       883     1     5     2     8
  1.0846196594374551E+00 a       884     1     5     2     9
  8.1005739629311901E-01 a       885     1     5     2    10
 -6.9747706973382129E-01 a       886     1     5     2    11
 -2.8834082940420651E+00 a       887     1     5     2    12
 -5.5615583448260608E-01 a       888     1     5     2    13
 -1.8438193377905676E-01 a       889     1     5     2    14
 -6.0945046395912128E-01 a       890     1     5     2    15
 -7.1658855206063699E-01 a       891     1     5     2    16
 -1.2362284557445413E-01 a       892     1     5     2    17
  3.5117952090793776E+00 a       893     1     5     2    18
  1.2199909504553563E+00 a       894     1     5     2    19
  2.7026655245518599E-01 a       895     1     5     2    20
 -8.4816311342662032E-01 a       896     1     5     2    21
  1.0188198308891758E+00 a       897     1     5     2    22
  2.3535458214339373E+00 a       898     1     5     2    23
 -4.3398892579166776E-01 a       899     1     5     2    24
  1.5175578334834272E+00 a       900     1     5     2    25
 -8.9681241873479611E-01 a       901     1     6     2     1
 -1.4105909561174301E+00 a       902     1     6     2     2
  1.0986202794594042E+00 a       903     1     6     2     3
  4.5470629044614856E+00 a       904     1     6     2     4
  1.0946246257270218E+00 a       905     1     6     2     5
 -2.1346962498997759E+00 a       906     1     6     2     6
 -6.3507990626411255E+00 a       907     1     6     2     7
 -5.4022811328884646E-01 a       908     1     6     2     8
  6.4400086012567137E-01 a       909     1     6     2     9
 -7.0102319851095913E+00 a       910     1     6     2    10
  4.2823471865313234E+00 a       911     1     6     2    11
 -2.7809236570145761E+00 a       912     1     6     2    12
  3.6578456215610017E-01 a       913     1     6     2    13
 -1.1344611901732429E+00 a       914     1     6     2    14
 -2.4733611490744072E+00 a       915     1     6     2    15
 -4.4079482662400721E-01 a       916     1     6     2    16
 -1.5737500924396557E+00 a       917     1     6     2    17
 -1.9589252153234094E-01 a       918     1     6     2    18
  1.2107701851211328E+00 a       919     1     6     2    19
 -1.8003507282474966E+00 a       920     1     6     2    20
 -2.5139483823818848E-01 a       921     1     6     2    21
  2.9857549240227481E+00 a       922     1     6     2    22
  1.1009607915475395E+00 a       923     1     6     2    23
  5.4400216025351456E-01 a       924     1     6     2    24
 -1.7248999365905422E+00 a       925     1     6     2    25
 -9.2724121796368275E-01 a       926     1     7     2     1
  6.8376465406980269E-01 a       927     1     7     2     2
  1.0852968422342109E+00 a       928     1     7     2     3
 -1.4558896933370251E+00 a       929     1     7     2     4
  1.2104051822592220E-01 a       930     1     7     2     5
 -2.4352943929084572E-01 a       931     1     7     2     6
 -1.7940049678687955E+00 a       932     1     7     2     7
 -3.8042962572594996E-01 a       933     1     7     2     8
 -9.6867860590354227E-01 a       934     1     7     2     9
 -6.0407027297837113E-01 a       935     1     7     2    10
  3.8249427091358457E-01 a       936     1     7     2    11
 -3.0426156865970855E-01 a       937     1     7     2    12
  9.6260424343318762E-01 a       938     1     7     2    13
 -3.2952061183120535E-01 a       939     1     7     2    14
  1.5851593283405085E-01 a       940     1     7     2    15
  3.8499598268740223E+00 a       941     1     7     2    16
  8.5558285106531184E-01 a       942     1     7     2    17
 -1.3295688447784284E+00 a       943     1     7     2    18
 -1.4022494523506153E+00 a       944     1     7     2    19
  6.2113352012758949E-01 a       945     1     7     2    20
 -1.0052535846121797E+00 a       946     1     7     2    21
 -8.7291577556362498E-01 a       947     1     7     2    22
 -5.2078619354132560E-01 a       948     1     7     2    23
 -8.2420440592051525E-01 a       949     1     7     2    24
 -9.0746553487653958E-01 a       950     1     7     2    25
  6.1810281700452230E-01 a       951     1     8     2     1
 -1.4614611858538136E+00 a       952     1     8     2     2
 -9.6028195184525522E-01 a       953     1     8     2     3
 -2.4220395065537677E+00 a       954     1     8     2     4
 -1.3526073197956616E+00 a       955     1     8     2     5
  7.5485365186339126E-01 a       956     1     8     2     6
 -2.6558517432932316E-01 a       957     1     8     2     7
 -1.0817218836847671E+00 a       958     1     8     2     8
  7.4313478695576429E-01 a       959     1     8     2     9
  3.4928592135494874E-02 a       960     1     8     2    10
 -2.3850957737090941E-01 a       961     1     8     2    11
  8.2104246747186505E-01 a       962     1     8     2    12
  5.7381044654029566E-02 a       963     1     8     2    13
  9.3150512566467747E-01 a       964     1     8     2    14
 -8.6316230945163919E-01 a       965     1     8     2    15
 -9.1689933472058316E-01 a       966     1     8     2    16
 -1.3944628139439422E-01 a       967     1     8     2    17
  4.1441983235784668E-01 a       968     1     8     2    18
  9.5401049481335398E-01 a       969     1     8     2    19
 -4.5643230543805882E-02 a       970     1     8     2    20
 -6.4466038706936757E-01 a       971     1     8     2    21
 -9.1195432254275022E-01 a       972     1     8     2    22
 -8.2955342473234206E-01 a       973     1     8     2    23
 -3.6135313155602733E-01 a       974     1     8     2    24
  9.5990422295948452E-01 a       975     1     8     2    25
 -1.1751445576382027E+00 a       976     1     9     2     1
  2.8345506648421965E+00 a       977     1     9     2     2
 -1.0697457449699876E+00 a       978     1     9     2     3
  2.4998503281317636E-01 a       979     1     9     2     4
  1.8809868504772038E+00 a       980     1     9     2     5
  1.1418992004672437E+00 a       981     1     9     2     6
 -5.6125995901770953E-01 a       982     1     9     2     7
  3.0623070143487658E-02 a       983     1     9     2     8
  5.0057325605114444E-01 a       984     1     9     2     9
  7.4438880402675156E-01 a       985     1     9     2    10
 -5.5935330306046394E-01 a       986     1     9     2    11
 -1.6649003009769561E-01 a       987     1     9     2    12
 -9.8914245825961589E-01 a       988     1     9     2    13
 -1.6257742242926365E+00 a       989     1     9     2    14
 -2.0608157624958845E-01 a       990     1     9     2    15
 -7.5680995275464258E-01 a       991     1     9     2    16
  3.1636373490885256E-01 a       992     1     9     2    17
  4.0225409027238113E-01 a       993     1     9     2    18
 -1.1684443331956944E+00 a       994     1     9     2    19
 -1.8130244067486034E-01 a       995     1     9     2    20
  1.7551273838617620E+00 a       996     1     9     2    21
  1.1976222105124208E+00 a       997     1     9     2    22
  4.2250506079593348E+00 a       998     1     9     2    23
  9.8216711285704927E-01 a       999     1     9     2    24
  1.8788593161480285E+00 a      1000     1     9     2    25
  9.2413121741614723E-01 a      1001     1    10     2     1
 -2.7213476302500061E-01 a      1002     1    10     2     2
 -6.1545479270838654E-01 a      1003     1    10     2     3
 -2.0570917217832654E+00 a      1004     1    10     2     4
 -2.2748208555338190E+00 a      1005     1    10     2     5
  7.0165500137904446E-01 a      1006     1    10     2     6
 -1.7550439211903862E-01 a      1007     1    10     2     7
 -1.8627324087859545E-01 a      1008     1    10     2     8
 -6.4675656420886007E-01 a      1009     1    10     2     9
  7.0081881457541254E-02 a      1010     1    10     2    10
 -2.7171878084653089E+00 a      1011     1    10     2    11
 -5.9928421538992603E-02 a      1012     1    10     2    12
 -1.2836156622289094E-01 a      1013     1    10     2    13
 -5.5190559604768363E-01 a      1014     1    10     2    14
  1.2878695065000398E+00 a      1015     1    10     2    15
 -7.2127639126537135E-01 a      1016     1    10     2    16
  8.2298228937751061E-01 a      1017     1    10     2    17
  7.7952019724167132E-01 a      1018     1    10     2    18
 -1.8997112850937267E-01 a      1019     1    10     2    19
  1.1319323540223187E+00 a      1020     1    10     2    20
  1.0852067379972270E+00 a      1021     1    10     2    21
 -1.1940315047594534E+00 a      1022     1    10     2    22
  6.4228903012878300E+00 a      1023     1    10     2    23
 -1.2565432164380841E+00 a      1024     1    10     2    24
 -2.7928955146830470E+00 a      1025     1    10     2    25
 -2.0591408594740006E-02 a      1026     1    11     2     1
 -1.3239368948671717E+00 a      1027     1    11     2     2
 -1.3029498835532223E+00 a      1028     1    11     2     3
  3.1092707016247649E+00 a      1029     1    11     2     4
 -7.5431956966674218E-01 a      1030     1    11     2     5
 -1.1372869147109324E+00 a      1031     1    11     2     6
 -3.3263326396531490E-01 a      1032     1    11     2     7
 -8.2903292521363048E-01 a      1033     1    11     2     8
 -7.6464154183856048E-01 a      1034     1    11     2     9
  2.4613011553594868E+00 a      1035     1    11     2    10
  6.0193903457309672E-01 a      1036     1    11     2    11
  1.2109363738184247E+00 a      1037     1    11     2    12
 -7.2778498555484128E-01 a      1038     1    11     2    13
 -4.6089724409479615E-01 a      1039     1    11     2    14
 -2.3233080727502338E+00 a      1040     1    11     2    15
 -2.4907608479935957E+00 a      1041     1    11     2    16
 -7.0853052422066385E-03 a      1042     1    11     2    17
 -1.6527464521953843E+00 a      1043     1    11     2    18
 -2.2453792736862916E+00 a      1044     1    11     2    19
 -1.3641003071040823E+00 a      1045     1    11     2    20
 -5.2493665537663414E-01 a      1046     1    11     2    21
 -1.7582784065193535E-01 a      1047     1    11     2    22
  2.8325915187459549E+00 a      1048     1    11     2    23
 -6.0305613599372332E-01 a      1049     1    11     2    24
  1.2137636692456042E+00 a      1050     1    11     2    25
  3.0504883906319935E-01 a      1051     1    12     2     1
  2.2830466944754088E-01 a      1052     1    12     2     2
  8.9223884631681949E-01 a      1053     1    12     2     3
  1.5306604317484998E+00 a      1054     1    12     2     4
 -4.9454955686777069E-01 a      1055     1    12     2     5
 -5.2259370164818253E-01 a      1056     1    12     2     6
  2.9318935669674845E-01 a      1057     1    12     2     7
 -2.6568240179762181E+00 a      1058     1    12     2     8
 -1.8942223806044864E+00 a      1059     1    12     2     9
  9.2467185682607117E-02 a      1060     1    12     2    10
 -2.8397482122240741E-01 a      1061     1    12     2    11
 -5.2276042093857422E-01 a      1062     1    12     2    12
 -1.1871390187709587E+00 a      1063     1    12     2    13
  1.3143615691371193E+00 a      1064     1    12     2    14
  1.2596499489537799E-01 a      1065     1    12     2    15
 -6.7347102177920515E-01 a      1066     1    12     2    16
 -6.8711706979349108E-01 a      1067     1    12     2    17
  6.4013886831849931E-01 a      1068     1    12     2    18
 -7.2526308049113719E-01 a      1069     1    12     2    19
 -1.6835724215644787E+00 a      1070     1    12     2    20
  8.7359125255493941E-01 a      1071     1    12     2    21
  1.4186498369504941E-01 a      1072     1    12     2    22
  1.0305740419980380E+00 a      1073     1    12     2    23
 -2.0943317054182171E+00 a      1074     1    12     2    24
 -3.0866410138511507E-01 a      1075     1    12     2    25
 -2.8623568872448231E+00 a      1076     1    13     2     1
  1.7286192920020227E+00 a      1077     1    13     2     2
 -1.9013223834689497E+00 a      1078     1    13     2     3
 -4.5829240087572360E+00 a      1079     1    13     2     4
  1.0929156294199602E+00 a      1080     1    13     2     5
 -5.0512712595297327E-01 a      1081     1    13     2     6
  3.2027860467866143E+00 a      1082     1    13     2     7
  2.1404565624333474E-01 a      1083     1    13     2     8
  4.1859959874426256E-01 a      1084     1    13     2     9
 -2.4636199662825042E+00 a      1085     1    13     2    10
 -1.0441500541218074E+00 a      1086     1    13     2    11
  2.3456425904500873E+00 a      1087     1    13     2    12
  1.8062061709729724E+00 a      1088     1    13     2    13
 -5.1952174381126104E-01 a      1089     1    13     2    14
  3.2018105363225371E+00 a      1090     1    13     2    15
  1.0036605115256139E+00 a      1091     1    13     2    16
  1.3052925666063619E+00 a      1092     1    13     2    17
  2.3385214031842159E+00 a      1093     1    13     2    18
 -3.3387616438077510E+00 a      1094     1    13     2    19
  1.4348138435938866E+00 a      1095     1    13     2    20
 -3.1466622591708466E+00 a      1096     1    13     2    21
 -1.5895812343426327E-01 a      1097     1    13     2    22
  1.7914156204826817E+00 a      1098     1    13     2    23
 -8.6112346562021180E-01 a      1099     1    13     2    24
 -2.4845158439150139E+00 a      1100     1    13     2    25
  6.0597346212530556E-01 a      1101     1    14     2     1
  2.5278540421475588E+00 a      1102     1    14     2     2
  1.7682389527838771E-01 a      1103     1    14     2     3
 -1.4156076143680794E+00 a      1104     1    14     2     4
  5.6344068234048439E-01 a      1105     1    14     2     5
  1.4743511540057690E+00 a      1106     1    14     2     6
 -4.5166479921115005E-01 a      1107     1    14     2     7
  7.1535320704981009E-01 a      1108     1    14     2     8
  1.3978927125924974E+00 a      1109     1    14     2     9
 -9.6030249180223881E-01 a      1110     1    14     2    10
 -5.7917229970297435E-01 a      1111     1    14     2    11
  4.1081825821377044E-01 a      1112     1    14     2    12
 -1.8520438864171937E-01 a      1113     1    14     2    13
  1.6631822149664283E-01 a      1114     1    14     2    14
  9.2368424245883962E-01 a      1115     1    14     2    15
  1.3417282607704442E+00 a      1116     1    14     2    16
  8.4182287251027288E-01 a      1117     1    14     2    17
 -1.1136379901104421E+00 a      1118     1    14     2    18
  1.0511933260260045E+00 a      1119     1    14     2    19
  1.3275585217438928E+00 a      1120     1    14     2    20
  3.9119648155151776E-01 a      1121     1    14     2    21
  5.1360850105646128E-01 a      1122     1    14     2    22
  9.1439134855987481E-02 a      1123     1    14     2    23
  4.5730900859189239E-01 a      1124     1    14     2    24
 -1.3490771334437766E+00 a      1125     1    14     2    25
  1.3836126010871976E+00 a      1126     1    15     2     1
 -3.2879637467183243E-01 a      1127     1    15     2     2
 -1.5105163140029922E+00 a      1128     1    15     2     3
  3.0454047030363096E+00 a      1129     1    15     2     4
 -5.8994579377450196E-01 a      1130     1    15     2     5
  9.0413911638482058E-02 a      1131     1    15     2     6
  1.7626333561134790E+00 a      1132     1    15     2     7
 -7.8772789809404165E-01 a      1133     1    15     2     8
  1.1302590112305317E+00 a      1134     1    15     2     9
 -1.2192438876789196E+00 a      1135     1    15     2    10
 -3.3816312993902337E-01 a      1136     1    15     2    11
 -2.1117210368137140E+00 a      1137     1    15     2    12
 -9.6818432336907001E-01 a      1138     1    15     2    13
  6.3595449924590253E-01 a      1139     1    15     2    14
 -1.3852897543223447E-01 a      1140     1    15     2    15
  1.3010644133955085E-01 a      1141     1    15     2    16
 -8.7847964737715634E-01 a      1142     1    15     2    17
  1.0265155628028819E-01 a      1143     1    15     2    18
  1.4070573650382359E+00 a      1144     1    15     2    19
  1.3200439964350270E+00 a      1145     1    15     2    20
  1.2923338720379809E+00 a      1146     1    15     2    21
  2.5858531938299389E-01 a      1147     1    15     2    22
  7.1958634163097376E-02 a      1148     1    15     2    23
 -1.4302960525464747E+00 a      1149     1    15     2    24
  8.6277008387349285E-01 a      1150     1    15     2    25
 -1.2919737912183964E+00 a      1151     1    16     2     1
  5.6600417011881976E-01 a      1152     1    16     2     2
 -5.9448653179268940E-01 a      1153     1    16     2     3
 -1.1348753306506998E-01 a      1154     1    16     2     4
  3.6294575026080661E-01 a      1155     1    16     2     5
  8.0979913510678192E-01 a      1156     1    16     2     6
 -2.3861137879653077E-01 a      1157     1    16     2     7
  4.4124605216472390E-01 a      1158     1    16     2     8
  2.3759720837538759E-01 a      1159     1    16     2     9
 -1.1457144365756153E+00 a      1160     1    16     2    10
 -2.5820231316739682E-02 a      1161     1    16     2    11
 -2.9067094839653479E-01 a      1162     1    16     2    12
  5.5726253883672183E-01 a      1163     1    16     2    13
  2.4962077017045423E-02 a      1164     1    16     2    14
 -8.3814095076280992E-01 a      1165     1    16     2    15
  1.3321482164680005E+00 a      1166     1    16     2    16
  1.1008053039760959E-01 a      1167     1    16     2    17
  1.9929905144915322E-01 a      1168     1    16     2    18
  5.4007691400497848E-01 a      1169     1    16     2    19
  6.8711113513139355E-01 a      1170     1    16     2    20
  4.9129688118217452E-01 a      1171     1    16     2    21
  6.0227768332332487E-01 a      1172     1    16     2    22
  9.2516541032565824E-01 a      1173     1    16     2    23
 -4.0166522485381112E-01 a      1174     1    16     2    24
 -6.1741694350287235E-01 a      1175     1    16     2    25
  1.2300762247915900E+00 a      1176     1    17     2     1
 -6.0769937106626326E-01 a      1177     1    17     2     2
 -7.1190641889813100E-01 a      1178     1    17     2     3
 -7.8265001784876265E-01 a      1179     1    17     2     4
 -1.2374187086866384E-01 a      1180     1    17     2     5
 -3.8766190999516165E-01 a      1181     1    17     2     6
  2.8623708548452254E-01 a      1182     1    17     2     7
 -5.9345954971965542E-01 a      1183     1    17     2     8
 -1.1471034814308834E+00 a      1184     1    17     2     9
 -1.4244139739851611E+00 a      1185     1    17     2    10
 -7.0971878925973758E-02 a      1186     1    17     2    11
 -1.3558719331958793E+00 a      1187     1    17     2    12
 -1.5485689833475595E+00 a      1188     1    17     2    13
  1.5681627712227646E+00 a      1189     1    17     2    14
  1.2305506935017776E+00 a      1190     1    17     2    15
  1.6312656118645334E+00 a      1191     1    17     2    16
  2.2753944950865032E-01 a      1192     1    17     2    17
 -8.0413534896139183E-01 a      1193     1    17     2    18
 -1.4109759951298817E+00 a      1194     1    17     2    19
 -8.4793379917195111E-01 a      1195     1    17     2    20
  1.5016635405566705E+00 a      1196     1    17     2    21
  3.6567535699346493E-01 a      1197     1    17     2    22
 -3.4001903906282310E-01 a      1198     1    17     2    23
 -2.3086757687369322E-01 a      1199     1    17     2    24
  1.1342404717927490E+00 a      1200     1    17     2    25
  7.1908936767728471E-01 a      1201     1    18     2     1
 -3.2606712599474080E-01 a      1202     1    18     2     2
  6.7762064963133806E-01 a      1203     1    18     2     3
 -3.7907556701355505E-01 a      1204     1    18     2     4
 -9.0935331328354574E-01 a      1205     1    18     2     5
 -2.1141925138922302E+00 a      1206     1    18     2     6
  6.6127044507004618E-01 a      1207     1    18     2     7
  6.6459371200680906E-02 a      1208     1    18     2     8
  2.1683811641476534E+00 a      1209     1    18     2     9
  6.6392559562985787E-01 a      1210     1    18     2    10
 -1.2021625795524451E+00 a      1211     1    18     2    11
  9.9837889826463688E-01 a      1212     1    18     2    12
  1.6429055647535842E+00 a      1213     1    18     2    13
 -1.4127292143235022E+00 a      1214     1    18     2    14
  5.1993187896236703E-01 a      1215     1    18     2    15
 -2.4539292078811084E-01 a      1216     1    18     2    16
 -3.4566673044791163E-01 a      1217     1    18     2    17
 -1.4186932631135358E+00 a      1218     1    18     2    18
  2.3631743472509501E+00 a      1219     1    18     2    19
  8.0456133541122443E-01 a      1220     1    18     2    20
  1.9958409890019246E+00 a      1221     1    18     2    21
  2.2042703690240387E-01 a      1222     1    18     2    22
 -4.7614083014551606E-01 a      1223     1    18     2    23
  1.5048835353338836E+00 a      1224     1    18     2    24
 -2.4944493651367501E+00 a      1225     1    18     2    25
 -8.6333215635687865E-01 a      1226     1    19     2     1
  6.8165607960392505E-01 a      1227     1    19     2     2
 -2.2783694884709599E-01 a      1228     1    19     2     3
  4.2996100388006259E-01 a      1229     1    19     2     4
 -1.3340349291933229E+00 a      1230     1    19     2     5
 -1.1353857457289354E+00 a      1231     1    19     2     6
  9.9162018125608142E-01 a      1232     1    19     2     7
 -7.2000689329123446E-01 a      1233     1    19     2     8
  2.2535548067744453E+00 a      1234     1    19     2     9
  3.9767729817404157E-01 a      1235     1    19     2    10
 -6.1799272297411312E-01 a      1236     1    19     2    11
  6.1429726961856657E-01 a      1237     1    19     2    12
  8.2322558561186410E-01 a      1238     1    19     2    13
 -9.7584719302601111E-02 a      1239     1    19     2    14
  2.1352956134411530E-01 a      1240     1    19     2    15
  1.4496348509228310E+00 a      1241     1    19     2    16
  3.8465531789024232E-01 a      1242     1    19     2    17
 -1.3059951418964899E+00 a      1243     1    19     2    18
  1.8400873981128794E+00 a      1244     1    19     2    19
  6.4862622388540880E-01 a      1245     1    19     2    20
 -4.5541451984888237E-01 a      1246     1    19     2    21
  2.9903308430659792E-01 a      1247     1    19     2    22
  3.7163841009858989E-01 a      1248     1    19     2    23
 -7.8458837258853587E-01 a      1249     1    19     2    24
 -2.3605914758458781E+00 a      1250     1    19     2    25
  2.0228670563457536E+00 a      1251     1    20     2     1
  1.0835976389032791E+00 a      1252     1    20     2     2
  2.5559313905362226E+00 a      1253     1    20     2     3
 -8.4942865739104656E-01 a      1254     1    20     2     4
  1.3207495039193573E+00 a      1255     1    20     2     5
  7.4237396950425361E-01 a      1256     1    20     2     6
 -1.1675008611703361E+00 a      1257     1    20     2     7
  1.1427415302013462E+00 a      1258     1    20     2     8
 -1.4027488373477324E+00 a      1259     1    20     2     9
  4.0411262865077097E-01 a      1260     1    20     2    10
  1.2183017233523450E+00 a      1261     1    20     2    11
  1.0287032377214773E+00 a      1262     1    20     2    12
 -3.2254625564111955E-01 a      1263     1    20     2    13
 -3.9804370301997027E-01 a      1264     1    20     2    14
  2.7634647676362134E-01 a      1265     1    20     2    15
  2.1341195413875846E-01 a      1266     1    20     2    16
  5.6175972232632332E-01 a      1267     1    20     2    17
  8.6410960718409846E-01 a      1268     1    20     2    18
 -2.2297698269723263E+00 a      1269     1    20     2    19
  4.0076278884100418E-02 a      1270     1    20     2    20
  1.8507984531776804E+00 a      1271     1    20     2    21
 -3.2822199762879178E-01 a      1272     1    20     2    22
 -5.5757144310417517E-01 a      1273     1    20     2    23
  2.8090124478047662E-01 a      1274     1    20     2    24
  2.6080745915430521E+00 a      1275     1    20     2    25
  1.6634407898659496E+00 a      1276     1    21     2     1
  2.7480586395179452E-01 a      1277     1    21     2     2
  3.8001634105446307E+00 a      1278     1    21     2     3
 -1.6902100437934870E+00 a      1279     1    21     2     4
  7.5963687482755027E-01 a      1280     1    21     2     5
  5.3654749028817406E-01 a      1281     1    21     2     6
 -1.5095617404317177E-01 a      1282     1    21     2     7
 -1.8046257577510176E+00 a      1283     1    21     2     8
  6.5903114898740589E-01 a      1284     1    21     2     9
  6.5581900459035403E-01 a      1285     1    21     2    10
 -2.1491075005124094E-01 a      1286     1    21     2    11
 -3.6909329143547742E-01 a      1287     1    21     2    12
  1.7135298066458691E+00 a      1288     1    21     2    13
 -2.9833314755762812E+00 a      1289     1    21     2    14
  9.8866062269245913E-01 a      1290     1    21     2    15
 -1.1765296293613123E+00 a      1291     1    21     2    16
  9.6316023531470907E-01 a      1292     1    21     2    17
  4.6349127355785807E-01 a      1293     1    21     2    18
 -1.2255756246665219E+00 a      1294     1    21     2    19
  4.9777413248681363E-01 a      1295     1    21     2    20
 -1.6171232120592711E+00 a      1296     1    21     2    21
 -2.0296331160196965E+00 a      1297     1    21     2    22
 -1.3970318755236131E+00 a      1298     1    21     2    23
  1.3968972283997259E+00 a      1299     1    21     2    24
  1.9761676004888000E+00 a      1300     1    21     2    25
  9.0325885094311875E-01 a      1301     1    22     2     1
 -2.1752421850945254E+00 a      1302     1    22     2     2
 -8.8407874655897134E-01 a      1303     1    22     2     3
 -4.5670935674136515E-01 a      1304     1    22     2     4
 -6.9679729294652837E-01 a      1305     1    22     2     5
 -1.7963823025813055E+00 a      1306     1    22     2     6
  9.7935671331424645E-01 a      1307     1    22     2     7
  2.1760021569852975E-01 a      1308     1    22     2     8
  4.8734050982086252E-01 a      1309     1    22     2     9
  6.8759730809171093E-01 a      1310     1    22     2    10
 -1.1519555247102082E+00 a      1311     1    22     2    11
 -1.3792386515248152E+00 a      1312     1    22     2    12
 -7.3192428983313540E-01 a      1313     1    22     2    13
  1.3410185325906803E+00 a      1314     1    22     2    14
  4.3428939635678024E-02 a      1315     1    22     2    15
 -6.8666422143828321E-01 a      1316     1    22     2    16
  5.5423600393533667E-01 a      1317     1    22     2    17
 -8.3525100874273639E-01 a      1318     1    22     2    18
  1.0655232459051092E+00 a      1319     1    22     2    19
  7.6499892989711449E-01 a      1320     1    22     2    20
 -1.7218829463658640E+00 a      1321     1    22     2    21
 -9.9895298335255595E-02 a      1322     1    22     2    22
  2.4937129321339277E-01 a      1323     1    22     2    23
  1.7880840949806565E-02 a      1324     1    22     2    24
 -1.6357304573177209E+00 a      1325     1    22     2    25
 -1.2701663835545742E+00 a      1326     1    23     2     1
 -8.1339310286838362E-01 a      1327     1    23     2     2
 -6.1174073067820911E-01 a      1328     1    23     2     3
 -1.1260943519060667E+00 a      1329     1    23     2     4
 -8.3668414737584096E-01 a      1330     1    23     2     5
  2.1365732294775275E-01 a      1331     1    23     2     6
 -4.2793098931267631E-01 a      1332     1    23     2     7
  1.8656633552095161E+00 a      1333     1    23     2     8
  8.5501822739211075E-01 a      1334     1    23     2     9
 -1.9727325617381972E+00 a      1335     1    23     2    10
  1.8783143989593085E+00 a      1336     1    23     2    11
 -1.4708887959614408E-01 a      1337     1    23     2    12
  7.3947640031818784E-01 a      1338     1    23     2    13
 -4.5132378456826333E-01 a      1339     1    23     2    14
  2.5230583538775569E-01 a      1340     1    23     2    15
 -7.0346813879671877E-01 a      1341     1    23     2    16
 -1.6415722810991205E+00 a      1342     1    23     2    17
 -2.7129938485189725E-01 a      1343     1    23     2    18
  9.5300039766083389E-01 a      1344     1    23     2    19
 -6.2260366682487134E-01 a      1345     1    23     2    20
 -7.5691760649421092E-01 a      1346     1    23     2    21
 -1.4902201581709196E+00 a      1347     1    23     2    22
 -3.8916315443716654E-01 a      1348     1    23     2    23
  4.6520023499091656E-01 a      1349     1    23     2    24
  4.1499002809738156E-01 a      1350     1    23     2    25
  1.1204766744366212E+00 a      1351     1    24     2     1
  2.5664812046632766E+00 a      1352     1    24     2     2
 -7.4778835347586803E-01 a      1353     1    24     2     3
 -1.5441928709910078E+00 a      1354     1    24     2     4
 -1.3598297180995694E-01 a      1355     1    24     2     5
  1.4619020976656170E+00 a      1356     1    24     2     6
 -9.0770436962371193E-01 a      1357     1    24     2     7
  1.1270822674350029E+00 a      1358     1    24     2     8
 -6.5514493963020226E-02 a      1359     1    24     2     9
 -5.4043837047647969E-01 a      1360     1    24     2    10
 -2.6045965665248865E+00 a      1361     1    24     2    11
  1.9205715549766589E+00 a      1362     1    24     2    12
  4.7622347092516237E-01 a      1363     1    24     2    13
 -5.1279981056355322E+00 a      1364     1    24     2    14
 -2.0955736941051847E-01 a      1365     1    24     2    15
 -8.5389929311225221E-01 a      1366     1    24     2    16
  5.6214650152884393E-01 a      1367     1    24     2    17
  2.4705675877416275E-01 a      1368     1    24     2    18
 -5.5783331803347147E-01 a      1369     1    24     2    19
 -8.8468210584044846E-02 a      1370     1    24     2    20
 -2.3583545052076293E+00 a      1371     1    24     2    21
 -1.1499647121054828E+00 a      1372     1    24     2    22
 -6.8766461661197054E-01 a      1373     1    24     2    23
  5.1047118894294953E-02 a      1374     1    24     2    24
  4.4362424342657086E-01 a      1375     1    24     2    25
 -8.5936048230206841E-01 a      1376     1    25     2     1
  7.9656895822729812E-01 a      1377     1    25     2     2
  9.1127923092649665E-01 a      1378     1    25     2     3
 -2.0150698105002167E+00 a      1379     1    25     2     4
 -1.5829190122624994E+00 a      1380     1    25     2     5
 -2.5579870803345948E+00 a      1381     1    25     2     6
  1.3539323893808148E+00 a      1382     1    25     2     7
 -3.1939968601898233E-01 a      1383     1    25     2     8
 -1.4041209122761328E-01 a      1384     1    25     2     9
 -6.9465597624049613E-01 a      1385     1    25     2    10
  1.4579521168857286E+00 a      1386     1    25     2    11
  1.3053712789868428E+00 a      1387     1    25     2    12
 -4.4039899466936816E-02 a      1388     1    25     2    13
 -8.7580337535338071E-01 a      1389     1    25     2    14
  5.7041612332548630E-01 a      1390     1    25     2    15
  2.6451652413686122E+00 a      1391     1    25     2    16
 -1.6767361136799475E+00 a      1392     1    25     2    17
 -1.4096003559238846E+00 a      1393     1    25     2    18
 -1.1213962382916302E-01 a      1394     1    25     2    19
 -8.4694899797907452E-01 a      1395     1    25     2    20
  1.1703564460276183E+00 a      1396     1    25     2    21
  3.5860436399322049E-01 a      1397     1    25     2    22
  1.8217290955050038E+00 a      1398     1    25     2    23
 -3.5520989445597841E+00 a      1399     1    25     2    24
 -1.1645478831371228E+00 a      1400     1    25     2    25
  4.2990751222348127E+00 b      1401     2     1
 -1.3372527627264580E+01 b      1402     2     2
  3.9317261029692134E+00 b      1403     2     3
  4.6495577714287952E+00 b      1404     2     4
  4.0856269048575884E+00 b      1405     2     5
  2.7232299724174460E+00 b      1406     2     6
  4.3356346054850672E+00 b      1407     2     7
  6.5065903148291877E+00 b      1408     2     8
 -4.1978674968855945E+00 b      1409     2     9
 -2.2747961757483401E+00 b      1410     2    10
  7.7250284277282040E+00 b      1411     2    11
 -7.8998642450326473E-01 b      1412     2    12
  8.6723191092893668E+00 b      1413     2    13
  5.4723720889061012E-01 b      1414     2    14
  3.5492902469883210E+00 b      1415     2    15
 -1.1062686236520252E+01 b      1416     2    16
 -2.2607526537989151E+00 b      1417     2    17
  9.7615134337243648E-01 b      1418     2    18
  3.1125701181145449E-01 b      1419     2    19
 -6.3891993011740567E-01 b      1420     2    20
 -1.6433060684929590E+00 b      1421     2    21
 -7.7409692241133810E-01 b      1422     2    22
  4.1074539047715186E+00 b      1423     2    23
  6.2193321654786757E+00 b      1424     2    24
  6.6156570138803579E+00 b      1425     2    25
  2.9653610469950059E-01 a      1426     2     1     3     1
 -1.2866766114172573E-01 a      1427     2     2     3     1
 -1.3292476377607923E-01 a      1428     2     3     3     1
  8.6893768767747015E-02 a      1429     2     4     3     1
 -2.1448042772273254E-01 a      1430     2     5     3     1
  1.4205676086127136E-01 a      1431     2     6     3     1
 -1.5079866050040458E-01 a      1432     2     7     3     1
  9.4125377855313802E-02 a      1433     2     8     3     1
  2.7219934574714177E-01 a      1434     2     9     3     1
 -3.0847634888075465E-01 a      1435     2    10     3     1
 -3.1251058383289393E-01 a      1436     2    11     3     1
  2.2222669941190132E-01 a      1437     2    12     3     1
  3.4209759724066313E-01 a      1438     2    13     3     1
 -1.9624663939949089E-01 a      1439     2    14     3     1
  1.9084767136087366E-01 a      1440     2    15     3     1
 -1.0784031448163033E-01 a      1441     2    16     3     1
  1.8333437708090136E-01 a      1442     2    17     3     1
 -1.5934998639702441E-01 a      1443     2    18     3     1
 -2.5050140562487738E-01 a      1444     2    19     3     1
 -3.8314788036121072E-01 a      1445     2    20     3     1
 -1.1697895360721598E-01 a      1446     2    21     3     1
  3.4982584695865532E-01 a      1447     2    22     3     1
  7.3075370078034307E-01 a      1448     2    23     3     1
 -3.0397936340837434E-01 a      1449     2    24     3     1
  1.1671153571564780E-01 a      1450     2    25     3     1
 -1.3011378860888131E-01 b      1451     3     1
