################################################################################
# Neural network connection values (weights and biases).
################################################################################
# Col  Name       Description
################################################################################
# 1    connection Neural network connection value.
# 2    t          Connection type (a = weight, b = bias).
# 3    index      Index enumerating weights.
# 4    l_s        Starting point layer (end point layer for biases).
# 5    n_s        Starting point neuron in starting layer (end point neuron for biases).
# 6    l_e        End point layer.
# 7    n_e        End point neuron in end layer.
################################################################################
#                      1 2         3     4     5     6     7
#             connection t     index   l_s   n_s   l_e   n_e
############################################################
 -5.5754009359171670E+00 a         1     0     1     1     1
  1.5894931186674086E+01 a         2     0     1     1     2
  1.0273856984399632E+01 a         3     0     1     1     3
 -2.8031820476038183E+00 a         4     0     1     1     4
  5.7307783549862073E+01 a         5     0     1     1     5
  2.3358924678947126E+01 a         6     0     1     1     6
  9.8280616024538965E+00 a         7     0     1     1     7
 -4.5762198367777124E+01 a         8     0     1     1     8
 -3.3910390683137990E+01 a         9     0     1     1     9
 -3.5911472562661797E+00 a        10     0     1     1    10
 -1.1914753266181915E+01 a        11     0     1     1    11
 -2.2383073095350774E+01 a        12     0     1     1    12
 -1.4730998309656830E+01 a        13     0     1     1    13
  2.1545966787452788E+00 a        14     0     1     1    14
 -3.1262998481279709E+00 a        15     0     1     1    15
 -7.9963597610639399E+00 a        16     0     1     1    16
 -9.5823454208876360E+00 a        17     0     1     1    17
 -1.0117136986399496E+01 a        18     0     1     1    18
  1.5423736709161483E+01 a        19     0     1     1    19
 -2.7550229527265607E+01 a        20     0     1     1    20
  3.3272396734063064E-01 a        21     0     1     1    21
  4.0258870094515844E+00 a        22     0     1     1    22
 -5.5092423782158848E+00 a        23     0     1     1    23
  4.9168423424952060E+01 a        24     0     1     1    24
  3.6983961295086480E+01 a        25     0     1     1    25
  1.7519567217904264E+01 a        26     0     2     1     1
  6.9567291607521113E+01 a        27     0     2     1     2
 -4.5332176879716970E+00 a        28     0     2     1     3
  3.0455988900248787E-01 a        29     0     2     1     4
 -2.3746785077626253E+01 a        30     0     2     1     5
 -2.8537081599386287E+01 a        31     0     2     1     6
 -1.5710284949692095E+02 a        32     0     2     1     7
  6.7406642509235880E+01 a        33     0     2     1     8
 -3.1114813017268418E+01 a        34     0     2     1     9
 -3.8163146212298521E+01 a        35     0     2     1    10
 -2.8774508692623723E+01 a        36     0     2     1    11
  1.6187653330672471E+00 a        37     0     2     1    12
 -4.3674176077695769E+01 a        38     0     2     1    13
  4.4747174460091493E+01 a        39     0     2     1    14
  3.6332096973614378E+00 a        40     0     2     1    15
 -4.6073304139987075E+00 a        41     0     2     1    16
  5.4484768648127599E+01 a        42     0     2     1    17
  6.5637615107588218E+01 a        43     0     2     1    18
  6.0173095932389451E+00 a        44     0     2     1    19
 -5.4981784430413718E+00 a        45     0     2     1    20
 -5.2801276607207292E+01 a        46     0     2     1    21
  9.5481245871734600E+01 a        47     0     2     1    22
  3.7581783880946773E+01 a        48     0     2     1    23
 -6.8755236608334114E+00 a        49     0     2     1    24
 -5.1407086948955154E+01 a        50     0     2     1    25
 -1.4631363982696271E+01 a        51     0     3     1     1
  3.2057441191181574E+01 a        52     0     3     1     2
 -7.2253879956004878E+00 a        53     0     3     1     3
 -5.5598742758260249E+00 a        54     0     3     1     4
 -1.9967378574267936E+01 a        55     0     3     1     5
 -8.6107123235787029E+01 a        56     0     3     1     6
  5.7687282957668280E+01 a        57     0     3     1     7
 -5.4331000035068264E+01 a        58     0     3     1     8
  1.1016962591162952E+02 a        59     0     3     1     9
 -1.0487235450613589E+01 a        60     0     3     1    10
  7.3740180498717038E+01 a        61     0     3     1    11
 -2.9791246399523228E+00 a        62     0     3     1    12
 -3.7499739695796546E+00 a        63     0     3     1    13
  6.6945230217097446E+01 a        64     0     3     1    14
  1.9644405652863579E+01 a        65     0     3     1    15
 -2.1054427313158882E+01 a        66     0     3     1    16
  1.5012729884911099E+02 a        67     0     3     1    17
  3.8229504616568747E+01 a        68     0     3     1    18
  4.6270026821569736E+01 a        69     0     3     1    19
  9.5952911551012576E+01 a        70     0     3     1    20
  1.0130108073163230E+02 a        71     0     3     1    21
  1.1074403417797149E+02 a        72     0     3     1    22
  2.1819150303828035E+01 a        73     0     3     1    23
  1.6863561333097714E+01 a        74     0     3     1    24
 -4.6260975631188579E+01 a        75     0     3     1    25
 -5.7008254895075572E+00 a        76     0     4     1     1
 -3.3256812195394311E+01 a        77     0     4     1     2
 -1.8565972361814094E+01 a        78     0     4     1     3
  3.3208730936068571E+00 a        79     0     4     1     4
 -1.0249357962091661E+02 a        80     0     4     1     5
 -3.9940211208162815E+01 a        81     0     4     1     6
 -1.5428947311069640E+01 a        82     0     4     1     7
  8.2628113037099396E+01 a        83     0     4     1     8
  5.7343890133657538E+01 a        84     0     4     1     9
 -1.9948830762355427E+00 a        85     0     4     1    10
  1.2109015782122093E+01 a        86     0     4     1    11
  4.7097945742518952E+01 a        87     0     4     1    12
  1.8639903659683121E+01 a        88     0     4     1    13
 -2.0275926355641305E+00 a        89     0     4     1    14
 -3.2377704534944534E+00 a        90     0     4     1    15
  1.8461676974129290E+01 a        91     0     4     1    16
 -3.1525572692195163E+00 a        92     0     4     1    17
  1.4352045713015800E+01 a        93     0     4     1    18
 -1.4431931064110930E+01 a        94     0     4     1    19
  4.9009332207749146E+01 a        95     0     4     1    20
 -1.3378721158680410E+01 a        96     0     4     1    21
 -2.4105149541382080E+01 a        97     0     4     1    22
  7.3546790448226558E+00 a        98     0     4     1    23
 -7.6185260397610506E+01 a        99     0     4     1    24
 -5.8531957438964383E+01 a       100     0     4     1    25
 -4.5369709740130702E+01 a       101     0     5     1     1
 -1.0751455501581964E+02 a       102     0     5     1     2
  1.6757727452176781E+01 a       103     0     5     1     3
  6.4692676631176997E+00 a       104     0     5     1     4
  3.7091321105672719E+01 a       105     0     5     1     5
  3.8619830750522446E+01 a       106     0     5     1     6
  2.2054908082762802E+02 a       107     0     5     1     7
 -9.9499054262178902E+01 a       108     0     5     1     8
  5.6054502892002418E+01 a       109     0     5     1     9
  6.2844580784908374E+01 a       110     0     5     1    10
  3.6737452772962264E+01 a       111     0     5     1    11
 -7.8399115630761040E-01 a       112     0     5     1    12
  5.1427798275419413E+01 a       113     0     5     1    13
 -6.1999529669645824E+01 a       114     0     5     1    14
 -1.5823468654030416E+01 a       115     0     5     1    15
  8.9901470084616930E-01 a       116     0     5     1    16
 -7.0935282647838875E+01 a       117     0     5     1    17
 -9.8036018189470269E+01 a       118     0     5     1    18
 -2.4533186605154071E+00 a       119     0     5     1    19
  1.0536595253422623E+01 a       120     0     5     1    20
  8.5846392833075356E+01 a       121     0     5     1    21
 -1.4725653773705582E+02 a       122     0     5     1    22
 -6.6734924764268229E+01 a       123     0     5     1    23
 -2.0921164643015810E+00 a       124     0     5     1    24
  7.9273706946968545E+01 a       125     0     5     1    25
  3.4386551008678829E+01 a       126     0     6     1     1
 -6.7701073616625735E+01 a       127     0     6     1     2
  1.4289323848405362E+00 a       128     0     6     1     3
  8.1887090595921261E+00 a       129     0     6     1     4
  5.9513561203105368E+01 a       130     0     6     1     5
  1.3680896596901110E+02 a       131     0     6     1     6
 -8.9762551691395259E+01 a       132     0     6     1     7
  9.4933812327391706E+01 a       133     0     6     1     8
 -2.1585595805546873E+02 a       134     0     6     1     9
  2.0935833126723310E+01 a       135     0     6     1    10
 -1.3606402373354797E+02 a       136     0     6     1    11
  7.0028230924606714E+00 a       137     0     6     1    12
  1.1583107629799565E+01 a       138     0     6     1    13
 -1.0734011991829721E+02 a       139     0     6     1    14
 -4.2310422671091821E+01 a       140     0     6     1    15
  3.4667528913214028E+01 a       141     0     6     1    16
 -2.3297152313242421E+02 a       142     0     6     1    17
 -6.2089476879004820E+01 a       143     0     6     1    18
 -7.7272177681141287E+01 a       144     0     6     1    19
 -1.4686970918883753E+02 a       145     0     6     1    20
 -1.5803396021957857E+02 a       146     0     6     1    21
 -1.7065664165004557E+02 a       147     0     6     1    22
 -3.7484898612512822E+01 a       148     0     6     1    23
 -1.5238464718040342E+01 a       149     0     6     1    24
  8.3306265152020273E+01 a       150     0     6     1    25
  1.6578027166468551E+01 a       151     0     7     1     1
  1.8711646521782143E+01 a       152     0     7     1     2
  6.5242828664805046E+00 a       153     0     7     1     3
 -2.3679545173638186E+00 a       154     0     7     1     4
  5.7015720039876328E+01 a       155     0     7     1     5
  2.8562590052692745E+01 a       156     0     7     1     6
  1.1590420491522929E+01 a       157     0     7     1     7
 -5.2811885354064067E+01 a       158     0     7     1     8
 -3.4800182247930124E+01 a       159     0     7     1     9
  3.4742121698573585E+00 a       160     0     7     1    10
 -4.6926123355932408E+00 a       161     0     7     1    11
 -3.5773782463161865E+01 a       162     0     7     1    12
 -1.3245279757171884E+01 a       163     0     7     1    13
 -5.9750396351912738E-01 a       164     0     7     1    14
  7.0334324381142173E+00 a       165     0     7     1    15
 -2.1142385184839650E+01 a       166     0     7     1    16
  9.7539234675519140E+00 a       167     0     7     1    17
 -1.7213586773935121E+00 a       168     0     7     1    18
  6.1721377716554136E+00 a       169     0     7     1    19
 -3.1981032864950350E+01 a       170     0     7     1    20
  1.2779413955984774E+01 a       171     0     7     1    21
  2.3175715615908530E+01 a       172     0     7     1    22
  9.6734795863197931E-01 a       173     0     7     1    23
  3.7869951579581503E+01 a       174     0     7     1    24
  3.1230367637723571E+01 a       175     0     7     1    25
  9.1955895477445573E+00 a       176     0     8     1     1
 -9.4132231485135875E+01 a       177     0     8     1     2
 -1.8949883055569977E+01 a       178     0     8     1     3
 -1.6598107467823485E+01 a       179     0     8     1     4
 -2.3423236017596128E+01 a       180     0     8     1     5
 -2.4948132050212742E+01 a       181     0     8     1     6
  3.5390260341064149E+01 a       182     0     8     1     7
 -2.6961299837234498E+00 a       183     0     8     1     8
 -7.1524769096092641E+01 a       184     0     8     1     9
 -9.1385390673041318E+00 a       185     0     8     1    10
  4.5115872586384896E+01 a       186     0     8     1    11
 -3.8092719212479804E+00 a       187     0     8     1    12
  1.3029512220060522E+02 a       188     0     8     1    13
 -6.6510286691278353E+01 a       189     0     8     1    14
  7.5016581911737831E+01 a       190     0     8     1    15
  2.0819975106933107E+01 a       191     0     8     1    16
  1.7735292392535143E+01 a       192     0     8     1    17
  5.5377066996544222E+01 a       193     0     8     1    18
 -1.5810324003738518E+02 a       194     0     8     1    19
  2.3160313911218211E+01 a       195     0     8     1    20
 -2.6295654695896168E+01 a       196     0     8     1    21
 -1.5455166615161170E+01 a       197     0     8     1    22
  1.0318151555591401E+01 a       198     0     8     1    23
 -5.0595699580334879E+00 a       199     0     8     1    24
  1.4136986611967021E+01 a       200     0     8     1    25
 -5.9610660427057178E+00 a       201     0     9     1     1
  2.7312454700612403E+01 a       202     0     9     1     2
 -2.1575781816189277E+01 a       203     0     9     1     3
 -1.0904545143801091E+01 a       204     0     9     1     4
 -2.9501838182796689E+01 a       205     0     9     1     5
 -5.1335752009951442E+01 a       206     0     9     1     6
  3.2938731311790150E+01 a       207     0     9     1     7
 -3.1855925859798472E+01 a       208     0     9     1     8
  6.1059176131378507E+01 a       209     0     9     1     9
 -4.5382765993980962E+00 a       210     0     9     1    10
  5.7849896934025594E+01 a       211     0     9     1    11
 -1.4533984661868637E+01 a       212     0     9     1    12
 -2.6284405438980940E+01 a       213     0     9     1    13
  4.1021852955350226E+01 a       214     0     9     1    14
  8.5801789591835558E+00 a       215     0     9     1    15
 -1.3391003978063223E+01 a       216     0     9     1    16
  8.1364668350791618E+01 a       217     0     9     1    17
  7.5924128182916242E+00 a       218     0     9     1    18
  1.9790421279091245E+01 a       219     0     9     1    19
  5.4626442107404202E+01 a       220     0     9     1    20
  3.1839425372067506E+01 a       221     0     9     1    21
  5.0180606095651278E+01 a       222     0     9     1    22
  1.5269981665421588E+00 a       223     0     9     1    23
 -6.7565646706593432E+00 a       224     0     9     1    24
 -1.6796535859066672E+01 a       225     0     9     1    25
 -7.4227617251596039E+00 a       226     0    10     1     1
 -2.8659419091964904E+00 a       227     0    10     1     2
 -3.0126786429322370E+00 a       228     0    10     1     3
 -1.8941774162439331E+00 a       229     0    10     1     4
 -1.1174087293959769E+01 a       230     0    10     1     5
 -1.2658725067661310E+01 a       231     0    10     1     6
 -7.6944649547041388E-01 a       232     0    10     1     7
  1.1784507851306364E+01 a       233     0    10     1     8
  8.0246889651473428E+00 a       234     0    10     1     9
  2.9843836650721407E+00 a       235     0    10     1    10
  3.6988613363852187E+00 a       236     0    10     1    11
  1.2686292930302585E+01 a       237     0    10     1    12
  4.5138876349193895E+00 a       238     0    10     1    13
  3.8254210975456902E+00 a       239     0    10     1    14
 -3.1829677762734558E+00 a       240     0    10     1    15
  1.6531811794579511E+01 a       241     0    10     1    16
 -1.7337952471870259E+00 a       242     0    10     1    17
 -1.9771059602111687E+00 a       243     0    10     1    18
 -1.4352829991290930E+00 a       244     0    10     1    19
  7.6571636763294411E+00 a       245     0    10     1    20
 -7.3727988651491927E-01 a       246     0    10     1    21
 -6.2276333343195072E+00 a       247     0    10     1    22
 -7.1267859174736792E+00 a       248     0    10     1    23
 -6.7903998905479712E+00 a       249     0    10     1    24
 -4.5921961723055551E+00 a       250     0    10     1    25
  4.0075280955292261E+00 a       251     0    11     1     1
  6.0560829020525816E+01 a       252     0    11     1     2
  5.0034962412959718E+00 a       253     0    11     1     3
  8.2892503409987395E+00 a       254     0    11     1     4
  6.9446315418598568E+00 a       255     0    11     1     5
  8.5475227094217203E+00 a       256     0    11     1     6
 -4.5882313036536402E+01 a       257     0    11     1     7
  1.2332901017818912E+01 a       258     0    11     1     8
  2.8025165335473922E+01 a       259     0    11     1     9
 -6.0170368274234951E+00 a       260     0    11     1    10
 -2.5310597697165772E+01 a       261     0    11     1    11
  1.9387024560490473E+00 a       262     0    11     1    12
 -7.2744318621336930E+01 a       263     0    11     1    13
  3.9781055990280805E+01 a       264     0    11     1    14
 -3.3871249838984987E+01 a       265     0    11     1    15
 -9.8497639760252209E+00 a       266     0    11     1    16
 -5.8977504515237289E-01 a       267     0    11     1    17
 -1.8107497763154292E+01 a       268     0    11     1    18
  7.7997346907567263E+01 a       269     0    11     1    19
 -1.5203524514292617E+01 a       270     0    11     1    20
  2.5666642562452956E-02 a       271     0    11     1    21
  2.8024049412670870E+01 a       272     0    11     1    22
  3.7041257344145921E+00 a       273     0    11     1    23
  2.4714842933948575E+00 a       274     0    11     1    24
 -1.7088325840616857E+01 a       275     0    11     1    25
 -4.0092177395090314E+00 a       276     0    12     1     1
 -4.0217045065339905E+00 a       277     0    12     1     2
  1.2191269375803207E+01 a       278     0    12     1     3
  6.2138709668700001E+00 a       279     0    12     1     4
  5.0161655847172373E+00 a       280     0    12     1     5
  5.1549645261934103E+00 a       281     0    12     1     6
 -2.2829050421589119E+00 a       282     0    12     1     7
 -2.2412407809929094E+00 a       283     0    12     1     8
  6.7876973116203949E+00 a       284     0    12     1     9
 -2.2597255355891428E+00 a       285     0    12     1    10
 -5.8018656474153731E+00 a       286     0    12     1    11
  6.8388113191113513E+00 a       287     0    12     1    12
  1.1985478923999208E+01 a       288     0    12     1    13
 -3.8366492393779974E+00 a       289     0    12     1    14
  3.1857599573231070E+00 a       290     0    12     1    15
  8.1362280624647176E-01 a       291     0    12     1    16
 -5.0192761399205832E+00 a       292     0    12     1    17
  5.3349120847325349E+00 a       293     0    12     1    18
  4.1358076358046256E+00 a       294     0    12     1    19
 -5.1919830994931271E+00 a       295     0    12     1    20
  9.4370224099086197E+00 a       296     0    12     1    21
  2.3970383850165464E+00 a       297     0    12     1    22
  5.2070582822060629E+00 a       298     0    12     1    23
  3.8325044557427970E+00 a       299     0    12     1    24
 -4.9905480379390479E+00 a       300     0    12     1    25
 -5.4182962116265121E-01 a       301     0    13     1     1
 -3.7219653700031938E+00 a       302     0    13     1     2
  5.1709031649518788E-01 a       303     0    13     1     3
  2.6586703448412896E+00 a       304     0    13     1     4
 -3.7920025111118592E+00 a       305     0    13     1     5
  8.3267787224550149E-01 a       306     0    13     1     6
 -3.8905687691219795E+00 a       307     0    13     1     7
  4.5041530532666716E+00 a       308     0    13     1     8
  2.0209320650819729E+00 a       309     0    13     1     9
 -4.0764379698727069E+00 a       310     0    13     1    10
 -2.5419257392543000E+00 a       311     0    13     1    11
 -1.4203793661725245E-01 a       312     0    13     1    12
 -1.7367694464390206E+00 a       313     0    13     1    13
 -1.7394824283792660E+00 a       314     0    13     1    14
 -7.1426627789049557E-01 a       315     0    13     1    15
 -6.3765448049227329E+00 a       316     0    13     1    16
 -2.3096493552951096E+00 a       317     0    13     1    17
  2.6460382227403736E+00 a       318     0    13     1    18
 -5.4504647366787786E+00 a       319     0    13     1    19
  1.8794138233402635E+00 a       320     0    13     1    20
 -5.6926074485662115E+00 a       321     0    13     1    21
 -4.2651815640588131E+00 a       322     0    13     1    22
  5.3924525559451988E+00 a       323     0    13     1    23
 -3.4515439335311524E+00 a       324     0    13     1    24
 -4.8644213165561370E+00 a       325     0    13     1    25
  1.9813892257482202E+01 a       326     0    14     1     1
  8.2993352568357423E+01 a       327     0    14     1     2
  1.2382988757489786E-03 a       328     0    14     1     3
  6.5040293070883077E+00 a       329     0    14     1     4
  2.0835093109923504E+00 a       330     0    14     1     5
  5.5831679662796265E+00 a       331     0    14     1     6
 -7.7624449084427013E+01 a       332     0    14     1     7
  3.9701071764386100E+01 a       333     0    14     1     8
  2.1249936919901920E+01 a       334     0    14     1     9
 -1.4973300514107803E+01 a       335     0    14     1    10
 -3.1048699000163275E+01 a       336     0    14     1    11
  1.5742346977849988E+00 a       337     0    14     1    12
 -6.6433447590024940E+01 a       338     0    14     1    13
  5.6072943766946402E+01 a       339     0    14     1    14
 -2.8868394440180136E+01 a       340     0    14     1    15
 -8.8772553577871776E+00 a       341     0    14     1    16
  1.1782463212496074E+01 a       342     0    14     1    17
  1.6703887588395598E+00 a       343     0    14     1    18
  8.5730362391049908E+01 a       344     0    14     1    19
 -1.0026001736357610E+01 a       345     0    14     1    20
 -1.2041212588302185E+01 a       346     0    14     1    21
  5.4769925992030409E+01 a       347     0    14     1    22
  2.4759953597267423E+01 a       348     0    14     1    23
  1.7194477323829492E+01 a       349     0    14     1    24
 -3.6900296021071405E+01 a       350     0    14     1    25
 -1.4344158244552499E+01 a       351     0    15     1     1
  2.6189990736144978E+01 a       352     0    15     1     2
  2.9797144047791111E+01 a       353     0    15     1     3
  1.0108125575735031E+01 a       354     0    15     1     4
 -2.9192641880948319E+01 a       355     0    15     1     5
  1.5734791792969172E+00 a       356     0    15     1     6
 -6.7520076435038954E+00 a       357     0    15     1     7
 -8.3572619926599803E+00 a       358     0    15     1     8
  5.6213550361756639E+01 a       359     0    15     1     9
 -8.2473481723343212E-01 a       360     0    15     1    10
  2.0435938581795561E+01 a       361     0    15     1    11
  8.2453754913283128E-01 a       362     0    15     1    12
  1.8141091192657960E+01 a       363     0    15     1    13
  3.3187705315418028E+00 a       364     0    15     1    14
  1.2628025602208726E+01 a       365     0    15     1    15
  3.5307474373643200E-01 a       366     0    15     1    16
  1.4351666415734591E+01 a       367     0    15     1    17
  8.8769278569489494E+00 a       368     0    15     1    18
  1.3484904447457335E+00 a       369     0    15     1    19
  1.4182478471942050E-01 a       370     0    15     1    20
  2.8235126121828554E+01 a       371     0    15     1    21
  1.3108043342995490E+01 a       372     0    15     1    22
  1.2711687478198492E+01 a       373     0    15     1    23
  3.2222108998261350E+00 a       374     0    15     1    24
 -2.5592982620040587E+01 a       375     0    15     1    25
  1.5411625633750254E+00 a       376     0    16     1     1
  1.7471013151862793E+00 a       377     0    16     1     2
  5.4360910296873932E-01 a       378     0    16     1     3
 -2.0032494910429177E+00 a       379     0    16     1     4
  3.4514981366123307E+00 a       380     0    16     1     5
  1.0800821909258522E+00 a       381     0    16     1     6
  2.8700943561603891E+00 a       382     0    16     1     7
 -1.9088654953519171E+00 a       383     0    16     1     8
 -1.2245021007750034E+00 a       384     0    16     1     9
  1.5847611201971603E+00 a       385     0    16     1    10
  6.6609168052650658E-01 a       386     0    16     1    11
 -9.9277264131945930E-01 a       387     0    16     1    12
  2.0328242145212125E+00 a       388     0    16     1    13
  3.3619986079067976E-01 a       389     0    16     1    14
  1.9020949510376846E+00 a       390     0    16     1    15
 -7.8759328282733632E-02 a       391     0    16     1    16
  7.6340172576492238E-01 a       392     0    16     1    17
 -3.4022169241752659E-01 a       393     0    16     1    18
  4.6503095535905654E+00 a       394     0    16     1    19
 -1.2523760585672636E+00 a       395     0    16     1    20
  4.1733426032369110E+00 a       396     0    16     1    21
  3.7838826256231299E+00 a       397     0    16     1    22
 -1.3703994932230099E+00 a       398     0    16     1    23
  2.2948613046825468E+00 a       399     0    16     1    24
  2.1263817502289948E+00 a       400     0    16     1    25
 -1.0158036960816885E+01 a       401     0    17     1     1
 -1.6483181473707852E+01 a       402     0    17     1     2
  3.9870428473815380E+00 a       403     0    17     1     3
 -1.2505104416276922E+00 a       404     0    17     1     4
 -2.1234973367761198E-01 a       405     0    17     1     5
  3.2980453610263583E-01 a       406     0    17     1     6
  1.9218769876445382E+01 a       407     0    17     1     7
 -1.5490762382164116E+01 a       408     0    17     1     8
 -2.3191019575904233E+00 a       409     0    17     1     9
  4.4609856452104566E+00 a       410     0    17     1    10
  4.8229105183760863E+00 a       411     0    17     1    11
 -5.2606408459481435E-01 a       412     0    17     1    12
  5.6551831794915675E+00 a       413     0    17     1    13
 -1.3162734737245904E+01 a       414     0    17     1    14
  2.6481011149422113E+00 a       415     0    17     1    15
  1.4338966088636009E+00 a       416     0    17     1    16
 -4.0872994986174023E+00 a       417     0    17     1    17
 -9.2052834102686365E+00 a       418     0    17     1    18
 -1.3373466034844984E+01 a       419     0    17     1    19
 -2.0077707090464627E+00 a       420     0    17     1    20
  6.0942213124991094E+00 a       421     0    17     1    21
 -1.3542732337084438E+01 a       422     0    17     1    22
 -9.5406447123271416E+00 a       423     0    17     1    23
 -9.0549069078259876E+00 a       424     0    17     1    24
  1.0568204115685438E+01 a       425     0    17     1    25
  3.6771247057294025E+00 a       426     0    18     1     1
 -1.3383442144193168E+01 a       427     0    18     1     2
 -1.0886706233850443E+01 a       428     0    18     1     3
 -3.1206096171879398E+00 a       429     0    18     1     4
  1.7112275131190056E+01 a       430     0    18     1     5
 -7.3824707911093599E+00 a       431     0    18     1     6
  7.9613299791045691E+00 a       432     0    18     1     7
 -3.3400078334428113E-01 a       433     0    18     1     8
 -1.6131002552544469E+01 a       434     0    18     1     9
 -2.7220483705795573E+00 a       435     0    18     1    10
 -7.8227768271609426E+00 a       436     0    18     1    11
  2.7412514189041288E+00 a       437     0    18     1    12
 -1.6263756156582896E+00 a       438     0    18     1    13
  1.2487414974611291E+00 a       439     0    18     1    14
 -2.4826207908350439E+00 a       440     0    18     1    15
 -1.8057887552969556E+00 a       441     0    18     1    16
  8.0726603286652554E-01 a       442     0    18     1    17
 -7.2097473471312679E-01 a       443     0    18     1    18
  4.5241538139138129E+00 a       444     0    18     1    19
  6.6504741288218634E+00 a       445     0    18     1    20
 -5.2571149224397429E+00 a       446     0    18     1    21
  2.0141270863459253E+00 a       447     0    18     1    22
 -2.7776743916869133E+00 a       448     0    18     1    23
 -7.9694619657424892E-01 a       449     0    18     1    24
  7.5697974168882070E+00 a       450     0    18     1    25
 -1.2913643730882542E+00 a       451     0    19     1     1
 -2.1702534466039275E-01 a       452     0    19     1     2
  1.2858368184852514E-01 a       453     0    19     1     3
  1.0942764723427241E+00 a       454     0    19     1     4
 -2.1496985026916285E-01 a       455     0    19     1     5
 -6.8619667829536080E-01 a       456     0    19     1     6
 -1.5607332970448629E+00 a       457     0    19     1     7
  1.1905774534598033E+00 a       458     0    19     1     8
  4.9173019273482682E-01 a       459     0    19     1     9
 -9.5755057379056374E-01 a       460     0    19     1    10
 -5.7805527908283849E-01 a       461     0    19     1    11
 -4.4844173226789502E-01 a       462     0    19     1    12
 -1.3457208190189693E+00 a       463     0    19     1    13
 -7.3148270743737170E-02 a       464     0    19     1    14
 -8.2817623575471144E-01 a       465     0    19     1    15
  3.1605320723874231E-01 a       466     0    19     1    16
 -2.6479418299705232E-01 a       467     0    19     1    17
 -3.0076156897807099E-01 a       468     0    19     1    18
 -2.2523818628088277E+00 a       469     0    19     1    19
 -6.2893881114150452E-01 a       470     0    19     1    20
 -2.4665577474057088E+00 a       471     0    19     1    21
 -1.5846733422703358E+00 a       472     0    19     1    22
  7.2133005669153194E-01 a       473     0    19     1    23
 -1.6176335358679554E+00 a       474     0    19     1    24
 -1.7175369138135350E+00 a       475     0    19     1    25
  2.3519480725517199E+00 a       476     0    20     1     1
  4.6006534678291207E+00 a       477     0    20     1     2
  4.0800459635469555E-01 a       478     0    20     1     3
  6.7117726719440562E-01 a       479     0    20     1     4
  6.9660039594033463E-01 a       480     0    20     1     5
  1.6071147105183348E+00 a       481     0    20     1     6
 -1.3976546027594772E+00 a       482     0    20     1     7
  6.0626871192004317E-01 a       483     0    20     1     8
  2.6057124748251326E-01 a       484     0    20     1     9
 -6.8107520731371396E-01 a       485     0    20     1    10
 -1.5565023603236159E+00 a       486     0    20     1    11
  6.3400670831566183E-02 a       487     0    20     1    12
 -5.3700329425914894E+00 a       488     0    20     1    13
  1.0755055338567427E+00 a       489     0    20     1    14
 -1.3623376085074081E+00 a       490     0    20     1    15
 -3.1491198603298062E-02 a       491     0    20     1    16
  3.2999076660786880E-01 a       492     0    20     1    17
 -3.6425420894222023E+00 a       493     0    20     1    18
  3.9627517238578238E+00 a       494     0    20     1    19
 -1.1971754486182524E+00 a       495     0    20     1    20
 -1.8091184935068370E+00 a       496     0    20     1    21
  1.8816780523097174E+00 a       497     0    20     1    22
  1.9784268296024146E-01 a       498     0    20     1    23
 -3.5409961526357631E-01 a       499     0    20     1    24
 -1.2843247221613630E+00 a       500     0    20     1    25
 -2.7597897812373675E-02 a       501     0    21     1     1
 -1.4922378591126384E+00 a       502     0    21     1     2
  8.1689976282372934E-01 a       503     0    21     1     3
  3.0124498784986048E-01 a       504     0    21     1     4
 -5.7241413382125284E-01 a       505     0    21     1     5
  5.9409715573856192E-01 a       506     0    21     1     6
  4.8817852864420802E-01 a       507     0    21     1     7
 -3.0177443907660395E-01 a       508     0    21     1     8
  3.6570688387628725E-01 a       509     0    21     1     9
  1.3373171524456826E-01 a       510     0    21     1    10
 -2.4873573964931522E-01 a       511     0    21     1    11
  2.4326057157406578E-01 a       512     0    21     1    12
  6.2575128170704364E-01 a       513     0    21     1    13
 -7.6597611748231731E-01 a       514     0    21     1    14
 -2.4071007886108350E-01 a       515     0    21     1    15
  1.9937044714065649E-01 a       516     0    21     1    16
 -7.0142074432626278E-01 a       517     0    21     1    17
  1.3619067747975511E-01 a       518     0    21     1    18
 -2.0601778652121716E-01 a       519     0    21     1    19
  2.0307829788127116E-01 a       520     0    21     1    20
 -9.0404786164655880E-03 a       521     0    21     1    21
  2.6127911192641251E-01 a       522     0    21     1    22
 -3.4803862414775494E-01 a       523     0    21     1    23
  9.5337959529206942E-02 a       524     0    21     1    24
 -1.0755651854659392E+00 a       525     0    21     1    25
  3.0042565431917195E-01 a       526     0    22     1     1
 -6.8081308953274855E-02 a       527     0    22     1     2
  7.5686842521948849E-02 a       528     0    22     1     3
 -1.9812137454516124E-01 a       529     0    22     1     4
  1.7876930266953344E-02 a       530     0    22     1     5
  2.9945428754768139E-01 a       531     0    22     1     6
  4.2556448887602277E-01 a       532     0    22     1     7
  1.4101621648139104E-01 a       533     0    22     1     8
  1.5220668037808202E-01 a       534     0    22     1     9
  5.4853737534567548E-01 a       535     0    22     1    10
 -5.3831322913648595E-02 a       536     0    22     1    11
 -4.1046507707553942E-01 a       537     0    22     1    12
  5.2042483438725684E-01 a       538     0    22     1    13
 -5.0533172724137576E-01 a       539     0    22     1    14
  6.6270507456638161E-01 a       540     0    22     1    15
 -2.9891807196709425E-01 a       541     0    22     1    16
  1.3784311542770294E-01 a       542     0    22     1    17
  6.9617649745960586E-01 a       543     0    22     1    18
  4.5530291040993864E-01 a       544     0    22     1    19
  5.0579149733208961E-01 a       545     0    22     1    20
  3.1097987393215820E-01 a       546     0    22     1    21
  1.7745907122128748E-01 a       547     0    22     1    22
 -7.5564509982721650E-01 a       548     0    22     1    23
  4.9707280963624401E-01 a       549     0    22     1    24
  1.5445726164486206E-01 a       550     0    22     1    25
 -7.0241721392306566E-01 a       551     0    23     1     1
 -6.2892218087484519E-01 a       552     0    23     1     2
  1.3450181532354830E-01 a       553     0    23     1     3
 -3.2679855824316273E-01 a       554     0    23     1     4
  3.4576222101077181E-01 a       555     0    23     1     5
 -3.1598707109823093E-01 a       556     0    23     1     6
  3.0047182726997052E-01 a       557     0    23     1     7
  2.3731316504635835E-02 a       558     0    23     1     8
  2.4295037925111498E-01 a       559     0    23     1     9
  1.0585085241619202E-01 a       560     0    23     1    10
  2.4081984483085681E-01 a       561     0    23     1    11
 -9.3809779275718472E-02 a       562     0    23     1    12
  2.3727181228775871E+00 a       563     0    23     1    13
  2.9600836945835829E-01 a       564     0    23     1    14
  4.7497399064335999E-01 a       565     0    23     1    15
 -6.0967688965725186E-02 a       566     0    23     1    16
 -7.0406514017628832E-02 a       567     0    23     1    17
  5.9594979728102193E-01 a       568     0    23     1    18
 -1.5514216610483494E-01 a       569     0    23     1    19
  4.0857948402263233E-01 a       570     0    23     1    20
  1.0333115495014147E+00 a       571     0    23     1    21
  3.1616123140758556E-01 a       572     0    23     1    22
  4.2269274438514681E-01 a       573     0    23     1    23
  4.7782047178707759E-01 a       574     0    23     1    24
  5.7354177731589917E-01 a       575     0    23     1    25
 -1.6886450872424688E-01 a       576     0    24     1     1
  3.8379452206727455E-01 a       577     0    24     1     2
  2.6106490308770886E-01 a       578     0    24     1     3
 -2.5706835134537387E-01 a       579     0    24     1     4
 -9.7150255335884450E-02 a       580     0    24     1     5
  1.6337075045243679E-01 a       581     0    24     1     6
 -2.5949669738641867E-01 a       582     0    24     1     7
 -5.0097816656164675E-02 a       583     0    24     1     8
 -6.8770678616836967E-01 a       584     0    24     1     9
  9.2152786256210151E-02 a       585     0    24     1    10
 -2.5219285583462470E-02 a       586     0    24     1    11
 -3.7061265547330230E-01 a       587     0    24     1    12
 -4.5993576314176034E-02 a       588     0    24     1    13
  3.3098663454655192E-01 a       589     0    24     1    14
 -8.4661450913597405E-02 a       590     0    24     1    15
  2.3365310872407844E-02 a       591     0    24     1    16
  2.1631357126347989E-01 a       592     0    24     1    17
 -5.5204117899283096E-02 a       593     0    24     1    18
 -2.5000224298678952E-01 a       594     0    24     1    19
 -3.1694654475942619E-01 a       595     0    24     1    20
  4.0346818992508032E-01 a       596     0    24     1    21
 -3.4606861651624810E-01 a       597     0    24     1    22
  1.1239275841919948E-01 a       598     0    24     1    23
 -5.6164666393715845E-01 a       599     0    24     1    24
  6.1553333800829280E-01 a       600     0    24     1    25
 -1.8001191601705169E+00 b       601     1     1
 -5.9978917629000550E-01 b       602     1     2
 -4.1334439086003755E-01 b       603     1     3
 -1.0113967454541162E+00 b       604     1     4
 -2.6912509843065308E-01 b       605     1     5
  2.6544060204572952E+00 b       606     1     6
  9.9754440062659588E-01 b       607     1     7
 -4.0134484808046729E+00 b       608     1     8
  7.0934967404264726E-01 b       609     1     9
  1.2834563602404674E+00 b       610     1    10
  3.2172143657298652E-01 b       611     1    11
  6.0232360361964798E-01 b       612     1    12
 -4.5279216294000046E-01 b       613     1    13
  1.5963623987144793E-01 b       614     1    14
  2.8784382807931750E+00 b       615     1    15
 -2.3144541726642225E+00 b       616     1    16
 -3.0038871788047370E+00 b       617     1    17
 -1.6214947616404354E+00 b       618     1    18
  2.2764720914608567E+00 b       619     1    19
 -4.8772451897411234E-01 b       620     1    20
  6.1444666364830269E-01 b       621     1    21
 -9.5637783900817497E-01 b       622     1    22
 -5.3389951345438047E-01 b       623     1    23
 -5.6594738947209522E-01 b       624     1    24
  1.6049488472726849E+00 b       625     1    25
 -1.8281772448250277E+00 a       626     1     1     2     1
 -6.2981086966483901E-01 a       627     1     1     2     2
 -5.7615401794346155E-01 a       628     1     1     2     3
  5.3013545535520956E-01 a       629     1     1     2     4
  1.3826722452982159E+00 a       630     1     1     2     5
 -1.0317466148784358E+00 a       631     1     1     2     6
 -2.0666217194395640E+00 a       632     1     1     2     7
  2.1655788651440253E+00 a       633     1     1     2     8
  3.6097855933436565E+00 a       634     1     1     2     9
 -1.8583953307819725E+00 a       635     1     1     2    10
 -1.3616017485404113E+00 a       636     1     1     2    11
 -8.2860639828987559E-01 a       637     1     1     2    12
 -1.5019512696186976E-01 a       638     1     1     2    13
 -6.7219385387916852E-01 a       639     1     1     2    14
  6.4120419210636703E-01 a       640     1     1     2    15
  1.3467821063097291E-01 a       641     1     1     2    16
  9.8846835756014928E-01 a       642     1     1     2    17
  1.1083709926437422E+00 a       643     1     1     2    18
 -6.1088349628581251E-01 a       644     1     1     2    19
  7.7929264901967710E-01 a       645     1     1     2    20
  3.3487067452825148E-01 a       646     1     1     2    21
 -1.3575856458287974E+00 a       647     1     1     2    22
  2.5339889796001974E-02 a       648     1     1     2    23
  1.0995066523032608E+00 a       649     1     1     2    24
  3.1137460495381175E+00 a       650     1     1     2    25
  1.0835484366657782E+00 a       651     1     2     2     1
 -2.0753326809754793E-01 a       652     1     2     2     2
 -1.5301095129037503E+00 a       653     1     2     2     3
 -2.2831105939402740E+00 a       654     1     2     2     4
 -3.0974373986091868E+00 a       655     1     2     2     5
  2.3286148621453073E-01 a       656     1     2     2     6
  5.4206424965483668E-01 a       657     1     2     2     7
 -7.6242572274334630E-01 a       658     1     2     2     8
 -1.5531877907665028E+00 a       659     1     2     2     9
 -3.7233259717090250E-01 a       660     1     2     2    10
  9.0199345594707725E-01 a       661     1     2     2    11
  5.0330139786418826E-01 a       662     1     2     2    12
  5.1860560999870553E-01 a       663     1     2     2    13
  6.2899122108355063E-02 a       664     1     2     2    14
 -1.9247910312217933E-01 a       665     1     2     2    15
 -8.6691852443541037E-02 a       666     1     2     2    16
  6.0282655349291014E-01 a       667     1     2     2    17
 -9.4771764253506519E-01 a       668     1     2     2    18
 -9.0094054654762401E-01 a       669     1     2     2    19
  4.3558508961287545E-02 a       670     1     2     2    20
 -2.5579362895306268E-02 a       671     1     2     2    21
  1.3472934212131391E+00 a       672     1     2     2    22
 -5.4823332710177530E-01 a       673     1     2     2    23
 -7.5754617677913794E-01 a       674     1     2     2    24
 -1.6483443786092040E+00 a       675     1     2     2    25
 -1.0994665697882340E+00 a       676     1     3     2     1
 -9.8410112582305886E-01 a       677     1     3     2     2
  5.6032814352658866E-01 a       678     1     3     2     3
 -3.0142655725160212E+00 a       679     1     3     2     4
 -1.6538743857755329E+00 a       680     1     3     2     5
 -4.1434252400747218E-01 a       681     1     3     2     6
  2.9112102871622331E-01 a       682     1     3     2     7
 -1.1142035002651809E+00 a       683     1     3     2     8
  1.3244977546316130E+00 a       684     1     3     2     9
  6.3278591973609188E-01 a       685     1     3     2    10
 -1.1938584657894702E+00 a       686     1     3     2    11
 -3.1134522748727318E+00 a       687     1     3     2    12
 -3.3652861157943825E-01 a       688     1     3     2    13
 -4.4197464231685130E-01 a       689     1     3     2    14
 -1.5334660834474184E-01 a       690     1     3     2    15
 -6.1811962319850455E-01 a       691     1     3     2    16
 -3.1696396408694916E-01 a       692     1     3     2    17
  8.3664261615345670E-01 a       693     1     3     2    18
  2.0360240865661031E-01 a       694     1     3     2    19
  9.2032348900886152E-01 a       695     1     3     2    20
 -1.2170021380595883E+00 a       696     1     3     2    21
 -4.3512560004087247E-01 a       697     1     3     2    22
  8.4946092465127543E-01 a       698     1     3     2    23
  3.9549328632903324E-01 a       699     1     3     2    24
 -1.4680782386803226E+00 a       700     1     3     2    25
 -1.3696927750317482E+00 a       701     1     4     2     1
  3.6608314790627361E-01 a       702     1     4     2     2
  1.5146135860504439E+00 a       703     1     4     2     3
  5.1692456337992265E+00 a       704     1     4     2     4
  7.1279024130524193E-01 a       705     1     4     2     5
  9.1142433381354204E-01 a       706     1     4     2     6
 -1.3872406062908940E+00 a       707     1     4     2     7
  4.0382240375923711E-01 a       708     1     4     2     8
  1.7790033956585904E+00 a       709     1     4     2     9
  8.2654018979782251E-01 a       710     1     4     2    10
  6.6147668948917770E-02 a       711     1     4     2    11
 -2.9882197324505149E+00 a       712     1     4     2    12
 -3.8570783473733589E-01 a       713     1     4     2    13
 -4.0335662354552043E-01 a       714     1     4     2    14
  1.1661000891260842E+00 a       715     1     4     2    15
  6.0829872081168068E-01 a       716     1     4     2    16
  1.4411795272399928E+00 a       717     1     4     2    17
  3.1731837145079106E-01 a       718     1     4     2    18
 -1.5011847619532395E-01 a       719     1     4     2    19
  6.2341941196043316E-01 a       720     1     4     2    20
 -1.0682098645277356E+00 a       721     1     4     2    21
  1.7033946914193201E+00 a       722     1     4     2    22
  4.3025413984469141E-01 a       723     1     4     2    23
  1.6679121180087959E+00 a       724     1     4     2    24
  4.1579175986813360E-01 a       725     1     4     2    25
  1.0600903544925095E+00 a       726     1     5     2     1
 -1.1811418355468546E+00 a       727     1     5     2     2
  5.4206003472303810E-01 a       728     1     5     2     3
  1.6324501756096239E+00 a       729     1     5     2     4
  3.2405021417359225E-01 a       730     1     5     2     5
 -1.1566330562259963E+00 a       731     1     5     2     6
 -1.5897069529638166E-01 a       732     1     5     2     7
 -1.5011630148798034E+00 a       733     1     5     2     8
  1.8370279970024794E-01 a       734     1     5     2     9
 -7.0842335344586027E-01 a       735     1     5     2    10
 -4.1114287104142855E-01 a       736     1     5     2    11
 -1.7146880510820359E+00 a       737     1     5     2    12
 -1.6400713615855227E+00 a       738     1     5     2    13
 -7.4615630068138250E-01 a       739     1     5     2    14
 -2.0061395287276107E+00 a       740     1     5     2    15
 -5.0118164357240946E-01 a       741     1     5     2    16
 -1.8224215247653766E+00 a       742     1     5     2    17
 -1.0128621723664595E+00 a       743     1     5     2    18
 -1.5181775508283251E+00 a       744     1     5     2    19
 -6.4422236559793722E-01 a       745     1     5     2    20
  1.9237065378944913E+00 a       746     1     5     2    21
  9.6221146991929907E-01 a       747     1     5     2    22
  1.1943451856806948E+00 a       748     1     5     2    23
  1.0937150085950802E+00 a       749     1     5     2    24
  1.3414555612495500E+00 a       750     1     5     2    25
  1.2224303007403654E-03 a       751     1     6     2     1
  2.4010873064682681E-01 a       752     1     6     2     2
  1.6241783078741878E-01 a       753     1     6     2     3
 -1.0219983839061766E-01 a       754     1     6     2     4
  6.6120195539453386E-01 a       755     1     6     2     5
 -4.1605749394108343E-01 a       756     1     6     2     6
  7.9507555566101418E-01 a       757     1     6     2     7
  2.1217856515219253E+00 a       758     1     6     2     8
 -2.4949761869768747E-01 a       759     1     6     2     9
 -7.9656903519161637E-01 a       760     1     6     2    10
 -9.2329706718139859E-01 a       761     1     6     2    11
  1.4678090191602051E+00 a       762     1     6     2    12
  2.1901928401217432E-02 a       763     1     6     2    13
 -8.7348862786085646E-01 a       764     1     6     2    14
 -1.8258482837940471E+00 a       765     1     6     2    15
 -6.7190798259139395E-01 a       766     1     6     2    16
 -1.6369597542338774E+00 a       767     1     6     2    17
 -1.6851849434220927E+00 a       768     1     6     2    18
 -8.6407102910231259E-01 a       769     1     6     2    19
 -5.1133453132816165E-01 a       770     1     6     2    20
  1.3929646885797613E+00 a       771     1     6     2    21
 -5.8632039520862111E-01 a       772     1     6     2    22
 -5.6598854866874285E-02 a       773     1     6     2    23
 -7.3984371678331318E-01 a       774     1     6     2    24
  8.6651183183098024E-01 a       775     1     6     2    25
  5.0790666706864651E-01 a       776     1     7     2     1
  1.7061517482764252E+00 a       777     1     7     2     2
  7.5644578613790248E-01 a       778     1     7     2     3
 -2.0033268230605032E+00 a       779     1     7     2     4
 -1.5750265446459211E+00 a       780     1     7     2     5
 -7.2740778746902657E-02 a       781     1     7     2     6
  2.0357048583190665E-02 a       782     1     7     2     7
 -1.4115901959378066E-01 a       783     1     7     2     8
 -1.5372225391585446E+00 a       784     1     7     2     9
  4.3364941872572205E-01 a       785     1     7     2    10
 -1.0692873126308273E+00 a       786     1     7     2    11
 -1.4673848764690529E+00 a       787     1     7     2    12
  4.9264295252032486E-01 a       788     1     7     2    13
  6.5937367865244878E-01 a       789     1     7     2    14
  3.8100591054674941E-02 a       790     1     7     2    15
 -2.5692832874736768E+00 a       791     1     7     2    16
  9.9992320746848218E-01 a       792     1     7     2    17
 -2.0641319637719979E+00 a       793     1     7     2    18
 -6.7505003758190196E-01 a       794     1     7     2    19
  9.5121282744487035E-01 a       795     1     7     2    20
 -2.7455545208603582E+00 a       796     1     7     2    21
  2.9453270576096907E-01 a       797     1     7     2    22
 -1.5319359436348983E+00 a       798     1     7     2    23
  2.1954972102962739E-01 a       799     1     7     2    24
 -1.0171240313247796E+00 a       800     1     7     2    25
 -2.0079479547400920E+00 a       801     1     8     2     1
 -5.4815298600181048E+00 a       802     1     8     2     2
  6.1977101512884769E-01 a       803     1     8     2     3
  6.4621387337659542E-01 a       804     1     8     2     4
 -6.7950448005264752E+00 a       805     1     8     2     5
 -6.2374291576000029E-01 a       806     1     8     2     6
 -1.4573907828185431E-01 a       807     1     8     2     7
  7.7057535620540785E-01 a       808     1     8     2     8
  6.6130818856381424E-01 a       809     1     8     2     9
 -1.6161972667345401E+00 a       810     1     8     2    10
 -3.4698570157588136E+00 a       811     1     8     2    11
  3.6797887234032595E-01 a       812     1     8     2    12
  6.2171461311064136E-01 a       813     1     8     2    13
  8.8791883286673023E-01 a       814     1     8     2    14
  1.2854230471192762E+00 a       815     1     8     2    15
 -4.4534494247082437E+00 a       816     1     8     2    16
  2.1527217908733203E+00 a       817     1     8     2    17
 -4.3793176104660390E+00 a       818     1     8     2    18
  1.4933758981480731E+00 a       819     1     8     2    19
  1.7580602307113498E+00 a       820     1     8     2    20
  4.4617338940098483E-01 a       821     1     8     2    21
 -9.3704530319741186E-01 a       822     1     8     2    22
  3.1191126796794999E-01 a       823     1     8     2    23
  5.8958781827498363E+00 a       824     1     8     2    24
  7.3620966310323632E-01 a       825     1     8     2    25
  4.9210154997056277E-01 a       826     1     9     2     1
  3.4932939247027317E+00 a       827     1     9     2     2
  1.9744038360871285E+00 a       828     1     9     2     3
 -3.3128000896656253E+00 a       829     1     9     2     4
 -2.0802420647463729E+00 a       830     1     9     2     5
  1.6504854558879742E+00 a       831     1     9     2     6
  1.5199564959465768E+00 a       832     1     9     2     7
  8.5665132407307698E-01 a       833     1     9     2     8
  2.8947773076838721E+00 a       834     1     9     2     9
  2.0524706326192956E+00 a       835     1     9     2    10
 -5.0906584974853408E-01 a       836     1     9     2    11
 -1.3610946497647114E+00 a       837     1     9     2    12
 -9.7616257017192676E-01 a       838     1     9     2    13
 -5.5885923898733658E-01 a       839     1     9     2    14
  8.9297385410774055E-01 a       840     1     9     2    15
 -1.9836934581057883E-01 a       841     1     9     2    16
 -4.3106326930987748E-01 a       842     1     9     2    17
  4.8032350943222859E+00 a       843     1     9     2    18
  3.9211327915339977E-01 a       844     1     9     2    19
 -6.8726241392999377E-01 a       845     1     9     2    20
 -4.9727059766219572E-01 a       846     1     9     2    21
 -2.4316600117759277E+00 a       847     1     9     2    22
  1.8104985809706824E+00 a       848     1     9     2    23
  1.8897838607109946E-02 a       849     1     9     2    24
  2.3465890193448855E-01 a       850     1     9     2    25
 -1.7410615446815803E+00 a       851     1    10     2     1
 -2.7329797671602130E+00 a       852     1    10     2     2
  9.6722326714144580E-01 a       853     1    10     2     3
  3.1878676779544590E+00 a       854     1    10     2     4
  3.4285267788618823E+00 a       855     1    10     2     5
 -1.6401873614721790E-01 a       856     1    10     2     6
 -1.2460325588910155E+00 a       857     1    10     2     7
 -2.4352966243181791E+00 a       858     1    10     2     8
  3.3744043020720276E+00 a       859     1    10     2     9
 -1.0118327594508116E+00 a       860     1    10     2    10
  2.5888210287893032E-01 a       861     1    10     2    11
  1.4176043922428622E-01 a       862     1    10     2    12
  3.2668834651899029E-02 a       863     1    10     2    13
  1.7858225927012750E+00 a       864     1    10     2    14
 -9.8709302770655516E-01 a       865     1    10     2    15
  1.0535336186643862E+00 a       866     1    10     2    16
  6.0954489046995408E-01 a       867     1    10     2    17
 -5.0998672520385080E-01 a       868     1    10     2    18
  3.2135107978636090E-01 a       869     1    10     2    19
 -1.5944987793360940E-02 a       870     1    10     2    20
 -2.4989196336731793E-02 a       871     1    10     2    21
  2.5237114669927668E-01 a       872     1    10     2    22
  6.1843461888411277E-01 a       873     1    10     2    23
 -8.4257953961536514E-01 a       874     1    10     2    24
  1.4374643628536107E-01 a       875     1    10     2    25
 -8.1771221691704962E-02 a       876     1    11     2     1
  2.8029793542408781E+00 a       877     1    11     2     2
 -1.1225166875884172E+00 a       878     1    11     2     3
 -1.5486278798134823E+00 a       879     1    11     2     4
  6.6378076901965163E-02 a       880     1    11     2     5
 -7.8759167937143904E-01 a       881     1    11     2     6
  5.4795112533869161E-01 a       882     1    11     2     7
  6.4973813688018722E-01 a       883     1    11     2     8
 -8.0097173483342909E-01 a       884     1    11     2     9
 -1.6377901555126329E+00 a       885     1    11     2    10
  1.6650016358670122E-01 a       886     1    11     2    11
  1.4012009445571041E-01 a       887     1    11     2    12
  4.1165680415997474E-01 a       888     1    11     2    13
 -2.6643718468711425E-01 a       889     1    11     2    14
  3.6030206155043087E-01 a       890     1    11     2    15
  1.0442723560390166E-01 a       891     1    11     2    16
 -2.5488268795678124E+00 a       892     1    11     2    17
 -3.8457175768566793E-01 a       893     1    11     2    18
  1.1776552667810891E-01 a       894     1    11     2    19
 -1.6494326013339355E+00 a       895     1    11     2    20
  5.6675405994102446E-01 a       896     1    11     2    21
  1.6474235596820783E+00 a       897     1    11     2    22
 -1.0639026152397675E+00 a       898     1    11     2    23
  5.5902160321355622E-02 a       899     1    11     2    24
 -2.1798840962004444E+00 a       900     1    11     2    25
  1.0056685102639900E+00 a       901     1    12     2     1
 -1.4484577419988476E+00 a       902     1    12     2     2
 -9.3613376294826522E-01 a       903     1    12     2     3
  4.9705976710107985E-01 a       904     1    12     2     4
 -3.2156849530183995E-01 a       905     1    12     2     5
 -1.5063577301033928E+00 a       906     1    12     2     6
  2.2174903948444979E-01 a       907     1    12     2     7
  2.2285721961000289E+00 a       908     1    12     2     8
  1.3422762461309588E+00 a       909     1    12     2     9
  1.4106615645085143E+00 a       910     1    12     2    10
  8.0567739969168506E-01 a       911     1    12     2    11
 -3.4274848699533096E+00 a       912     1    12     2    12
  1.2474024754827473E+00 a       913     1    12     2    13
 -4.6038088992424442E-01 a       914     1    12     2    14
 -1.7357452163451821E+00 a       915     1    12     2    15
 -1.1777132687968770E+00 a       916     1    12     2    16
  1.6237196030435375E+00 a       917     1    12     2    17
 -1.1076290092337888E+00 a       918     1    12     2    18
  1.2033523777308557E+00 a       919     1    12     2    19
 -2.9223284078544298E-01 a       920     1    12     2    20
 -1.5293272390689128E+00 a       921     1    12     2    21
  2.2978696911573721E-01 a       922     1    12     2    22
  1.0855147223144590E+00 a       923     1    12     2    23
  3.5891570544782425E-01 a       924     1    12     2    24
 -2.4021954357511683E+00 a       925     1    12     2    25
  9.0089304459065678E-01 a       926     1    13     2     1
  1.3739097361532566E+00 a       927     1    13     2     2
  1.3906295489681570E+00 a       928     1    13     2     3
  7.0445235795084582E-01 a       929     1    13     2     4
  1.0438054709477012E+00 a       930     1    13     2     5
  2.9044385313388510E-01 a       931     1    13     2     6
  3.6655657478768289E-01 a       932     1    13     2     7
  1.0873320041522685E+00 a       933     1    13     2     8
  6.9786929115610830E-01 a       934     1    13     2     9
 -1.8485774540116755E+00 a       935     1    13     2    10
 -1.9737560067849969E+00 a       936     1    13     2    11
  1.4765482063041322E+00 a       937     1    13     2    12
  2.1766652772725475E-01 a       938     1    13     2    13
  5.9829040465122107E-01 a       939     1    13     2    14
 -2.5435349179870959E-01 a       940     1    13     2    15
 -1.6388915678852486E-01 a       941     1    13     2    16
  4.2787792210788475E-02 a       942     1    13     2    17
 -1.1041733377445948E+00 a       943     1    13     2    18
  3.4475124422810827E-01 a       944     1    13     2    19
  8.1209263886947514E-01 a       945     1    13     2    20
  6.7137370618994896E-01 a       946     1    13     2    21
 -7.3882003038848776E-01 a       947     1    13     2    22
 -8.4383646805214896E-01 a       948     1    13     2    23
  3.0882375424847314E-01 a       949     1    13     2    24
  4.6126338901407365E-01 a       950     1    13     2    25
 -9.6988682239574608E-01 a       951     1    14     2     1
  7.2674183062167308E-01 a       952     1    14     2     2
 -2.4742870544881836E+00 a       953     1    14     2     3
  2.7970669238558621E+00 a       954     1    14     2     4
 -1.2070253771804389E+00 a       955     1    14     2     5
  9.9645939913556680E-01 a       956     1    14     2     6
 -1.7272046371015641E+00 a       957     1    14     2     7
  1.9145109287660971E+00 a       958     1    14     2     8
 -3.0610260769142777E-01 a       959     1    14     2     9
 -1.6883779505562477E-01 a       960     1    14     2    10
  9.2288361575793221E-01 a       961     1    14     2    11
  1.5387214017875170E+00 a       962     1    14     2    12
 -1.5850149057314240E+00 a       963     1    14     2    13
 -9.8213147705904880E-01 a       964     1    14     2    14
 -1.1562928403504744E+00 a       965     1    14     2    15
 -3.7969530569449128E-01 a       966     1    14     2    16
 -3.6818033682615887E+00 a       967     1    14     2    17
  2.5367694232964882E-01 a       968     1    14     2    18
  3.3226831744527574E-01 a       969     1    14     2    19
  1.7432113443290539E-01 a       970     1    14     2    20
 -1.0525500611346599E+00 a       971     1    14     2    21
 -3.6123324276593211E-01 a       972     1    14     2    22
 -1.0804950387215559E-01 a       973     1    14     2    23
  1.4258352579512623E-01 a       974     1    14     2    24
 -2.9011166157137502E-02 a       975     1    14     2    25
 -1.2900433322755969E+00 a       976     1    15     2     1
 -2.4937406604029211E+00 a       977     1    15     2     2
 -8.7219568551030213E-01 a       978     1    15     2     3
  3.6844330136971379E+00 a       979     1    15     2     4
  1.0197895017644614E+00 a       980     1    15     2     5
 -9.0214566830180432E-01 a       981     1    15     2     6
 -1.5034280728174612E+00 a       982     1    15     2     7
 -9.9979697842328974E-01 a       983     1    15     2     8
 -1.0223066814047659E+00 a       984     1    15     2     9
  9.5078756976613291E-02 a       985     1    15     2    10
  1.3521136822009379E+00 a       986     1    15     2    11
 -5.7243730316518093E-01 a       987     1    15     2    12
 -5.8414631537223283E-01 a       988     1    15     2    13
 -4.6038252647625577E-01 a       989     1    15     2    14
  8.0330082172186679E-01 a       990     1    15     2    15
  1.0143027670625655E+00 a       991     1    15     2    16
  2.7405066628224661E-01 a       992     1    15     2    17
 -1.1562341559473761E+00 a       993     1    15     2    18
 -4.7667188648705638E-01 a       994     1    15     2    19
  6.3723319031855363E-01 a       995     1    15     2    20
  7.0855744715989422E-01 a       996     1    15     2    21
  8.1462412391039174E-01 a       997     1    15     2    22
  2.4277726866176808E-01 a       998     1    15     2    23
 -1.1876858756574615E+00 a       999     1    15     2    24
  1.2009930333879946E+00 a      1000     1    15     2    25
 -2.8157659048486625E+00 a      1001     1    16     2     1
 -8.1689975665917007E+00 a      1002     1    16     2     2
  5.4697908708749288E-01 a      1003     1    16     2     3
 -7.8290881239252863E-01 a      1004     1    16     2     4
 -4.2142577124765968E+00 a      1005     1    16     2     5
  1.3785732312771790E+00 a      1006     1    16     2     6
  1.7130557548541181E+00 a      1007     1    16     2     7
  1.3034608091975498E+01 a      1008     1    16     2     8
 -4.9874517455825034E+00 a      1009     1    16     2     9
 -1.1598940749348319E+00 a      1010     1    16     2    10
 -1.7694972392923420E+00 a      1011     1    16     2    11
  2.9044404697140394E+00 a      1012     1    16     2    12
 -3.1309789199602647E+00 a      1013     1    16     2    13
 -1.1391340118599158E+00 a      1014     1    16     2    14
  3.3507233405658905E+00 a      1015     1    16     2    15
  3.8419004584452128E+00 a      1016     1    16     2    16
  3.1132751046529190E+00 a      1017     1    16     2    17
 -1.5101530137122039E+00 a      1018     1    16     2    18
  3.4990470389169345E-02 a      1019     1    16     2    19
  3.4403246148737003E+00 a      1020     1    16     2    20
  6.9370541412276392E+00 a      1021     1    16     2    21
 -1.4463702242946613E-01 a      1022     1    16     2    22
 -7.9789720216555715E-01 a      1023     1    16     2    23
 -1.1183774857188842E+00 a      1024     1    16     2    24
  1.0458597680288825E+01 a      1025     1    16     2    25
 -9.3021664786968783E-01 a      1026     1    17     2     1
 -5.2589688940711516E+00 a      1027     1    17     2     2
  9.3171721310258349E-01 a      1028     1    17     2     3
 -2.0942528051619702E-01 a      1029     1    17     2     4
 -7.0207834797129531E-01 a      1030     1    17     2     5
 -1.7273778453981634E-01 a      1031     1    17     2     6
 -7.0296303285502681E-01 a      1032     1    17     2     7
  4.2215763144704715E-01 a      1033     1    17     2     8
  2.2613872748411055E+00 a      1034     1    17     2     9
 -9.1364917022428049E-01 a      1035     1    17     2    10
 -2.0207282503193441E-01 a      1036     1    17     2    11
  9.4503678328231233E-01 a      1037     1    17     2    12
  7.7897815529730829E-01 a      1038     1    17     2    13
  8.2761328062103312E-01 a      1039     1    17     2    14
 -4.2483148182175388E+00 a      1040     1    17     2    15
 -1.3729403284660855E+00 a      1041     1    17     2    16
  2.0182832251877422E-01 a      1042     1    17     2    17
  1.7300803060191154E+00 a      1043     1    17     2    18
  1.2053186128130200E+00 a      1044     1    17     2    19
  2.2547378989609515E-01 a      1045     1    17     2    20
  1.7571617957583938E+00 a      1046     1    17     2    21
 -1.4492665267511073E-01 a      1047     1    17     2    22
 -5.0396921242001980E-01 a      1048     1    17     2    23
  1.5336030104959737E+00 a      1049     1    17     2    24
  9.8332621485689808E-01 a      1050     1    17     2    25
  8.6638714563523356E-01 a      1051     1    18     2     1
  3.2342133449635080E-01 a      1052     1    18     2     2
 -5.6735755216308004E-01 a      1053     1    18     2     3
  7.3033827257751949E-01 a      1054     1    18     2     4
 -1.3256611292943361E+00 a      1055     1    18     2     5
 -3.0043379324606740E+00 a      1056     1    18     2     6
  1.3648994878258291E+00 a      1057     1    18     2     7
 -5.5719407423078550E-03 a      1058     1    18     2     8
 -1.7755906466069096E+00 a      1059     1    18     2     9
 -2.3593770616281056E+00 a      1060     1    18     2    10
  2.2378114732028928E-01 a      1061     1    18     2    11
  2.1264911999674032E+00 a      1062     1    18     2    12
  4.3803364860267696E-01 a      1063     1    18     2    13
 -8.1915703818972685E-01 a      1064     1    18     2    14
  6.6676991318435863E-01 a      1065     1    18     2    15
 -6.0724923249568330E-01 a      1066     1    18     2    16
 -9.3152016639218970E-03 a      1067     1    18     2    17
 -7.4862440885166670E-01 a      1068     1    18     2    18
  3.8564304847544195E-02 a      1069     1    18     2    19
 -5.7498564670315722E-01 a      1070     1    18     2    20
  6.2671512487770742E-01 a      1071     1    18     2    21
  2.4296380122501854E-01 a      1072     1    18     2    22
 -9.6812351655620821E-01 a      1073     1    18     2    23
  1.7613077494741005E+00 a      1074     1    18     2    24
 -7.6409153402183660E-01 a      1075     1    18     2    25
 -7.2147923661228219E-01 a      1076     1    19     2     1
 -2.2041672350270125E+00 a      1077     1    19     2     2
  9.4592741079191078E-01 a      1078     1    19     2     3
  3.6644516792225463E+00 a      1079     1    19     2     4
  2.0682257617001949E+00 a      1080     1    19     2     5
 -6.2627617744725084E-01 a      1081     1    19     2     6
 -1.1831758844596774E+00 a      1082     1    19     2     7
 -1.2410422991876262E+00 a      1083     1    19     2     8
 -4.1138268625534657E-02 a      1084     1    19     2     9
 -9.3588490880767639E-01 a      1085     1    19     2    10
  2.9005848629013765E-02 a      1086     1    19     2    11
  1.4064480690938173E+00 a      1087     1    19     2    12
 -1.3089855538773469E+00 a      1088     1    19     2    13
  1.6320702049423423E+00 a      1089     1    19     2    14
  2.9350172854321138E-01 a      1090     1    19     2    15
  4.3319135885112747E-01 a      1091     1    19     2    16
  9.1230933273558767E-01 a      1092     1    19     2    17
 -1.5095588676639480E+00 a      1093     1    19     2    18
  8.2024400762476657E-01 a      1094     1    19     2    19
  1.4597897352668960E+00 a      1095     1    19     2    20
  1.5085109423106255E+00 a      1096     1    19     2    21
  7.6914682483523178E-01 a      1097     1    19     2    22
 -2.7794057745596759E-03 a      1098     1    19     2    23
 -9.1479403803474901E-01 a      1099     1    19     2    24
 -6.0138552735351902E-01 a      1100     1    19     2    25
 -3.5402483799612305E-01 a      1101     1    20     2     1
  2.7815415553281619E-01 a      1102     1    20     2     2
 -1.9408051579661618E+00 a      1103     1    20     2     3
 -6.8901828061842885E-01 a      1104     1    20     2     4
 -2.2727976836851358E+00 a      1105     1    20     2     5
 -1.5262170300383284E+00 a      1106     1    20     2     6
 -2.3962309319802227E-01 a      1107     1    20     2     7
 -6.5605114732546232E-01 a      1108     1    20     2     8
 -1.0051081879470796E+00 a      1109     1    20     2     9
  4.4482176993298972E-01 a      1110     1    20     2    10
  1.6668259633525022E+00 a      1111     1    20     2    11
 -1.5471403909917969E+00 a      1112     1    20     2    12
  8.9928803178075811E-01 a      1113     1    20     2    13
 -3.4326595716090149E+00 a      1114     1    20     2    14
 -7.3268558973623532E-01 a      1115     1    20     2    15
  9.2064548687826520E-01 a      1116     1    20     2    16
 -2.2779632351663328E+00 a      1117     1    20     2    17
 -7.6016167657987965E-01 a      1118     1    20     2    18
 -1.7177709924485718E+00 a      1119     1    20     2    19
 -6.6588429937717997E-01 a      1120     1    20     2    20
  1.3995676098321310E+00 a      1121     1    20     2    21
 -2.0714811679297168E-01 a      1122     1    20     2    22
  1.7519814002694996E+00 a      1123     1    20     2    23
 -1.1982250306305073E+00 a      1124     1    20     2    24
 -2.9287994551553678E+00 a      1125     1    20     2    25
  1.2560725361058947E-01 a      1126     1    21     2     1
  2.2551357456204908E+00 a      1127     1    21     2     2
  1.8115355834417798E-01 a      1128     1    21     2     3
 -1.8534899565077163E+00 a      1129     1    21     2     4
  2.3722692386743457E-02 a      1130     1    21     2     5
  6.2864377709305108E-01 a      1131     1    21     2     6
 -3.9192022254519859E-01 a      1132     1    21     2     7
 -6.0426743907273317E-01 a      1133     1    21     2     8
 -3.1329817300146051E-01 a      1134     1    21     2     9
  3.5979613549617084E-01 a      1135     1    21     2    10
  1.5539016730508768E+00 a      1136     1    21     2    11
  4.0223715949232297E-01 a      1137     1    21     2    12
  1.1122007131749880E+00 a      1138     1    21     2    13
 -1.5857139864257472E+00 a      1139     1    21     2    14
  2.3557257513634910E+00 a      1140     1    21     2    15
 -2.0586557576142031E-01 a      1141     1    21     2    16
  2.2130238319803182E+00 a      1142     1    21     2    17
  3.8065853357866852E-01 a      1143     1    21     2    18
 -9.0612983139888259E-01 a      1144     1    21     2    19
 -1.2740124699304718E+00 a      1145     1    21     2    20
 -5.8363986741895346E-01 a      1146     1    21     2    21
  2.4735499738029669E+00 a      1147     1    21     2    22
  7.8273225253111289E-01 a      1148     1    21     2    23
  6.7116517334844261E-01 a      1149     1    21     2    24
 -2.7490095370843715E-01 a      1150     1    21     2    25
  6.5056718939433400E-01 a      1151     1    22     2     1
 -1.1333424987012917E+00 a      1152     1    22     2     2
  5.7197795192397627E-01 a      1153     1    22     2     3
 -6.3587477756656574E-01 a      1154     1    22     2     4
  2.0391572719446018E+00 a      1155     1    22     2     5
 -4.8907588089276799E-01 a      1156     1    22     2     6
  1.0511076470595897E+00 a      1157     1    22     2     7
 -6.3875903537183520E-01 a      1158     1    22     2     8
 -5.9639269539748185E-01 a      1159     1    22     2     9
  1.1581913788898501E+00 a      1160     1    22     2    10
  6.8915972099357736E-01 a      1161     1    22     2    11
  1.1819567319139295E+00 a      1162     1    22     2    12
  2.4824591289480140E+00 a      1163     1    22     2    13
 -6.0514667787427379E-01 a      1164     1    22     2    14
  3.5225106817351431E-01 a      1165     1    22     2    15
 -2.1520538845702059E-02 a      1166     1    22     2    16
  4.6731813924712351E-01 a      1167     1    22     2    17
  2.3757108172542853E+00 a      1168     1    22     2    18
  4.8485469975397422E-01 a      1169     1    22     2    19
 -2.0305789586195520E+00 a      1170     1    22     2    20
 -2.6630569720929204E-01 a      1171     1    22     2    21
  1.4144091321307717E-01 a      1172     1    22     2    22
 -6.8739405152788169E-01 a      1173     1    22     2    23
  1.2387026828468113E+00 a      1174     1    22     2    24
  3.8291832421056132E-01 a      1175     1    22     2    25
 -1.2779226791059251E+00 a      1176     1    23     2     1
 -1.3353435884048566E+00 a      1177     1    23     2     2
  6.9842314657387927E-01 a      1178     1    23     2     3
  2.5199162029540614E+00 a      1179     1    23     2     4
  2.8608458929771832E+00 a      1180     1    23     2     5
 -1.0979114311204248E+00 a      1181     1    23     2     6
 -2.7937874902486171E-01 a      1182     1    23     2     7
  4.6805903306106350E-01 a      1183     1    23     2     8
 -5.8214826434530975E-01 a      1184     1    23     2     9
 -7.2377713492351303E-01 a      1185     1    23     2    10
  1.4234173348328918E+00 a      1186     1    23     2    11
 -1.6785147808389440E+00 a      1187     1    23     2    12
  4.0847123026008667E-02 a      1188     1    23     2    13
  8.1061128643835467E-01 a      1189     1    23     2    14
  1.7304794300282000E+00 a      1190     1    23     2    15
  1.0145043680198111E+00 a      1191     1    23     2    16
  3.4697104998845849E+00 a      1192     1    23     2    17
 -7.4883045977005611E-02 a      1193     1    23     2    18
 -3.4077427955649320E-01 a      1194     1    23     2    19
  7.7950372782159394E-01 a      1195     1    23     2    20
  1.9351532941075102E+00 a      1196     1    23     2    21
 -1.8290450329632188E-01 a      1197     1    23     2    22
  7.9121346466604237E-01 a      1198     1    23     2    23
 -1.1577123323226910E+00 a      1199     1    23     2    24
 -1.1575346414692758E+00 a      1200     1    23     2    25
  2.0038606254459763E+00 a      1201     1    24     2     1
 -9.1256976523731170E-01 a      1202     1    24     2     2
 -6.1926321892063430E-01 a      1203     1    24     2     3
 -2.2567674089079670E+00 a      1204     1    24     2     4
 -5.1966812071117430E-01 a      1205     1    24     2     5
  2.4885186007419100E+00 a      1206     1    24     2     6
  7.0273414070353812E-01 a      1207     1    24     2     7
  1.0867114150484947E+00 a      1208     1    24     2     8
 -1.7786797537496029E+00 a      1209     1    24     2     9
  3.0025946574188453E+00 a      1210     1    24     2    10
 -1.2694534171811913E+00 a      1211     1    24     2    11
  2.2452177641201843E+00 a      1212     1    24     2    12
  4.1271494783463251E-02 a      1213     1    24     2    13
  2.7083621181693518E+00 a      1214     1    24     2    14
  1.7838057148585700E+00 a      1215     1    24     2    15
  2.1194857701155487E+00 a      1216     1    24     2    16
 -1.4030353018041748E+00 a      1217     1    24     2    17
  2.3419820383490380E+00 a      1218     1    24     2    18
  5.7553736684443990E-01 a      1219     1    24     2    19
  7.5383580636183822E-01 a      1220     1    24     2    20
 -3.3868045872806722E+00 a      1221     1    24     2    21
 -3.1554097839815987E-01 a      1222     1    24     2    22
 -2.2906494234908475E-01 a      1223     1    24     2    23
 -4.1991535489820975E-01 a      1224     1    24     2    24
  2.7590940541649132E+00 a      1225     1    24     2    25
  4.4470762008175777E-02 a      1226     1    25     2     1
  2.0042321993485550E+00 a      1227     1    25     2     2
  6.5733792429986296E-02 a      1228     1    25     2     3
 -1.7855473807728135E+00 a      1229     1    25     2     4
  7.0604095331696792E-01 a      1230     1    25     2     5
 -1.3066492509524424E-01 a      1231     1    25     2     6
  9.3603431544385740E-01 a      1232     1    25     2     7
  6.0029339146944949E-01 a      1233     1    25     2     8
 -4.1905524753691170E-01 a      1234     1    25     2     9
  2.2948332180290736E+00 a      1235     1    25     2    10
 -2.5356168369236718E+00 a      1236     1    25     2    11
  1.7388770039559834E-01 a      1237     1    25     2    12
 -2.1858817354740387E+00 a      1238     1    25     2    13
 -4.0229624126623476E-01 a      1239     1    25     2    14
 -4.8437157405742731E-01 a      1240     1    25     2    15
 -2.5798671520372446E-01 a      1241     1    25     2    16
 -1.4356649511611785E+00 a      1242     1    25     2    17
 -4.5792282266280521E-01 a      1243     1    25     2    18
 -3.1202498626568542E-01 a      1244     1    25     2    19
 -3.0855515179223419E-01 a      1245     1    25     2    20
 -1.3082517188487424E+00 a      1246     1    25     2    21
 -6.5262009594937986E-01 a      1247     1    25     2    22
 -3.5049203642940541E-01 a      1248     1    25     2    23
  9.5130368274565402E-01 a      1249     1    25     2    24
 -7.3583036702875027E-01 a      1250     1    25     2    25
  4.0933849399611537E+00 b      1251     2     1
  5.9297277190467295E+00 b      1252     2     2
 -3.5463992228506540E+00 b      1253     2     3
 -6.8750567977969865E+00 b      1254     2     4
 -1.0686544788180870E+01 b      1255     2     5
  8.6734133495124013E+00 b      1256     2     6
  1.6241350459376476E+00 b      1257     2     7
  1.8042358755602926E+01 b      1258     2     8
 -6.4730303521055110E-01 b      1259     2     9
  7.1895742946171213E+00 b      1260     2    10
 -7.1933411058997712E-02 b      1261     2    11
 -1.8798798386181439E+00 b      1262     2    12
  2.8304560961787777E+00 b      1263     2    13
  7.5997632767215100E+00 b      1264     2    14
  1.5818756550298887E+00 b      1265     2    15
  2.1616655147002426E+00 b      1266     2    16
  8.6056593033527982E+00 b      1267     2    17
  7.2978160658776963E+00 b      1268     2    18
 -2.6908310543729996E+00 b      1269     2    19
  1.1938190648374298E+00 b      1270     2    20
 -5.2657396229088045E+00 b      1271     2    21
 -3.0904092168204103E+00 b      1272     2    22
 -8.5868110285631849E-01 b      1273     2    23
 -3.9294636436412103E+00 b      1274     2    24
  3.7807650806722699E+00 b      1275     2    25
 -3.5912970765801649E-01 a      1276     2     1     3     1
 -1.1994836350824074E-01 a      1277     2     2     3     1
  2.8713478100738277E-01 a      1278     2     3     3     1
  2.3850127916784611E-01 a      1279     2     4     3     1
 -1.6871217334597358E-01 a      1280     2     5     3     1
 -6.2855214594187436E-01 a      1281     2     6     3     1
  6.2494212557850415E-01 a      1282     2     7     3     1
  1.4986868944631417E+00 a      1283     2     8     3     1
  3.1405250151262343E-01 a      1284     2     9     3     1
  7.8155520876399376E-01 a      1285     2    10     3     1
 -3.5625345371739048E-01 a      1286     2    11     3     1
 -2.4877456854284569E-01 a      1287     2    12     3     1
  3.5256165718706400E-01 a      1288     2    13     3     1
  5.5848966543449141E-01 a      1289     2    14     3     1
 -3.3445571117145828E-01 a      1290     2    15     3     1
 -6.1299919813719095E-01 a      1291     2    16     3     1
 -3.1405814968075213E-01 a      1292     2    17     3     1
  5.0887494537158506E-01 a      1293     2    18     3     1
  3.0129486768294185E+00 a      1294     2    19     3     1
 -6.7049072343507077E-01 a      1295     2    20     3     1
  3.7200024710446489E-01 a      1296     2    21     3     1
  1.2069192985002155E+00 a      1297     2    22     3     1
 -8.3554006148869353E-01 a      1298     2    23     3     1
  4.3064005560041813E-01 a      1299     2    24     3     1
 -2.0047537767064397E-01 a      1300     2    25     3     1
  6.8143507507390344E-01 b      1301     3     1
