################################################################################
# Neural network connection values (weights and biases).
################################################################################
# Col  Name       Description
################################################################################
# 1    connection Neural network connection value.
# 2    t          Connection type (a = weight, b = bias).
# 3    index      Index enumerating weights.
# 4    l_s        Starting point layer (end point layer for biases).
# 5    n_s        Starting point neuron in starting layer (end point neuron for biases).
# 6    l_e        End point layer.
# 7    n_e        End point neuron in end layer.
################################################################################
#                      1 2         3     4     5     6     7
#             connection t     index   l_s   n_s   l_e   n_e
############################################################
  9.2662601810394740E+00 a         1     0     1     1     1
 -3.1026600305904077E+00 a         2     0     1     1     2
 -1.2795843430913010E+01 a         3     0     1     1     3
 -1.2883670434124308E+01 a         4     0     1     1     4
  1.9602646396562761E+01 a         5     0     1     1     5
  3.1792450292806709E+01 a         6     0     1     1     6
  4.0065913214616977E+01 a         7     0     1     1     7
 -4.3825692762195985E+01 a         8     0     1     1     8
  2.6617628338604469E+01 a         9     0     1     1     9
  2.2116637739137982E+01 a        10     0     1     1    10
  9.2365010817376607E+00 a        11     0     1     1    11
 -3.3196658108480364E+01 a        12     0     1     1    12
  1.4966824089337161E+01 a        13     0     1     1    13
  2.6450457582387781E+01 a        14     0     1     1    14
  4.8901470625232302E-01 a        15     0     1     1    15
  3.3631647343786106E+00 a        16     0     1     1    16
  4.7839230607663623E+00 a        17     0     1     1    17
  1.1758680588061035E+01 a        18     0     1     1    18
  3.7787101625939329E+01 a        19     0     1     1    19
 -2.6329518169794753E+01 a        20     0     1     1    20
  3.0506280493271127E+01 a        21     0     1     1    21
 -1.5294605192268362E+01 a        22     0     1     1    22
 -3.1129180616323648E+01 a        23     0     1     1    23
  3.6590922335347633E+00 a        24     0     1     1    24
  6.2154334466154664E+00 a        25     0     1     1    25
 -2.4764355277012495E+01 a        26     0     2     1     1
  9.6697259612942033E-01 a        27     0     2     1     2
 -7.2323251828329669E+00 a        28     0     2     1     3
  1.3581749879342363E+01 a        29     0     2     1     4
 -4.1444922648018178E+01 a        30     0     2     1     5
  2.5198751704115903E+01 a        31     0     2     1     6
  9.5311318462492789E+00 a        32     0     2     1     7
  1.3309851041749120E+01 a        33     0     2     1     8
  2.8020405962477437E+01 a        34     0     2     1     9
 -3.3565738970871941E+01 a        35     0     2     1    10
 -9.6128425712325549E-01 a        36     0     2     1    11
 -9.2961463703890317E+00 a        37     0     2     1    12
  4.3920645381747015E+01 a        38     0     2     1    13
  1.1493234268536566E+01 a        39     0     2     1    14
 -2.3956627167621967E+01 a        40     0     2     1    15
  3.3837687257787927E+01 a        41     0     2     1    16
 -7.0108939980122464E+00 a        42     0     2     1    17
  4.7523032872190981E+01 a        43     0     2     1    18
 -3.7462345569730871E+01 a        44     0     2     1    19
 -8.0141265003226660E+00 a        45     0     2     1    20
  9.9449787660099691E+00 a        46     0     2     1    21
  2.8911608905449995E+01 a        47     0     2     1    22
 -1.5145822658284692E+01 a        48     0     2     1    23
  2.7548169554022628E+01 a        49     0     2     1    24
 -1.2741892931299061E+01 a        50     0     2     1    25
  1.7225449520709148E+00 a        51     0     3     1     1
  4.5132611752396443E+01 a        52     0     3     1     2
 -3.3097509447549860E+00 a        53     0     3     1     3
 -1.1404556862868061E+01 a        54     0     3     1     4
  1.9770430601860827E+01 a        55     0     3     1     5
 -4.8205004798519667E+01 a        56     0     3     1     6
  1.2569591687779671E+01 a        57     0     3     1     7
  2.0195237477446639E+01 a        58     0     3     1     8
 -5.1817829249923655E+00 a        59     0     3     1     9
 -2.0162444352794743E+01 a        60     0     3     1    10
  1.0885565327471131E+01 a        61     0     3     1    11
  1.8953040169170784E+01 a        62     0     3     1    12
  1.6448834186792229E+01 a        63     0     3     1    13
 -2.2427621741885179E+01 a        64     0     3     1    14
 -6.7076652063701880E+00 a        65     0     3     1    15
  9.2773884218041154E+00 a        66     0     3     1    16
  3.7724083181919927E+00 a        67     0     3     1    17
  2.4022615612231906E+01 a        68     0     3     1    18
 -5.8865396259501658E+01 a        69     0     3     1    19
 -3.4341925080513491E+01 a        70     0     3     1    20
 -2.2742835504440475E+01 a        71     0     3     1    21
 -1.7705202156421642E+01 a        72     0     3     1    22
 -1.1113588607734124E+01 a        73     0     3     1    23
 -1.2369478867925336E+01 a        74     0     3     1    24
  2.3912076223361773E+01 a        75     0     3     1    25
 -1.6015917217283292E+01 a        76     0     4     1     1
 -1.0295604482358354E+00 a        77     0     4     1     2
  3.1400472756446657E+01 a        78     0     4     1     3
  3.1304337380020389E+01 a        79     0     4     1     4
 -4.9217047118677229E+01 a        80     0     4     1     5
 -8.5993760691671753E+01 a        81     0     4     1     6
 -9.0880262931035276E+01 a        82     0     4     1     7
  9.5813303034281148E+01 a        83     0     4     1     8
 -6.4869446272474605E+01 a        84     0     4     1     9
 -3.7699667888536588E+01 a        85     0     4     1    10
 -2.5060650893751117E+01 a        86     0     4     1    11
  7.8861642699351123E+01 a        87     0     4     1    12
 -1.2555641326597048E+01 a        88     0     4     1    13
 -4.6160618489335661E+01 a        89     0     4     1    14
  3.5399279716365912E+00 a        90     0     4     1    15
  5.4943122402597444E+00 a        91     0     4     1    16
 -1.0230031713233995E+01 a        92     0     4     1    17
 -2.6266351334057628E+01 a        93     0     4     1    18
 -8.4312410563833609E+01 a        94     0     4     1    19
  5.2227540148294267E+01 a        95     0     4     1    20
 -5.5552847633319708E+01 a        96     0     4     1    21
  3.0026408669575350E+01 a        97     0     4     1    22
  5.9740715408294726E+01 a        98     0     4     1    23
 -2.6618878303741704E+00 a        99     0     4     1    24
  1.1859359063073004E+01 a       100     0     4     1    25
  4.3615683146739677E+01 a       101     0     5     1     1
  3.7899142048415815E+00 a       102     0     5     1     2
  1.2088205704602103E+01 a       103     0     5     1     3
 -3.3187403433664393E+01 a       104     0     5     1     4
  8.3756960358730979E+01 a       105     0     5     1     5
 -3.5172330244964499E+01 a       106     0     5     1     6
 -1.8234358485506686E+01 a       107     0     5     1     7
 -2.4653924586306424E+01 a       108     0     5     1     8
 -5.4234182925053950E+01 a       109     0     5     1     9
  5.2756031312980582E+01 a       110     0     5     1    10
  2.9125444798672615E+00 a       111     0     5     1    11
  3.6013305896671799E+00 a       112     0     5     1    12
 -6.1855740292545697E+01 a       113     0     5     1    13
 -7.0583949470156861E+00 a       114     0     5     1    14
  4.6781268841990247E+01 a       115     0     5     1    15
 -5.2032871545140623E+01 a       116     0     5     1    16
  7.3943403033582502E+00 a       117     0     5     1    17
 -1.0814126933856932E+02 a       118     0     5     1    18
  5.5922864881268126E+01 a       119     0     5     1    19
  1.4512259933037599E+01 a       120     0     5     1    20
 -1.9773783404802902E+01 a       121     0     5     1    21
 -5.1702564471494426E+01 a       122     0     5     1    22
  2.7481032254860803E+01 a       123     0     5     1    23
 -6.8278583054778579E+01 a       124     0     5     1    24
  2.5762008273583149E+01 a       125     0     5     1    25
  3.4409128327733765E+00 a       126     0     6     1     1
 -9.1456821706405179E+01 a       127     0     6     1     2
  5.9144497931325208E+00 a       128     0     6     1     3
  2.3296291782513983E+01 a       129     0     6     1     4
 -4.0179899333112807E+01 a       130     0     6     1     5
  1.0266480280715507E+02 a       131     0     6     1     6
 -2.4328879924837779E+01 a       132     0     6     1     7
 -3.5472262388697324E+01 a       133     0     6     1     8
  8.8237063319993450E+00 a       134     0     6     1     9
  4.5503078025521830E+01 a       135     0     6     1    10
 -2.6543725356779646E+01 a       136     0     6     1    11
 -3.8103218400417880E+01 a       137     0     6     1    12
 -4.7434512452932189E+01 a       138     0     6     1    13
  5.1132014460200772E+01 a       139     0     6     1    14
  1.6465551452661938E+01 a       140     0     6     1    15
 -3.1831554793118801E+01 a       141     0     6     1    16
 -6.6421333699755039E+00 a       142     0     6     1    17
 -4.7956857939053890E+01 a       143     0     6     1    18
  1.1953089499326960E+02 a       144     0     6     1    19
  6.4294718968180362E+01 a       145     0     6     1    20
  4.7695729457601374E+01 a       146     0     6     1    21
  3.6080253156361195E+01 a       147     0     6     1    22
  2.8985719626536522E+01 a       148     0     6     1    23
  2.5707594013047949E+01 a       149     0     6     1    24
 -5.6026319983208154E+01 a       150     0     6     1    25
  1.0729397685966285E+01 a       151     0     7     1     1
  8.8735169411811277E-01 a       152     0     7     1     2
 -1.7850128846635712E+01 a       153     0     7     1     3
 -1.7160100470970971E+01 a       154     0     7     1     4
  3.3795685014281169E+01 a       155     0     7     1     5
  4.3595182075158306E+01 a       156     0     7     1     6
  5.3314870574747914E+01 a       157     0     7     1     7
 -5.5681119854372803E+01 a       158     0     7     1     8
  3.9261409145537549E+01 a       159     0     7     1     9
  1.9283238047029887E+01 a       160     0     7     1    10
  1.4612669396823206E+01 a       161     0     7     1    11
 -4.5622313595349638E+01 a       162     0     7     1    12
  2.4221250245684828E+01 a       163     0     7     1    13
  2.6889580235991755E+01 a       164     0     7     1    14
 -1.9741777975487484E+00 a       165     0     7     1    15
  6.5427396105518589E+00 a       166     0     7     1    16
  5.9240522035402927E+00 a       167     0     7     1    17
  1.7364019594894422E+01 a       168     0     7     1    18
  5.3641304092713391E+01 a       169     0     7     1    19
 -3.0304554179319236E+01 a       170     0     7     1    20
  4.0547884807163690E+01 a       171     0     7     1    21
 -1.7660007113221742E+01 a       172     0     7     1    22
 -4.0252379314183564E+01 a       173     0     7     1    23
  6.7637448308308485E+00 a       174     0     7     1    24
  1.6391260067152249E+01 a       175     0     7     1    25
 -2.9798103197287819E+01 a       176     0     8     1     1
 -3.7724670029516436E+00 a       177     0     8     1     2
 -6.9944569605379705E+00 a       178     0     8     1     3
  3.5128807449998703E+01 a       179     0     8     1     4
 -7.0932388450858454E+01 a       180     0     8     1     5
  4.5977596614078893E+00 a       181     0     8     1     6
  9.9369238602007020E+00 a       182     0     8     1     7
  1.4676139043600752E+01 a       183     0     8     1     8
  4.3094384953234652E+01 a       184     0     8     1     9
 -3.0710216028394736E+01 a       185     0     8     1    10
 -1.0865646872205472E+01 a       186     0     8     1    11
  1.5935610250741966E+01 a       187     0     8     1    12
  1.3404752714203955E+01 a       188     0     8     1    13
 -9.8618920335222455E+00 a       189     0     8     1    14
 -3.3394818209372168E+01 a       190     0     8     1    15
  2.5493220974539295E+01 a       191     0     8     1    16
  8.3098236427260748E+00 a       192     0     8     1    17
  1.1853598325931361E+02 a       193     0     8     1    18
 -1.8344190303640502E+01 a       194     0     8     1    19
 -2.0060047255673418E+01 a       195     0     8     1    20
  1.9268635467106513E+01 a       196     0     8     1    21
  2.8275687309710758E+01 a       197     0     8     1    22
 -1.1021052069942073E+01 a       198     0     8     1    23
  5.7724311512677559E+01 a       199     0     8     1    24
 -2.2438389040270291E+01 a       200     0     8     1    25
 -7.5751466582917502E+00 a       201     0     9     1     1
  6.4309437003205730E+01 a       202     0     9     1     2
 -1.3796100843394763E+00 a       203     0     9     1     3
 -1.6232127123940316E+01 a       204     0     9     1     4
  2.3085980208963061E+01 a       205     0     9     1     5
 -9.6056724640830382E+01 a       206     0     9     1     6
  1.5725251469752914E+01 a       207     0     9     1     7
  1.6164983612794035E+01 a       208     0     9     1     8
 -1.2510071662962485E+00 a       209     0     9     1     9
 -3.2841549693418202E+01 a       210     0     9     1    10
  2.3341846632754752E+01 a       211     0     9     1    11
  1.9994516579257766E+01 a       212     0     9     1    12
  4.5991673641193046E+01 a       213     0     9     1    13
 -5.9915030563214714E+01 a       214     0     9     1    14
 -1.3062654270972800E+01 a       215     0     9     1    15
  3.3883543309082938E+01 a       216     0     9     1    16
  3.1268655331757844E+00 a       217     0     9     1    17
  2.8245284298405828E+01 a       218     0     9     1    18
 -7.8172524278641006E+01 a       219     0     9     1    19
 -6.1833921272198431E+01 a       220     0     9     1    20
 -3.2061938037628586E+01 a       221     0     9     1    21
 -1.6373049674708387E+01 a       222     0     9     1    22
 -2.9871093259661002E+01 a       223     0     9     1    23
 -1.5733250352683825E+01 a       224     0     9     1    24
  5.6956045971215460E+01 a       225     0     9     1    25
 -3.5116101656488783E+00 a       226     0    10     1     1
  8.4202530564462852E-01 a       227     0    10     1     2
  1.4133120551422333E+00 a       228     0    10     1     3
  9.8617384230225336E-01 a       229     0    10     1     4
 -6.7232110837073309E+00 a       230     0    10     1     5
  1.5815832400145522E+00 a       231     0    10     1     6
 -6.5622394658240353E+00 a       232     0    10     1     7
  7.2644651940301408E+00 a       233     0    10     1     8
 -4.2186624109977053E+00 a       234     0    10     1     9
 -1.0641090429280240E+00 a       235     0    10     1    10
 -1.4959524362398993E+00 a       236     0    10     1    11
  4.5667834286769589E+00 a       237     0    10     1    12
 -1.8142091200184016E+01 a       238     0    10     1    13
 -5.7112992432047980E+00 a       239     0    10     1    14
 -9.0706614702466226E-01 a       240     0    10     1    15
 -9.4418325274149808E+00 a       241     0    10     1    16
 -1.1074508280932829E+00 a       242     0    10     1    17
 -3.2027103942415844E+00 a       243     0    10     1    18
 -1.0596555023946824E+01 a       244     0    10     1    19
  5.1905062630865633E+00 a       245     0    10     1    20
 -1.3073614518733905E+01 a       246     0    10     1    21
  2.3434507312032875E+00 a       247     0    10     1    22
  1.0628826738839827E+01 a       248     0    10     1    23
 -4.4797044634183107E+00 a       249     0    10     1    24
 -2.2106002541725125E+01 a       250     0    10     1    25
  2.7527145129820941E+01 a       251     0    11     1     1
 -2.0754293836383400E+01 a       252     0    11     1     2
  3.5781475724652765E+00 a       253     0    11     1     3
 -2.3074599278813913E+01 a       254     0    11     1     4
  3.1456906402954559E+01 a       255     0    11     1     5
  1.6062249613584381E+00 a       256     0    11     1     6
 -7.5771213207559613E+00 a       257     0    11     1     7
 -4.9841516445592049E+00 a       258     0    11     1     8
 -2.8632685440796011E+00 a       259     0    11     1     9
  2.5255632681978994E+01 a       260     0    11     1    10
  9.7199254946912319E+00 a       261     0    11     1    11
 -1.5532217432771199E+01 a       262     0    11     1    12
  9.0970154707121793E+00 a       263     0    11     1    13
  1.4563924736302535E+01 a       264     0    11     1    14
  1.4399633463683804E+01 a       265     0    11     1    15
 -9.0133390125340611E+00 a       266     0    11     1    16
 -1.2591676484086523E+01 a       267     0    11     1    17
 -1.0432948240669066E+02 a       268     0    11     1    18
 -1.0076911003397781E+01 a       269     0    11     1    19
  1.7067058008553261E+01 a       270     0    11     1    20
 -1.4499104577775078E+01 a       271     0    11     1    21
 -5.2813087353800521E+00 a       272     0    11     1    22
 -1.0152524845934614E+01 a       273     0    11     1    23
 -3.1137195232679193E+01 a       274     0    11     1    24
 -8.0376213869849167E+00 a       275     0    11     1    25
  3.5203890108385196E+00 a       276     0    12     1     1
 -1.8373491987270004E+01 a       277     0    12     1     2
 -2.1527885396107358E+00 a       278     0    12     1     3
  4.6007146351319355E+00 a       279     0    12     1     4
 -2.4926968626592902E+00 a       280     0    12     1     5
  4.7019763612546477E+01 a       281     0    12     1     6
 -2.8651997724455684E+00 a       282     0    12     1     7
 -5.0670913752042057E-01 a       283     0    12     1     8
 -3.6232399304971690E+00 a       284     0    12     1     9
  9.9614788525606137E+00 a       285     0    12     1    10
 -8.4718771650374673E+00 a       286     0    12     1    11
 -2.7613188767563464E+00 a       287     0    12     1    12
 -1.7298578980631142E+01 a       288     0    12     1    13
  3.7300199900759772E+01 a       289     0    12     1    14
  4.0824290595255803E+00 a       290     0    12     1    15
 -1.6134621305550091E+01 a       291     0    12     1    16
 -7.9780662661629420E-02 a       292     0    12     1    17
 -3.1652602677121688E+00 a       293     0    12     1    18
  1.8714136600167720E+01 a       294     0    12     1    19
  3.4729584100927532E+01 a       295     0    12     1    20
  9.7299271022964735E+00 a       296     0    12     1    21
 -2.0297837024302345E+00 a       297     0    12     1    22
  1.5044213348764417E+01 a       298     0    12     1    23
  2.9172385138260113E+00 a       299     0    12     1    24
 -2.9045111600147276E+01 a       300     0    12     1    25
 -6.1033700959257653E-01 a       301     0    13     1     1
  5.9579127015965403E+00 a       302     0    13     1     2
  1.4243522346906745E+00 a       303     0    13     1     3
  4.2396417624911802E+00 a       304     0    13     1     4
 -1.8644710357359464E+00 a       305     0    13     1     5
 -3.7694940890678102E-01 a       306     0    13     1     6
  2.4553346851345008E+00 a       307     0    13     1     7
  4.6609856141327466E+00 a       308     0    13     1     8
  2.2998789746782218E+00 a       309     0    13     1     9
 -3.4992508351735387E+00 a       310     0    13     1    10
 -9.3347486292211546E-01 a       311     0    13     1    11
  1.0293651737633112E+00 a       312     0    13     1    12
 -1.8388458792226854E+00 a       313     0    13     1    13
  1.2817525011125588E+00 a       314     0    13     1    14
 -3.6405687872087720E+00 a       315     0    13     1    15
  3.2658762653881226E+00 a       316     0    13     1    16
 -4.6738692778549362E-01 a       317     0    13     1    17
  2.5854820058756651E+01 a       318     0    13     1    18
  5.9807249113992942E+00 a       319     0    13     1    19
 -3.7458766973922732E+00 a       320     0    13     1    20
  2.9152201340593944E+00 a       321     0    13     1    21
 -5.0345479764159666E+00 a       322     0    13     1    22
  2.0238887463574007E+00 a       323     0    13     1    23
  4.7038024931362283E+00 a       324     0    13     1    24
  6.2193520693754911E-01 a       325     0    13     1    25
  1.3387194725951954E-01 a       326     0    14     1     1
  9.5995472939325484E-05 a       327     0    14     1     2
  8.2453257936592250E-01 a       328     0    14     1     3
 -8.5223575720730551E-03 a       329     0    14     1     4
 -1.7296591655347577E+00 a       330     0    14     1     5
 -6.0884270525992550E+00 a       331     0    14     1     6
 -2.7333282007719384E-01 a       332     0    14     1     7
 -4.6765712649331181E-01 a       333     0    14     1     8
  8.3785941706544065E-01 a       334     0    14     1     9
 -1.1457408177116433E+00 a       335     0    14     1    10
  5.0710322254664908E-01 a       336     0    14     1    11
 -2.0549118635703892E-01 a       337     0    14     1    12
  1.4762346088766585E+00 a       338     0    14     1    13
 -5.2786604394611603E+00 a       339     0    14     1    14
 -1.8786244866703156E-01 a       340     0    14     1    15
  2.1389700534966662E+00 a       341     0    14     1    16
 -6.2659952096997082E-02 a       342     0    14     1    17
 -7.7886165318520484E-01 a       343     0    14     1    18
  8.4459121786958780E-01 a       344     0    14     1    19
 -5.1171765581390787E+00 a       345     0    14     1    20
 -4.9417774712466717E-01 a       346     0    14     1    21
  1.6032884569772097E+00 a       347     0    14     1    22
 -1.9924269132920673E+00 a       348     0    14     1    23
 -1.2208063322534841E-01 a       349     0    14     1    24
  4.2778672827800168E+00 a       350     0    14     1    25
 -1.2447651254894705E+00 a       351     0    15     1     1
  7.2085475201740339E+00 a       352     0    15     1     2
 -5.1831596423823809E+00 a       353     0    15     1     3
 -5.2393501822675379E+00 a       354     0    15     1     4
  6.2183095043958492E+00 a       355     0    15     1     5
  2.3019995168051285E+01 a       356     0    15     1     6
  1.0586035218425636E+01 a       357     0    15     1     7
 -1.2758316078134390E+01 a       358     0    15     1     8
  7.8045481501007989E+00 a       359     0    15     1     9
  1.4340466397118323E+00 a       360     0    15     1    10
  4.6221205771055818E+00 a       361     0    15     1    11
 -1.1947693303255969E+01 a       362     0    15     1    12
 -1.4735019966109995E+01 a       363     0    15     1    13
 -2.1571507393910778E+00 a       364     0    15     1    14
 -2.8471799962893467E+00 a       365     0    15     1    15
 -1.3270719438391522E+01 a       366     0    15     1    16
  1.7415776373401641E+00 a       367     0    15     1    17
  1.7056967866059445E+00 a       368     0    15     1    18
  5.2207904677399224E+00 a       369     0    15     1    19
 -4.2917889282959125E+00 a       370     0    15     1    20
 -3.8597925696933824E+00 a       371     0    15     1    21
 -9.0695874136350663E-01 a       372     0    15     1    22
  1.3765061277473047E+00 a       373     0    15     1    23
 -5.9871385528037120E+00 a       374     0    15     1    24
 -2.7328272590635429E+01 a       375     0    15     1    25
 -9.6670576264058650E-01 a       376     0    16     1     1
  1.6817317406195684E+01 a       377     0    16     1     2
  5.8422299394359523E-01 a       378     0    16     1     3
  3.7628606329032670E+00 a       379     0    16     1     4
  8.3173637629000385E+00 a       380     0    16     1     5
  7.5977471304177691E+00 a       381     0    16     1     6
  2.3249772442071999E+00 a       382     0    16     1     7
  4.8921321270343627E+00 a       383     0    16     1     8
 -1.2923836439954510E+01 a       384     0    16     1     9
 -1.1106365178125809E+01 a       385     0    16     1    10
 -1.5814835967987035E+00 a       386     0    16     1    11
 -1.3087883942143210E+00 a       387     0    16     1    12
  8.7140031909838078E-01 a       388     0    16     1    13
  1.7817705656753773E+00 a       389     0    16     1    14
 -5.4107140209537095E+00 a       390     0    16     1    15
  1.0677429599523592E+01 a       391     0    16     1    16
  6.4909962877255651E+00 a       392     0    16     1    17
  2.4540535856244489E+01 a       393     0    16     1    18
  2.1305615625211050E+00 a       394     0    16     1    19
 -2.5949982785486991E+00 a       395     0    16     1    20
  1.0299912150116866E+00 a       396     0    16     1    21
 -4.0802579424202099E+00 a       397     0    16     1    22
  7.3532712890877594E-01 a       398     0    16     1    23
 -4.8197483565972101E+00 a       399     0    16     1    24
  1.3742381050107889E+01 a       400     0    16     1    25
  8.4083618386515468E-01 a       401     0    17     1     1
 -4.9113905468422034E+00 a       402     0    17     1     2
  1.4283938446840632E+00 a       403     0    17     1     3
  1.6190019109646929E+00 a       404     0    17     1     4
 -2.6306020397716652E+00 a       405     0    17     1     5
 -8.5966165545198674E+00 a       406     0    17     1     6
 -2.7746672967359851E+00 a       407     0    17     1     7
  4.2547688695722838E+00 a       408     0    17     1     8
 -1.2440154711339486E+00 a       409     0    17     1     9
  7.0050189578894451E-01 a       410     0    17     1    10
 -1.7734221572169098E+00 a       411     0    17     1    11
  3.1668864031980082E+00 a       412     0    17     1    12
  6.7276165017537872E+00 a       413     0    17     1    13
  1.9432140198737748E+00 a       414     0    17     1    14
  1.1983176011483743E+00 a       415     0    17     1    15
  5.9703517516729931E+00 a       416     0    17     1    16
 -1.0417957046698545E+00 a       417     0    17     1    17
 -5.8370738935319404E-02 a       418     0    17     1    18
 -1.0662644016521938E+00 a       419     0    17     1    19
  1.1860137066185177E+00 a       420     0    17     1    20
  2.6550345795877397E+00 a       421     0    17     1    21
 -4.3554857068489561E-01 a       422     0    17     1    22
 -2.0711340730699974E+00 a       423     0    17     1    23
  3.0725713931707839E+00 a       424     0    17     1    24
  1.2648468313378645E+01 a       425     0    17     1    25
 -1.7933461564523590E+00 a       426     0    18     1     1
  2.5455255400446672E+00 a       427     0    18     1     2
 -4.3271419466967287E-01 a       428     0    18     1     3
 -6.8998143986339544E-01 a       429     0    18     1     4
  3.5550525707666032E+00 a       430     0    18     1     5
 -2.7823889284212506E+00 a       431     0    18     1     6
  2.2352542464968336E-01 a       432     0    18     1     7
  8.5710864694836408E-01 a       433     0    18     1     8
 -4.6008743481382980E-01 a       434     0    18     1     9
 -4.2944667360875055E+00 a       435     0    18     1    10
 -5.3310918273656749E-02 a       436     0    18     1    11
  2.9313624398404454E+00 a       437     0    18     1    12
  1.5343740294089543E+00 a       438     0    18     1    13
 -1.2631953435411105E+00 a       439     0    18     1    14
 -1.0397196424690749E+00 a       440     0    18     1    15
  1.1399252459112474E+00 a       441     0    18     1    16
 -4.4992335220235419E-01 a       442     0    18     1    17
  2.1734963656821007E+00 a       443     0    18     1    18
 -2.1942738116827041E+00 a       444     0    18     1    19
  1.8628481149185698E+00 a       445     0    18     1    20
 -2.1072679661339420E+00 a       446     0    18     1    21
 -1.9264659241757680E+00 a       447     0    18     1    22
 -1.2534255453991370E+00 a       448     0    18     1    23
 -8.3370195194393726E-01 a       449     0    18     1    24
  1.2058776629083543E+00 a       450     0    18     1    25
  7.3645331113888446E-01 a       451     0    19     1     1
 -4.8800693104061716E+00 a       452     0    19     1     2
  4.8816788454947879E-01 a       453     0    19     1     3
 -3.7412168689259861E-01 a       454     0    19     1     4
 -1.7776715004216004E+00 a       455     0    19     1     5
 -3.1650260084927093E+00 a       456     0    19     1     6
 -8.5100149260361835E-01 a       457     0    19     1     7
  3.1968025945000195E-01 a       458     0    19     1     8
  6.1424368199475552E+00 a       459     0    19     1     9
  4.5700345859443958E+00 a       460     0    19     1    10
  1.4276499956333475E+00 a       461     0    19     1    11
  2.4318524072720596E-01 a       462     0    19     1    12
  2.3629943382212309E-01 a       463     0    19     1    13
 -1.8771784380643481E+00 a       464     0    19     1    14
  3.5964655531277451E-01 a       465     0    19     1    15
 -3.3950649119241865E+00 a       466     0    19     1    16
 -5.3650932335302581E+00 a       467     0    19     1    17
 -1.0226868762557730E+00 a       468     0    19     1    18
 -8.8242107275087200E-01 a       469     0    19     1    19
 -7.9630706109541749E-01 a       470     0    19     1    20
  1.9937902573698027E-01 a       471     0    19     1    21
 -2.0182823120536093E+00 a       472     0    19     1    22
 -1.1387354864852460E-01 a       473     0    19     1    23
  3.5693734882105259E+00 a       474     0    19     1    24
 -6.6490927733109215E+00 a       475     0    19     1    25
  1.2054300755067695E+00 a       476     0    20     1     1
  1.1926047994188556E+00 a       477     0    20     1     2
 -2.7648647294291739E-01 a       478     0    20     1     3
  1.3782697787501944E-01 a       479     0    20     1     4
 -1.0912811606248454E+00 a       480     0    20     1     5
  2.4904175205398511E+00 a       481     0    20     1     6
  1.1281413313838282E+00 a       482     0    20     1     7
  1.0375175140155459E+00 a       483     0    20     1     8
 -7.1972050992798509E-01 a       484     0    20     1     9
  8.7852665902615468E-01 a       485     0    20     1    10
  4.5947777279218344E-01 a       486     0    20     1    11
 -7.6425869117346301E-01 a       487     0    20     1    12
  1.9559890760349248E+00 a       488     0    20     1    13
  4.1574293319479310E+00 a       489     0    20     1    14
  1.5916520874348464E-01 a       490     0    20     1    15
 -3.9342292796700618E-01 a       491     0    20     1    16
  2.7517390887492715E-01 a       492     0    20     1    17
 -1.2926731995190094E-01 a       493     0    20     1    18
 -2.2201104440762798E+00 a       494     0    20     1    19
  9.3802294397356778E-01 a       495     0    20     1    20
  4.5692813415306716E-01 a       496     0    20     1    21
  1.5863627185224405E-01 a       497     0    20     1    22
  9.7460038323531817E-01 a       498     0    20     1    23
 -9.6215279286855582E-01 a       499     0    20     1    24
 -1.4816983682761418E+00 a       500     0    20     1    25
 -3.2276225295346556E-01 a       501     0    21     1     1
 -2.7130329304260563E+00 a       502     0    21     1     2
 -4.1491075322068527E-02 a       503     0    21     1     3
  5.5324280279182902E-02 a       504     0    21     1     4
  4.9865675186156955E-01 a       505     0    21     1     5
  6.7462974594803449E-01 a       506     0    21     1     6
  3.1373078175421142E-02 a       507     0    21     1     7
  3.3192293274423251E-01 a       508     0    21     1     8
 -7.6830460224283428E-02 a       509     0    21     1     9
 -4.1325444482329882E-01 a       510     0    21     1    10
  6.5769408197133783E-01 a       511     0    21     1    11
  3.1548384495876736E-01 a       512     0    21     1    12
 -7.2670582337625256E-01 a       513     0    21     1    13
 -1.0489185270614600E+00 a       514     0    21     1    14
 -2.5973840672569487E-01 a       515     0    21     1    15
 -9.4542387108732473E-01 a       516     0    21     1    16
  6.8396833192535551E-03 a       517     0    21     1    17
 -1.1254625645505518E-02 a       518     0    21     1    18
  5.8849826418033713E-01 a       519     0    21     1    19
  3.1339842182646260E-01 a       520     0    21     1    20
 -6.1433264491379835E-01 a       521     0    21     1    21
  6.1485166533693547E-01 a       522     0    21     1    22
  3.3110416066586668E-01 a       523     0    21     1    23
 -7.5457627818542583E-01 a       524     0    21     1    24
 -8.5680737688306541E-01 a       525     0    21     1    25
  1.9856112261720774E-01 a       526     0    22     1     1
  4.5898562226360209E+00 a       527     0    22     1     2
  1.6849384378127766E-01 a       528     0    22     1     3
  9.0947680645063889E-01 a       529     0    22     1     4
  1.2885129054259306E+00 a       530     0    22     1     5
  1.8828454469058582E+00 a       531     0    22     1     6
  1.1845685293088368E+00 a       532     0    22     1     7
  2.2540324222706216E+00 a       533     0    22     1     8
 -1.5474018929930078E-01 a       534     0    22     1     9
 -6.1214192236090392E+00 a       535     0    22     1    10
  2.1372783864546940E-01 a       536     0    22     1    11
 -1.2990288982012037E-02 a       537     0    22     1    12
  3.4112591722514236E+00 a       538     0    22     1    13
 -3.6080915915334194E-01 a       539     0    22     1    14
 -1.5374197859311860E+00 a       540     0    22     1    15
  4.8206259075283713E+00 a       541     0    22     1    16
  1.4179932575104823E+00 a       542     0    22     1    17
  4.2497641113853106E+00 a       543     0    22     1    18
  3.7499148538097331E+00 a       544     0    22     1    19
  5.0311661504357362E-02 a       545     0    22     1    20
  1.3376168169987013E-01 a       546     0    22     1    21
 -2.7508877125176285E+00 a       547     0    22     1    22
 -5.4227075687536719E-01 a       548     0    22     1    23
 -2.4882437742439865E+00 a       549     0    22     1    24
  5.5297965358192158E+00 a       550     0    22     1    25
 -2.9046848296869887E-01 a       551     0    23     1     1
  1.7940034904977198E+00 a       552     0    23     1     2
  1.3143890919534171E-02 a       553     0    23     1     3
 -1.3911054195593531E-01 a       554     0    23     1     4
  9.1196132925440154E-01 a       555     0    23     1     5
  1.1598632890563394E+00 a       556     0    23     1     6
  1.0641979707949469E+00 a       557     0    23     1     7
  9.1190778360522295E-01 a       558     0    23     1     8
 -8.5194868682450464E-01 a       559     0    23     1     9
 -1.1226702891290863E+00 a       560     0    23     1    10
  9.3535944550489181E-01 a       561     0    23     1    11
  3.7538989480036050E-01 a       562     0    23     1    12
  1.8449101210975050E+00 a       563     0    23     1    13
  1.9222453647633375E+00 a       564     0    23     1    14
 -5.1615820561102477E-01 a       565     0    23     1    15
  1.1073891765332269E+00 a       566     0    23     1    16
  1.3222337780662612E-02 a       567     0    23     1    17
  5.5418961048116266E-01 a       568     0    23     1    18
 -6.5932680336403027E-01 a       569     0    23     1    19
  1.0668312500032566E+00 a       570     0    23     1    20
 -2.3979142253928457E-01 a       571     0    23     1    21
  3.1753716515412200E-02 a       572     0    23     1    22
 -3.1209054756106608E-01 a       573     0    23     1    23
 -4.0036825524178260E-01 a       574     0    23     1    24
  2.5200167285588132E-01 a       575     0    23     1    25
 -2.8132578737732197E-02 a       576     0    24     1     1
  1.6876592876741143E+00 a       577     0    24     1     2
  8.4390205553297765E-02 a       578     0    24     1     3
 -5.7311936923028720E-03 a       579     0    24     1     4
  1.7237477790385228E-01 a       580     0    24     1     5
 -1.0192422158711330E+00 a       581     0    24     1     6
 -8.5514334725560429E-02 a       582     0    24     1     7
 -3.8065853093143881E-01 a       583     0    24     1     8
  2.2114451809344765E-01 a       584     0    24     1     9
  1.1742811108759059E+00 a       585     0    24     1    10
 -1.3136744263438124E-01 a       586     0    24     1    11
 -5.6614654241033369E-01 a       587     0    24     1    12
 -2.1328708729373216E-01 a       588     0    24     1    13
  1.4453791217621090E-01 a       589     0    24     1    14
  1.0234084866290692E-01 a       590     0    24     1    15
  7.7381739896814261E-01 a       591     0    24     1    16
  1.3625233532110242E-01 a       592     0    24     1    17
 -3.1053123363654459E-02 a       593     0    24     1    18
  3.5474684202308687E-01 a       594     0    24     1    19
 -4.0558099745096243E-01 a       595     0    24     1    20
  1.4129473597687012E-01 a       596     0    24     1    21
  2.1426156746737887E-03 a       597     0    24     1    22
 -4.7397084573956756E-02 a       598     0    24     1    23
  2.3393344468768726E-01 a       599     0    24     1    24
 -1.9079358192226817E-01 a       600     0    24     1    25
 -2.6926074585829207E-01 a       601     0    25     1     1
 -2.0021991267171324E+00 a       602     0    25     1     2
 -1.0333545133557766E-01 a       603     0    25     1     3
 -5.2595255447362288E-01 a       604     0    25     1     4
 -2.1938075295637879E-01 a       605     0    25     1     5
 -1.4190670813396942E+00 a       606     0    25     1     6
 -9.5430385081569746E-01 a       607     0    25     1     7
 -1.0180438542609982E+00 a       608     0    25     1     8
 -2.8517833788691765E-01 a       609     0    25     1     9
  4.2098915480411279E+00 a       610     0    25     1    10
  2.2931949407051191E-02 a       611     0    25     1    11
 -3.7206571669002347E-01 a       612     0    25     1    12
 -1.0979505747798586E+00 a       613     0    25     1    13
 -7.0358951738669323E-02 a       614     0    25     1    14
  8.0205971307811241E-01 a       615     0    25     1    15
 -2.6809576511303543E+00 a       616     0    25     1    16
 -1.0116711420114708E+00 a       617     0    25     1    17
 -2.8913241766369064E+00 a       618     0    25     1    18
 -2.7714350925994755E+00 a       619     0    25     1    19
 -5.4085743934668147E-02 a       620     0    25     1    20
  2.2124059824495948E-01 a       621     0    25     1    21
  2.5054232620247383E+00 a       622     0    25     1    22
  2.0348056674744991E-01 a       623     0    25     1    23
  1.9541458268672534E+00 a       624     0    25     1    24
 -3.0505570788008773E+00 a       625     0    25     1    25
  2.3722805720418519E-01 a       626     0    26     1     1
 -1.5336519739691814E+00 a       627     0    26     1     2
  4.8434522504589815E-03 a       628     0    26     1     3
  1.4022805379819916E-01 a       629     0    26     1     4
 -1.0456610778080071E+00 a       630     0    26     1     5
 -1.4412600199629197E+00 a       631     0    26     1     6
 -5.9921794553784113E-01 a       632     0    26     1     7
 -1.9821711844055709E-01 a       633     0    26     1     8
  9.9201409760515691E-01 a       634     0    26     1     9
  4.9966367975608533E-01 a       635     0    26     1    10
 -6.0967120220943982E-01 a       636     0    26     1    11
 -3.9007441771842850E-02 a       637     0    26     1    12
 -1.1860022788028426E+00 a       638     0    26     1    13
 -1.1226518301020956E+00 a       639     0    26     1    14
  3.6306870834573052E-01 a       640     0    26     1    15
 -7.5385838848621445E-01 a       641     0    26     1    16
 -2.4309055676217506E-01 a       642     0    26     1    17
 -3.0964093198581505E-01 a       643     0    26     1    18
 -1.8482574457011139E-01 a       644     0    26     1    19
 -7.1820902261598996E-01 a       645     0    26     1    20
  3.5174407208909617E-02 a       646     0    26     1    21
  2.5706887207845541E-01 a       647     0    26     1    22
  8.9691232252876743E-02 a       648     0    26     1    23
  4.0552839339349930E-02 a       649     0    26     1    24
 -5.1855435736998079E-01 a       650     0    26     1    25
 -1.4394766530354245E+01 a       651     0    27     1     1
  2.5136743028182882E+00 a       652     0    27     1     2
 -4.4268190224150752E+00 a       653     0    27     1     3
  4.4909761071013579E+00 a       654     0    27     1     4
 -1.7456931430025246E+01 a       655     0    27     1     5
 -7.2006235749662295E+00 a       656     0    27     1     6
 -9.1515650323429176E-01 a       657     0    27     1     7
 -5.9486128217905954E+00 a       658     0    27     1     8
  1.8398914598717362E+00 a       659     0    27     1     9
 -1.1707659243347560E+01 a       660     0    27     1    10
 -4.9969052874896045E+00 a       661     0    27     1    11
  1.2305971967945494E+01 a       662     0    27     1    12
 -6.3092652190348542E+00 a       663     0    27     1    13
 -1.4435290202678695E+01 a       664     0    27     1    14
  2.1252925698350880E+00 a       665     0    27     1    15
 -6.9004721911833009E+00 a       666     0    27     1    16
  7.1485454858357427E+00 a       667     0    27     1    17
  3.1781651610301824E+00 a       668     0    27     1    18
  3.4368962044490030E+00 a       669     0    27     1    19
 -6.2403076436197127E+00 a       670     0    27     1    20
  3.1923302532798665E+00 a       671     0    27     1    21
  5.6966682979495458E+00 a       672     0    27     1    22
  5.0407784601521586E+00 a       673     0    27     1    23
  1.0620234496732246E+01 a       674     0    27     1    24
  9.9110511276052229E+00 a       675     0    27     1    25
  2.5723953206174116E-01 a       676     0    28     1     1
 -3.0131701598754370E+00 a       677     0    28     1     2
  1.0585782773467567E+00 a       678     0    28     1     3
 -4.1322437583901293E+00 a       679     0    28     1     4
  3.1403564522491951E+00 a       680     0    28     1     5
  2.4462785088902619E+00 a       681     0    28     1     6
 -4.3383349588760578E-01 a       682     0    28     1     7
 -1.4986001312642212E+00 a       683     0    28     1     8
 -5.7697729589541664E+00 a       684     0    28     1     9
  6.0020735198453448E+00 a       685     0    28     1    10
  6.2533205833089065E+00 a       686     0    28     1    11
 -1.0839620588038976E+00 a       687     0    28     1    12
  2.4733841894833759E+00 a       688     0    28     1    13
 -5.9754209284177728E-01 a       689     0    28     1    14
  5.9554581976024146E+00 a       690     0    28     1    15
 -3.9607213757966862E+00 a       691     0    28     1    16
 -1.2276817339945394E+01 a       692     0    28     1    17
  2.1209399453373896E+00 a       693     0    28     1    18
 -8.6284956277594405E-01 a       694     0    28     1    19
  9.6744229211757347E+00 a       695     0    28     1    20
 -1.3350940870794505E+00 a       696     0    28     1    21
  6.5041223866824893E+00 a       697     0    28     1    22
  2.0581211686381282E+00 a       698     0    28     1    23
  1.0907723585570210E+00 a       699     0    28     1    24
 -1.7700829081786547E+00 a       700     0    28     1    25
  2.7961971985518335E+00 a       701     0    29     1     1
  4.2079421213361096E-01 a       702     0    29     1     2
  1.0824697691511951E+00 a       703     0    29     1     3
 -8.0207913598820213E-01 a       704     0    29     1     4
  7.6509536031786878E+00 a       705     0    29     1     5
  4.6473679339847447E+00 a       706     0    29     1     6
 -4.2135276256436477E-01 a       707     0    29     1     7
 -6.7499401241637158E-01 a       708     0    29     1     8
 -5.7313763737865768E+00 a       709     0    29     1     9
  5.1508794291023268E+00 a       710     0    29     1    10
  2.0774624984108838E+00 a       711     0    29     1    11
 -4.7185063090450052E+00 a       712     0    29     1    12
  4.0155440674677392E+00 a       713     0    29     1    13
  9.6084559313024398E-01 a       714     0    29     1    14
 -6.3728124440814804E-01 a       715     0    29     1    15
  2.5349976500668481E+00 a       716     0    29     1    16
 -2.7542553091953796E+00 a       717     0    29     1    17
 -1.7757595727646260E+00 a       718     0    29     1    18
 -5.9040790807238768E+00 a       719     0    29     1    19
  2.8290177440392137E+00 a       720     0    29     1    20
 -1.0653123126429795E+00 a       721     0    29     1    21
  1.0813644428649485E+00 a       722     0    29     1    22
 -8.7683086609674188E-01 a       723     0    29     1    23
 -4.0561854943730404E+00 a       724     0    29     1    24
 -1.7718368075546669E+00 a       725     0    29     1    25
 -2.1502214616527047E+00 a       726     0    30     1     1
  2.1037614411964847E-01 a       727     0    30     1     2
 -2.4820208677577318E+00 a       728     0    30     1     3
  1.0000789262827254E+00 a       729     0    30     1     4
 -2.6368674852778842E+00 a       730     0    30     1     5
 -2.6750730155028548E+00 a       731     0    30     1     6
  7.8912826150505189E-01 a       732     0    30     1     7
  2.2257218807875230E+00 a       733     0    30     1     8
  3.7084099671965842E+00 a       734     0    30     1     9
 -3.9513482031173437E+00 a       735     0    30     1    10
 -1.3900441019596967E+00 a       736     0    30     1    11
  8.5876554844340214E-01 a       737     0    30     1    12
 -3.6937055550718143E+00 a       738     0    30     1    13
  1.9159661085862225E+00 a       739     0    30     1    14
 -1.0270772695400630E+00 a       740     0    30     1    15
 -4.1323415948914172E-01 a       741     0    30     1    16
  4.7773157441298233E+00 a       742     0    30     1    17
  2.9567836489430763E+00 a       743     0    30     1    18
  4.2490539286651376E+00 a       744     0    30     1    19
 -3.2499499688131470E+00 a       745     0    30     1    20
  2.1728319211443597E-01 a       746     0    30     1    21
 -2.6075899293581171E+00 a       747     0    30     1    22
 -1.1211457635386660E-01 a       748     0    30     1    23
  1.6374658142012652E+00 a       749     0    30     1    24
 -1.0165548740217898E+00 a       750     0    30     1    25
 -1.1754164970629017E+00 b       751     1     1
 -5.3602141882176146E-01 b       752     1     2
 -1.1966424213298860E-01 b       753     1     3
  2.0215219995576447E-01 b       754     1     4
 -1.0807329088539861E+00 b       755     1     5
  5.6665878577410803E-02 b       756     1     6
 -9.7237420584327128E-01 b       757     1     7
 -1.0554533653531173E-01 b       758     1     8
 -8.1506902337802625E-02 b       759     1     9
  1.0454037544504919E+00 b       760     1    10
 -1.0080819116336386E+00 b       761     1    11
  1.7975353535495038E+00 b       762     1    12
  2.5542325889121492E-01 b       763     1    13
 -2.2610898386316163E+00 b       764     1    14
  5.3441407117657891E-01 b       765     1    15
 -2.1095007905847344E-02 b       766     1    16
 -1.2042106031632782E+00 b       767     1    17
  1.0542893509166408E+01 b       768     1    18
 -1.4466857215364421E+00 b       769     1    19
  2.1780267399705200E+00 b       770     1    20
  1.2597289610516103E+00 b       771     1    21
 -5.4339626437326338E-01 b       772     1    22
  2.3621518881691799E+00 b       773     1    23
 -2.5899011223178764E-01 b       774     1    24
  7.4599628656127814E-01 b       775     1    25
 -9.6137625265832871E-01 a       776     1     1     2     1
  3.5098365990461822E-01 a       777     1     1     2     2
  5.4519173794087583E-01 a       778     1     1     2     3
  1.0436160407930031E+00 a       779     1     1     2     4
  1.9268658124205154E-01 a       780     1     1     2     5
 -1.9800877632855449E-01 a       781     1     1     2     6
  1.1686680481636909E+00 a       782     1     1     2     7
  3.2799615285683248E+00 a       783     1     1     2     8
  4.2056968791200378E-01 a       784     1     1     2     9
  1.7558577684259138E+00 a       785     1     1     2    10
 -2.0510055612528388E+00 a       786     1     1     2    11
  4.6722320008247102E-02 a       787     1     1     2    12
  1.4409461109688864E-02 a       788     1     1     2    13
  1.7500918236402452E+00 a       789     1     1     2    14
  1.7715346849319071E+00 a       790     1     1     2    15
 -6.7379128421622381E-01 a       791     1     1     2    16
  7.0975968368018949E-01 a       792     1     1     2    17
  7.6431550086490030E-01 a       793     1     1     2    18
  1.2461953275028053E+00 a       794     1     1     2    19
  7.9719107502936604E-01 a       795     1     1     2    20
  7.9340226670688652E-01 a       796     1     1     2    21
  7.9151204905237874E-02 a       797     1     1     2    22
  2.4106200992645235E+00 a       798     1     1     2    23
  6.9502836259281964E-01 a       799     1     1     2    24
 -3.6645868624570960E-01 a       800     1     1     2    25
  1.0901460784062558E+00 a       801     1     2     2     1
 -1.0174725768413739E+00 a       802     1     2     2     2
  1.5673376540795392E-01 a       803     1     2     2     3
  6.8062409397522261E-01 a       804     1     2     2     4
  7.7918379368001012E-01 a       805     1     2     2     5
 -8.7117900968602024E-01 a       806     1     2     2     6
  2.1650112709338321E-01 a       807     1     2     2     7
 -7.3616816689164610E-01 a       808     1     2     2     8
 -1.9825788759026730E-01 a       809     1     2     2     9
 -1.1383932239828677E-01 a       810     1     2     2    10
  1.1986100901228673E+00 a       811     1     2     2    11
  9.9515669475137902E-01 a       812     1     2     2    12
  5.7686785575516886E-01 a       813     1     2     2    13
 -9.1867985401149987E-01 a       814     1     2     2    14
  2.7610745094924888E-01 a       815     1     2     2    15
 -3.2316263495482261E-01 a       816     1     2     2    16
  1.7905903776134808E+00 a       817     1     2     2    17
  5.2331550006127647E-01 a       818     1     2     2    18
 -1.3120770590050275E+00 a       819     1     2     2    19
  5.1271963513471419E-01 a       820     1     2     2    20
 -1.8785188630323506E+00 a       821     1     2     2    21
  5.2498582854819498E-01 a       822     1     2     2    22
 -3.3142534362798981E-01 a       823     1     2     2    23
 -4.8402204688437217E-01 a       824     1     2     2    24
 -2.1725650346023674E-02 a       825     1     2     2    25
  2.3726771356292784E+00 a       826     1     3     2     1
 -5.0643504137222939E+00 a       827     1     3     2     2
  1.1091749614989501E+00 a       828     1     3     2     3
 -1.5305890321138897E+00 a       829     1     3     2     4
  4.0503625417516109E-01 a       830     1     3     2     5
  3.5335068595047209E-01 a       831     1     3     2     6
 -1.6284941711581775E+00 a       832     1     3     2     7
 -2.3886835912058532E-01 a       833     1     3     2     8
  2.7615300476097566E+00 a       834     1     3     2     9
 -8.3857701623648817E-01 a       835     1     3     2    10
 -2.9679733213915953E+00 a       836     1     3     2    11
 -8.8325343919369262E-02 a       837     1     3     2    12
  5.1991023303017525E-01 a       838     1     3     2    13
  3.1039702017837199E+00 a       839     1     3     2    14
 -4.9892452626263489E-01 a       840     1     3     2    15
  1.1356158148031276E-01 a       841     1     3     2    16
 -9.4735152571491110E-01 a       842     1     3     2    17
 -3.3742358700476516E-01 a       843     1     3     2    18
  2.4312504820558831E+00 a       844     1     3     2    19
 -3.8414261421650431E+00 a       845     1     3     2    20
  2.5744567255820150E+00 a       846     1     3     2    21
  1.0393409639755624E+00 a       847     1     3     2    22
 -1.5468396385076522E+00 a       848     1     3     2    23
  4.3731977369886659E+00 a       849     1     3     2    24
 -9.8770448374456377E-01 a       850     1     3     2    25
 -2.5837611078612527E-01 a       851     1     4     2     1
 -7.3981465680857406E-01 a       852     1     4     2     2
 -5.1369558645907276E-01 a       853     1     4     2     3
 -3.1022710442854331E+00 a       854     1     4     2     4
  1.2700032988645679E-01 a       855     1     4     2     5
  2.4339030429541270E-01 a       856     1     4     2     6
  3.3853510502169404E+00 a       857     1     4     2     7
 -1.9811675020742341E+00 a       858     1     4     2     8
 -2.1755878468503957E+00 a       859     1     4     2     9
  1.3139679014637190E-01 a       860     1     4     2    10
 -7.3789059005035695E-01 a       861     1     4     2    11
  1.1277925009884155E+00 a       862     1     4     2    12
  4.8918989763697351E-01 a       863     1     4     2    13
 -1.1074755101233702E+00 a       864     1     4     2    14
  2.1144346582912563E-01 a       865     1     4     2    15
  1.2345915719924725E+00 a       866     1     4     2    16
 -5.0707536163993872E-01 a       867     1     4     2    17
 -1.0023292185073650E-01 a       868     1     4     2    18
  1.4041977535506318E+00 a       869     1     4     2    19
 -1.1327214163329354E-01 a       870     1     4     2    20
  6.4278373624447915E-01 a       871     1     4     2    21
  1.2049988712536760E-02 a       872     1     4     2    22
 -2.1777926712922430E-01 a       873     1     4     2    23
  5.2970863393238476E-01 a       874     1     4     2    24
 -1.4314157621868018E+00 a       875     1     4     2    25
 -1.5205795453018696E+00 a       876     1     5     2     1
  1.1296794847340311E-01 a       877     1     5     2     2
 -9.1072429078792894E-01 a       878     1     5     2     3
 -1.0634024922164727E+00 a       879     1     5     2     4
  3.5427685053565455E-01 a       880     1     5     2     5
  1.1802837123813066E+00 a       881     1     5     2     6
 -3.8751313360732620E-01 a       882     1     5     2     7
  2.4633951777926866E+00 a       883     1     5     2     8
 -1.1023773183456205E-01 a       884     1     5     2     9
  3.3678378177010104E-01 a       885     1     5     2    10
 -5.1059608085959525E+00 a       886     1     5     2    11
  3.4776826739109151E-01 a       887     1     5     2    12
 -2.5454927835673674E-01 a       888     1     5     2    13
 -1.1174904931668579E+00 a       889     1     5     2    14
  2.8872094336923104E-01 a       890     1     5     2    15
 -1.2504565358109709E-01 a       891     1     5     2    16
 -6.2794328184054604E-01 a       892     1     5     2    17
  1.6866823692944974E+00 a       893     1     5     2    18
  1.2155540366782380E+00 a       894     1     5     2    19
 -1.0843407141478589E+00 a       895     1     5     2    20
  3.5462444436421298E-02 a       896     1     5     2    21
  1.1846700631868734E-01 a       897     1     5     2    22
 -1.2949441152086034E+00 a       898     1     5     2    23
  1.7076651947778281E+00 a       899     1     5     2    24
  8.0367636152775856E-01 a       900     1     5     2    25
 -1.3641318553443715E-01 a       901     1     6     2     1
  2.1371261486725002E-01 a       902     1     6     2     2
  1.1534636893832060E+00 a       903     1     6     2     3
  1.2843878867817342E+00 a       904     1     6     2     4
  2.7953393958195594E-01 a       905     1     6     2     5
 -9.3767329579944070E-01 a       906     1     6     2     6
 -2.6222782304609865E-01 a       907     1     6     2     7
  2.2754803527084149E+00 a       908     1     6     2     8
  9.7320392228243580E-01 a       909     1     6     2     9
  1.0814624120181391E+00 a       910     1     6     2    10
  2.9249191963593120E+00 a       911     1     6     2    11
  6.7909956311689457E-01 a       912     1     6     2    12
  3.1846522904325164E-01 a       913     1     6     2    13
 -8.1666530293859785E-02 a       914     1     6     2    14
 -5.2907721548978337E-01 a       915     1     6     2    15
  2.8900571893392740E-01 a       916     1     6     2    16
  1.2662574418768440E+00 a       917     1     6     2    17
 -4.4819556210208272E-01 a       918     1     6     2    18
  3.5966029644319020E-01 a       919     1     6     2    19
  1.9048518593499536E-01 a       920     1     6     2    20
 -9.8580773189780513E-01 a       921     1     6     2    21
  1.2535680693062257E+00 a       922     1     6     2    22
  2.6864358839778435E-01 a       923     1     6     2    23
 -1.6772145627976198E+00 a       924     1     6     2    24
  5.9949200951859627E-01 a       925     1     6     2    25
  6.2393110421533539E-02 a       926     1     7     2     1
  2.9787279795656674E+00 a       927     1     7     2     2
 -6.5957083805803796E-01 a       928     1     7     2     3
  1.9799216718207857E+00 a       929     1     7     2     4
 -2.2500359296665362E-01 a       930     1     7     2     5
 -1.0581519645188096E+00 a       931     1     7     2     6
  1.4624804469600690E+00 a       932     1     7     2     7
  2.8832196752843680E+00 a       933     1     7     2     8
  1.6926781244795694E+00 a       934     1     7     2     9
  8.8725256418784582E-01 a       935     1     7     2    10
 -1.7692162910855598E+00 a       936     1     7     2    11
 -1.9042846613153543E+00 a       937     1     7     2    12
  1.2873673424104692E-01 a       938     1     7     2    13
  3.0438494197140322E+00 a       939     1     7     2    14
 -9.1746653062218783E-02 a       940     1     7     2    15
  9.5680412534633963E-01 a       941     1     7     2    16
 -2.2369666851962529E+00 a       942     1     7     2    17
 -1.7728373585072439E+00 a       943     1     7     2    18
 -2.5469514099764097E+00 a       944     1     7     2    19
  3.2111222837983915E+00 a       945     1     7     2    20
 -2.4529869055878297E+00 a       946     1     7     2    21
 -5.4586623600365236E-01 a       947     1     7     2    22
  3.2017618406878974E+00 a       948     1     7     2    23
  1.3118113350338207E+00 a       949     1     7     2    24
  5.1314239359252931E-02 a       950     1     7     2    25
  1.3140034076696908E-02 a       951     1     8     2     1
 -1.0856223925975925E+00 a       952     1     8     2     2
 -3.8979468446231846E-01 a       953     1     8     2     3
  8.9091236894574022E-01 a       954     1     8     2     4
 -1.3254828448953679E-01 a       955     1     8     2     5
 -5.0540961076788371E-01 a       956     1     8     2     6
 -1.7385197901640510E-02 a       957     1     8     2     7
 -1.5180460829908788E+00 a       958     1     8     2     8
 -9.8490802737258215E-02 a       959     1     8     2     9
  4.0366649648886382E-01 a       960     1     8     2    10
  1.5636840485561323E+00 a       961     1     8     2    11
 -1.1086266444221640E+00 a       962     1     8     2    12
 -4.9742255875174675E-02 a       963     1     8     2    13
 -4.6699097576587950E-01 a       964     1     8     2    14
 -6.0704332313322229E-01 a       965     1     8     2    15
 -1.5096749156262819E+00 a       966     1     8     2    16
  1.6190576844079807E+00 a       967     1     8     2    17
 -8.1808409075623389E-01 a       968     1     8     2    18
 -3.6445444062514443E-01 a       969     1     8     2    19
 -1.0974398377723227E+00 a       970     1     8     2    20
  1.2439381193414913E+00 a       971     1     8     2    21
 -1.2345872274184049E+00 a       972     1     8     2    22
  1.3932019999754888E+00 a       973     1     8     2    23
 -9.1039122329305056E-01 a       974     1     8     2    24
 -1.3242529861070604E+00 a       975     1     8     2    25
  7.8389793816179290E-02 a       976     1     9     2     1
 -3.5366885158208877E-01 a       977     1     9     2     2
  6.2515344371258186E-01 a       978     1     9     2     3
  3.8195308549583207E-01 a       979     1     9     2     4
 -2.8568704820717666E-01 a       980     1     9     2     5
  6.0722395872237311E-01 a       981     1     9     2     6
 -3.7114039957878381E-01 a       982     1     9     2     7
  1.7211255345279213E+00 a       983     1     9     2     8
 -1.4283976911823534E-01 a       984     1     9     2     9
  8.4308308106762583E-02 a       985     1     9     2    10
 -8.5940835495287315E-01 a       986     1     9     2    11
  1.4231905845684909E+00 a       987     1     9     2    12
  9.6387699619145728E-02 a       988     1     9     2    13
 -1.9585975271611260E+00 a       989     1     9     2    14
  2.2058069233254346E-01 a       990     1     9     2    15
  3.1831146824438955E-01 a       991     1     9     2    16
 -2.8281955610345069E+00 a       992     1     9     2    17
  1.0004135039654070E-01 a       993     1     9     2    18
  1.0389582981087329E+00 a       994     1     9     2    19
 -8.9600443209884237E-02 a       995     1     9     2    20
  3.5292084874776708E-01 a       996     1     9     2    21
  4.7630126613514162E-01 a       997     1     9     2    22
  2.0084514561788680E-01 a       998     1     9     2    23
  1.7458588342147277E+00 a       999     1     9     2    24
  1.2388687852546522E-01 a      1000     1     9     2    25
 -1.4991246954406165E-01 a      1001     1    10     2     1
  5.2838069607368710E-01 a      1002     1    10     2     2
  2.1702105325497811E+00 a      1003     1    10     2     3
 -8.5137651344693435E-02 a      1004     1    10     2     4
 -1.4253808664798256E-02 a      1005     1    10     2     5
 -1.2010822797141796E-01 a      1006     1    10     2     6
  2.4740284472302487E-01 a      1007     1    10     2     7
 -1.6253543696199182E+00 a      1008     1    10     2     8
 -1.3547574496283089E-02 a      1009     1    10     2     9
  1.7332815963602702E-01 a      1010     1    10     2    10
  6.9759295043576186E-01 a      1011     1    10     2    11
 -1.4837203275023050E+00 a      1012     1    10     2    12
 -6.8743401717280272E-02 a      1013     1    10     2    13
 -4.1601239849100004E-02 a      1014     1    10     2    14
  6.2588615629022271E-01 a      1015     1    10     2    15
 -7.4094846236284240E-01 a      1016     1    10     2    16
  1.9978030004079026E+00 a      1017     1    10     2    17
  2.7883307785921585E-01 a      1018     1    10     2    18
  3.1239670663276309E-01 a      1019     1    10     2    19
 -2.2838373927314697E+00 a      1020     1    10     2    20
 -2.5463493667228426E-01 a      1021     1    10     2    21
  3.0345790265640160E-01 a      1022     1    10     2    22
 -2.4648988816904089E+00 a      1023     1    10     2    23
  1.2906560091231363E+00 a      1024     1    10     2    24
  1.0862817672832817E-01 a      1025     1    10     2    25
  1.5586370189871481E+00 a      1026     1    11     2     1
 -2.8925498922995407E-01 a      1027     1    11     2     2
  3.5355256857023060E-01 a      1028     1    11     2     3
  1.5698982949054721E+00 a      1029     1    11     2     4
  8.4786715305814575E-01 a      1030     1    11     2     5
  1.6025030185867599E+00 a      1031     1    11     2     6
 -1.9774513241119214E+00 a      1032     1    11     2     7
  4.0943597459017669E+00 a      1033     1    11     2     8
  1.2313927133980498E+00 a      1034     1    11     2     9
 -9.8339480825329062E-01 a      1035     1    11     2    10
  1.8825273091075348E-01 a      1036     1    11     2    11
 -1.6325189712815922E+00 a      1037     1    11     2    12
  7.4359053218829541E-01 a      1038     1    11     2    13
  2.4781775698110557E+00 a      1039     1    11     2    14
  4.1087307858931654E-01 a      1040     1    11     2    15
 -1.2122130249154273E+00 a      1041     1    11     2    16
  1.0569606479576483E+00 a      1042     1    11     2    17
  1.3667339549147801E+00 a      1043     1    11     2    18
 -1.0884910957846128E-01 a      1044     1    11     2    19
 -5.0318807789252840E-01 a      1045     1    11     2    20
 -1.7698321399005856E+00 a      1046     1    11     2    21
  7.0531428667264406E-01 a      1047     1    11     2    22
 -6.2766636428816058E-01 a      1048     1    11     2    23
 -6.0338787213716283E-01 a      1049     1    11     2    24
  1.3241987208576336E-01 a      1050     1    11     2    25
 -1.5777010682568671E-01 a      1051     1    12     2     1
  1.7557552512627137E+00 a      1052     1    12     2     2
 -2.2429211285622289E-01 a      1053     1    12     2     3
  2.1078147413612991E-03 a      1054     1    12     2     4
 -9.3109845980827566E-01 a      1055     1    12     2     5
 -2.0233414500198538E-01 a      1056     1    12     2     6
  1.0083373647916478E+00 a      1057     1    12     2     7
 -1.0094140083131120E+00 a      1058     1    12     2     8
 -7.1589838826230345E-01 a      1059     1    12     2     9
 -6.3464023357827759E-01 a      1060     1    12     2    10
 -1.1103168404408439E+00 a      1061     1    12     2    11
 -5.6025763603272427E-01 a      1062     1    12     2    12
 -1.8179882945650289E-01 a      1063     1    12     2    13
 -2.9984763237467800E-02 a      1064     1    12     2    14
  5.1630027366174336E-01 a      1065     1    12     2    15
  4.6286634350466371E-01 a      1066     1    12     2    16
 -1.3274938719438707E+00 a      1067     1    12     2    17
 -3.6198463408275938E-01 a      1068     1    12     2    18
 -1.3272482528365197E+00 a      1069     1    12     2    19
 -2.0494771110991286E-01 a      1070     1    12     2    20
  3.0359373427223013E-01 a      1071     1    12     2    21
 -3.7330823629825555E-01 a      1072     1    12     2    22
  5.6580979691186295E-01 a      1073     1    12     2    23
 -5.0496862074822879E-01 a      1074     1    12     2    24
  5.7237128150621919E-01 a      1075     1    12     2    25
 -2.1915249931726319E-01 a      1076     1    13     2     1
  8.2438315153535713E-01 a      1077     1    13     2     2
  5.0583842527205036E-01 a      1078     1    13     2     3
 -1.1431117280643195E+00 a      1079     1    13     2     4
 -4.4253472280328432E-01 a      1080     1    13     2     5
  1.5232233757223708E+00 a      1081     1    13     2     6
 -7.8153946664948393E-01 a      1082     1    13     2     7
  1.4353324050800600E+00 a      1083     1    13     2     8
 -8.1804745106726451E-01 a      1084     1    13     2     9
 -5.5143362696438845E-02 a      1085     1    13     2    10
 -4.5683851248851626E-01 a      1086     1    13     2    11
  4.4163695802864733E-01 a      1087     1    13     2    12
 -5.4332838906239778E-01 a      1088     1    13     2    13
 -1.8583433357226739E-01 a      1089     1    13     2    14
 -6.0637265594643752E-01 a      1090     1    13     2    15
  1.0315638244630863E+00 a      1091     1    13     2    16
 -7.6700755407564725E-01 a      1092     1    13     2    17
 -4.7144293569879880E-01 a      1093     1    13     2    18
 -2.0756083813082563E-01 a      1094     1    13     2    19
  3.0596782014021534E-01 a      1095     1    13     2    20
  2.2254221946776492E-01 a      1096     1    13     2    21
 -2.4935396097626658E-01 a      1097     1    13     2    22
 -7.8463626637461137E-01 a      1098     1    13     2    23
  1.3117136084861052E+00 a      1099     1    13     2    24
 -2.3459430108322490E-01 a      1100     1    13     2    25
 -2.0474508185245105E-01 a      1101     1    14     2     1
  1.9416830932970208E+00 a      1102     1    14     2     2
 -1.6625344201243708E+00 a      1103     1    14     2     3
 -6.1544375869104351E-01 a      1104     1    14     2     4
  8.3779117383212831E-01 a      1105     1    14     2     5
  1.3288481246586408E+00 a      1106     1    14     2     6
  2.7163270658138772E-01 a      1107     1    14     2     7
  4.0446669182990852E-01 a      1108     1    14     2     8
  1.7232542255976571E-01 a      1109     1    14     2     9
 -8.5648936458796154E-01 a      1110     1    14     2    10
 -2.7589936541201743E+00 a      1111     1    14     2    11
 -2.4683020812706480E+00 a      1112     1    14     2    12
 -8.1833060399224156E-01 a      1113     1    14     2    13
 -8.0535462821648596E-01 a      1114     1    14     2    14
  1.5955751759259800E+00 a      1115     1    14     2    15
 -3.6594922802888824E-01 a      1116     1    14     2    16
 -9.4117224971137198E-02 a      1117     1    14     2    17
 -8.3553787485346231E-01 a      1118     1    14     2    18
 -1.1574666697460325E+00 a      1119     1    14     2    19
 -2.7628842046579312E+00 a      1120     1    14     2    20
 -1.7861467219110594E+00 a      1121     1    14     2    21
  6.8655685571402961E-02 a      1122     1    14     2    22
 -1.5537141552386839E+00 a      1123     1    14     2    23
  2.5722198931093643E+00 a      1124     1    14     2    24
  2.5265342543108686E+00 a      1125     1    14     2    25
 -1.0969052374363129E+00 a      1126     1    15     2     1
 -2.6273828435588076E-01 a      1127     1    15     2     2
 -2.3322701724655599E+00 a      1128     1    15     2     3
 -1.2331180172641498E+00 a      1129     1    15     2     4
  1.3362747179584180E+00 a      1130     1    15     2     5
 -1.0276554654012784E+00 a      1131     1    15     2     6
 -2.3849054377129089E+00 a      1132     1    15     2     7
 -3.7627661040590294E+00 a      1133     1    15     2     8
  1.0736817222691457E+00 a      1134     1    15     2     9
 -1.1292824145939517E+00 a      1135     1    15     2    10
  2.0535570071834433E+00 a      1136     1    15     2    11
  1.4502945614495411E+00 a      1137     1    15     2    12
 -3.6689978419641311E-01 a      1138     1    15     2    13
  1.0746549841656052E+00 a      1139     1    15     2    14
 -3.3626321448080501E+00 a      1140     1    15     2    15
 -4.1115945280175516E-02 a      1141     1    15     2    16
  2.9908885544645503E+00 a      1142     1    15     2    17
  5.2966463361160621E-01 a      1143     1    15     2    18
  5.4599574087644598E-01 a      1144     1    15     2    19
 -3.3655989531063429E-01 a      1145     1    15     2    20
  2.2820123091526323E+00 a      1146     1    15     2    21
  1.0512121608379177E+00 a      1147     1    15     2    22
  7.1718544428996411E-01 a      1148     1    15     2    23
 -1.1577056796439453E+00 a      1149     1    15     2    24
 -4.9434453143533941E-01 a      1150     1    15     2    25
 -1.5469537391827524E+00 a      1151     1    16     2     1
  1.2530201423648542E+00 a      1152     1    16     2     2
 -5.6471505578379100E-01 a      1153     1    16     2     3
  9.9152574441006180E-01 a      1154     1    16     2     4
  8.9294584938383714E-01 a      1155     1    16     2     5
 -9.4385036151941570E-01 a      1156     1    16     2     6
  4.3317130270370202E-01 a      1157     1    16     2     7
  3.0513238111682639E-01 a      1158     1    16     2     8
 -1.2083238753562984E+00 a      1159     1    16     2     9
 -1.5756382950964945E-01 a      1160     1    16     2    10
  3.0228199536158296E-01 a      1161     1    16     2    11
 -7.3781190634641181E-01 a      1162     1    16     2    12
  2.0664646136983383E-01 a      1163     1    16     2    13
 -1.2593021891867021E-01 a      1164     1    16     2    14
 -1.6435704993314609E-01 a      1165     1    16     2    15
 -1.6132677951887295E+00 a      1166     1    16     2    16
 -1.2174070052600572E+00 a      1167     1    16     2    17
  7.5143456088535522E-03 a      1168     1    16     2    18
 -9.3557656237440823E-01 a      1169     1    16     2    19
  1.8946445518111397E+00 a      1170     1    16     2    20
  4.8753328160096587E-01 a      1171     1    16     2    21
  5.6986823691164057E-01 a      1172     1    16     2    22
  6.9944147874573959E-01 a      1173     1    16     2    23
 -1.6457887770184596E+00 a      1174     1    16     2    24
  1.5906847865069194E+00 a      1175     1    16     2    25
 -1.4609557760338679E-01 a      1176     1    17     2     1
 -6.8992362700357668E-01 a      1177     1    17     2     2
 -6.7174415098074958E-01 a      1178     1    17     2     3
 -8.5768439831434151E-01 a      1179     1    17     2     4
 -2.1738037170098403E+00 a      1180     1    17     2     5
  7.7926700761303747E-01 a      1181     1    17     2     6
 -1.4841639432476383E+00 a      1182     1    17     2     7
 -2.3644715083615120E+00 a      1183     1    17     2     8
 -1.6038644001372413E+00 a      1184     1    17     2     9
  1.4507432836863661E+00 a      1185     1    17     2    10
  1.2144642740922564E+00 a      1186     1    17     2    11
  8.4450667151760206E-01 a      1187     1    17     2    12
 -1.5071491728238067E+00 a      1188     1    17     2    13
 -7.9385345194173118E-01 a      1189     1    17     2    14
 -7.5033286671763777E-01 a      1190     1    17     2    15
 -1.2351177791754326E+00 a      1191     1    17     2    16
  3.4572556878840381E+00 a      1192     1    17     2    17
  2.3893161278952220E+00 a      1193     1    17     2    18
 -1.2781714677272111E+00 a      1194     1    17     2    19
 -1.1872562423931246E+00 a      1195     1    17     2    20
 -1.1049720746296059E+00 a      1196     1    17     2    21
 -1.7679600263857602E+00 a      1197     1    17     2    22
  2.2495327649219821E+00 a      1198     1    17     2    23
  3.6843690470359762E+00 a      1199     1    17     2    24
 -1.8820444984038478E+00 a      1200     1    17     2    25
  2.2900329805753905E-01 a      1201     1    18     2     1
 -2.2109451103330884E-02 a      1202     1    18     2     2
  1.9011780743853698E-01 a      1203     1    18     2     3
  1.6888234267718114E-03 a      1204     1    18     2     4
 -1.7765593598655724E-01 a      1205     1    18     2     5
  4.1314563330864507E-01 a      1206     1    18     2     6
  4.5819387206351605E+00 a      1207     1    18     2     7
  3.1308720401476309E-01 a      1208     1    18     2     8
 -1.5474068167697674E-01 a      1209     1    18     2     9
 -2.0693205512964633E-01 a      1210     1    18     2    10
 -1.8472854721751239E-01 a      1211     1    18     2    11
  1.9420047777746857E-01 a      1212     1    18     2    12
 -1.1293718584190922E-01 a      1213     1    18     2    13
 -3.7488818097817067E-01 a      1214     1    18     2    14
 -1.5125830023290923E-01 a      1215     1    18     2    15
 -1.2882689793355476E-01 a      1216     1    18     2    16
 -8.4886165733551525E-02 a      1217     1    18     2    17
 -2.4503915031087645E-01 a      1218     1    18     2    18
 -6.0749713572765163E-01 a      1219     1    18     2    19
  1.0651264341945252E-01 a      1220     1    18     2    20
  5.8702329953481819E-02 a      1221     1    18     2    21
  9.5346421809422530E-02 a      1222     1    18     2    22
 -3.9684976954749276E-02 a      1223     1    18     2    23
  4.5510622511861215E-01 a      1224     1    18     2    24
 -8.7072741167060312E-03 a      1225     1    18     2    25
  3.5762879252909741E-01 a      1226     1    19     2     1
 -3.4207313094895381E-01 a      1227     1    19     2     2
  1.3146092187175979E+00 a      1228     1    19     2     3
  1.5126085765538593E+00 a      1229     1    19     2     4
 -1.2020966017372576E+00 a      1230     1    19     2     5
 -1.0044370740389685E+00 a      1231     1    19     2     6
 -1.6157242657368595E-01 a      1232     1    19     2     7
  3.2343308773419767E-02 a      1233     1    19     2     8
 -1.6931018138472127E+00 a      1234     1    19     2     9
  1.1598859398200592E+00 a      1235     1    19     2    10
 -6.2623169338192464E-01 a      1236     1    19     2    11
  1.7009193086002936E-01 a      1237     1    19     2    12
 -6.6938052882408339E-01 a      1238     1    19     2    13
 -1.6762950497046825E-01 a      1239     1    19     2    14
  2.3502501839323223E-01 a      1240     1    19     2    15
  2.3625162731731559E+00 a      1241     1    19     2    16
  1.6891675717330052E+00 a      1242     1    19     2    17
  9.3009973862939455E-01 a      1243     1    19     2    18
 -7.5850981235778270E-01 a      1244     1    19     2    19
  3.2668169814377362E-01 a      1245     1    19     2    20
 -2.0446803758985950E+00 a      1246     1    19     2    21
  7.1516680316496550E-01 a      1247     1    19     2    22
 -3.1122461230182350E+00 a      1248     1    19     2    23
  3.9845629473126093E-01 a      1249     1    19     2    24
  8.9093161380273056E-01 a      1250     1    19     2    25
  4.4431332480078722E-01 a      1251     1    20     2     1
 -1.2856497281592449E+00 a      1252     1    20     2     2
  8.3065754975761708E-01 a      1253     1    20     2     3
 -2.8686330553365419E-01 a      1254     1    20     2     4
  6.3387031473905686E-01 a      1255     1    20     2     5
 -3.6649197975732095E-01 a      1256     1    20     2     6
 -5.1230441647519886E-01 a      1257     1    20     2     7
  2.1147534493837114E-01 a      1258     1    20     2     8
  6.7620320531550571E-01 a      1259     1    20     2     9
  1.6404465119747064E-01 a      1260     1    20     2    10
 -7.0751919335293278E-01 a      1261     1    20     2    11
 -6.9281713711696813E-01 a      1262     1    20     2    12
  2.4159247811890780E-01 a      1263     1    20     2    13
 -7.9699690379196175E-01 a      1264     1    20     2    14
  1.6277219809009821E-01 a      1265     1    20     2    15
 -1.9767302717257682E+00 a      1266     1    20     2    16
  6.4692498565029355E-01 a      1267     1    20     2    17
  2.1111329603746283E+00 a      1268     1    20     2    18
  5.6299381223886813E-01 a      1269     1    20     2    19
 -1.5129415075340580E+00 a      1270     1    20     2    20
 -1.1096835551176212E+00 a      1271     1    20     2    21
  2.7035510657739115E-01 a      1272     1    20     2    22
  9.2347050321641300E-01 a      1273     1    20     2    23
  2.6092827785161972E+00 a      1274     1    20     2    24
 -7.5826075206575694E-01 a      1275     1    20     2    25
 -1.4351092679988338E+00 a      1276     1    21     2     1
 -4.6488016596969656E-01 a      1277     1    21     2     2
 -2.2283768148643186E+00 a      1278     1    21     2     3
  1.1884089012526293E+00 a      1279     1    21     2     4
  1.0828111394711419E+00 a      1280     1    21     2     5
  4.5229580150521465E-01 a      1281     1    21     2     6
  1.0744674863276171E-01 a      1282     1    21     2     7
 -4.7772324774550334E-01 a      1283     1    21     2     8
  1.1766634451569598E+00 a      1284     1    21     2     9
  1.0890339244551810E+00 a      1285     1    21     2    10
  1.4876065277674639E+00 a      1286     1    21     2    11
  1.3426331195362273E+00 a      1287     1    21     2    12
 -5.8779805877786018E-01 a      1288     1    21     2    13
  1.1818219404081440E+00 a      1289     1    21     2    14
 -4.9371528808613363E-01 a      1290     1    21     2    15
 -2.6841941781697924E+00 a      1291     1    21     2    16
 -2.1278095559482209E+00 a      1292     1    21     2    17
  1.0404164217877674E+00 a      1293     1    21     2    18
  3.0390832943175003E+00 a      1294     1    21     2    19
 -1.7701401129818592E-01 a      1295     1    21     2    20
 -1.2801166192657568E-01 a      1296     1    21     2    21
 -6.5846849668016938E-01 a      1297     1    21     2    22
  8.6541674417276193E-01 a      1298     1    21     2    23
 -2.3728944021859162E+00 a      1299     1    21     2    24
  1.2450908386975749E-01 a      1300     1    21     2    25
  9.1393486680589597E-01 a      1301     1    22     2     1
 -6.5687175054823532E-01 a      1302     1    22     2     2
  1.3811849407428192E+00 a      1303     1    22     2     3
  8.6240269693094662E-01 a      1304     1    22     2     4
 -3.4444628445185888E-01 a      1305     1    22     2     5
  6.7545770908429770E-01 a      1306     1    22     2     6
 -6.8253872236155949E-02 a      1307     1    22     2     7
  2.2509095072802223E+00 a      1308     1    22     2     8
 -7.0745870473540640E-01 a      1309     1    22     2     9
 -9.3474750477452989E-02 a      1310     1    22     2    10
  1.0343635962159383E+00 a      1311     1    22     2    11
 -8.9812465260807683E-01 a      1312     1    22     2    12
 -1.7051860478125118E+00 a      1313     1    22     2    13
 -7.8655174075914047E-02 a      1314     1    22     2    14
  1.3707851307544314E+00 a      1315     1    22     2    15
 -2.8042223925924908E-01 a      1316     1    22     2    16
 -1.1657256719935110E+00 a      1317     1    22     2    17
 -1.6513027879672151E-02 a      1318     1    22     2    18
 -3.1386455228838095E-01 a      1319     1    22     2    19
  2.6114169446051128E-01 a      1320     1    22     2    20
 -1.0782792786690665E+00 a      1321     1    22     2    21
 -8.0912239895042393E-01 a      1322     1    22     2    22
 -9.0801255471348186E-01 a      1323     1    22     2    23
  8.4700182630519893E-01 a      1324     1    22     2    24
  5.1826149594652848E-01 a      1325     1    22     2    25
 -3.7239186382696632E-01 a      1326     1    23     2     1
  1.6959715468319252E+00 a      1327     1    23     2     2
  7.1993297287549463E-01 a      1328     1    23     2     3
  4.7969240863911566E-01 a      1329     1    23     2     4
 -2.1835479063221550E+00 a      1330     1    23     2     5
 -1.0079007263038360E+00 a      1331     1    23     2     6
  2.1453955181394710E+00 a      1332     1    23     2     7
 -1.9063866332509503E+00 a      1333     1    23     2     8
 -1.0757787772601506E+00 a      1334     1    23     2     9
 -1.7340027731442592E-01 a      1335     1    23     2    10
 -4.4222936223286915E+00 a      1336     1    23     2    11
 -1.4102450963811848E+00 a      1337     1    23     2    12
  1.3644771260347528E+00 a      1338     1    23     2    13
 -3.0542192487589148E-01 a      1339     1    23     2    14
  2.1410937651010320E-01 a      1340     1    23     2    15
 -4.0489455290751486E-01 a      1341     1    23     2    16
 -2.4068219793629368E+00 a      1342     1    23     2    17
  1.4236299940848063E+00 a      1343     1    23     2    18
 -5.6470222764982880E-01 a      1344     1    23     2    19
 -5.7683682972960659E-01 a      1345     1    23     2    20
  1.4954705051422603E+00 a      1346     1    23     2    21
 -1.0747705905056980E-01 a      1347     1    23     2    22
  8.7885350251932526E-01 a      1348     1    23     2    23
  2.1395753196999751E-01 a      1349     1    23     2    24
  9.2515422277462711E-01 a      1350     1    23     2    25
 -6.2925275896986821E-02 a      1351     1    24     2     1
  1.5940527101518998E+00 a      1352     1    24     2     2
 -6.4941289212890807E-01 a      1353     1    24     2     3
 -4.4788311000852493E-01 a      1354     1    24     2     4
 -8.2574633247245077E-01 a      1355     1    24     2     5
  1.6005829674138777E-01 a      1356     1    24     2     6
  3.7356223439372765E-01 a      1357     1    24     2     7
  3.2086610303983210E-01 a      1358     1    24     2     8
 -1.5259576580597318E+00 a      1359     1    24     2     9
 -3.7120814200495271E+00 a      1360     1    24     2    10
 -1.4965987238339107E-01 a      1361     1    24     2    11
  1.5547435053999046E+00 a      1362     1    24     2    12
 -1.8893046064861925E-03 a      1363     1    24     2    13
 -9.5326549511494885E-01 a      1364     1    24     2    14
 -5.6477399101838921E-01 a      1365     1    24     2    15
  1.6659209191959162E-01 a      1366     1    24     2    16
 -9.4423738560084980E-01 a      1367     1    24     2    17
 -1.0246660123173799E+00 a      1368     1    24     2    18
  5.4641381702015691E-02 a      1369     1    24     2    19
  7.7224703781322834E-01 a      1370     1    24     2    20
  1.2490171796069087E+00 a      1371     1    24     2    21
  7.8084690434236959E-01 a      1372     1    24     2    22
  1.4051819869748572E+00 a      1373     1    24     2    23
 -3.0873156894676481E+00 a      1374     1    24     2    24
  6.3661700629729268E-01 a      1375     1    24     2    25
 -4.4129408309195400E-01 a      1376     1    25     2     1
  1.0211169805762794E-02 a      1377     1    25     2     2
  9.7221144696764505E-01 a      1378     1    25     2     3
  9.6896659780862116E-01 a      1379     1    25     2     4
  2.7153980388320870E-01 a      1380     1    25     2     5
 -9.4839387916424073E-02 a      1381     1    25     2     6
  4.5132398847829375E-01 a      1382     1    25     2     7
  3.2875924051492594E-01 a      1383     1    25     2     8
  5.5041304138088842E-03 a      1384     1    25     2     9
 -1.6407603720108058E-01 a      1385     1    25     2    10
  7.7737662641891114E-01 a      1386     1    25     2    11
 -2.6241403082749510E+00 a      1387     1    25     2    12
  5.4080478113303732E-01 a      1388     1    25     2    13
 -1.4109877409380465E+00 a      1389     1    25     2    14
  1.2206104686098493E+00 a      1390     1    25     2    15
 -1.4826365926714333E+00 a      1391     1    25     2    16
 -7.5842430749134948E-01 a      1392     1    25     2    17
  4.7455446748394636E-01 a      1393     1    25     2    18
 -1.1735702263784775E-01 a      1394     1    25     2    19
 -8.7614291645797415E-01 a      1395     1    25     2    20
  2.0556668912131655E+00 a      1396     1    25     2    21
  5.4614422174626209E-01 a      1397     1    25     2    22
  9.6697834288180198E-02 a      1398     1    25     2    23
  1.2818615300627558E+00 a      1399     1    25     2    24
  3.5681620750047216E-01 a      1400     1    25     2    25
 -1.6001453582081742E+00 b      1401     2     1
 -1.8229509803308064E+00 b      1402     2     2
 -5.0065021426874976E+00 b      1403     2     3
  1.8910923336702172E+00 b      1404     2     4
  2.2849410022243921E+00 b      1405     2     5
  7.5512464976761535E+00 b      1406     2     6
 -4.0209679012186363E+00 b      1407     2     7
  2.4084411665464338E+00 b      1408     2     8
  3.5735215524586783E+00 b      1409     2     9
  2.8602450736311207E+00 b      1410     2    10
  7.0865382802908519E+00 b      1411     2    11
  5.1062468318542305E+00 b      1412     2    12
 -2.1150511946887107E+00 b      1413     2    13
  5.4015274880586999E+00 b      1414     2    14
  4.1142132439791528E+00 b      1415     2    15
  1.0260449994088043E+01 b      1416     2    16
  4.7156119159475196E+00 b      1417     2    17
 -6.3160072360815862E+00 b      1418     2    18
  5.3500880389606147E+00 b      1419     2    19
  6.9194100740548334E+00 b      1420     2    20
 -2.8812301825477720E+00 b      1421     2    21
 -3.9782665532534729E+00 b      1422     2    22
 -6.3016529172304363E+00 b      1423     2    23
 -1.8171113191997854E+01 b      1424     2    24
 -3.9117161992451295E+00 b      1425     2    25
 -3.3036548977511537E-01 a      1426     2     1     3     1
 -1.6899899767533158E-01 a      1427     2     2     3     1
  1.5034027137862796E-01 a      1428     2     3     3     1
  2.9542112628779638E-01 a      1429     2     4     3     1
  3.2218068904728531E-01 a      1430     2     5     3     1
  5.2499610599329283E-01 a      1431     2     6     3     1
  1.3413180298221192E+00 a      1432     2     7     3     1
  1.1927336444706367E-01 a      1433     2     8     3     1
 -2.7981424788252279E-01 a      1434     2     9     3     1
  1.6939109705698482E-01 a      1435     2    10     3     1
 -1.2166060175708951E-01 a      1436     2    11     3     1
  1.5454713237882808E-01 a      1437     2    12     3     1
  2.9614762169749131E-01 a      1438     2    13     3     1
  1.3221889740412057E-01 a      1439     2    14     3     1
 -7.0554706276229728E-01 a      1440     2    15     3     1
 -1.3562492152699970E-01 a      1441     2    16     3     1
  1.1516792307086085E-01 a      1442     2    17     3     1
  1.2257741876423553E-01 a      1443     2    18     3     1
  1.2465010668521258E-01 a      1444     2    19     3     1
 -1.6308396394390565E-01 a      1445     2    20     3     1
 -9.4963026827645361E-02 a      1446     2    21     3     1
 -3.5817890349418818E-01 a      1447     2    22     3     1
 -1.0331274206387128E-01 a      1448     2    23     3     1
 -1.2711647388378108E-01 a      1449     2    24     3     1
  3.2832038655140533E-01 a      1450     2    25     3     1
 -2.6022757465619539E-01 b      1451     3     1
